{
"Network": {
	"Layer 0": {
		"neuron 0": {
			"w": [-0.0575139,-0.0455688,-0.302959,-0.150859,0.117278,0.0466313,-0.578567,-0.216847,-0.0725862,0.056212,-0.148794,-0.0176025,-0.276081,0.486076,0.268406,0.027773],
			"b":-0.272012
		},
		"neuron 1": {
			"w": [0.467248,-0.375905,-0.316629,-0.302664,-0.244474,0.490089,0.253072,0.54353,-0.306986,0.295104,-0.298892,-0.025247,-0.00770078,0.0592513,0.502518,-0.268043],
			"b":0.302793
		},
		"neuron 2": {
			"w": [-0.413515,-0.248179,0.365974,0.332702,0.154811,0.16322,0.221243,0.0350559,0.191548,-0.204558,0.278009,0.141633,0.410931,0.424658,0.265024,0.362639],
			"b":0.402236
		},
		"neuron 3": {
			"w": [0.00916884,-0.105649,-0.173481,-0.139027,0.283121,-0.175983,0.270352,0.187271,-0.309468,0.261589,-0.419851,0.0599842,-0.294436,-0.481817,-0.175528,0.00549274],
			"b":0.155279
		},
		"neuron 4": {
			"w": [-0.0951257,-0.0939351,0.00325157,0.0869502,-0.249171,-0.135665,-0.27691,0.451387,0.631535,0.132669,0.0222133,0.285358,-0.396159,0.146901,0.0253826,-0.0229982],
			"b":0.0596138
		},
		"neuron 5": {
			"w": [0.0311159,-0.356208,0.135451,-0.428527,0.224556,-0.140075,-0.30369,-0.267225,0.0199133,0.13288,-0.106587,0.0522363,0.410689,0.113694,-0.131725,0.221859],
			"b":-0.116085
		},
		"neuron 6": {
			"w": [-0.0487294,-0.323183,-0.0938729,-0.1795,0.158849,0.0199689,-0.203779,0.376934,-0.245643,0.0331714,0.118045,-0.193391,0.601646,0.550705,0.274815,0.266111],
			"b":0.179543
		},
		"neuron 7": {
			"w": [-0.000190703,0.188103,0.112168,-0.0616957,0.160447,-0.0990974,-0.404623,-0.297988,0.392358,0.432536,0.227931,-0.153541,0.228261,-0.191964,-0.0664911,0.21391],
			"b":0.587641
		},
		"neuron 8": {
			"w": [-0.231996,0.36079,0.0259725,-0.237559,-0.285307,0.516507,0.209337,-0.939015,-0.247589,-0.464182,0.335669,-0.177677,0.380295,0.151613,0.210541,-0.0709006],
			"b":0.249786
		},
		"neuron 9": {
			"w": [0.247602,0.0240673,-0.231752,0.321746,0.12701,-0.238142,-0.0227566,0.520477,0.244777,0.247742,0.145173,0.165665,-0.102066,-0.179066,0.12579,-0.137487],
			"b":-0.322411
		},
		"neuron 10": {
			"w": [-0.264561,-0.0743144,0.11152,-0.198023,0.0354554,0.52676,-0.312635,-0.218037,-0.293664,-0.0183918,0.201122,-0.090841,0.333402,0.144809,-0.0216887,0.229332],
			"b":-0.0293687
		},
		"neuron 11": {
			"w": [-0.0442994,-0.0268224,0.416365,0.0250771,-0.17569,-0.400326,-0.161648,0.407585,-0.216185,-0.147869,-0.325918,-0.179694,-0.246866,-0.0573858,-0.51986,0.302759],
			"b":-0.0350111
		},
		"neuron 12": {
			"w": [-0.138938,-0.102355,-0.107901,-0.124744,0.28891,0.25333,-0.0647282,-0.119856,-0.254549,0.0623008,-0.204216,-0.680039,0.435966,-0.102258,0.354084,0.37499],
			"b":0.103009
		},
		"neuron 13": {
			"w": [-0.396746,0.182165,0.00692105,0.0663719,0.389285,0.244058,0.161944,0.76651,0.559952,-0.322324,-0.0339222,0.111508,-0.548505,0.0130018,0.0208227,0.106918],
			"b":0.502143
		},
		"neuron 14": {
			"w": [-0.237732,-0.25209,0.0891686,0.263241,-0.0281261,0.310759,-0.188378,-0.145714,0.388474,-0.0966638,0.257048,-0.0938006,-0.469174,0.149474,0.279691,-0.493541],
			"b":-0.389037
		},
		"neuron 15": {
			"w": [0.184732,0.510787,-0.340661,-0.225997,0.0501441,-0.0611901,0.229546,0.696419,0.273525,-0.457801,0.535846,0.0286077,-0.187958,0.129752,0.177007,-0.236866],
			"b":0.226041
		},
		"neuron 16": {
			"w": [-0.382504,0.161221,-0.0358851,-0.241821,-0.175801,0.0204303,-0.258239,0.506201,-0.251397,-0.267689,0.472937,0.151335,0.472645,-0.40288,-0.284855,-0.0352186],
			"b":0.25989
		},
		"neuron 17": {
			"w": [0.183257,-0.126777,-0.309022,-0.352353,-0.250987,0.292611,0.805486,0.21366,-0.148871,0.048901,0.0400872,0.143187,0.0509228,-0.0269651,-0.0873342,0.426597],
			"b":0.195046
		},
		"neuron 18": {
			"w": [0.19385,-0.300472,-0.300984,0.27943,0.260685,0.201204,-0.0460444,0.0020275,0.027535,-0.0699189,0.0832031,0.0911886,-0.196287,0.0579305,0.0706062,0.343991],
			"b":-0.284961
		},
		"neuron 19": {
			"w": [-0.101756,-0.229934,-0.114811,0.617997,-0.104942,-0.399755,-0.079199,-0.0925603,-0.295544,-0.007388,0.482812,0.100799,-0.0596241,-0.27135,-0.263585,-0.231621],
			"b":0.101755
		},
		"neuron 20": {
			"w": [0.08158,-0.0175124,0.112674,-0.0725883,0.0466816,-0.273792,0.130664,-0.275127,0.608606,-0.442026,0.130244,-0.0558689,0.421683,-0.151395,0.0294468,-0.0394987],
			"b":-0.117731
		},
		"neuron 21": {
			"w": [-0.177991,0.367059,-0.00709888,-0.253288,0.217398,0.0975221,0.0321794,-0.180288,-0.136911,-0.574585,-0.0917921,0.287023,0.127263,0.0285998,0.353776,0.428258],
			"b":-0.252411
		},
		"neuron 22": {
			"w": [-0.162076,0.118709,-0.59681,-0.0562302,-0.0616834,0.730257,-0.761469,-0.522332,0.444758,-0.0473971,0.0680786,0.151917,-0.2865,0.433238,0.30033,-0.23342],
			"b":-0.0343016
		},
		"neuron 23": {
			"w": [0.009029,0.0336324,-0.542286,-0.172241,0.0207973,-0.0726619,-0.0188755,0.0522099,-0.103246,-0.261167,0.0508221,-0.449503,-0.172063,-0.340905,0.211483,0.41565],
			"b":-0.213805
		},
		"neuron 24": {
			"w": [0.444821,-0.185008,-0.146169,0.244954,-0.252739,0.00041151,0.122749,0.448282,-0.326413,0.0347571,-0.341248,-0.0456098,0.239288,-0.268246,-0.0732086,0.49311],
			"b":0.341403
		}
	},
	"Layer 1": {
		"neuron 0": {
			"w": [-0.395263,0.0130558,-0.17122,-0.0488368,0.156616,-0.460765,0.480209,0.259976,0.0342165,0.119291,0.0460009,-0.147451,0.0963791,-0.0768397,-0.149122,0.131253,-0.013261,-0.484922,0.316845,0.234224,-0.239811,0.0185563,0.370448,-0.0125994,0.164365],
			"b":0.43575
		},
		"neuron 1": {
			"w": [-0.313147,-0.0501069,0.350969,0.281963,0.131922,-0.136381,-0.10994,0.176426,0.190582,-0.371177,0.162105,-0.595848,0.103618,-0.385324,-0.00542825,0.261923,-0.338484,-0.00210733,-0.206531,0.0616386,-0.097986,0.232568,0.105701,0.0707595,-0.1139],
			"b":0.618009
		},
		"neuron 2": {
			"w": [0.167383,0.254659,0.39374,-0.17404,0.334084,0.186619,0.36472,0.219845,-0.067308,0.08289,-0.160226,-0.343732,0.132841,0.327305,-0.228826,-0.491803,-0.508933,0.131288,-0.331916,-0.410767,-0.0662858,0.128289,-0.0674859,0.447886,0.504133],
			"b":0.0732272
		},
		"neuron 3": {
			"w": [0.175256,0.458915,0.307148,0.0257038,-0.200928,-0.0510435,0.0705165,0.362262,-0.16089,-0.167946,-0.0935952,0.0175315,-0.0424683,-0.114776,-0.363786,0.309884,0.211074,0.208621,0.213962,-0.40371,0.195974,-0.0835813,-0.0927837,0.195718,-0.484117],
			"b":0.25496
		}
	}
}
}
