{
"Network": {
	"Layer 0": {
		"neuron 0": {
			"w": [-0.0978872,1.07888,-0.130703,0.572861,-0.0158891,0.0762062,0.00317006,-0.147811,-0.189477,-0.181202,-0.274306,-0.245517,-0.192903,-0.211653,-0.149903,-0.156527,-0.166486,-0.0543988,-0.134885,0.0108147,-0.066093,-0.0727685,-0.00186083,-0.163209,-0.328836,-0.262985,-0.545962,-0.558383,-0.700776,-1.16345,-1.17494,1.92876,0.153638,-0.121644,-0.220414,-0.203831,-0.226204,-0.2983,-0.379109,-0.135893,-0.215446,-0.220624,-0.342948,-0.126835,-0.140577,-0.255169,-0.128084,-0.0736269,-0.0879485,-0.0961258,0.120107,-0.00121381,-0.0670267,-0.169287,-0.267424,-0.278219,-0.418523,-0.589537,-0.737426,-1.20829,0.547066,-0.268385,-0.379721,-0.151921,-0.157961,-0.236548,-0.163188,-0.18526,-0.305451,-0.307308,-0.369015,-0.189057,-0.194718,-0.168312,-0.275084,-0.280946,-0.0825031,-0.0389658,-0.101969,-0.229337,-0.0702796,-0.0120385,-0.0727198,-0.0626048,-0.0936925,-0.242672,-0.167203,-0.456788,-0.32629,-1.40321,0.244753,-0.3559,-0.0191564,-0.3379,0.058181,-0.116205,-0.315284,-0.231679,-0.143673,-0.256244,-0.169918,-0.0772993,-0.248214,-0.353443,-0.489606,-0.242969,-0.225933,-0.18589,-0.0924345,-0.0187328,-0.191196,-0.104906,0.0467688,-0.0213444,-0.329123,-0.194336,-0.391588,-0.683825,-0.558402,-2.10031,0.258115,0.0553336,-0.645597,-0.324625,-0.933945,-0.658336,-0.694229,-0.316054,-0.360059,-0.180636,-0.239268,-0.358942,-0.205361,-0.0984217,-0.195367,-0.490911,-0.316692,-0.264943,-0.240791,-0.144209,-0.0982895,-0.02818,-0.103698,-0.252675,0.0981606,-0.152936,0.0672764,-0.809249,-0.918412,-1.90269,0.795064,0.640872,-0.0306183,0.120071,-0.266694,-0.28026,-0.400621,-0.338751,-0.262731,-0.458274,-0.722573,-0.441057,-0.108605,-0.144643,-0.280152,-0.179188,-0.259327,-0.189145,-0.270366,-0.185192,-0.113065,-0.101589,-0.0838285,0.181889,0.277776,-0.121728,-0.31031,-0.556913,-0.634949,-3.58957,1.00756,1.54749,0.161201,-0.028862,0.0858118,-0.0678519,-0.209365,-0.249595,-0.112407,-0.646434,-0.452905,-0.308896,-0.31686,-0.340516,-0.374909,-0.189976,-0.309079,-0.307207,-0.455759,-0.191622,-0.317474,-0.150441,-0.209676,0.34217,0.301757,0.494804,0.456324,0.634148,0.0461019,-1.13078,0.785342,1.17633,0.694895,-0.169268,-0.0835539,-0.27022,-0.151312,-0.247988,-0.233184,-0.23092,-0.438726,-0.191853,-0.349725,-0.216535,-0.316581,-0.23977,-0.247674,-0.31789,-0.0917646,-0.164804,-0.346487,-0.327234,0.251482,0.226078,0.0110577,0.70439,0.00417868,1.03931,-0.811181,-1.61755,0.258844,0.951351,0.114727,0.00426966,0.0538779,0.143958,-0.0969188,-0.200244,-0.123905,-0.242632,0.00820882,-0.18673,-0.154901,-0.180079,-0.182456,-0.168127,-0.112108,-0.0452027,-0.0100921,-0.0257548,-0.0509318,0.13955,-0.288922,0.570819,0.754912,0.585986,3.03048,0.628688,1.41543,-0.384044,0.0699602,0.391345,-0.137407,0.141668,0.182397,0.125438,-0.23159,0.105794,-0.382299,-0.343662,-0.426185,-0.232755,-0.253044,-0.228519,-0.15395,-0.204772,-0.125985,-0.157536,-0.0400527,0.0115816,0.0737299,0.481786,0.322522,0.150542,0.0863596,0.494816,-0.0591717,-1.83744,2.20808,-1.43257,-0.351311,0.614625,0.126837,-0.0516911,-0.151428,-0.202481,-0.121883,-0.027865,-0.0989503,-0.236161,-0.0552438,-0.282057,-0.492414,-0.432286,-0.397704,-0.173653,-0.0057719,-0.204855,0.0414165,-0.251523,-0.153802,0.148781,0.526013,0.176819,-0.38272,1.19547,1.79013,-2.245,7.69951,0.669468,-0.569823,1.05957,0.179186,-0.0955665,0.352303,0.0130547,-0.0918587,-0.1833,0.00205686,-0.0737744,-0.151656,-0.163204,-0.235847,-0.143514,-0.333281,-0.35306,-0.222662,-0.2823,-0.076618,-0.244913,0.0152328,-0.245309,-0.25971,0.194647,0.369409,0.414173,0.613249,0.730439,-0.0819113,1.28629,-0.572925,1.17293,0.980629,-0.102593,0.352342,0.10014,0.164346,-0.021443,-0.152431,-0.11562,-0.113923,-0.00898263,-0.196798,-0.0222966,-0.22075,-0.0892765,-0.150687,-0.184034,-0.198786,-0.0577454,-0.141372,-0.201863,-0.0654411,-0.0352372,-0.32464,0.27818,0.291388,-0.0563023,0.661754,-1.12104,-2.06393,1.70469,0.0158433,0.076621,0.0466552,0.318415,0.170608,0.03667,-0.187364,0.00773815,0.0380801,-0.137133,-0.199945,-0.16677,-0.296742,-0.155489,-0.170673,-0.0630726,-0.100261,-0.0848961,-0.0960447,-0.178372,-0.258864,-0.144963,-0.0707236,-0.118513,0.237246,-0.318417,-0.374274,0.372283,-0.185358,1.20291,0.23437,0.145243,0.0242002,0.120163,0.0894095,0.0237418,-0.0357938,-0.0803333,-0.18385,-0.126635,0.00382445,-0.0631727,-0.197119,-0.0616493,-0.0288076,-0.089004,-0.0030515,-0.0430263,-0.107417,-0.0638575,-0.229575,-0.212364,-0.260454,-0.0694345,-0.469519,-0.470347,0.464878,0.565989,0.366425,0.860662,-0.149779,0.0996934,0.092769,0.118496,0.035353,0.0396224,0.123366,0.0514357,0.0112934,-0.0380537,-0.144645,-0.00336271,-0.106343,-0.0386016,-0.0805296,-0.0453323,-0.0768572,-0.00486302,0.0890677,-0.0664576,-0.146668,-0.17214,-0.245211,-0.0966447,-0.251984,-0.60262,-0.706796,-1.4576,-0.0585971,0.490773,-0.022198,0.224362,0.0492485,-0.00375664,0.0816346,-0.000806435,0.0241384,0.00293506,0.188218,-0.078177,-0.0987424,-0.0121176,-0.0547505,-0.0782893,-0.0825946,-0.1447,-0.101259,0.0583616,0.0332231,0.104303,0.00944186,-0.185357,-0.186065,-0.266779,-0.426767,-0.698096,-0.277297,-2.04775,-0.3636,0.592605,-0.284569,-0.0558252,0.00932982,0.017825,-0.0138938,-0.023824,0.0207955,0.0980982,-0.065091,-0.0448074,-0.126345,-0.0819175,-0.111544,0.0156062,-0.0590367,-0.0624246,0.0128852,-0.0236863,-0.050661,0.217056,-0.0030727,0.00413424,-0.142322,-0.392768,-0.341193,-0.530738,-0.632659,-1.05034,0.16417,1.03337,-0.0674068,-0.0264051,-0.100345,0.00882774,-0.100177,0.0181449,-0.0828649,-0.0496944,-0.112407,-0.0634335,-0.0814325,-0.0821243,-0.00289657,-0.0403153,-0.0925919,-0.0407961,-0.0642138,-0.0474911,0.0304116,0.078346,0.0211647,0.0288995,0.000438054,-0.408998,-0.371113,-0.811578,-0.871644,-1.7138,-0.307524,0.762479,0.080294,0.252006,-0.0104196,0.0835281,-0.0668046,-0.027025,-0.034488,-0.117065,-0.180396,-0.109217,-0.0854096,-0.0663974,-0.0369061,-0.031045,-0.147383,-0.0146305,-0.100668,0.0249928,-0.0679638,0.0746037,0.117575,0.0647015,-0.0507617,-0.135846,-0.497942,-0.521971,-0.621218,-0.605751],
			"b":-4.63853
		},
		"neuron 1": {
			"w": [-0.280403,1.67804,0.296365,0.829226,0.546809,0.582037,0.358409,0.190329,0.0780569,0.030407,-0.16379,0.0318273,-0.0344433,-0.00267059,-0.184249,-0.352555,0.112164,-0.200116,0.0817503,-0.136467,-0.216598,-0.252522,-0.32248,-0.177804,-0.356194,-0.36511,-0.593724,-0.768517,-0.648243,-1.93723,-0.631397,3.8143,-0.334403,0.270789,0.245358,0.20087,0.061493,0.142512,0.327018,0.0659891,-0.0298089,-0.0137132,-0.327319,-0.125589,-0.172343,0.178192,-0.363903,-0.18391,0.211055,-0.0654922,-0.0811725,-0.334652,-0.0379299,-0.233526,-0.378687,-0.371985,-0.394208,-0.723563,-0.817965,0.28854,0.345944,2.50555,-0.883157,0.372715,0.137387,0.228712,0.264687,0.159436,0.121161,0.0968391,0.152693,0.0686447,-0.169262,0.165077,-0.0590039,-0.38839,-0.0584706,-0.0052065,-0.338198,0.00836485,0.151207,-0.175985,-0.271461,-0.2294,-0.194491,-0.236431,-0.436516,-0.473389,-0.761208,-0.264997,-0.152988,0.820605,0.604891,-0.0769181,0.100831,0.142122,0.19694,0.10616,0.122311,0.107797,0.0791706,-0.248373,-0.0199824,0.327429,-0.779881,-0.0920539,-0.152458,-0.0647243,0.014153,-0.314435,-0.126213,0.0986957,-0.191644,-0.585026,-0.541389,-0.235818,-0.399738,-0.810465,-0.687848,-1.70814,-0.370885,-0.358579,0.606026,0.0855629,0.592379,0.307787,0.115249,-0.152897,0.111233,0.115888,-0.0392872,0.219017,0.0495433,-0.201594,-0.0991085,-0.239668,-0.323621,-0.221506,-0.202198,-0.221593,-0.280791,-0.352457,-0.377974,-0.372656,-0.645454,-0.572391,-0.653656,-0.89907,-1.37497,0.160031,0.24642,0.479033,0.245013,0.0190885,0.217504,0.0896477,0.0456323,0.0643233,-0.0239121,-0.450177,0.155556,-0.488654,0.0371591,-0.350477,-0.258026,-0.189895,-0.215329,-0.244923,-0.267977,-0.234341,-0.391597,-0.266358,-0.510494,-0.237404,-0.756734,-0.421466,-1.12211,-0.957852,-1.25704,-0.709488,1.88213,1.03931,0.185726,0.0755164,-0.142278,-0.332263,-0.00162895,-0.277535,-0.159235,-0.080788,-0.190602,-0.327164,-0.147622,-0.168521,-0.49516,-0.226469,-0.37806,-0.272956,-0.270181,-0.159663,-0.304068,-0.165368,-0.040969,0.0139186,-0.0942047,-0.4413,-0.0409397,-1.41408,-1.06326,-1.13184,2.6171,0.798882,-0.0497165,0.0607815,-0.173312,-0.00273102,-0.0541079,-0.283452,0.243689,-0.310882,-0.257815,0.191815,-0.359022,-0.326541,-0.238947,-0.37251,-0.306959,-0.377541,-0.254217,-0.249741,-0.0217708,-0.146967,-0.103059,-0.00860248,-0.0789906,-0.152785,-1.21774,-1.49,-2.3158,0.0494898,1.73169,1.59369,-0.435936,0.31506,-0.152838,0.0390495,0.0201822,0.0378533,0.111386,-0.206795,0.0714396,-0.217299,-0.179438,-0.192321,-0.149523,-0.0561125,-0.0316139,-0.0327085,-0.00256797,0.118988,-0.022519,-0.250393,0.209221,-0.0474547,-0.482654,0.0790564,-0.316936,-0.561965,-1.12674,-0.240335,-0.18386,1.57323,-0.156178,0.20946,0.409791,0.2035,0.243,0.159941,0.0870994,-0.0722663,-0.0214241,-0.12942,-0.109628,0.170247,-0.178882,-0.300727,-0.0624259,-0.284625,-0.12469,0.0714959,-0.178816,0.20025,-0.304232,-0.209038,0.044559,-0.380646,0.753132,-0.161975,-0.531141,-1.5743,-0.747056,2.11361,-0.0985203,1.2008,0.859336,0.455216,0.386543,0.450223,0.171709,0.169855,0.153189,0.304993,0.0456612,-0.189244,-0.109507,-0.0190471,-0.313629,-0.247495,-0.379686,-0.335532,-0.521081,-0.459362,-0.179522,-0.240823,0.197531,-0.293444,-0.257299,-0.163641,-1.97419,0.245529,-1.08021,1.24607,0.70859,0.448238,0.237381,-0.0258362,0.441652,0.17848,0.15391,0.192734,0.0992533,-0.0097104,-0.176847,0.0551693,-0.0262303,-0.291105,-0.112133,-0.22549,-0.304698,-0.214358,-0.380342,-0.112863,-0.0502004,-0.560885,0.656314,-0.856829,0.328042,-0.907586,0.361055,-0.201108,0.213877,0.775586,-0.531125,0.0952757,0.435614,0.289509,0.193203,0.150457,0.124827,0.0560399,-0.0468592,-0.08735,-0.0527039,-0.0915526,-0.302296,-0.191125,-0.0223675,-0.0463246,-0.213831,-0.0255956,0.0256197,0.249337,-0.278741,0.00333252,0.247669,0.676046,0.921223,0.746473,0.472083,-0.585664,1.13502,1.22132,0.210597,0.228788,0.408227,-0.109437,-0.0138558,-0.00655727,-0.305979,0.160359,-0.157322,-0.162348,-0.139875,-0.267345,-0.174901,-0.10448,-0.21286,-0.128701,-0.0796318,-0.0118531,0.0190386,0.0939485,0.203735,0.334262,0.34064,0.375409,0.384199,0.385994,0.236834,0.163243,6.13911,0.164739,0.112485,0.0465173,-0.0465081,-0.164229,-0.249794,-0.223899,-0.218775,-0.213915,-0.272836,-0.299443,-0.307231,-0.241965,-0.199674,-0.2295,-0.165865,-0.157284,-0.107983,-0.0219402,0.104534,0.107269,0.11587,0.0942218,0.210557,0.507396,0.626393,0.556221,0.527724,-0.000525249,-0.169069,-0.879002,-0.335729,-0.585886,-0.685622,-0.48459,-0.451799,-0.328371,-0.321354,-0.232545,-0.163035,-0.187,-0.254785,-0.289394,-0.180604,-0.218131,-0.19796,-0.216603,-0.220725,-0.0145387,-0.142483,0.0853629,0.159633,0.0443676,0.10033,0.10831,-0.232769,0.314178,0.911456,-1.23518,-0.331099,-1.59787,1.21853,-0.824209,0.161882,-0.536078,-0.280546,-0.373125,-0.218919,-0.264114,-0.153965,-0.393561,-0.092084,-0.217201,-0.262822,-0.238838,-0.332082,-0.16038,-0.278448,-0.174961,-0.162875,-0.0374866,-0.0871481,-0.12378,-0.311132,-0.0932105,-0.409181,0.437299,0.917482,-0.377254,-0.35631,-0.783842,-0.429335,-0.806283,-0.0741125,-0.310313,-0.280161,-0.258129,-0.325412,-0.197663,-0.32358,-0.214838,-0.433181,-0.0856438,-0.236941,-0.267533,-0.264317,-0.403767,-0.187865,-0.301883,-0.301458,-0.477248,-0.357288,-0.131224,-0.467422,-0.423776,-0.840671,-0.455113,0.321636,-0.307073,-0.288723,1.93673,-0.349068,-0.242455,-0.223806,-0.181026,-0.361229,-0.176306,-0.256768,-0.195232,-0.346367,-0.21959,-0.306524,-0.313118,-0.382972,-0.216461,-0.326798,-0.368571,-0.34354,-0.482262,-0.371435,-0.20037,-0.295093,-0.141587,-0.208443,-0.15025,-0.0261566,0.261588,-0.0823646,-0.579837,-0.306183,1.98235,0.152733,-0.0841932,-0.055223,0.0560237,-0.291235,-0.0232698,-0.265479,-0.140553,-0.136695,-0.272229,-0.256934,-0.275225,-0.358878,-0.301945,-0.367466,-0.263833,-0.379674,-0.36384,-0.160113,-0.256122,-0.221232,-0.0897087,-0.0387979,-0.00172203,0.0936781,0.194195,-0.924753,0.12329],
			"b":-5.1508
		},
		"neuron 2": {
			"w": [0.219862,-0.169429,-0.142532,0.00645422,-0.0124618,0.0113615,-0.0188142,0.164327,0.0352837,0.0172282,0.0267298,0.0794679,0.08391,0.0977429,0.0317675,0.0743402,-0.0215631,-0.0494112,-0.0271379,-0.248882,-0.205738,0.00242431,-0.039848,-0.0525364,-0.011917,-0.0778866,0.44936,-0.835932,-1.22495,-1.15182,-0.208364,-0.273628,-0.203047,-0.0523205,0.0660605,0.10994,-0.0230782,0.106029,0.0662875,0.0755122,0.0878341,0.138617,0.156091,0.17477,0.0511552,0.0971674,0.134513,0.00692717,0.0607655,0.0213647,-0.0317773,-0.0999817,-0.429385,0.001223,0.209506,0.355142,0.718356,0.198591,-0.518604,-0.671398,-0.34478,-0.237862,-0.181013,-0.115158,0.045062,-0.00652098,-0.0247693,0.0794476,-0.0163708,0.0302453,0.148276,0.0606415,0.0786816,0.138219,0.154374,0.0783717,0.146389,0.123977,0.00798321,-0.0645422,-0.0130782,-0.0698798,-0.0271774,-0.101514,0.155864,0.479057,0.0309414,0.150396,0.331821,-1.4938,-0.091979,-0.0662523,-0.383222,-0.0208609,-0.081387,-0.108026,-0.0465322,-0.0474774,-0.0593924,0.077076,-0.0229019,-0.0483492,0.164895,0.124049,0.0162596,0.113652,0.0151031,0.0115794,0.115036,0.0381768,-0.0386114,-0.148613,-0.226439,-0.354204,-0.146251,0.156354,0.168669,0.772432,0.188021,-0.704728,0.100419,0.0882496,-0.308456,0.273109,0.0457798,-0.0477926,0.0321834,-0.139582,-0.0110112,0.00630868,-0.00932904,0.317524,-0.0353232,-0.104003,-0.0196604,-0.0565697,-0.0848862,-0.0480423,-0.0635708,-0.0691342,-0.0723828,-0.205869,-0.167025,-0.151412,0.0160368,-0.0964272,-0.132993,1.09407,-0.234899,0.326581,0.380606,-0.0671666,-0.304366,0.347684,-0.119444,0.134103,-0.274204,-0.185467,-0.0771232,-0.0331039,-0.0400865,-0.0653994,-0.00887682,-0.00715251,0.0037438,0.0218693,-0.024,-0.143964,-0.0759516,-0.132315,-0.175183,-0.165865,-0.0822002,-0.19536,0.00951679,-0.133603,-0.55985,0.875846,0.654258,0.637242,0.0792023,1.09508,0.0339011,-0.480131,-0.351889,-0.261885,-0.176651,-0.0245135,-0.209178,-0.0233961,-0.236458,0.211084,0.0104153,-0.0967049,-0.292314,-0.124085,-0.132021,-0.0690514,-0.189583,-0.181596,-0.00825552,-0.10216,-0.236285,-0.454022,-0.333058,0.290973,-0.962384,1.70945,1.09553,0.0532825,0.101088,0.410751,0.508296,-0.396383,-0.0137035,-0.133727,-0.127557,-0.0476554,-0.0496097,-0.0950474,-0.0631821,0.158714,0.0237676,-0.0162309,-0.0496973,0.0407108,-0.0866453,-0.0351015,-0.179263,0.044023,-0.12326,-0.239528,-0.341774,-0.427745,-0.609198,-0.63011,-1.04111,0.977957,2.2207,0.471573,0.161982,0.344671,0.14254,-0.227166,-0.151005,-0.0455473,-0.319867,-0.11194,-0.143649,-0.0916742,-0.0686222,0.0126152,-0.107194,-0.0648408,-0.0192662,-0.0452125,-0.148698,-0.108248,-0.145962,-0.227354,-0.0898612,-0.543658,-0.498466,-0.283974,0.174786,0.35591,-0.72273,1.86757,0.34197,0.519225,-0.00134211,0.36308,-0.232664,-0.269498,-0.291076,-0.20601,-0.141819,-0.241135,-0.0481983,-0.212528,-0.0544167,-0.133488,-0.0990306,-0.0317311,-0.119942,-0.0207951,-0.079899,0.0168451,-0.133203,0.00483697,-0.104413,-0.301043,-0.0964004,-0.193312,-0.277647,-0.137398,-0.788814,1.49387,-1.12529,0.0125386,-0.149295,0.117008,-0.200025,-0.237804,-0.219712,-0.292381,-0.196992,-0.238122,-0.19307,-0.410169,-0.458926,-0.220105,-0.392318,0.0872131,-0.0238937,0.208811,-0.119173,0.0207836,-0.0613648,-0.0321807,-0.260001,-0.559356,-0.386083,-0.50682,0.274141,-0.276226,0.672539,0.0327296,-1.10219,0.031092,-0.382511,0.398662,0.285492,-0.103268,0.0735153,-0.190784,-0.04723,0.0973454,-0.226659,-0.201876,-0.0462074,-0.0663931,-0.182074,-0.191057,-0.202924,-0.216394,-0.228789,-0.222424,-0.189608,-0.21588,-0.189971,-0.466552,-0.0537929,-0.481857,0.293234,0.151676,0.770343,0.584797,1.49707,-0.20218,-0.145126,-0.336803,0.359447,0.271983,-0.103158,0.0165473,0.0435834,0.02251,0.231159,0.0166036,-0.0874434,-0.0491159,-0.133583,-0.0421723,-0.040209,-0.12728,-0.145274,-0.123021,-0.133038,-0.162101,-0.268472,-0.153809,-0.258341,-0.125484,-0.45573,-0.589236,-0.310486,-0.63364,-1.74622,-0.458905,-0.018629,1.09791,0.167412,0.186366,0.0522227,-0.00702328,0.0136766,0.0609067,-0.0632785,0.191851,0.117708,-0.11068,-0.137109,-0.0314787,-0.0957509,-0.12174,-0.198377,-0.0656911,-0.116086,-0.00513206,-0.018755,-0.0480797,-0.0622178,-0.0124151,0.0200196,-0.231463,-0.430449,-0.981902,-0.898284,-1.51323,-0.241774,0.308484,0.120946,-0.0329052,-0.0730134,0.388896,-0.0379119,-0.00645128,0.170751,0.0633896,0.108278,-0.0321903,0.0974717,-0.0397018,-0.115867,-0.0490471,-0.117056,-0.0777763,-0.100794,-0.152779,-0.116372,-0.0631111,-0.107551,-0.031701,-0.14358,-0.340362,-0.307556,-0.335473,-0.901533,-1.28453,0.130634,0.585109,0.429908,0.273295,-0.0493323,0.101219,0.200224,0.0878628,0.0342631,0.0759944,0.109795,0.026459,0.0555484,0.0226574,-0.0674249,-0.108637,-0.0292979,-0.119936,-0.121172,-0.0285149,-0.0553776,-0.0814493,-0.22676,-0.156067,-0.278101,-0.336034,-0.330544,-0.46629,-0.491127,-1.15597,-0.492052,0.70816,0.42251,0.286569,-0.0356557,0.191862,0.0690202,0.0365327,0.255285,0.197758,0.136481,-0.00550226,-0.0103506,-0.0527486,-0.0641668,-0.00372196,-0.068632,-0.082527,-0.0241469,-0.00063488,-0.0707415,-0.196948,-0.160769,-0.136001,-0.100261,-0.327897,-0.271251,-0.417206,-0.31439,-0.801884,-0.615438,0.369328,0.461406,0.166846,0.128292,0.147615,0.202266,0.147724,0.125769,0.0859637,0.0609392,-0.0769495,0.0263727,-0.0588563,-0.0604591,-0.0683483,-0.183414,-0.139754,0.0179252,-0.143836,-0.144553,-0.0635457,-0.0989474,-0.0917605,-0.22241,-0.185252,-0.35651,-0.319983,-0.491934,-0.655024,-0.599845,0.0156622,0.0205102,0.0266428,0.370223,0.276079,0.208418,0.208371,0.15247,0.0639442,-0.0147849,0.0245735,-0.0418253,-0.0678979,-0.0999222,-0.0743237,-0.00525533,-0.00508017,-0.0504913,0.0191763,0.0371893,-0.10829,0.0371975,-0.228343,-0.228539,-0.24912,-0.370917,-0.503376,-0.34283,-0.714339,-0.0702243,0.708308,0.193717,0.314468,0.134288,0.243599,0.0710787,0.0396177,-0.000489138,-0.0661711,-0.0386209,-0.0312789,0.000923637,-0.0481697,-0.0707669,0.068812,-0.130652,-0.0846579,-0.111212,-0.0522575,0.023334,-0.045764,-0.077184,0.0171616,-0.279074,-0.27592,-0.344978,-0.438165,-0.317123,-0.448895],
			"b":-1.65761
		},
		"neuron 3": {
			"w": [-0.135245,-1.07096,0.135095,-0.815483,-0.14618,-0.384976,0.0571631,0.1216,0.0956486,-0.119811,0.071098,-0.0118174,0.100873,0.056927,0.159715,0.129173,0.00389495,0.0749067,0.117919,0.0411675,0.160009,-0.0804709,0.343809,-0.296879,-1.22947,-0.714651,-2.11721,6.23912,1.87932,-0.614144,0.987094,-1.56263,-0.0451363,0.0793312,0.00732003,0.215106,0.17626,0.215746,0.26871,0.109954,0.0874772,0.0607005,0.109432,0.0920183,0.216579,0.0508789,0.0676868,0.286386,0.173945,0.380038,0.235669,0.333206,0.342032,-0.371755,-0.130551,-1.09873,-3.16821,-2.7298,-2.46823,-0.720033,2.26585,-0.683349,-0.190792,-0.323981,0.30549,0.161517,0.165691,0.305066,0.399412,0.319986,0.20852,0.2245,0.194868,-0.0198212,-0.185497,0.20878,0.0316635,0.371387,0.252723,0.315873,0.14271,0.269916,0.694261,0.22466,0.227118,-0.713986,-0.371677,-1.01064,-2.23871,2.27571,1.24709,1.61699,-0.282796,0.816226,0.0131396,0.484213,0.510724,0.47417,0.167549,0.416555,0.278211,0.448134,-0.0463648,0.149916,0.490175,0.100229,0.21126,0.0507599,0.114057,0.216046,0.144042,0.26739,0.220568,0.490266,0.569529,-0.66047,-0.427294,-0.752152,-1.56614,-1.84317,-2.28124,0.510492,0.83824,0.523097,0.993615,0.803994,0.857108,0.735654,0.620955,0.447113,0.451188,-0.279931,-0.130407,0.124599,0.146042,0.250068,0.230908,0.196396,0.131689,0.172448,0.078814,0.0443135,0.522657,0.207409,0.566865,0.161807,0.247235,-0.691556,-0.91016,-2.78715,-0.3337,1.01964,1.25983,0.471299,0.641013,0.599981,0.64472,0.613676,1.0002,0.919805,0.072116,0.777932,0.451052,0.0149425,0.218863,0.282591,0.212985,0.0721394,0.230859,0.0527732,-0.0324633,0.00725942,-0.128325,-0.00887988,0.283752,-0.216322,-0.379195,-0.689733,-1.15496,-1.02078,-0.850182,0.949194,0.485533,0.64259,0.631746,0.257139,0.833432,0.788722,0.424039,-0.32119,0.0481037,0.18989,0.188115,0.507576,0.0563092,0.00102703,0.183742,0.113264,-0.0533278,-0.179983,-0.324627,-0.606583,-0.50487,-0.23974,-0.740966,-0.0498066,-0.219744,-1.43312,-1.59486,-0.421735,-0.641912,1.10158,0.761125,0.505889,0.564504,0.465353,0.172758,0.516956,0.130196,0.640487,0.475305,-0.258065,0.582318,-0.0342537,0.0774393,0.0768329,0.119479,0.0721096,0.071298,0.0907801,-0.340251,-0.330593,-0.997133,-0.21019,-0.14679,-0.704678,-1.45418,-0.298498,-2.75624,-0.626618,-0.114316,1.77997,1.52073,0.31199,0.843759,0.265523,-0.0273307,0.00901249,0.304797,0.57264,-0.0594337,0.467619,0.194269,0.311023,0.096391,-0.104784,-0.0214722,-0.0632164,-0.0894447,-0.370886,-0.588954,-0.339606,-0.655596,-0.213022,-0.937387,-0.586594,0.0903469,-0.634602,0.799253,-0.354684,0.399076,-0.538693,0.920154,-0.221533,-0.113641,0.0210985,-0.0636929,-0.201762,0.170941,0.212621,0.494455,0.190766,0.240743,0.0812688,0.0504624,-0.114227,-0.26091,-0.0818682,-0.370329,-0.30009,-0.928679,-1.21846,-1.81849,-0.513107,-0.357559,-0.571731,-0.999843,-1.02207,1.39148,-0.499871,0.37497,-0.112567,0.420311,-0.0728317,-0.340168,-0.242536,-0.369429,-0.281367,-0.577284,-0.330455,-0.70374,-0.589797,-0.413073,-0.545841,-0.267413,-0.140449,0.0796973,0.168508,0.171577,0.0865729,0.222326,-0.190713,-0.230423,0.0300035,-0.612714,-0.562696,-1.64027,2.97199,-0.364042,0.280083,-0.365914,1.092,-0.692908,1.1341,0.209514,0.22237,-0.0154744,-0.170597,0.0606161,-0.335424,0.209287,0.0777628,-0.096825,0.23069,0.264221,0.216461,0.349763,0.347866,0.338391,0.673277,0.300144,0.754954,0.0768733,-0.464073,-0.063264,0.225718,1.84015,0.884705,1.08448,0.127969,-0.206006,-0.44906,1.23586,1.13414,-0.296749,0.377811,0.215597,0.167998,-0.0611521,0.300983,0.275372,-0.020496,0.14467,-0.0442419,0.0720807,-0.00179725,0.170903,-0.032973,0.171961,-0.059922,0.308899,0.163596,1.05131,0.544425,0.914024,-1.41037,2.02461,0.382683,0.923867,-0.620685,-0.378956,0.974069,0.360008,0.500271,0.329484,0.223927,-0.116737,0.104975,-0.083302,0.0970944,-0.0131101,0.33877,0.390757,-0.0479179,0.262837,0.0161566,0.054712,0.104344,0.133889,0.263204,0.552889,0.620708,0.794454,0.739592,1.00396,0.609574,1.873,-2.38392,-0.584508,0.474836,-0.111124,0.474603,0.118187,0.410034,0.527708,0.236775,-0.0386609,0.221763,0.172842,0.304977,0.139616,0.176035,0.0630371,0.309248,0.048335,0.0521043,0.0734339,0.253525,0.129849,0.0999139,0.501098,0.281454,0.490103,0.18695,0.414645,0.196817,1.11054,1.23385,-1.13965,0.262802,0.576722,-0.505364,0.372953,0.0215407,0.0902892,-0.158871,-0.0427762,0.142066,0.127486,0.235555,-0.0348268,0.230102,0.137864,0.282558,0.197624,0.0974532,0.256128,0.176653,0.191635,0.287251,0.159727,0.469185,0.305991,0.424752,0.447677,0.186507,-0.233908,-0.365235,-1.77516,-0.271877,0.535392,0.988372,-0.545107,-0.0010256,0.314218,0.325172,0.317943,0.248419,0.0918092,0.6518,0.0421902,0.40793,0.223211,0.161081,0.138246,0.261423,0.2369,0.209091,0.30858,0.323943,0.160531,0.316629,0.20019,-0.0213341,0.192873,0.422008,0.181662,-1.00283,-0.878515,-0.429475,1.04651,-0.26309,0.421515,0.416827,0.244038,0.177979,0.142667,0.389073,0.102194,0.141569,0.0802192,0.341516,0.219038,0.271797,0.145188,0.280096,0.186685,0.253319,0.396918,0.362088,0.350106,-0.100418,0.165399,0.257241,0.185358,-0.455303,-0.614734,-0.958194,-1.82178,-0.011189,0.0916099,-0.837525,-0.113494,0.612177,-0.259984,0.015138,-0.204465,0.137587,-0.200888,0.0635445,0.122077,0.25123,0.160496,0.362898,0.330398,0.26432,0.267111,0.267665,0.313426,0.255029,0.126593,0.130175,0.224739,-0.109343,0.10931,-0.691923,-1.02365,-1.52155,-1.47822,-1.66644,-0.458334,0.139935,-1.53366,-0.208625,0.136656,0.258238,-0.0671293,0.147539,-0.158842,0.0809502,0.0651573,0.235825,0.174354,0.266738,0.143881,0.210891,0.289428,0.411677,0.208798,0.266674,0.137579,0.156074,0.0882361,-0.150651,-0.438193,-0.887285,-1.34226,-1.06499,-1.5287,-0.381796],
			"b":-0.915872
		},
		"neuron 4": {
			"w": [0.406099,0.0133336,-0.18645,-0.0176888,-0.0957124,-0.31563,-0.212851,-0.247594,-0.136084,-0.0354273,-0.0199939,-0.085292,-0.0645806,-0.151761,0.0545785,-0.12644,0.334278,0.333108,0.491353,0.352821,0.554877,0.497336,0.329843,0.133689,-0.990384,0.103474,0.087486,2.76183,0.670939,-2.18709,-0.0345922,0.0733783,-0.068745,-0.105861,-0.022207,-0.130125,-0.0227587,-0.251967,-0.0923937,-0.198848,-0.0913663,-0.0734248,0.0156103,0.00224755,-0.0732751,0.169528,0.0700257,0.0972263,0.127291,0.405255,0.33705,0.606307,0.516506,-0.0622346,-0.38104,-0.885331,-2.79807,2.25838,1.58018,1.55476,0.576661,0.448335,0.0423538,-0.111729,0.111229,-0.22214,0.0903039,-0.294012,-0.155583,-0.148716,0.061992,-0.076334,0.0111265,-0.152254,0.134332,-0.114575,-0.058176,-0.0546024,0.0160678,0.293938,0.2284,0.638516,0.0553044,0.37349,-0.236058,-0.587724,-0.969412,0.921874,-2.49416,-1.10229,0.80539,0.123361,-0.157943,-0.0588264,0.0140718,0.294668,0.00785099,0.0277684,-0.190929,0.24947,-0.0701645,0.100106,0.0765249,0.200063,-0.331116,-0.127871,-0.0619152,0.000974517,-0.255614,0.152707,0.231794,0.360982,0.483318,0.18167,0.0783333,0.13126,-0.699929,-0.352885,-0.581583,-1.87962,0.166182,0.63783,0.197811,0.187377,0.532099,0.222117,0.227746,-0.131715,0.0415164,0.0551684,0.0119317,0.144333,0.203733,0.0134406,0.188439,0.192457,0.0633955,0.0215845,0.0416287,-0.11832,0.0579493,0.0610428,0.565775,0.522233,0.700836,0.617232,-0.290814,-1.35027,-2.13321,0.102512,0.215013,1.24516,0.16416,0.212167,0.277486,-0.133208,0.44367,0.407244,0.105974,0.640652,0.0288242,0.410021,0.0874955,0.298757,0.098621,-0.0871289,0.0750253,0.0861104,0.0486542,0.248755,0.199451,0.11628,0.28977,0.599138,-0.139054,0.387499,0.705166,-0.942115,-0.0895965,0.229326,0.239995,1.78172,0.448818,0.181169,0.310229,0.340671,0.269698,0.323049,0.22603,-0.237495,-0.0314373,0.110733,0.109677,0.393275,0.244268,0.175536,-0.00509016,0.151961,0.190963,-0.0388627,0.00602927,0.0822706,-0.116581,0.520972,0.386596,0.949191,2.06928,-1.92179,-2.01556,-1.25884,-0.0710737,1.61894,-0.139396,0.560694,0.141687,0.213316,0.274271,0.181024,-0.0253172,0.187942,0.276031,0.268174,0.362932,0.445202,0.332989,0.263918,0.31326,0.151691,0.172439,-0.0585284,0.0885011,0.31649,0.117292,-0.126591,-0.111373,-2.18691,1.78558,-2.78384,-0.571655,1.804,0.0350839,3.02306,1.35215,0.413546,0.345315,0.0258042,-0.075215,0.0129933,-0.0294911,0.178375,0.0209895,0.267517,0.237458,0.411718,0.332349,-0.072756,0.42235,0.307424,0.256144,0.407217,0.509762,-0.472089,-0.279528,-0.312092,-1.08533,-1.77253,0.356337,-5.60141,-3.27097,0.0297598,0.339557,-0.147361,0.715431,0.0443281,0.326397,0.0619691,0.362465,0.0357375,0.473366,0.271831,0.303258,0.336663,0.472118,0.443329,0.491709,0.530283,0.422614,0.28394,0.415652,0.294594,0.00836613,0.081396,-0.591901,-0.361438,0.570606,0.0842485,1.13945,-2.84791,4.63199,-0.783254,0.490669,0.337737,0.314823,0.352607,-0.00916596,0.579172,0.406098,-0.200946,0.502956,0.166024,0.419395,0.0137164,0.724944,-0.152497,0.700819,0.199458,0.742161,0.0813028,0.606632,0.408618,0.333636,0.0950027,0.0105638,0.191849,0.661819,-2.47634,1.40247,-3.92552,-10.631,-3.32695,-0.402286,2.40582,-0.315079,0.619512,0.467926,-0.00676567,0.0973513,0.227218,0.451025,0.304464,-0.00069465,0.271759,0.12131,0.351257,0.219589,0.0326347,0.0528032,-0.0730661,0.0485529,0.0322447,0.052781,-0.329778,-0.0216022,-0.077548,-0.0166717,0.789642,-2.84725,-1.12463,-2.39286,-0.274445,-0.173403,-0.177221,0.111405,0.532564,0.0173781,0.595,0.328615,0.498569,0.635833,0.481534,0.546775,0.42606,0.257296,0.337268,0.12687,0.202758,0.168085,0.195501,0.0201424,-0.0532067,0.273448,0.454078,0.0580665,-0.0517174,-0.908588,-1.41809,-0.638816,-2.32825,-1.02633,0.225516,0.337098,1.62807,0.633223,0.240016,0.366177,0.472424,0.606702,0.453947,0.339956,0.450002,0.563836,0.29894,0.518157,0.0899175,0.108081,0.0808641,0.133729,0.0580353,0.156934,0.0628389,-0.0762378,0.23708,0.222002,0.262797,0.476057,0.246192,0.0799792,-1.67374,-1.35745,-0.0559039,-0.281851,2.15255,0.0356078,0.435712,0.141641,0.854475,0.458477,0.349928,0.419897,0.236165,0.356782,0.352858,0.366888,0.176206,0.112468,-0.0458991,0.124018,0.179204,0.0440831,0.223651,0.171165,0.234221,0.210994,0.391243,0.324169,-0.123008,-1.31147,-0.1619,-1.66296,-0.218977,0.721854,0.841411,1.15074,0.301916,-0.105676,0.104054,0.208301,-0.108359,0.0238812,0.133434,0.328286,0.171756,0.301914,0.0577776,0.0171478,0.0408406,0.029728,-0.0759293,0.00299255,0.107269,0.245488,0.150298,0.0597158,0.258306,-0.171631,-0.0724059,-1.899,-2.55405,-1.31262,2.88262,0.713566,0.82984,-0.402215,-0.182687,0.0117051,0.0193503,0.233199,0.160666,0.198448,0.128836,0.138248,0.0289946,0.0263162,0.145604,0.0337292,-0.0455877,-0.0504203,0.00833399,-0.0572438,0.121612,0.257141,0.261547,0.265844,-0.0320667,0.037364,-0.193447,-0.335676,-2.16102,-1.00909,0.372273,0.828751,-0.535721,1.41943,0.292476,0.138261,0.1617,0.180659,0.0599253,0.295405,0.0689638,0.00293161,-0.016969,0.0373834,-0.0690472,-0.0141561,-0.0219643,-0.132758,-0.0978911,0.00396568,0.0196241,-0.0351287,0.0798249,0.137153,0.0999003,-0.25336,-0.76041,-0.65743,-1.65931,-0.927268,0.443955,0.645622,3.41155,1.44277,0.484655,-0.0515609,0.446843,-0.133252,0.509453,0.348468,0.182488,-0.246323,0.107611,-0.075612,-0.0264764,-0.069388,-0.122935,-0.0956731,-0.137389,-0.162366,-0.0388846,0.0197386,0.144995,-0.105936,-0.379036,-0.310799,-0.945861,-0.528126,-2.24684,-1.00689,-1.06283,1.42327,2.25667,1.24262,0.814199,0.455839,0.897901,0.398662,0.318178,0.0448981,-0.0672879,0.109024,0.00172547,-0.0935065,-0.251425,-0.113966,-0.0902133,-0.0608384,-0.0843608,-0.168562,0.0254162,-0.0112048,0.091574,-0.103336,-0.348279,-0.93897,-0.802649,-1.37665,-0.965219,-0.298167,-3.0004],
			"b":2.05938
		},
		"neuron 5": {
			"w": [-0.671706,2.54042,-0.770157,0.323188,-0.101466,0.163625,-0.021367,-0.0738726,0.101069,0.17743,0.0755158,0.0328932,0.00650354,-0.00901776,-0.0911057,-0.126982,-0.150213,-0.254881,-0.413479,-0.508767,-0.533735,-0.327624,-0.555218,-0.394675,-0.600392,-0.446897,-0.612058,-1.1993,-1.04389,-0.86597,-0.445478,-0.262547,-1.07465,0.532295,0.0139792,0.150627,0.0217471,0.0414749,0.0986018,0.103365,0.0966975,0.0437866,0.0404475,0.00865373,0.0501563,0.00783181,-0.0198137,-0.203235,-0.387785,-0.283695,-0.397153,-0.529014,-0.392906,-0.452578,-0.599232,-0.405641,-0.59117,-1.08261,-0.872559,-1.14715,0.55441,1.53896,-0.595249,0.537675,0.0921061,0.178886,0.115521,0.189887,0.0691792,0.105333,0.230117,0.0446289,0.0579724,-0.0292331,0.096458,-0.0853579,0.012482,-0.0995127,0.0122451,-0.254067,-0.333221,-0.374587,-0.399522,-0.468401,-0.703693,-0.414954,-0.537446,-0.729528,-0.867521,-1.52925,0.249059,0.223319,-0.569015,0.805202,0.0215664,0.475692,0.132423,0.289612,0.349487,0.14577,-0.0108846,0.194497,-0.0177624,-0.0015923,-0.0186917,-0.0830445,0.146963,0.0198122,-0.0404969,0.0137638,-0.114324,-0.201569,-0.391899,-0.553336,-0.524826,-0.513401,-0.523806,-1.17573,-0.575811,-2.14958,-0.229207,1.27335,0.019013,0.370985,0.337323,0.4264,-0.202261,0.0231651,0.111537,0.216989,0.0610801,0.173316,0.288141,0.0522374,0.170146,0.00978811,0.0288414,0.0491535,-0.122018,-0.000215509,-0.148167,0.132906,-0.291206,-0.174069,-0.681455,-0.457389,-0.598361,-1.07871,-0.791935,-1.49384,-0.212166,0.314848,0.14795,-0.120011,0.365765,0.102823,0.241343,0.2336,-0.0530015,-0.115509,0.122154,0.070907,0.0799143,0.160647,0.0271952,0.0421814,-0.0237676,0.0556976,-0.0588313,-0.1466,-0.0192498,0.0553361,-0.163896,-0.115757,-0.638213,-0.747699,-0.85816,-0.781141,-0.725091,-1.5954,0.21658,1.08722,-0.107663,0.0866486,-0.176024,-0.118055,0.203071,-0.0209425,0.520022,-0.00300472,0.336987,0.00835643,-0.00722256,-0.0258391,0.118299,-0.0184221,0.1288,0.172432,0.345464,0.0976054,-0.0893286,-0.0603927,-0.132444,-0.107653,-0.327709,-0.458991,-1.01517,-1.23032,-0.700496,-1.35931,0.182679,0.619734,0.80975,-0.0672549,0.215474,0.316681,-0.0871691,0.275631,0.277007,0.163669,0.0611325,-0.0956089,0.100352,-0.079411,0.0157983,-0.124829,-0.0282671,-0.156302,0.0565017,0.0608859,-0.048652,0.229018,-0.689682,-0.485316,-0.734556,-1.07441,-0.89108,-1.22054,-1.24971,-1.28149,0.271303,1.22962,0.440941,0.0650834,0.696589,0.42986,0.154332,-0.0938228,-0.11653,-0.12096,0.085728,-0.0169285,-0.0199595,-0.182711,-0.124178,-0.120762,-0.0477343,-0.150436,0.083988,-0.123084,-0.0702085,0.674112,-0.849046,1.83456,0.176223,1.55857,-1.20429,-0.405238,-0.832329,-2.35948,0.176264,-0.881207,0.2738,-0.690364,-0.106884,-0.560451,-0.429454,-0.121719,-0.301668,-0.11017,0.14895,-0.205789,-0.0114163,0.0361509,0.0133045,0.16541,-0.0990241,0.443282,0.504795,0.0567298,0.785262,0.215747,1.06415,-0.577044,-0.186113,-0.121907,-0.728313,1.45731,-0.0458983,-0.29959,-0.0281192,-0.726906,-0.563365,-0.73381,-1.03622,-0.205257,-0.874596,-1.13905,-0.0985562,-0.814926,-0.657595,0.215379,-0.166926,0.480846,-0.188929,0.0758026,-0.360377,0.172537,0.0592621,0.200782,-0.224166,-0.218613,0.853365,1.01708,-0.17712,2.42898,-0.769433,5.21442,-3.37893,-0.347988,0.230435,1.37829,-0.320327,0.379538,0.0927637,0.208081,-0.0683688,-0.145278,0.143141,0.0359498,-0.32381,-0.0834337,0.00730066,0.164119,-0.0432092,-0.063124,0.276255,-0.0499395,0.109776,0.0834899,-0.273009,0.403407,0.0798663,0.97944,0.396706,1.04747,-1.2011,0.634782,0.31715,-0.672684,-0.0552353,0.561816,0.590606,0.421184,-0.312063,-0.219286,-0.243204,-0.0451446,-0.61429,-0.265007,0.0130491,-0.0322623,-0.19845,0.0110824,0.000690898,-0.102723,-0.0882906,-0.0829246,-0.104393,0.19567,-0.0851139,0.200173,0.364364,0.628588,0.525151,0.755418,-0.0197997,1.56798,1.12584,-1.63463,-0.336431,0.996458,-0.0486955,-0.256948,-0.110983,0.0879173,-0.219049,0.127483,-0.0342193,-0.437032,-0.120506,-0.0678456,-0.0861894,-0.207297,-0.115642,-0.136693,-0.0632483,-0.0457064,-0.0878177,-0.224334,-0.051173,-0.151262,-0.100452,-0.0149922,0.281073,-0.764347,-0.11609,2.02659,3.63194,0.375493,-0.406017,0.368177,0.298117,0.237356,0.19208,0.367396,0.263683,0.326305,-0.0992783,-0.0144548,0.0897393,-0.14384,-0.0988085,-0.0792177,-0.0801713,-0.115056,-0.0617101,-0.170859,-0.200784,-0.14085,-0.240676,-0.193003,-0.338915,-0.0789692,0.15957,-0.317226,0.169657,0.351338,-1.09685,-0.140314,0.480231,-0.16757,0.547631,0.0866222,0.410559,0.260268,0.294372,0.245364,0.0687372,0.0236775,-0.24347,-0.179484,-0.113159,-0.0456702,-0.165623,-0.0658547,-0.0516386,-0.108128,0.0316945,-0.172889,-0.0153231,-0.21641,-0.0778988,-0.189397,0.0133969,0.320991,0.118903,2.08316,1.10768,0.717601,0.562399,0.0181518,0.474686,-0.297149,-0.0498807,-0.164783,-0.0588587,-0.00982882,-0.167231,0.201262,-0.0797405,0.122615,-0.196991,-0.0931246,-0.125664,-0.0886281,-0.087368,-0.0701304,-0.0207922,-0.100011,-0.136677,0.0377775,-0.0678854,-0.177609,0.127043,0.237813,-0.115352,1.55555,1.92517,0.804518,0.491179,-1.4648,0.879609,0.310044,0.271318,0.0473842,-0.0198088,-0.13385,-0.219454,0.0133899,-0.0775605,0.0983298,0.126963,-0.0545714,-0.135443,-0.149974,-0.206529,-0.273761,-0.186293,-0.152673,0.00286786,-0.091299,-0.05041,-0.0512056,-0.173731,0.519278,0.365289,0.827606,-0.406836,0.215573,0.81811,-0.880418,0.434284,0.0578219,0.0356836,0.125038,-0.00377117,0.120446,0.0292952,-0.187324,-0.139593,-0.127068,-0.155751,-0.0570321,-0.0655459,-0.273361,-0.120346,-0.130538,-0.072049,-0.10211,0.111623,-0.122249,-0.193842,-0.0676704,0.0289257,0.0260569,0.446151,0.269767,0.0233853,-0.267386,0.513856,-1.28977,0.568293,-0.0902975,-0.0137552,-0.262691,0.0645415,-0.0760691,-0.144632,-0.173255,-0.174661,-0.204655,-0.131253,-0.190028,-0.189771,-0.0241863,-0.207272,-0.052182,0.0369101,-0.0669465,0.0194416,-0.140952,-0.181621,-0.315989,-0.0487452,-0.216466,-0.211773,-0.117137,0.0390272,0.467004],
			"b":-2.56924
		},
		"neuron 6": {
			"w": [0.58471,-1.1615,-0.368235,0.28122,-0.0421464,0.281885,-0.226897,-0.182983,-0.0228199,0.0599271,-0.0866573,-0.0133899,-0.0156363,-0.0484228,0.0350303,0.156147,0.31149,0.297598,0.211458,-0.0957495,-0.298288,-0.331649,-0.456309,-0.108247,0.813091,0.359365,1.13687,-2.34274,-1.13037,-1.18906,0.0891484,-1.5267,-0.398475,-0.300812,-0.0975106,-0.208107,-0.188856,-0.292674,-0.20952,-0.262883,0.0817469,-0.133613,0.0469361,0.0497486,0.117121,0.142252,0.210429,0.293767,0.323614,0.144593,-0.193506,-0.452669,-0.860202,-0.0344215,-0.473771,1.59018,1.31954,-0.248283,-0.447013,-0.146137,1.10669,-0.76569,0.799366,-0.305509,-0.156818,-0.236811,-0.224799,-0.158752,-0.387679,-0.255303,-0.086629,0.275957,0.0431504,0.112299,-0.282629,0.0275355,0.0711621,-0.177127,0.0900385,0.368881,0.267607,0.0499019,-0.437052,-0.476656,-0.356757,0.486814,0.329566,1.37625,0.26916,1.49435,0.298043,-0.818867,-0.0334356,-0.373949,-0.114105,0.115234,-0.252289,-0.0301968,-0.254767,-0.00425651,-0.147332,0.0663138,-0.110286,-0.0491699,-0.219356,0.0391346,-0.105729,0.148674,-0.0647441,0.0993948,0.0541554,0.161099,-0.310145,-0.529583,-0.463063,-0.02674,-0.0781969,1.53398,1.08489,0.20645,0.993215,-0.456937,0.148467,0.388453,-0.49406,-0.246175,-0.433953,-0.340409,-0.10707,-0.276653,-0.221047,0.0234626,0.0688977,-0.106098,0.0165972,-0.108047,0.149737,-0.00279589,0.19135,0.108873,0.203377,0.287484,0.0852638,-0.508603,-0.524962,-0.676478,-0.613485,-0.850689,1.58253,0.3944,0.726045,-0.225823,-0.265778,0.300412,0.12759,0.102821,-0.37961,-0.335813,-0.311122,-0.459852,-0.396922,-0.55378,-0.434299,-0.253104,-0.0850364,-0.0923906,-0.0208992,-0.00517314,-0.0272816,0.147337,0.261233,0.351794,0.387729,0.365321,-0.00359083,-0.594326,-0.704001,0.12504,-0.101302,-0.749127,0.0148423,0.467824,0.163992,0.0548249,0.0624988,0.067514,-0.0491761,-0.170887,-0.591802,-0.0360418,-0.227248,-0.305852,-0.349603,-0.48547,-0.340758,-0.0972334,-0.229079,0.0256565,-0.0446238,0.172969,0.0843519,-0.172634,0.387462,0.503527,0.762874,0.160344,-0.829073,-1.03624,-1.20128,-0.202967,0.620499,0.408062,0.479043,0.401063,0.564206,-0.368536,0.148064,-0.121655,-0.101399,-0.0761295,0.118911,-0.11634,0.0705839,-0.00830072,-0.155211,-0.0748437,0.0106038,-0.189734,0.0586144,0.0812479,-0.190736,0.344378,0.727279,-0.816173,0.808171,1.05942,-0.310339,-0.846417,-2.70658,-1.33553,0.510225,0.929891,1.1151,0.0753801,0.236707,0.21557,0.385881,0.122624,0.0865909,0.00451815,-0.0787752,-0.0212927,-0.0946211,-0.121902,-0.118479,-0.0854681,0.100891,0.278997,0.468134,0.162878,0.289859,0.678679,0.0606412,0.466366,0.154353,3.19073,2.49855,1.64372,-2.53818,-0.590391,0.326786,0.0528086,-0.354414,-0.243855,0.18729,-0.0783506,-0.0038333,-0.0934009,0.137652,-0.153157,-0.0908916,-0.0816981,-0.197682,-0.046845,-0.206094,0.0268765,0.0685649,0.0631629,0.385693,0.297236,0.662368,0.544079,0.715598,0.444485,0.83264,0.100633,2.25419,1.84964,1.56627,0.226431,0.655013,-0.581428,0.0397747,-0.207411,-0.367068,0.012185,-0.13646,-0.345469,-0.0247586,-0.283629,-0.989595,0.251703,-1.15746,0.684141,0.232332,0.22506,-0.178299,0.339478,0.00133005,-0.0828227,0.390238,-0.188462,0.713897,-0.530687,-1.13147,2.998,1.80524,0.177198,-5.69496,0.343359,0.114811,1.06319,-0.420725,0.635534,0.0802715,0.961402,0.240859,0.229247,0.0952296,0.308954,0.229956,-0.0273849,-0.022383,-0.0389343,0.0170015,-0.0062302,-0.0199299,0.037175,-0.111059,-0.183523,0.129498,-0.278367,0.18824,-0.53897,-0.529303,-0.106908,-0.557036,-3.6291,-3.65779,0.254818,0.300839,-0.669048,0.668696,0.900451,-0.534397,0.192214,0.243308,0.0231065,0.116601,-0.0862152,0.033897,0.154355,-0.154041,-0.0447675,-0.00546235,-0.106351,0.00927591,0.194832,0.000807577,0.166389,0.0433517,-0.533242,-0.262576,-0.60465,0.525928,-0.528621,0.710171,-2.00832,-3.16193,0.27435,-1.04837,0.607693,0.545285,0.681291,0.518513,0.413063,0.47629,0.221074,0.184299,0.204595,0.0130947,-0.165475,0.0837165,0.00850328,0.188345,-0.0184259,0.0564168,-0.0126197,0.000961072,-0.147505,0.046918,-0.299027,-0.44349,-0.377547,-0.293974,-0.555895,-0.0239648,-3.40735,-2.60673,0.0147065,-0.558962,0.794938,0.0718796,0.873312,0.336201,0.422841,0.0616748,0.380985,0.313496,0.408991,-0.0487865,0.178121,0.0270866,0.0288234,-0.0452414,0.0499332,0.0139633,0.0189181,-0.159278,-0.00117215,-0.246492,-0.130826,-0.464053,-0.0698674,-0.237514,-0.311502,-0.747604,-1.4621,-1.74076,0.348201,-0.176362,-0.227471,1.20062,0.516332,0.810936,0.741797,0.715063,0.52015,0.368092,0.134951,0.248409,0.118162,0.243305,0.125924,0.0438439,0.0732958,-0.0182517,-0.0932884,0.060242,-0.132391,-0.22593,-0.204469,-0.388701,-0.28542,-0.604744,-0.37826,-0.406197,-1.71492,-2.23996,-4.59145,0.0235059,0.366248,0.719441,0.669426,0.0881883,0.764783,0.198077,0.289398,0.292429,0.0436834,0.308326,0.18209,0.113669,0.14852,0.200586,0.206566,0.145643,0.076789,-0.0577424,-0.225727,-0.269058,-0.0519157,-0.205376,-0.691508,-0.228824,-0.859708,-0.591327,-1.43451,-1.48935,1.17958,0.584735,-0.938095,1.00394,0.334569,0.172493,0.457441,0.320835,0.308762,0.152986,0.0683203,0.486103,0.220188,0.11957,0.260894,0.0756724,0.0279234,0.0349586,-0.234056,-0.147611,-0.187533,-0.252074,-0.0867674,-0.280717,-0.260978,-0.662239,-0.743643,-0.654124,-1.02224,-1.15221,0.00575213,-1.01349,0.677301,-0.261947,0.366107,0.300441,0.624661,0.24893,0.235204,0.173346,0.135772,0.22397,0.251701,0.198002,0.152051,0.101642,0.0332043,0.0250878,-0.149179,-0.0108678,-0.0800835,-0.181332,-0.23803,-0.118265,-0.363725,-0.481735,-1.00219,-0.783842,-1.51909,-0.951037,-2.22294,-1.79059,0.575817,0.103006,1.50572,0.336351,0.145438,0.39628,0.351134,0.19721,0.263325,0.252316,0.203962,0.103483,0.13201,0.18082,0.223719,0.00535867,-0.145221,-0.027609,-0.160246,-0.469635,-0.198596,-0.310768,-0.487811,-0.720736,-0.738152,-1.06015,-0.816867,-1.01202,-1.69172],
			"b":-0.365406
		},
		"neuron 7": {
			"w": [-0.466009,1.43497,-0.0073047,-0.488902,-0.149756,-0.309467,-0.195841,-0.392998,-0.317762,-0.224692,-0.153858,-0.118931,-0.203263,-0.124445,-0.267273,-0.148716,0.0487358,-0.166883,-0.0749381,-0.275789,-0.246595,-0.298319,-0.476506,-0.521821,-0.488244,-0.431516,0.335238,-0.277207,0.159146,0.567175,-0.0441925,0.241449,-1.12197,-0.542989,-0.503373,-0.197979,-0.251765,-0.206884,-0.486231,-0.14688,-0.296023,-0.0841019,-0.215266,-0.106488,-0.256693,-0.147834,-0.258424,-0.308372,-0.074608,-0.313193,-0.161381,-0.530753,-0.411013,-0.163343,-0.827603,-0.0339222,-1.49512,1.04079,0.574403,0.370286,-0.406411,-1.98832,-0.179838,-0.207427,-0.144503,-0.608318,-0.403161,-0.318115,-0.254376,-0.0677898,-0.0815891,-0.151459,-0.30966,0.184108,0.152124,-0.0424375,-0.169456,-0.162849,-0.167051,-0.0926363,0.104538,-0.314207,-0.568651,-0.598519,-0.891257,-0.311689,-1.05506,-0.420453,0.236104,1.08191,0.218416,-1.00921,0.529519,-0.605209,-0.334118,-0.715106,-0.690536,-0.201392,-0.202231,-0.337204,-0.236757,-0.110306,-0.253172,0.0159963,-0.28148,0.0424133,-0.128197,-0.196719,0.00034131,-0.0930391,0.206247,0.147026,0.187916,0.0480356,0.0328746,0.194134,-0.576366,0.26955,-0.574635,0.48574,-0.362521,-1.86187,-0.554029,0.121195,0.0702625,0.307961,0.133891,0.0819504,-0.219541,-0.0943892,-0.370321,-0.0308348,-0.0607872,0.00166877,-0.186355,-0.25786,-0.20786,-0.0706372,-0.0603993,-0.0621955,-0.0513386,0.0294522,-0.0415129,-0.0848084,-0.178002,-0.727471,-0.926016,-0.304165,-0.357041,-0.562277,-1.94136,-0.457281,-0.602304,-0.183917,-0.171019,-0.317942,-0.357484,-0.138028,-0.253641,0.0802502,-0.145166,-0.428235,-0.478648,-0.16933,-0.177799,-0.195659,-0.0891813,-0.144529,-0.112421,-0.156336,-0.0798259,-0.186032,-0.0933885,-0.00558252,0.0621622,-0.245761,-0.294283,0.367285,0.0596229,-0.0929228,-1.23432,0.143341,0.160794,-0.645367,-0.331659,-0.395126,-0.42248,-0.319171,-0.224801,0.0950705,0.0724324,0.0990651,-0.23158,-0.39852,-0.17706,-0.0775084,0.0648135,-0.15587,-0.251902,0.137384,0.0131147,-0.0439176,0.126107,0.111637,0.212425,0.269544,-0.711467,0.567371,-0.637153,0.542096,-0.300814,0.248547,-0.397705,-0.98325,-0.693685,-0.466378,-0.233681,-0.34087,-0.0807771,-0.303059,-0.197282,-0.154017,-0.203948,-0.0123775,-0.125588,-0.0638342,0.0843354,0.0685825,0.0675665,0.0241331,0.185314,0.0581091,-0.665741,-0.180233,-0.00379482,0.0392311,0.097016,-0.078581,0.15657,-0.38216,0.497613,0.21267,0.298135,-0.565956,-0.431393,-0.391931,0.259685,0.21572,0.237248,0.0131486,0.215318,-0.100216,0.0172681,0.12361,0.0582179,-0.0131056,-0.0570382,0.0987062,0.0385019,-0.0171504,-0.188988,0.550592,0.380621,-0.107997,-0.143494,0.0881322,-1.07113,-0.548742,1.1134,0.184909,0.0531701,2.60722,0.962243,0.0490535,-0.034031,-0.0765981,0.14241,0.26945,-0.562557,-0.127888,0.0554846,0.283219,-0.0544777,-0.487954,-0.0549331,-0.0462866,-0.0606102,-0.0170753,-0.181667,-0.0745447,-0.186256,-0.287546,-0.0965773,0.120628,-0.195202,-0.251349,0.0515868,0.529316,0.0699396,0.305364,-0.240061,2.98155,0.728812,0.305348,0.0717173,0.0135105,-0.111358,-0.463469,0.422979,-0.063467,0.444091,0.156655,-0.0047857,0.0720284,-0.496397,-0.590412,0.298384,-0.526712,-0.321972,-0.510768,-0.597034,-0.525982,-0.438663,-0.375976,-0.751976,-0.482625,-0.612675,-1.40708,0.177118,-0.281314,2.31581,0.0391967,0.164537,0.277368,0.41648,0.0685277,-0.0615732,-0.0909792,0.0830417,0.202745,0.249784,0.165453,0.302564,0.40979,0.0987126,0.263442,-0.196648,-0.199996,-0.117526,-0.0527737,-0.0691056,-0.210098,-0.268007,-0.522385,0.238445,0.271186,0.25862,-0.244781,0.0297794,0.361308,1.62229,0.155519,0.394739,0.532342,0.799645,0.594651,0.347904,0.140605,-0.0213056,0.258914,0.0812992,0.500219,0.191176,0.56614,0.300529,-0.256477,-0.28737,-0.32735,-0.250313,-0.135854,-0.214376,-0.170395,-0.53243,-0.196057,-0.531672,0.0151117,-0.138146,-0.792566,-0.572857,0.684783,1.09149,0.506008,0.129266,0.53363,0.577928,0.676706,0.624147,0.399379,0.0873666,-0.0816169,-0.0588729,-0.0787391,0.119672,0.636435,-0.103365,-0.10964,-0.155286,-0.0514836,-0.082323,-0.244662,-0.239591,-0.259112,-0.412166,-0.308363,-0.515333,-0.843078,-0.83667,-0.809897,-0.600596,0.587521,1.10197,0.528539,0.44656,0.415341,0.107005,0.946152,0.340737,0.0232673,0.854104,0.431826,-0.0466191,0.542744,0.631003,-0.136939,-0.0832199,-0.0747957,-0.223468,-0.13391,-0.184024,-0.132897,-0.399679,-0.388383,-0.595614,-0.37804,-0.530512,-0.205528,-0.618758,-0.267518,-0.0477517,0.380225,1.92547,0.989542,0.573047,0.511658,0.740679,0.65801,0.406137,0.537682,0.872166,-0.0257374,0.81671,-0.0526132,-0.0325839,-0.0866299,-0.0405992,-0.128723,-0.0435931,-0.258591,-0.0262892,-0.316023,-0.103115,-0.642525,-0.2213,-0.325053,-0.432723,-0.225325,-0.527855,-0.959056,-0.672037,-0.154018,1.691,1.77937,0.585642,0.612737,0.320412,0.292444,0.398094,0.196479,0.619017,0.578842,0.652198,-0.143445,-0.0449585,-0.218142,-0.0333155,-0.150449,0.00232223,-0.0574027,-0.0818797,-0.288684,-0.277097,-0.274524,-0.22324,-0.48528,-0.310419,-0.298056,-0.215781,-0.17701,0.117987,2.13705,2.45661,1.19364,1.4657,0.609541,0.541296,0.744196,0.508075,0.395068,0.62447,0.652545,-0.326563,-0.132664,-0.0470755,-0.182914,-0.102516,0.0104887,-0.104114,-0.124296,0.022927,-0.16131,-0.167834,0.0104904,-0.0897213,-0.0367084,-0.0166643,-0.188904,-0.189748,0.0062299,0.0520462,0.818696,1.21349,-0.0156105,0.740862,0.333054,0.651341,0.736457,0.418656,0.73182,0.36731,0.067522,-0.0373344,-0.0273722,0.0127567,-0.0992576,-0.0806381,-0.175134,-0.0934034,0.00717569,-0.124372,-0.174661,-0.0759358,-0.190598,-0.0437118,-0.004939,-0.0134525,-0.0642718,-0.349499,-0.177079,-0.234533,-0.203542,0.784501,0.394367,0.470548,0.187456,0.375656,0.569961,0.54838,0.322996,0.0562834,-0.0186316,-0.0891951,-0.0978578,-0.102521,-0.0470565,0.00129745,-0.032057,-0.102486,-0.110419,-0.0986127,-0.0685564,-0.0611518,-0.00834289,-0.0315574,0.102172,0.105914,0.0221149,-0.069943,-0.225091,0.164628,0.189351],
			"b":2.14568
		},
		"neuron 8": {
			"w": [-0.331597,-0.228989,-0.357628,-0.126261,-0.34405,-0.187901,-0.301258,-0.275231,-0.172229,-0.191376,-0.226536,-0.281705,-0.210486,-0.249761,-0.247347,-0.236448,-0.282461,-0.272163,-0.203656,0.0167222,-0.01245,-0.122935,0.328601,0.509546,0.480531,0.413925,-1.05521,-0.280615,-1.48207,-0.92776,0.503206,-0.176009,-0.365477,-0.177015,-0.247502,-0.0352723,-0.0851898,-0.212214,-0.211767,-0.184407,-0.298604,-0.163081,-0.24753,-0.250552,-0.177714,-0.331843,-0.358655,-0.18969,-0.460987,-0.388316,-0.340001,-0.12101,0.0737698,0.238047,0.680925,0.460319,1.19225,0.861119,-2.26654,0.114042,2.05656,0.384524,-0.363485,-0.117736,-0.0871962,-0.167204,0.0445649,-0.126467,-0.042445,-0.115696,-0.0915577,-0.225442,-0.168563,-0.240051,-0.292125,-0.15121,-0.228477,-0.345552,-0.0926808,-0.259499,-0.328619,-0.510241,-0.23005,0.0337757,0.723595,0.282489,0.64457,-0.614008,-0.393894,-0.0668053,0.746986,-0.568839,-0.0438887,0.155738,-0.0527352,0.00341068,-0.0431971,0.1739,0.104385,0.0325952,-0.0958585,-0.10335,-0.0290263,-0.114092,-0.012016,-0.125789,-0.18395,-0.189263,-0.244626,-0.26892,-0.397689,-0.255761,0.0121081,-0.108125,-0.128487,0.669142,1.45008,-0.931394,0.697968,-0.224455,-0.949712,0.626925,0.280839,0.0448406,-0.235124,0.0875256,0.289733,0.295106,0.145754,-0.0964675,-0.241654,0.00696303,-0.120537,-0.109601,-0.118653,-0.126859,-0.0280788,-0.0827164,-0.169319,-0.0959379,-0.155084,-0.411517,-0.0484585,-0.44386,0.456493,0.125809,0.683109,-0.289297,-0.0668831,-0.416812,-0.223404,0.421594,0.495459,0.3164,0.0163401,0.272775,-0.0971559,-0.298612,-0.120601,0.180155,0.234843,0.243206,0.0273999,-0.0901244,-0.0282384,0.0830397,0.180751,0.196675,0.00175607,-0.115276,-0.0500705,-0.30523,-0.22341,-0.479916,0.144215,0.15223,1.37779,1.19136,-0.196412,0.528498,-0.360011,1.51987,0.426559,0.358648,0.271659,-0.153374,0.142131,-0.0701576,0.0751581,-0.0564006,0.129693,0.142322,0.07362,0.0108461,0.186173,0.143462,0.133868,0.102001,0.0837048,-0.196133,-0.125482,-0.238989,-0.207678,-0.258784,-0.0180753,0.455895,0.52446,0.0860324,0.197606,-0.232022,-0.602569,0.625035,0.527902,0.506336,0.298876,0.217741,-0.0129406,0.115749,0.0542177,0.0280545,0.0297284,-0.0845812,0.0998421,0.0902964,0.046445,0.060115,-0.186448,0.0687513,0.0555689,0.0813015,0.0291897,-0.25789,-0.0507773,-0.547936,-0.712281,-0.0342825,0.643648,0.91027,1.36883,-0.309542,0.0845493,0.36714,0.199355,0.318723,0.393638,-0.00745728,0.0427592,0.0178454,-0.195573,-0.0552068,-0.0762482,-0.00837174,-0.00534169,0.211656,0.0814779,0.0207313,0.0125523,-0.208377,-0.095655,0.038869,0.310964,0.393575,-0.448031,1.25583,-0.314595,1.00679,2.24867,0.160802,2.16988,0.0361673,0.377887,-0.369438,-0.0629845,-0.129645,0.119801,-0.0428036,0.11456,0.0477252,0.133888,0.185988,0.303056,0.141177,0.0636134,-0.0246189,0.0959708,0.0804591,-0.0168562,-0.0314745,0.283904,0.266252,0.246008,0.621569,0.198427,0.45374,0.357553,0.26795,0.751609,1.79188,1.30755,-1.07325,0.757576,0.00893943,0.593218,-0.191088,-0.11721,0.191291,-0.187515,-0.12332,-0.00320227,-0.178945,0.0376638,-0.212391,0.333959,0.409617,0.336538,0.555973,-0.186001,0.252139,-0.102321,-0.256246,0.492778,0.396812,0.385031,0.222406,-0.943419,1.08761,0.581603,0.554167,1.67597,-1.06159,0.391484,0.421196,0.106958,0.39049,0.435098,0.0388084,0.266078,0.041041,-0.0793193,0.646787,-0.433247,-0.0468249,-0.152625,0.0160317,0.000276052,-0.13959,-0.0621457,0.00497272,0.0800834,0.0750246,-0.0292903,0.47636,0.469698,1.52708,-0.502735,0.178598,-1.24548,-0.396035,-0.481724,-3.74656,-0.128177,-0.142477,0.130516,0.0186799,-0.0670818,-0.140806,0.00953381,-0.013396,-0.260538,0.151025,-0.0493883,-0.223874,-0.00281131,-0.0274248,-0.182096,0.100778,-0.0519457,0.0364267,0.321317,0.29499,0.268921,0.323612,0.442892,0.319181,-0.180309,-0.615406,0.2872,-1.01585,-0.981328,-1.2667,-0.430197,0.880613,0.217629,-0.0751734,0.0679564,0.0637905,-0.144582,0.14638,0.0302362,0.0117939,-0.22579,0.106821,0.232929,-0.0159934,0.229818,-0.0307591,0.110648,0.15519,0.151249,0.205899,0.253503,0.303247,0.256188,0.270668,0.0624211,-0.0723013,-0.578509,-1.01093,-0.790474,0.160508,-0.153895,0.200349,0.352038,0.834421,0.771931,-0.17954,-0.0882051,0.156173,0.177602,0.182833,0.103165,0.272346,-0.175374,-0.0861353,-0.0162109,0.0932453,0.0919321,0.0569339,0.156538,0.0578458,0.383605,0.310013,0.0646926,0.162266,0.102252,-0.193283,-0.554053,-0.616091,-0.740433,-0.535894,-0.248433,-0.276107,0.0723567,-0.0773761,0.391632,0.189208,-0.0700564,0.370945,-0.102115,-0.117045,0.0324335,-0.0993798,-0.0695876,0.179938,0.11971,0.0711524,0.0557449,0.103061,0.104498,0.210579,0.0608095,0.1525,0.0668111,0.0876227,-0.0990934,-0.225776,-0.328089,-0.943582,-0.957339,-1.70383,-0.964572,-0.72842,-0.313866,-0.123813,0.0887504,-0.223921,-0.0673276,-0.0322209,-0.209584,-0.156147,-0.178048,0.00366255,0.0367157,-0.043143,0.160304,-0.0226114,0.0573285,0.127984,0.097453,0.0897452,0.0789373,0.0262533,-0.0174638,0.000439204,-0.1595,-0.355756,-0.644965,-0.974191,0.0352722,-0.135465,2.47961,1.83113,-1.25457,-0.104042,-0.352796,-0.233461,-0.083562,-0.141057,-0.0733035,-0.0844993,0.0912566,0.0700486,0.010236,0.0264811,-0.0478262,-0.0715591,0.0518395,-0.0156124,-0.125752,-0.0585288,-0.109181,-0.231902,-0.412811,-0.453645,-0.688584,-0.175847,-0.254445,0.0436908,-1.41559,0.105757,0.604811,0.892311,-1.3276,-0.0711754,-0.165016,-0.0519124,-0.22268,-0.125652,-0.0180912,0.107107,0.110709,0.105414,0.095105,0.0565589,0.0308283,0.0631,0.0607208,-0.0229728,-0.0648761,-0.105868,-0.200701,-0.39694,-0.42064,-0.430333,-0.342257,-0.47722,-1.10689,-1.96513,0.496232,0.835364,-0.121599,0.864981,-1.24484,0.357569,0.222081,0.35693,-0.0756826,-0.0779545,-0.0479042,-0.0155918,0.0134395,0.117488,0.184165,0.020528,0.141985,0.0828627,-0.1157,-0.100705,-0.109658,-0.0979381,-0.293954,-0.35859,-0.489878,-0.447168,-0.551115,-0.648207,-0.543601,2.12772,1.69482,-0.0427378],
			"b":-2.17891
		},
		"neuron 9": {
			"w": [1.48512,1.94872,0.135114,-0.0129579,0.136285,0.206774,0.239461,0.111841,0.0224181,-0.156599,-0.0774757,-0.0493297,-0.115893,-0.118509,-0.175116,-0.154683,-0.0132539,-0.101215,-0.141423,-0.141517,-0.196663,-0.0733635,-0.169016,0.0990314,0.0911774,0.237178,-0.0434693,-0.707688,-0.987951,-0.873062,-0.776855,0.884678,0.273596,0.0692809,0.196184,0.0494818,0.172754,0.200831,0.0609725,-0.100144,-0.070449,-0.0817646,-0.200771,-0.125832,-0.117728,-0.000314353,-0.130686,-0.139395,-0.164601,-0.21089,-0.137896,-0.180419,-0.0236648,0.0146083,-0.161122,-0.257352,-0.160936,-0.724537,-0.759364,0.287015,-0.915521,0.595624,-0.0974917,0.27547,0.0655512,0.139267,0.0571656,0.151841,0.0674845,0.0530432,-0.299269,-0.140428,-0.111918,0.0232838,0.00565423,-0.162501,-0.11939,-0.166508,-0.154144,-0.344312,-0.146535,-0.227437,-0.337339,0.00364908,-0.264214,-0.193144,-0.617637,-0.487619,-0.602407,0.213952,-0.587696,-0.246097,0.428488,0.168152,0.246667,0.164734,0.0517108,0.0689597,0.0487757,-0.0128001,0.0530857,-0.177286,-0.128684,-0.132988,-0.350634,0.0184676,-0.11337,-0.0936618,-0.132138,-0.118131,-0.240585,-0.256894,-0.167317,-0.218923,-0.543192,-0.333161,-0.632089,-0.239312,-0.0307619,-1.17679,0.595588,-0.178585,-0.13523,-0.261031,-0.471336,0.0190398,-0.135381,0.0240441,-0.118793,-0.063837,0.0924679,-0.162139,0.0269757,-0.158987,-0.0483181,-0.239302,-0.182545,-0.159463,-0.0960544,-0.157144,-0.157508,-0.191805,-0.353225,-0.174745,-0.497834,-0.501238,-0.476084,-0.575045,-0.368631,0.318789,2.5185,0.217501,-0.138623,0.0393563,-0.0401702,-0.0241761,-0.152769,-0.139535,0.0505372,-0.16015,-0.0458909,0.083059,-0.00074693,-0.0514444,-0.219428,-0.151967,-0.170187,-0.135914,-0.205745,-0.159244,-0.259799,-0.256596,-0.470455,-0.243367,-0.354451,-0.230727,-0.390549,-0.279721,-0.0345285,-0.380712,2.22372,0.98231,0.0719546,0.220117,0.139518,0.233211,0.112402,0.00818277,0.0085357,0.0111706,0.353474,-0.165839,-0.0877924,-0.0177242,-0.0125769,-0.0930046,-0.0377855,-0.0843614,-0.0814619,-0.0567473,-0.0303376,-0.101228,-0.103424,-0.0819325,-0.26931,-0.244267,0.0440357,-0.556538,-0.659669,-0.547181,0.439614,0.995701,0.177658,0.189064,0.215335,0.0731533,0.225104,0.34898,0.180765,0.194212,0.0447015,0.0307677,-0.070568,0.0293269,-0.0146454,-0.0129656,-0.0202335,-0.00542034,-0.0715688,0.0352726,-0.0900352,-0.0901099,-0.112566,0.0970133,-0.267121,-0.0132361,0.0845579,-0.390364,-1.29757,-0.00715246,-1.10706,1.73265,0.496475,0.20583,0.301643,0.198128,0.165464,0.226088,0.175159,-0.00193989,0.245125,0.103912,0.161619,-0.0721913,-0.211773,-0.0439314,-0.236895,-0.216784,-0.149993,-0.142197,-0.175048,-0.0440597,0.0835793,-0.432808,0.344894,-0.435549,-0.257626,-0.0156692,-0.622146,0.322091,-0.966357,1.84911,0.524991,0.734917,0.464123,0.627249,0.295478,0.257818,0.379039,0.310664,0.205247,0.146693,0.00781098,-0.205095,-0.0338027,-0.256635,-0.216932,-0.205368,-0.263982,-0.320528,-0.444551,-0.118039,-0.181045,-0.166324,0.125062,0.137769,0.127624,-0.442847,0.530178,-1.51448,-0.190876,1.85951,0.0268218,0.702673,0.342343,0.213361,0.392354,0.510457,-0.0622985,0.314995,0.522049,-0.147736,0.26165,0.126602,-0.246291,-0.296487,-0.158671,-0.346105,-0.16555,-0.197562,0.170292,-0.131905,-0.149357,-0.377627,-0.734277,-1.68763,-0.542693,-0.1619,-1.41844,0.429257,0.889728,1.41711,-0.316128,-0.150169,0.0188196,-0.300271,0.0038333,0.117353,-0.113323,-0.125815,0.0622777,-0.0804947,-0.00930631,-0.174712,-0.131707,0.0145912,-0.156945,-0.0198433,-0.0330597,-0.0496725,0.148515,-0.0283838,0.141515,-0.117859,-0.0808619,0.0682151,0.506016,-1.03741,-1.10991,-0.291132,1.22399,-0.0792933,0.198044,-0.0877714,-0.325874,-0.118566,-0.115023,-0.168299,-0.0485159,-0.120812,-0.164365,0.0896755,-0.190042,-0.124063,-0.0684046,-0.249743,-0.307938,-0.129369,-0.127171,-0.236025,-0.00851049,-0.144543,-0.126851,-0.349198,0.219152,-0.425327,-0.760036,-0.714097,-0.719185,-0.605433,2.84672,0.853888,-0.136032,-0.000747107,-0.185397,-0.224031,0.0752302,-0.188855,0.0102983,-0.146821,0.138597,-0.163963,-0.0967746,-0.125851,-0.219284,-0.239471,-0.118402,-0.196959,-0.299476,-0.194277,-0.0567206,-0.106267,-0.121254,-0.121681,0.00723693,-0.55751,0.453076,-0.878803,-0.571264,-0.0782053,0.0686456,0.889418,-0.0800036,0.131631,0.0732872,0.0788104,-0.132944,-0.0448014,0.00795197,-0.041321,-0.00590419,-0.00852759,-0.0393023,-0.118381,-0.135847,-0.185442,-0.190238,-0.178941,-0.134005,-0.206004,-0.332905,-0.299534,-0.213843,-0.307151,-0.586876,-0.224611,-0.641702,-0.320092,-0.358526,-0.172653,-0.442847,0.881199,0.104196,0.351626,0.357451,0.334021,0.323179,0.150188,0.0439149,-0.029988,0.0298955,-0.0286231,0.0165399,-0.125728,-0.0645001,-0.171864,-0.149825,-0.214566,-0.202345,-0.202743,-0.364448,-0.214736,-0.272327,-0.416696,-0.423424,-0.593566,-0.70973,-0.381887,-0.445985,-0.861749,0.205522,0.726438,0.0133484,0.42023,0.375983,0.34576,0.299052,0.0768539,0.123593,-0.0897158,0.0914767,-0.0764098,0.0070325,0.0261429,-0.216105,-0.0949586,-0.184328,-0.149332,-0.237974,-0.200089,-0.224812,-0.26991,-0.281903,-0.399191,-0.404034,-0.277524,-0.127938,-0.476982,-0.242353,-0.270708,-0.745787,0.76772,-0.12016,0.497786,0.257027,0.268045,0.166833,0.107677,0.0786281,0.237584,0.109839,0.0437924,-0.0958777,-0.113106,-0.0481485,-0.167362,-0.204927,-0.10777,-0.213489,-0.200751,-0.159216,-0.177171,-0.178435,-0.175775,-0.222577,0.0455996,-0.0714965,-0.105949,-0.387533,-0.0785943,0.196113,1.86618,0.381404,0.542512,0.205335,0.256881,-0.0197168,0.117199,0.366817,0.190714,-0.00133564,0.00775402,-0.112437,-0.153347,-0.146022,-0.00479829,-0.173172,-0.159265,-0.0862654,-0.12571,-0.149774,-0.267918,-0.15658,-0.305106,-0.195375,-0.222616,-0.125133,-0.169668,-0.215597,-0.253876,0.527197,1.36215,0.447743,0.57284,0.0771031,0.147707,0.327088,0.210584,0.0947789,0.150898,-0.0082709,-0.0318977,-0.0835366,-0.0994938,-0.192715,-0.211582,-0.0697078,-0.0800675,-0.152111,-0.173031,-0.199304,-0.212553,-0.206385,-0.140689,-0.224205,-0.0777566,-0.115426,-0.105849,-0.141197,0.0143184],
			"b":-3.1125
		},
		"neuron 10": {
			"w": [-1.22851,0.0395445,-0.203021,-0.313891,-0.195377,-0.200675,-0.548299,-0.475313,-0.344008,-0.356124,-0.328605,-0.377859,-0.230646,-0.222847,-0.245393,-0.233163,-0.183941,-0.205903,-0.343506,-0.172339,-0.308708,-0.396873,-0.544413,-0.487065,-0.681316,-0.132983,1.55119,0.954077,0.488882,-0.355899,-0.826392,-1.04724,-0.0669868,-0.433396,-0.309904,-0.514318,-0.437836,-0.461581,-0.513123,-0.402925,-0.406359,-0.236088,-0.389218,-0.226876,-0.190364,-0.194229,-0.266316,-0.260667,-0.395718,-0.389441,-0.318996,-0.458109,-0.498463,-0.673292,-0.245897,0.0813434,0.261336,1.30774,1.02625,-2.19358,-3.07366,-0.66765,-0.607012,-0.393777,-0.42288,-0.35128,-0.239505,-0.29439,-0.271245,-0.386334,-0.604587,-0.470554,-0.292365,-0.27576,-0.0318945,-0.168068,-0.155738,-0.225054,-0.160402,-0.470842,-0.394046,-0.503286,-0.385829,-0.525621,-0.606153,-0.522075,0.653232,1.47733,-0.160615,0.179361,-1.68763,-1.16926,-0.688004,-0.584004,-0.369835,-0.324375,-0.230217,-0.177759,-0.183659,-0.15802,-0.144333,-0.0998222,-0.112906,-0.160489,-0.0694464,0.0213856,-0.0485091,-0.0248957,-0.027709,-0.148498,-0.275919,-0.451309,-0.370804,-0.431991,-0.457012,0.0617037,-0.0157903,1.59032,0.155892,1.97619,-0.204966,-0.173204,-0.29138,-0.402934,-0.854098,-0.372756,-0.46487,-0.191169,-0.112009,-0.145581,0.0924573,-0.0949272,0.220333,-0.0608038,0.00409886,-0.0180678,-0.0169701,0.0283804,0.0301143,-0.137263,-0.0102324,-0.206977,-0.321393,-0.107759,0.169089,1.07343,1.24417,0.604892,0.336781,1.58758,1.60904,-0.558509,-0.120795,0.182773,-0.0939201,0.366105,0.141371,0.111915,-0.0694603,-0.0748114,-0.213994,0.191628,-0.0912624,0.13166,0.053709,0.0437295,0.126236,-0.0178767,-0.0156798,0.242199,0.125431,0.0291745,0.0926462,0.126657,0.809313,0.705939,1.49664,1.14071,-0.0869783,0.969621,1.70918,0.297414,0.156207,0.267856,0.360548,0.282169,0.192043,0.0871071,0.185139,0.159518,0.423572,0.10634,-0.0277579,0.0381358,0.124066,0.0891694,0.14415,0.0232218,0.107992,0.0513945,-0.0639813,-0.198338,0.137125,0.206126,-0.363856,0.252357,0.371813,-0.157777,-0.366922,0.210356,-0.693357,-0.0555267,0.413477,0.242717,0.364044,0.417486,0.0626944,0.141195,-0.118522,0.326186,0.18146,-0.149364,0.060432,0.220887,0.0740749,0.172528,0.00859128,0.213863,0.04099,0.243396,0.241325,0.337714,0.245884,0.232752,-0.422708,-0.573386,0.375274,0.0476603,-0.0452664,0.150082,1.16553,-0.166662,0.121686,-0.0555941,0.105392,0.122506,-0.0210901,-0.0305063,0.0745729,0.141904,0.0364199,0.161069,0.193787,0.0866166,-0.158215,0.0336162,-0.0458696,-0.187389,-0.112655,0.0324682,0.0613468,0.279814,0.31933,-0.0407079,0.116087,-0.438331,-0.393425,-0.028188,-0.207939,-0.128276,1.86788,1.15864,0.489681,-0.00228715,0.274334,0.0465402,-0.0895722,0.124869,0.130336,0.223312,0.148469,0.0835096,0.339724,0.014853,0.198811,-0.0513794,0.100657,0.0150247,0.024661,-0.076917,0.0807969,-0.080357,0.084401,0.126598,0.00786785,-0.0338007,-0.074612,-0.202795,-0.54763,-0.264384,1.85118,0.934872,0.436591,0.116235,0.0232193,0.24259,0.0770356,0.292901,0.224228,0.239176,0.529699,0.306151,0.426637,0.184626,0.25672,-0.028028,0.172412,-0.230465,-0.336339,-0.0942591,-0.116642,-0.404811,-0.26529,-0.259059,0.498294,0.494206,-0.0334399,0.956118,0.317577,-0.164466,2.04175,-0.416641,0.0566117,-0.153021,-0.0276969,0.0656805,0.249118,0.283404,0.100603,0.0213761,0.127568,0.312808,0.0746349,0.132599,0.0285884,0.204591,-0.194245,-0.1257,-0.0727988,0.0121413,-0.113746,-0.0892655,-0.112514,-0.484418,0.139338,-0.185355,-0.143961,-0.243998,-0.536681,0.82677,-0.012019,-0.304679,0.345091,0.0678842,0.0449315,0.0798093,0.108516,0.252731,0.20465,0.225689,0.245602,0.0959728,0.207897,0.177562,0.0310532,-0.0627605,-0.0847365,-0.127105,-0.115588,-0.171,-0.259735,-0.117069,-0.0206099,-0.207448,0.0874159,0.0723334,0.213551,-0.150667,0.295171,0.214549,0.346808,0.0388315,0.00863574,0.00257046,0.39642,0.0284067,0.152498,0.152295,0.0900158,0.349689,0.124131,0.148328,0.0516282,0.00849784,-0.0882447,0.0603968,-0.106934,-0.00997614,-0.0170411,-0.0231705,-0.0951405,-0.156757,0.0650527,0.106066,0.0175641,0.171252,0.305571,0.404988,0.490069,-0.076609,0.988979,-0.372393,0.0531255,-0.108535,0.0263858,0.236383,0.215967,0.223011,0.156811,0.104196,0.237986,-0.0250737,-0.0203386,0.0787075,0.147723,0.151797,0.0284658,0.053435,0.00484595,-0.106589,-0.161426,-0.050847,-0.256015,0.0800464,0.23361,0.109093,0.435022,1.00728,0.297848,-0.282565,0.130415,0.0243536,-0.255767,-0.620554,-0.203749,-0.31251,-0.251027,0.0594053,0.0788951,-0.00672191,0.0699163,-0.140852,-0.0109255,0.0440968,0.00762387,-0.00103119,-0.0147827,-0.0314952,-0.0426634,-0.000962574,0.115868,-0.133242,-0.134619,-0.142752,0.150193,-0.154505,0.208987,-0.283165,-0.375043,-0.44411,-0.774568,-0.741861,-0.659334,0.198959,0.0657451,-0.308998,-0.0472293,0.0584372,-0.10763,-0.0948917,-0.0629937,0.00321075,-0.0106047,0.0809359,0.0636428,-0.108615,-0.0871613,0.0157165,0.119058,-0.00943114,-0.115357,-0.21606,-0.034963,0.0160961,-0.200272,0.036557,0.384354,-0.192544,0.610348,0.340251,-2.58891,-0.643638,-0.502885,-0.431782,-0.000607345,-0.147361,-0.183835,-0.079252,-0.0240239,-0.0813623,-0.162064,-0.0799773,-0.129335,0.0623584,-0.0845315,-0.158851,0.00634495,-0.0346141,-0.0616229,-0.134156,-0.159519,-0.137591,-0.0990478,0.0481084,0.229061,-0.0423379,0.0959311,-0.0853612,0.262261,0.305894,-0.720831,-0.790782,0.181838,-0.31561,-0.30183,-0.234959,-0.144091,-0.121009,-0.0726642,-0.134052,-0.074556,-0.023247,-0.0528496,-0.0542436,0.0370916,0.00374354,-0.0192752,0.0154481,-0.129167,-0.321486,-0.0628882,0.00176123,0.00906559,0.0238956,0.110803,0.0447222,-0.0223138,-0.387391,0.344623,0.794864,-0.160674,-0.368049,0.0745773,-0.475862,-0.077323,0.0596695,0.0561602,0.0381899,-0.0918303,-0.0300818,-0.0196174,-0.0106067,-0.0522514,-0.0447542,0.0532113,-0.034389,-0.0543833,-0.103463,-0.133026,-0.0198162,-0.0747478,0.00780405,0.0972751,0.425965,0.237384,-0.0291594,-0.212427,-0.0629149,0.581442,-0.317713],
			"b":1.5568
		},
		"neuron 11": {
			"w": [-0.427872,1.3485,-0.71089,0.0708897,-0.223473,0.0615913,0.0814413,-0.0918997,-0.0459219,-0.0698637,-0.119381,-0.136107,-0.0815375,-0.144885,-0.149372,-0.0482186,-0.238018,-0.117868,-0.290829,-0.0554807,-0.087795,-0.0545919,-0.134065,-0.0296685,-0.0973818,-0.190339,-0.31704,-0.914501,-0.887407,-0.916314,0.291375,0.318256,-0.841798,-0.181801,0.117035,0.120961,0.130584,0.0426147,-0.06904,-0.100038,-0.130611,-0.0747702,-0.0757391,-0.109257,-0.109349,-0.23852,-0.123472,-0.0858586,-0.228934,-0.203293,-0.00655253,-0.0833347,-0.102223,-0.266551,-0.0757662,-0.186794,-0.155559,-0.719753,-0.860963,-1.0145,2.41893,1.61277,-0.591594,0.0360052,0.105272,-0.0423562,-0.0116742,-0.0108607,0.00194144,-0.0457302,-0.106739,-0.11964,-0.155473,-0.206105,-0.230315,-0.0617827,-0.115359,-0.102547,-0.0723004,-0.218585,-0.14788,-0.125642,-0.162629,-0.168843,-0.154627,-0.24596,-0.0953959,-0.52975,-0.464061,-1.69022,-0.67522,0.131849,-0.209501,-0.242663,0.00814398,0.0341499,0.128099,0.0243826,-0.0418889,-0.10229,-0.0671511,-0.0991137,-0.165831,-0.240396,-0.220255,-0.27729,-0.0874059,-0.0928123,-0.0645539,-0.026288,-0.136755,-0.24456,0.0321934,-0.0802197,-0.212424,-0.22381,-0.0886706,-0.161793,-0.0963885,-1.94251,0.135816,1.05326,-0.619777,0.478302,-0.141104,-0.0486964,-0.187078,0.215082,-0.00664997,0.0649481,-0.0993106,-0.0194829,-0.104494,-0.0325304,-0.126536,-0.0405848,-0.0263078,-0.111514,-0.0748327,-0.0769565,-0.0660439,-0.00146005,-0.0661496,-0.110526,-0.0214237,-0.16803,-0.0679442,-0.38543,-0.734235,0.520473,0.448822,0.920038,0.077657,0.226875,0.253435,0.0319901,0.114233,0.0735862,0.0721357,0.0646921,-0.019012,-0.266349,-0.0970235,-0.206543,-0.0934513,-0.0693287,-0.0518587,-0.0993401,-0.11284,-0.138081,-0.164942,-0.184419,-0.127926,-0.181898,-0.0394242,-0.26111,-0.26513,-0.432857,-0.78697,-0.211532,0.1075,1.45209,0.101752,0.170996,0.219408,0.070687,0.118528,-0.0145862,-0.188367,-0.108637,-0.272071,-0.0571492,0.00177753,0.0603877,-0.0734225,-0.0333444,-0.194159,-0.198268,-0.107364,-0.180785,-0.171975,-0.0339537,-0.237535,-0.227774,-0.360847,-0.0283792,-0.480385,0.172474,0.468011,-2.41135,0.701425,1.15637,0.697441,0.100771,0.187055,0.0781214,0.12671,-0.0555983,0.102707,0.00149638,0.0987656,-0.0258592,-0.18609,-0.0796679,-0.0902789,-0.176044,-0.116134,-0.195123,-0.0932967,-0.191454,-0.471502,-0.290708,-0.195962,-0.504504,-0.412182,0.10721,-1.1204,-0.84531,-0.169025,0.824626,0.700848,0.519126,0.298115,0.25265,-0.101752,-0.020559,-0.0459326,0.010134,-0.0946976,0.025594,-0.258414,-0.126523,-0.131752,-0.191135,-0.180365,-0.104891,-0.149041,-0.201417,-0.149072,-0.264066,-0.125361,-0.224695,0.209237,-0.564146,-0.570426,-0.536446,-0.700289,2.47535,1.96599,-0.247386,0.306914,-0.227908,-0.460654,-0.137662,-0.0931304,-0.399383,-0.194009,-0.139183,-0.2309,-0.190482,-0.14434,-0.0996948,-0.130593,-0.158949,-0.14545,-0.206414,-0.194958,-0.247295,-0.277436,-0.299646,-0.260503,-0.250809,-0.286066,-0.265577,-0.151191,0.0111785,-0.191701,0.777907,-3.15126,-0.195681,1.13408,-0.737592,-0.82304,-0.526262,-0.429034,-0.289785,-0.566991,-0.394206,-0.313485,-0.475255,-0.311581,-0.488579,-0.900081,-0.12965,-0.00052681,-0.387888,-0.152755,-0.148338,-0.0848855,-0.398419,0.06809,-0.125914,0.34991,-0.365526,-0.43759,1.70019,-0.341261,-4.20443,5.2869,-0.00193092,0.369713,1.24658,-0.0230541,-0.0418973,-0.312513,-0.178256,-0.353025,-0.214293,-0.220532,-0.398254,-0.136526,-0.258667,-0.0525762,-0.165362,-0.23085,-0.140976,-0.137817,-0.113938,-0.236596,-0.0899791,-0.244547,-0.111381,-0.216826,-0.0871842,0.156437,-0.414121,1.78507,-3.35877,-3.13348,-0.55195,0.528503,-0.0640432,-0.296496,-0.138391,-0.425054,-0.357647,-0.265278,-0.344231,-0.585325,-0.283908,-0.276333,-0.264641,-0.184526,-0.357635,-0.190593,-0.156498,-0.239215,-0.22106,-0.165218,-0.179966,-0.1457,-0.365119,-0.0274538,-0.158854,0.228284,0.582135,0.198462,1.46702,2.34888,-0.716818,0.358261,1.35066,0.225304,-0.0214703,-0.186925,-0.118035,-0.108842,-0.150406,-0.08995,-0.0735398,-0.122838,-0.0532181,-0.108897,-0.0805397,-0.0896914,-0.145447,0.0225957,-0.118027,-0.168951,-0.19156,-0.208133,-0.171519,0.0423185,0.0492143,0.00953911,0.201653,-0.592973,-0.39515,-0.424776,0.0781749,0.238478,1.23983,0.271762,0.251588,-0.0609037,-0.0240041,-0.069335,0.00334366,0.0264155,0.164741,0.161223,-0.00516804,-0.111081,-0.0516746,-0.0712269,-0.118763,-0.0618244,-0.0258187,-0.118296,-0.16804,-0.205099,-0.183249,-0.129102,-0.164255,-0.216303,-0.130087,-0.414591,-0.406534,-0.0426572,0.321893,-0.229498,2.07611,-0.0556011,0.0655008,0.0493585,0.0353444,0.0440099,0.208822,0.109555,-0.00847853,0.0346666,-0.0763009,-0.0692965,-0.041731,-0.102074,0.00216635,-0.0638514,-0.179971,-0.0227182,-0.0848613,-0.16828,-0.130501,-0.144415,-0.206239,-0.251035,-0.37313,-0.301654,-0.310092,-0.470667,-0.185053,-0.548072,2.89298,0.863588,0.497292,-0.134398,0.0955629,-0.0221589,0.0977542,0.0365653,-0.0664615,0.00984852,-0.0842156,0.00461034,-0.0348348,0.0934827,-0.0602145,-0.142838,-0.0610488,-0.0599807,-0.0949006,-0.0574443,-0.265355,-0.166521,-0.144482,-0.325965,-0.17762,-0.189354,-0.159268,-0.361786,-1.61694,-0.243903,1.23041,0.0490282,0.35118,0.0755363,0.170518,0.0774959,0.0701924,0.0164123,0.0454474,0.0934238,0.0332831,-0.0476317,0.047983,0.0213074,-0.0424221,-0.0863969,-0.0751542,-0.0898102,-0.164796,-0.236249,-0.293735,-0.21302,-0.238224,-0.294363,-0.290993,-0.488518,-0.315534,-0.705281,0.311207,0.151448,0.28041,0.715713,0.431798,0.197665,0.345955,0.17371,0.0561922,0.0703514,0.123018,0.0825902,0.0714036,0.0413492,0.0510266,-0.0742442,-0.00416392,-0.108435,-0.0198382,-0.0583483,-0.183435,-0.163331,-0.0649565,-0.178773,-0.256571,-0.233678,-0.380894,-0.494592,-0.625966,-0.127318,0.170244,-0.18291,1.08804,0.415334,0.395403,0.19847,0.252969,0.0162067,0.1181,0.188229,0.166144,0.0421229,-0.0090131,0.049227,0.0216064,-0.0531619,-0.0270725,-0.0600214,-0.120416,-0.141443,-0.0648103,-0.0978664,-0.1496,-0.258721,-0.182157,-0.214884,-0.401395,-0.48503,-0.194824,0.43498,0.28975],
			"b":-3.91831
		},
		"neuron 12": {
			"w": [2.2867,3.06276,0.740589,0.918954,0.106919,0.201734,0.170686,0.00820259,-0.164741,-0.186271,-0.252954,-0.398171,-0.296748,-0.287236,-0.406685,-0.233342,-0.431344,-0.341445,-0.458154,-0.404724,-0.225202,-0.315165,-0.297872,-0.113707,-0.283154,-0.277313,-0.0460294,-0.522228,-0.907964,-1.80582,0.534655,3.00794,-0.557959,0.44741,0.379807,0.149433,-0.261333,-0.176677,-0.0201573,-0.20999,-0.336256,-0.370808,-0.412193,-0.365183,-0.330375,-0.218211,-0.310054,-0.240144,-0.4055,-0.333744,-0.446401,-0.332639,-0.364692,-0.269682,-0.0676347,-0.395699,-0.117533,-0.836927,-0.804313,0.549116,-5.11472,4.21928,-0.669622,0.62249,-0.00200504,0.0674526,-0.099589,0.0273172,-0.340698,-0.119329,-0.319055,-0.327422,-0.274073,-0.262445,-0.310763,-0.30954,-0.382838,-0.409068,-0.37731,-0.456972,-0.388577,-0.465946,-0.363281,-0.358794,-0.296823,-0.0182144,-0.238934,-0.550049,-0.755647,0.161895,1.76411,1.85676,-0.179672,0.736755,-0.109886,0.0603238,0.215898,-0.0693731,-0.0376587,-0.275206,-0.147139,-0.350034,-0.146384,-0.265741,-0.296713,-0.401868,-0.266366,-0.412482,-0.264208,-0.412265,-0.405842,-0.552787,-0.516172,-0.522182,-0.532074,-0.494828,-0.262236,-0.521032,-0.178997,-2.08499,1.89016,4.44647,-1.06423,0.62378,0.147673,-0.0781629,-0.213127,-0.333805,-0.181803,-0.257866,-0.0425784,-0.376677,-0.289813,-0.256453,-0.237081,-0.423299,-0.291695,-0.387839,-0.211893,-0.414705,-0.394083,-0.365703,-0.416208,-0.485356,-0.628139,-0.371211,-0.242507,-0.694389,-0.907901,0.382637,1.17553,1.95223,0.0117602,-0.421809,-0.219699,-0.210732,-0.154241,-0.245267,-0.179139,-0.37734,-0.571416,-0.551675,-0.179312,-0.258192,-0.249345,-0.392016,-0.296273,-0.283568,-0.392585,-0.425763,-0.355452,-0.465338,-0.551982,-0.385547,-0.693728,-0.552782,-0.9149,-0.776214,-0.800384,-0.0887174,0.739334,2.30366,0.064246,-0.0172272,-0.120297,-0.0372101,-0.162762,-0.256985,-0.0695634,-0.138637,-0.0497444,-0.183193,-0.177484,-0.243744,-0.528412,-0.365125,-0.39717,-0.310182,-0.469924,-0.46836,-0.508595,-0.398928,-0.516654,-0.751252,-0.36435,-0.454163,-0.875656,-0.589716,-0.841205,-1.65768,0.456201,1.91225,0.363622,-0.223713,-0.2553,-0.0691771,-0.0209427,-0.0411172,-0.0449858,-0.0837242,-0.0436473,-0.00162999,-0.224958,-0.333093,-0.0855463,-0.245267,-0.398509,-0.448188,-0.437463,-0.659175,-0.73715,-0.662597,-0.873452,-0.938894,-0.646155,-0.848395,-0.734838,-1.21524,-1.65593,0.547135,1.1497,2.31281,-0.0362861,0.180712,-0.321562,-0.189445,-0.123806,-0.126969,-0.471706,-0.167696,-0.32731,-0.372468,-0.246592,-0.389022,-0.471938,-0.359036,-0.337913,-0.378212,-0.371713,-0.616323,-0.680736,-0.894241,-0.251767,-0.867272,-1.11444,-0.909775,-0.99043,-0.882567,-2.64824,0.322495,2.33617,0.189489,-1.61604,0.0475491,-0.554023,-0.68306,-0.462869,-0.332272,-0.424878,-0.512716,-0.34289,-0.483105,-0.418272,-0.302944,-0.409386,-0.369944,-0.361635,-0.481574,-0.457735,-0.394454,-0.529669,-0.798975,-0.803702,-0.464503,-0.360067,-0.755223,-0.869905,-1.03855,-0.98866,-1.6297,1.76418,0.141845,-1.55154,-0.663946,-0.698166,-0.901762,-0.713751,-0.891095,-0.67663,-0.836338,-1.07402,-0.758233,-0.349733,-0.815441,-0.198806,-0.468602,-0.611237,-0.15174,-0.538597,-0.24288,-0.296533,-0.834349,0.110783,-1.16517,0.502638,-2.85483,-2.39713,-2.15475,-4.32407,0.465783,1.41987,3.03461,0.434736,-0.390718,-0.31091,-0.146406,-0.238794,-0.294204,-0.342486,-0.528857,-0.296428,-0.403389,-0.274912,-0.435776,-0.469343,-0.322678,-0.359847,-0.40512,-0.340861,-0.412728,-0.296633,-0.205121,-0.341383,-0.296316,-0.123565,-0.500856,1.28974,-3.248,-4.18271,0.293632,0.347349,1.89275,-0.925873,-0.419161,-0.0863278,-0.2508,-0.259611,-0.0904319,-0.473776,-0.21977,-0.195246,-0.311734,-0.325705,-0.356655,-0.359859,-0.419246,-0.512645,-0.382982,-0.440601,-0.430987,-0.369901,-0.378585,-0.280104,-0.270636,-0.413432,-0.688675,0.0618771,-0.634855,-1.59477,-2.18626,1.31628,2.43908,-0.0294096,-0.198007,-0.166161,-0.107048,-0.235595,-0.354433,-0.198141,-0.549983,-0.54531,-0.343487,-0.439225,-0.385081,-0.427713,-0.450643,-0.41349,-0.33099,-0.57575,-0.34439,-0.414477,-0.280893,-0.289663,-0.246365,-0.134678,-0.0289372,-0.0867484,-1.22581,-1.76509,0.95617,0.570502,1.9657,0.036832,-0.343895,-0.261091,-0.167863,-0.191346,-0.362853,-0.297308,-0.32273,-0.548712,-0.515805,-0.356591,-0.321573,-0.380967,-0.318322,-0.343619,-0.252046,-0.389689,-0.284197,-0.326663,-0.37073,-0.547101,-0.408217,-0.641377,-0.353513,-0.546981,0.29549,1.95667,0.0369237,2.57383,2.00908,-0.4686,0.262123,0.155202,-0.273394,-0.338264,-0.126784,-0.189346,-0.155236,-0.321157,-0.358133,-0.34988,-0.216061,-0.320963,-0.378446,-0.335239,-0.34577,-0.345136,-0.540511,-0.454997,-0.434025,-0.443437,-0.486591,-0.428386,-0.158031,-0.678567,-0.346809,-0.803314,-1.31304,1.65764,1.13422,-1.55135,0.273918,-0.476341,-0.0455228,-0.416343,-0.150934,-0.444652,-0.184451,-0.325276,-0.304255,-0.400399,-0.403481,-0.390729,-0.340291,-0.440551,-0.491461,-0.494908,-0.415839,-0.513046,-0.566269,-0.38964,-0.53629,-0.645122,0.0728327,-0.693857,1.38895,-0.798784,0.787833,0.826308,6.4987,-3.01795,-0.17215,-0.466502,-0.484889,-0.360127,-0.455649,-0.366561,-0.522245,-0.379632,-0.442296,-0.392324,-0.516284,-0.445354,-0.420387,-0.400308,-0.377353,-0.433648,-0.432022,-0.300847,-0.381386,-0.428385,-0.46091,-0.43372,-0.0915082,-0.515223,0.84375,1.39224,0.0883648,0.704781,0.07498,-2.69367,-1.06626,0.0201633,-0.459605,-0.250868,-0.520248,-0.380293,-0.365369,-0.478888,-0.421987,-0.431762,-0.449776,-0.49432,-0.55237,-0.503427,-0.526064,-0.472599,-0.432299,-0.517677,-0.56499,-0.528044,-0.488328,-0.364839,-0.248001,0.328336,0.979696,1.27456,-1.26486,1.71866,0.924246,-1.16543,-0.60143,-0.23602,-0.0810171,-0.41986,-0.472238,-0.185318,-0.384211,-0.348465,-0.442462,-0.359584,-0.468101,-0.491383,-0.504323,-0.495627,-0.523033,-0.482478,-0.494326,-0.483531,-0.458932,-0.497354,-0.502807,-0.364151,0.0219273,0.321925,0.952251,0.327492,-0.100404],
			"b":-7.76967
		},
		"neuron 13": {
			"w": [3.08317,2.74618,1.51268,1.67277,-0.0557411,-0.38312,-0.08209,0.0957277,-0.186905,-0.0145819,-0.239899,-0.192434,-0.274357,-0.125689,-0.236207,-0.125115,-0.0301799,0.200574,-0.229408,0.211086,0.0430921,-0.180673,-0.480592,-0.586713,-1.02194,-1.11915,-1.1151,-6.03384,-2.23544,-0.755397,2.51368,3.28696,-0.312525,0.146055,0.0703806,-0.116074,-0.0655481,-0.376606,-0.40381,-0.00738641,-0.251388,-0.110781,-0.213471,-0.108158,-0.342405,0.0304548,-0.430555,-0.112318,-0.0810314,-0.142481,0.16813,0.0439885,-0.0578102,-0.549032,-0.560197,-1.2206,0.491129,-6.05859,-2.44841,-0.467896,2.14476,-0.000100464,0.501488,-0.682108,0.145735,-0.0605638,-0.106082,-0.088466,-0.0511187,-0.104377,-0.178817,-0.0135024,-0.39473,0.142529,0.371954,-0.337229,-0.321182,-0.312483,-0.0574636,0.125107,-0.146156,-0.0281912,0.0294289,0.0501576,-0.309201,-0.531622,-2.37325,-2.32973,-1.83838,0.942488,1.25214,0.131117,0.0467249,-0.680132,0.107789,-0.516263,0.0251612,-0.298128,-0.195211,-0.366621,-0.177083,-0.116536,0.298012,0.052599,-0.560694,-0.126832,-0.220074,-0.31803,-0.0950263,-0.125255,-0.139781,0.166221,-0.00980285,0.267888,0.396996,-0.592684,-1.90562,-2.31474,-0.875482,-0.980726,0.0518362,-0.582106,-0.695212,-0.412296,-0.38089,-0.455641,-0.0201123,-0.261829,-0.397234,-0.0698262,-0.168752,0.0100304,-0.331506,-0.278702,-0.0753057,0.0085994,-0.0960437,-0.121613,-0.163883,-0.14637,0.185666,0.169587,-0.253371,0.286122,-0.229037,0.193728,0.403111,-0.0463913,-2.24371,0.0764031,-0.366821,-0.501934,-1.03075,0.852167,-0.0383572,0.369018,-0.113925,-0.314549,-0.0961083,-0.181651,0.170238,0.139235,-0.30855,-0.169085,-0.000872054,-0.0501659,-0.0110884,-0.18308,0.0166821,-0.0671037,0.408437,0.381301,0.493867,-0.100106,-0.058754,-0.147395,0.195798,0.725193,-0.917105,0.457654,-0.402447,0.831746,0.994284,-0.0249214,-0.102483,-0.303501,-0.0669302,0.0682365,-0.757805,0.71214,-1.02637,-7.79827e-06,-0.193974,-0.341906,-0.0953501,0.0769154,-0.00322829,3.32997e-06,-0.0180894,0.181156,0.104403,-0.0674564,0.122585,0.0631529,-0.48809,0.00302065,-1.1662,0.313879,-0.897389,-0.567594,-0.569627,0.765143,0.651376,-0.191259,-0.115723,-0.0313436,-0.0589298,-0.317039,0.00195655,-0.27063,-0.319599,-0.107237,-0.483134,0.0682697,-0.0551674,-0.171956,-0.162349,-0.00480505,0.144758,0.273748,-0.00968142,0.00846275,0.883241,0.609539,2.01065,1.56591,-1.71438,3.24603,1.54835,-0.114848,0.423881,0.518949,-0.530694,0.0802924,-0.286545,-0.0561531,0.271911,0.025013,0.136239,0.255191,-0.312521,0.00528101,0.0530704,-0.166105,0.0660993,0.077698,-0.0325102,0.100843,0.041344,0.298236,0.310324,-0.356904,2.0443,-1.32914,-0.724082,-3.44039,-2.21136,-3.52541,-3.85578,0.0283303,1.00743,0.266648,0.586779,0.0717279,-0.144696,0.693748,0.238816,0.443707,-0.0199524,0.17533,0.011094,0.164426,0.0624845,-0.221328,-0.247838,-0.227076,-0.0744412,-0.0510046,-0.358499,-0.0497389,-0.0618702,0.38723,-0.259272,0.286588,0.0212446,-0.377833,-0.455965,-0.222051,-1.44885,-1.05789,0.0164919,0.428912,0.410995,0.583845,0.279127,0.666237,0.4529,-0.314478,1.68026,0.366027,0.596559,0.590975,0.36176,0.0664799,0.463619,-0.126665,0.263154,0.0922223,0.15487,-0.140666,0.567153,0.943207,-1.16562,0.465995,1.30857,-1.3364,0.95899,-2.9743,-4.21421,0.0513485,-0.824109,1.53034,0.197085,0.382438,-0.0966989,0.725647,0.683589,-0.0984134,0.255534,0.59118,-0.179643,-0.114127,-0.184398,-0.263505,-0.0858755,0.0369986,-0.0749134,-0.24478,-0.409074,-0.181864,-0.0792056,0.169861,0.0636155,-1.07098,1.01573,0.386014,0.250489,2.89217,1.96639,-0.0480895,-0.490381,1.22011,1.67081,0.566965,0.579015,0.396012,0.444669,-0.041993,1.10384,-0.161016,0.048272,0.155964,-0.204506,0.203275,0.154656,-0.0284637,-0.140034,0.0380995,-0.238605,0.0730575,-0.29039,-0.238754,0.0657914,-0.0897426,-0.415881,0.0629764,-0.756829,-1.06883,-0.933545,-1.19888,-0.825474,1.27173,0.191429,0.641025,0.67027,0.447553,-0.0518901,0.0123804,-0.304732,0.883056,0.00761605,-0.151823,-0.126221,0.0725755,-0.207619,0.188132,-0.126447,-0.0626255,0.0439544,0.0288064,-0.00915148,-0.259314,-0.290399,0.143591,-0.11836,0.512789,1.00109,-1.17522,-0.799852,-0.357265,-1.40328,0.87087,-0.16381,0.257062,0.0778259,0.228748,0.580058,-0.265494,0.421396,-0.293107,-0.00682439,0.166258,-0.0328508,-0.34503,-0.0151401,-0.202875,-0.347344,-0.28217,-0.241691,0.0364658,-0.201073,0.278897,0.140326,0.150485,0.0733231,-0.140524,-0.353382,0.793225,-0.910127,0.00748434,-0.434107,-3.0189,0.700465,-0.00488536,-1.80182,-0.0632178,-0.481929,0.163588,0.00961925,-0.231905,-0.347714,0.102295,-0.193251,-0.283538,-0.289068,-0.0892494,-0.19326,-0.00665977,-0.0970904,-0.318007,0.057435,-0.00243275,0.109701,0.29797,-0.251678,0.517605,0.552114,0.40577,-0.279762,-0.106254,-0.0972287,-2.25347,0.849772,-0.382658,-0.541465,-0.233239,-0.0647743,-0.29924,-0.164654,-0.507035,0.161921,-0.407046,-0.154128,-0.0614841,-0.296772,-0.17152,-0.0782757,-0.181287,-0.26775,-0.18184,0.00484778,-0.293066,-0.023567,-0.117037,-0.141262,-0.389613,-0.444171,-0.3077,-2.5178,0.319565,4.03352,-1.20639,-0.694521,-0.126596,-0.366225,0.0261966,-0.199307,-0.127504,-0.369154,0.0943221,-0.262209,-0.228372,-0.187944,0.135095,0.176386,-0.167222,0.0172737,-0.0174643,-0.110993,0.0156372,-0.0219535,0.104186,-0.0663823,-0.191045,0.23816,-0.555538,-0.718335,-1.53182,-0.578744,0.180325,0.335067,1.21077,0.435351,1.06114,-0.395681,-0.0958704,-0.0235225,-0.294287,-0.528384,-0.0498224,-0.169698,-0.250869,-0.316183,-0.21359,-0.137872,-0.0397905,-0.0623712,0.0351783,-0.0219076,-0.0350477,-0.106143,-0.0223748,0.0806213,-0.0441852,-0.502098,-0.565233,-1.11464,-1.50475,-0.321604,-0.329515,0.382523,2.36132,0.936685,1.87367,-1.92308,-0.783032,-0.398281,-0.214592,-0.0639686,-0.325791,-0.444543,-0.215611,-0.336014,-0.276798,-0.223232,-0.103685,-0.150509,-0.184251,-0.020275,-0.130256,-0.121818,-0.114013,-0.0602258,-0.0818814,-0.838112,-0.612518,-0.528976,-1.32736,-0.204774,-0.2739],
			"b":-0.217056
		},
		"neuron 14": {
			"w": [-0.0514173,-0.284876,-0.887297,-0.401176,-0.299696,-0.0211077,-0.252039,-0.0730783,-0.108632,-0.0327653,-0.181392,-0.0795206,-7.26011e-05,-0.0301193,0.0885075,0.0998726,-0.0479513,0.000619654,0.00641406,-0.120786,-0.15814,-0.226549,-0.458455,-0.706144,-0.84056,-0.505102,-0.722038,-1.05352,-0.986411,-0.685154,-0.460049,-0.37711,-0.814462,-0.354948,-0.0443166,-0.0141787,-0.170773,-0.115855,-0.211169,0.0687211,-0.0923029,0.00116235,-0.0750867,-0.026095,-0.0146739,0.100999,0.0871745,0.196679,-0.101537,0.0465039,0.0293566,-0.0225808,-0.409207,-0.668945,-0.578605,-0.843421,-0.588245,-0.830418,-0.922354,-0.86483,-0.0562311,-1.05877,0.0753809,-0.0812129,-0.183716,-0.0323224,-0.153935,-0.103887,-0.157134,-0.0288966,-0.212334,-0.192306,-0.210573,0.118414,0.127457,-0.000742482,-0.0637389,0.0612337,0.0925103,0.19238,-0.0593576,0.100025,-0.0190587,-0.338737,-0.804126,-0.888411,-0.716792,-0.605912,-0.562159,-1.24506,0.729025,-0.899261,0.103602,-0.402531,0.0343429,-0.0992648,-0.0717693,-0.00379789,-0.0638959,-0.0121616,-0.146428,-0.266898,0.384647,0.27005,-0.259038,0.0549408,0.00969334,0.117631,0.0479667,0.0882602,0.136835,-0.0657544,-0.189357,-0.117446,-0.549883,-0.832965,-0.806739,-0.980226,-0.664689,-1.78157,0.867776,0.0152751,-0.250835,-0.0620223,-0.246714,-0.146087,-0.145718,0.0119324,-0.101869,0.130327,-0.51975,0.792396,0.0328213,-0.0246634,-0.0036162,0.107416,0.120467,0.101117,0.0546337,0.151809,0.0115383,0.12183,-0.0491828,-0.195555,-0.0324423,-0.458499,-0.480594,-1.02283,-1.17766,-1.22181,0.142248,0.843717,0.0552646,0.284405,0.0527978,0.0338877,0.0390541,-0.113349,-0.0423021,0.108557,0.222582,0.19287,-0.252112,0.158654,-0.00296585,0.175567,0.180472,0.0890379,0.240474,0.180914,0.266986,0.35323,0.239195,0.134721,0.0715228,-0.119727,-0.539859,-0.84549,-0.864053,-2.06588,0.152174,1.32881,0.375879,0.374362,0.438974,0.276499,0.0896228,0.283121,-0.34166,0.866612,-0.103108,0.342458,0.214021,0.00133755,0.117635,0.126673,0.0512026,0.119698,0.427002,0.21364,0.240448,0.31403,0.0961239,0.12786,-0.0710132,0.202006,-0.314758,-0.652228,-0.686902,-1.23592,-0.0781661,1.29988,0.84782,0.454914,0.373953,0.250855,0.127163,0.23901,0.553129,0.0251833,-0.304793,0.289077,-0.173904,0.0571897,-0.0695934,-0.025543,-0.21174,0.141108,0.155196,0.374243,0.184451,0.469729,-0.00594699,0.253867,0.178881,0.00433348,0.0309882,-0.150926,-1.44114,-0.208031,-0.650668,0.659436,0.156108,0.100944,0.294,0.208907,0.528804,0.0487794,-0.0745885,0.0817366,0.0857534,0.0474273,-0.295095,0.0322838,-0.169717,-0.0158439,-0.222908,-0.146462,-0.128377,0.155243,-0.035195,0.104681,-0.0745421,0.580322,0.365447,0.469849,0.0346851,-0.0579478,-0.0170182,-0.290942,-0.414365,0.00209755,0.527306,-0.0916573,0.225615,-0.178872,-0.00128163,-0.0345419,-0.0216963,-0.0225634,0.189806,-0.000556071,-0.0390382,-0.26965,-0.119346,-0.247523,-0.277394,-0.19232,-0.0374769,-0.0593082,0.163079,-0.00746128,-0.0279068,0.234249,0.41304,0.156066,0.670262,1.64674,0.877214,-0.373027,0.338878,0.924065,-0.187614,-0.254718,-0.239385,-0.24462,-0.177488,-0.19227,0.0884314,-0.194131,-0.382252,-0.273789,-0.275444,-0.25236,-0.131211,-0.291754,-0.21987,-0.218794,-0.133862,0.0766539,-0.223884,-0.0681216,-0.116355,0.507075,-0.312263,0.994677,1.53836,-0.293402,0.0169537,-0.122661,0.378454,1.02645,0.292707,0.0864664,0.0372125,0.130717,0.156019,-0.035488,0.0254802,-0.0868206,0.0507379,-0.313858,-0.158441,-0.149788,-0.248872,-0.15805,-0.140898,-0.160751,-0.13147,-0.210457,-0.0853588,0.0545048,-0.185339,0.44319,-0.259209,0.118786,-1.26473,4.24088,2.11683,-0.0338881,-0.279148,0.755027,0.443708,-0.0301157,-0.0300819,-0.0912872,-0.0863845,-0.023025,-0.228172,-0.0465658,-0.0380994,-0.0601138,-0.0777056,-0.0699458,-0.197649,-0.171437,-0.196211,-0.0617663,-0.220258,-0.235086,-0.108455,-0.0169283,0.0758075,0.164142,-0.244824,-0.381561,-0.282318,0.569115,3.04752,0.61092,-0.580022,1.48984,0.173303,0.378567,0.366448,0.164363,-0.0108287,0.0537274,-0.13739,-0.234618,-0.176537,0.140523,-0.155274,-0.108474,-0.158281,-0.163419,-0.125492,-0.262392,-0.279203,-0.313191,-0.43603,-0.33886,0.164696,-0.0574396,0.26187,0.359747,-0.910626,3.46763,0.956111,0.646034,0.0840093,1.08556,0.30608,0.511911,0.142114,0.115312,0.31186,0.128857,-0.100052,-0.0399691,-0.0174652,-0.0795797,-0.0437611,-0.0639122,-0.112371,-0.0737256,-0.112863,-0.21065,-0.176011,-0.169651,-0.136909,-0.151002,-0.0410856,0.334724,0.22558,0.616375,0.858682,0.82512,0.701465,0.0569629,0.0315803,-0.659458,-0.260455,0.289754,0.52341,0.175982,0.0785377,0.231333,0.164724,-0.140315,-0.232839,-0.169756,-0.0640969,-0.0928162,-0.239678,-0.143737,-0.233632,-0.155907,-0.182632,-0.211497,-0.0381644,-0.0568953,0.216965,0.176553,0.337907,0.614193,0.587423,1.07439,1.29275,-0.0489746,0.449542,-0.0710954,-0.713557,-0.0872298,-0.19009,-0.0742451,-0.225551,-0.184861,-0.192508,0.0353175,-0.20484,-0.178318,-0.315718,-0.270912,-0.141426,-0.271977,-0.318634,-0.221822,-0.17113,-0.0405621,0.0200549,-0.026291,0.248754,0.358446,0.43745,0.441537,0.341897,0.623507,0.227236,-0.950327,0.718335,0.0146328,-0.0717356,0.0243132,-0.170867,-0.247687,-0.334902,-0.133799,-0.291666,-0.217933,-0.167049,-0.240424,-0.302283,-0.250939,-0.223611,-0.190552,-0.194984,-0.130861,-0.137846,-0.0373614,-0.0426873,0.1236,0.108572,0.335797,0.380087,0.473802,0.618587,-0.518846,-1.47545,-0.750147,0.142786,-1.26805,-0.173626,-0.24126,-0.0135799,-0.214275,-0.0679144,-0.29778,-0.200346,-0.269284,-0.299099,-0.254116,-0.26418,-0.282837,-0.250993,-0.205614,-0.218635,-0.262061,-0.0569819,-0.109013,0.00923142,0.124377,0.166957,0.240549,0.0933855,0.397724,0.594368,0.127045,-1.50974,-2.18323,-0.257958,-0.321534,-0.548631,-0.336064,-0.183174,-0.0879613,-0.215396,-0.339549,-0.145724,-0.283888,-0.228707,-0.226284,-0.250955,-0.282038,-0.227897,-0.255229,-0.229387,-0.219373,-0.144497,-0.112905,-0.0973981,-0.01891,0.0888182,0.130228,0.252929,0.0190809,-0.364423,-1.97598,-1.80312,-1.97713],
			"b":-3.52909
		},
		"neuron 15": {
			"w": [-0.629235,2.7,0.572129,0.956546,0.622184,0.713813,0.569435,0.445245,0.170347,0.277057,0.0866053,0.0140636,-0.0419235,-0.038309,-0.148248,-0.0695837,-0.0605526,-0.125719,-0.184767,-0.20545,-0.339464,-0.296723,-0.422859,-0.245566,-0.224785,-0.228213,-0.217797,-0.500901,-0.704397,-0.972689,0.616554,2.35759,1.30494,0.776858,0.727671,0.68076,0.371081,0.206118,0.532711,0.068171,-0.0451783,0.0940738,0.0621729,-0.121203,-0.0358879,-0.0775413,-0.102131,-0.131956,-0.135827,-0.22791,-0.0548864,-0.465535,-0.383682,-0.257094,-0.278719,-0.450061,-0.266791,-0.948447,-1.35401,0.226554,-0.960676,2.01017,1.62132,0.979657,0.608583,0.710772,0.325446,0.36878,0.176695,0.161079,0.231651,0.16876,0.0567051,-0.189456,-0.141043,-0.149442,-0.119711,-0.222008,-0.208175,-0.321351,-0.148559,-0.303908,-0.309095,-0.332577,-0.514561,-0.305995,-0.570943,0.23048,-0.0211803,-0.0971495,-5.52865,4.51279,1.28925,1.19807,0.248732,0.320651,0.440958,0.101785,0.254978,0.00486099,0.0154795,0.0458917,-0.0298128,-0.0149781,0.0967178,-0.0817667,-0.195844,-0.247064,-0.163328,-0.239298,-0.0869881,-0.187025,-0.268306,-0.370173,-0.511288,-0.43192,-0.258381,-0.280241,-0.370524,-0.594368,-0.480564,2.39313,0.819671,0.488091,0.774322,0.0482527,0.629165,0.295265,0.122544,0.0696874,-0.0659852,-0.104658,0.0813362,-0.101108,-0.00887651,-0.118701,-0.158292,-0.22296,-0.236005,-0.149777,-0.32578,-0.233012,-0.339382,-0.141872,-0.571606,-0.300357,-0.448121,-0.434199,-0.977282,0.100577,-0.500947,2.36256,0.599697,0.148382,0.171123,0.108521,0.024323,0.134512,0.222563,0.295469,0.171247,0.210672,0.0372992,0.00119434,-0.122769,-0.133746,-0.171279,-0.147706,-0.24757,-0.289849,-0.318754,-0.284319,-0.376734,-0.193193,-0.466106,-0.525076,-0.97209,-0.928093,-0.885427,-0.199718,-0.212274,1.9104,0.340407,0.269391,-0.0411002,0.320596,0.0320987,-0.104987,0.00621631,0.195486,-0.0340521,0.10129,0.0558153,-0.0449722,0.16683,-0.315991,0.0128203,-0.21255,-0.416344,-0.0706501,-0.64054,-0.381182,-0.306932,-0.385895,-0.0225649,-0.464426,-0.662614,-0.790496,-1.1696,-0.235332,0.0457825,1.52699,-0.255223,0.325834,-0.105144,-0.362519,0.0262631,-0.159953,-0.545449,-0.28736,-0.0350334,-0.205655,-0.00597267,-0.425437,-0.0268109,-0.169352,-0.0657927,-0.271547,-0.0333327,-0.485394,-0.0600683,-0.264944,-0.739659,-0.249599,0.117095,-0.553847,0.254772,0.355365,-2.65304,-0.259559,-0.151396,2.52522,-0.644827,0.0470741,-0.0144466,0.0889537,-0.214734,-0.0129518,-0.247842,-0.173709,-0.28038,-0.383347,-0.25203,-0.362329,-0.142119,-0.14738,-0.0732336,-0.169727,-0.0521867,-0.358981,-0.312236,-0.460575,-0.492762,0.156765,-0.259068,0.436392,-0.607453,-2.06488,-5.3564,0.0374426,1.04049,-2.01026,-0.259938,-0.222106,-0.240137,-0.0446527,-0.256549,-0.101493,-0.228136,-0.201002,-0.334964,-0.276379,-0.119609,0.105645,0.0103383,0.0785798,0.0931263,0.0423893,0.0806974,-0.0175603,0.189185,-0.288881,0.215493,-0.476531,-0.410865,0.513276,-0.404905,-1.0777,-0.0812159,-0.629717,-0.11457,-1.66146,-0.179191,-0.510626,-0.57056,0.000646749,-0.369021,-0.60801,-0.0669312,-0.260979,-0.640203,0.451007,-0.147124,-0.70829,0.0603994,-0.107108,0.384964,-0.123781,0.301268,0.320764,0.0174748,0.261581,0.377209,0.0301716,0.141833,-2.23898,-0.886787,0.191408,-6.37099,0.154711,0.0757499,1.90751,0.465041,0.0929272,0.0130783,0.0603926,-0.213112,-0.0996559,-0.413316,-0.0981561,-0.539485,-0.324437,-0.441479,-0.264841,-0.101203,-0.474041,0.0723371,-0.0437459,-0.021237,-0.0793391,-0.294632,-0.0705806,-0.32557,0.941893,-0.330049,0.405562,-2.14448,1.32773,-1.40441,0.177995,-0.0392301,0.758479,-1.4122,-0.403083,0.474612,-0.146003,-0.111477,-0.169528,-0.650265,-0.2175,-0.33384,-0.384386,-0.323576,-0.408003,-0.218356,-0.16297,-0.185474,-0.157955,0.0352322,-0.116668,-0.236267,-0.0758177,-0.595008,-0.756236,-0.816728,0.56298,-0.934473,0.785337,-1.11002,-0.200193,-0.448372,2.12868,0.173727,0.631112,-0.0738471,0.293198,0.0480844,-0.0314422,-0.115928,-0.495128,-0.436766,-0.323894,-0.139138,-0.295827,-0.0302025,-0.217288,-0.116086,-0.213075,-0.0824216,-0.120502,-0.216102,-0.261833,-0.207713,-0.33538,-0.564047,-0.130457,-1.99136,2.31224,1.37417,0.0711175,-0.222986,2.41254,0.464739,0.128968,-0.0942182,0.129599,0.0771607,-0.0822616,-0.00175923,-0.00348248,-0.13176,-0.0171217,-0.182832,-0.104419,-0.16816,-0.178977,-0.0893464,-0.217159,-0.155743,-0.218371,-0.161463,-0.170173,-0.391681,-0.175794,-0.404483,0.417474,-0.591924,-1.3324,-1.13981,0.024168,-0.042563,3.25607,-0.168107,0.709948,0.312265,0.271444,0.199177,0.189704,0.0367051,-0.126846,0.0595071,-0.258066,-0.108975,-0.0809168,-0.0743723,-0.196861,-0.163066,-0.24394,-0.0538264,-0.193426,-0.194897,-0.125344,-0.194464,-0.15995,-0.264228,0.0563384,0.0208596,0.527513,0.456672,-0.230161,-3.15596,2.0496,1.02767,0.359674,0.467841,0.533825,0.0597408,0.0706962,0.158322,0.119615,-0.00704134,0.0497289,-0.0218745,-0.0549834,-0.00113645,-0.171511,-0.0938003,-0.0925318,-0.233517,-0.248802,-0.125516,-0.0319956,-0.126773,0.242173,-0.301629,-0.181243,-0.00980071,-0.076504,-0.208083,-0.000424337,-2.96365,2.32503,0.807835,0.811588,0.347514,0.39517,0.475235,0.424068,0.188176,0.162018,0.123179,0.0100138,-0.0170928,-0.0886935,-0.0648971,0.018189,-0.166399,-0.231203,-0.205786,-0.163302,-0.242679,-0.131844,0.0396876,-0.106015,0.179667,0.326059,-0.319506,0.173133,-0.946924,0.0322672,0.555609,2.13926,0.413426,0.317084,0.629742,0.526919,0.327354,0.328299,0.287389,0.133217,0.0878618,0.00657839,0.10626,0.0844965,-0.0648073,-0.125828,-0.092372,-0.0512576,-0.237883,-0.197697,-0.124413,-0.0435642,-0.148987,0.215461,0.106881,0.265713,0.739262,-0.398241,-1.70642,-0.702873,0.969011,2.32203,0.0679834,0.618587,0.318394,0.353577,0.445853,0.328808,0.208381,-0.0494141,0.141762,0.207146,-0.0681784,0.0207843,-0.0566103,0.0304522,-0.105633,-0.174037,-0.204706,-0.177789,-0.119362,-0.0837844,0.0350532,0.0235026,0.0808742,0.252723,0.0480264,-0.347565,-2.69664,0.337929],
			"b":-1.38239
		},
		"neuron 16": {
			"w": [0.242741,-0.162495,-0.220666,-0.312867,-0.360301,-0.107781,-0.348748,-0.421595,-0.456684,-0.387757,-0.394612,-0.580353,-0.403358,-0.535356,-0.528365,-0.505921,-0.56807,-0.589457,-0.489999,-0.213799,-0.158011,-0.22196,0.411809,0.12623,0.882982,0.417356,-0.265585,-0.668828,-1.63074,-1.21626,0.497368,-0.278563,-0.0274068,-0.110561,-0.121293,-0.379083,-0.223971,-0.373326,-0.259607,-0.373997,-0.425777,-0.325112,-0.552086,-0.451732,-0.407761,-0.643554,-0.569418,-0.503523,-0.661107,-0.625121,-0.31222,0.0588062,0.29025,0.132243,0.462501,0.731546,0.713536,2.27313,-0.900851,-2.13807,2.69778,0.316452,-0.218743,-0.220005,-0.211958,-0.349511,-0.162824,-0.483239,-0.224762,-0.301144,-0.227584,-0.489554,-0.372107,-0.53528,-0.535895,-0.410374,-0.516651,-0.61143,-0.321381,-0.422825,-0.450776,-0.557871,-0.0606834,0.0641848,0.855268,0.771148,0.670161,1.49576,1.35648,-1.15317,-0.803106,0.138953,0.00587235,0.236459,-0.0752097,0.148625,0.00823865,0.0639433,-0.11388,0.0832572,-0.257622,-0.258981,-0.228401,-0.128017,-0.269938,-0.216532,-0.356559,-0.409136,-0.48939,-0.422227,-0.538854,-0.331452,-0.136466,0.0203252,0.131435,-0.0881663,-0.577642,2.97303,0.798805,-1.01068,-1.32519,0.382513,0.530635,0.444821,0.399446,0.694482,0.545455,0.160718,-0.108444,-0.108166,-0.225217,0.0708938,-0.0449395,-0.1462,-0.183709,-0.172602,-0.126453,-0.140337,-0.217188,-0.331556,-0.163737,-0.442863,-0.0532231,-0.156622,0.305618,-0.208065,0.339177,2.03024,1.72088,-0.103492,-0.2554,-0.171383,0.118121,0.573128,0.357223,0.324434,0.0567739,-0.130652,-0.0986667,0.0172061,-0.199763,-0.0158247,0.0397371,-0.0455885,-0.024391,-0.148007,-0.0514576,-0.0247665,-0.187462,-0.300351,-0.176128,-0.491611,-0.414604,-0.445393,0.175241,0.450477,1.5025,0.785697,0.0233273,0.379635,-0.343048,-0.0595367,0.193126,0.0420924,-0.0361767,-0.246841,0.259781,0.0200145,0.260529,-0.521493,-0.188655,0.0354161,-0.110577,-0.115767,-0.164575,-0.136856,-0.144744,-0.100782,-0.144891,-0.367064,-0.304992,-0.161012,-0.0254244,-0.140756,-0.101676,0.278193,0.981116,-0.688242,-0.779161,-0.657507,-0.474016,-0.360315,-0.128289,0.0852299,-0.0674849,0.0561488,-0.0448906,-0.0475325,-0.291364,0.0238865,0.0721093,-0.163896,-0.0103158,-0.141898,-0.0901205,-0.174293,-0.312021,-0.101287,-0.239784,-0.352998,-0.229511,-0.724373,0.040017,-0.556741,-0.69227,-0.777421,0.588531,-0.713241,-1.15477,0.396785,0.0366932,0.156385,0.178471,0.117645,-0.00229321,0.124701,-0.354756,-0.295871,-0.184165,-0.150822,-0.227644,-0.312,-0.236128,-0.132707,-0.0593021,0.00336399,-0.0279588,-0.130604,0.138596,0.0427963,0.419229,-0.133361,-0.261924,0.896908,-0.304244,-0.230911,2.46951,-2.18782,-1.77664,1.0511,0.917678,-0.490175,-0.188768,-0.197885,-0.228131,-0.0210486,-0.215799,-0.121458,-0.160445,-0.0217908,-0.185908,-0.294907,-0.0369633,0.122206,0.212616,0.120451,0.0378519,0.0297109,0.433093,0.183719,0.441274,0.515454,0.339019,0.223281,0.138423,-0.301998,0.583725,-0.844026,-1.11083,-0.90054,-0.256355,-0.37526,0.452086,-0.250031,-0.177831,0.134686,-0.0370704,-0.131474,0.0853089,0.179527,-0.0612699,0.194868,0.798837,-0.328205,0.0162076,0.245367,-0.0651406,0.0272682,-0.109588,-0.215023,0.306499,0.0235464,-0.00182166,-0.440952,-0.617137,-1.43803,-1.94994,-1.87193,0.419226,-0.793085,-0.686653,0.126095,-0.154726,0.416968,0.261769,0.25861,0.439111,0.317865,0.0846276,0.620445,-0.114411,0.0406112,-0.0317738,-0.0836762,0.0507384,-0.0592702,0.0283923,-0.0372616,0.0343366,0.0797436,0.208669,-0.059916,0.39845,0.374952,-0.953512,-0.975498,-1.29097,0.197295,-0.308634,-0.799097,-0.487152,0.00754999,0.159275,0.327804,0.155168,0.337806,0.301676,0.350472,0.045281,0.272739,0.0292982,-0.0692765,0.0496556,0.114666,0.0150825,0.143725,0.0760984,0.082642,0.125081,0.0176962,0.056805,0.0627579,0.25659,-0.271069,-0.237851,-0.04685,-0.651182,0.355784,0.0719265,-1.10929,-0.124591,-0.0273477,0.0485281,0.00880275,0.101021,0.452154,0.184274,0.102479,0.211194,0.287695,0.156218,0.154115,0.231145,0.0157696,0.0494533,0.0397788,0.00038139,0.110343,0.0635638,-0.056222,-0.0541041,0.0473939,-0.0691022,-0.0926419,-0.16734,0.0467092,-0.389142,-0.0812449,0.386754,-1.26093,-0.405187,-0.383428,-0.01855,0.674507,0.581101,0.347095,0.116856,0.0479606,0.317605,0.151862,0.0815741,0.350669,0.011837,0.10722,0.0132551,0.149761,0.0815566,0.11933,0.0819198,0.0595718,-0.0373529,-0.015903,-0.0611291,-0.000471253,-0.133167,-0.0795418,0.0457213,0.0855324,-0.0960354,-0.113286,-2.57754,-0.941534,0.233462,0.0609979,0.502121,0.171653,0.157207,0.24212,0.116588,-0.0318506,-0.0679316,-0.0646343,-0.0689293,0.122445,0.101357,0.14496,0.0691084,0.0602983,-0.0473262,0.0692591,-0.0436508,-0.078953,-0.116146,-0.150803,-0.214671,0.0161481,0.00834445,0.0772329,0.467902,-0.926915,-0.41832,0.320465,-1.07027,0.437531,-0.054073,0.196897,0.0949805,0.0158558,0.0205736,0.107227,0.0451847,0.0444729,-0.0155851,-0.007063,0.194103,-0.0574911,0.119387,0.00280007,-0.0201147,-0.089263,-0.116231,-0.282757,-0.198422,-0.103773,-0.249392,-0.106085,-0.12101,-0.375367,0.56583,-1.74675,3.36712,-0.244145,0.305364,0.0231497,0.0250849,0.0570209,0.0788022,0.11455,0.203771,-0.0197894,0.00781113,0.0746437,0.114659,0.0729826,-0.0704678,0.129404,0.0955025,-0.0766374,-0.0781416,-0.134759,-0.290086,-0.152842,-0.309267,-0.258024,-0.370131,-0.442002,0.133348,0.133987,0.302407,-0.574624,0.315111,-0.372053,-0.0263603,0.14184,0.0442993,0.00290543,0.00118096,0.138724,0.0579242,-0.00766551,0.143627,0.0143429,0.104321,0.0847496,0.0683534,0.0455814,0.0684467,-0.0920624,-0.158207,-0.134748,-0.243064,-0.206906,-0.19163,-0.271021,-0.317014,-0.583205,0.582019,0.5248,1.69454,-0.368389,-0.412418,-0.344348,-0.293258,0.40474,0.594488,0.645992,0.360926,0.129464,0.00134563,0.0266037,0.0263653,0.0835416,0.0945293,-0.0114564,0.0253409,-0.0413474,-0.0843305,-0.14946,-0.196178,-0.193243,-0.207956,-0.256478,-0.263924,-0.152169,-0.120474,-0.0868416,0.409123,-0.306302,0.963516,0.779418],
			"b":-2.10251
		},
		"neuron 17": {
