{
"Network": {
	"Layer 0": {
		"neuron 0": {
			"w": [-0.0419684,-0.268337,0.221952,0.192742,-0.0550195,0.103536,0.144174,0.0499159,-0.0486815,0.126313,-0.0121363,0.0397065,0.0523525,0.0823242,0.0396261,0.0495791,0.0890716,0.0801959,0.0613818,0.145487,0.0731308,0.0840674,0.185325,0.0580088,0.0595764,0.0944534,0.168505,0.636216,0.106475,0.184547,-0.000518845,-0.401038,0.34128,0.0162548,-0.227777,-0.213042,-0.0468687,0.0349414,0.18013,0.014049,0.079266,0.0376308,0.0272936,0.123857,0.0731019,0.00454434,0.00741835,0.0780286,0.204326,0.103932,0.0279608,-0.0201673,-0.0139163,-0.0322002,0.0162041,0.245494,-0.321211,-1.10222,-1.72517,1.03657,-0.0428828,0.0152271,-0.230469,0.310512,0.0541178,0.0305162,0.018113,0.0290515,0.0640956,0.0112885,0.00620156,0.157367,0.0982229,2.5349e-05,0.119027,0.139259,0.0414351,0.0916892,0.103099,0.203172,0.0939299,0.146236,-0.130383,0.226004,-0.118193,-0.391769,-0.341855,-0.352059,-0.237099,2.07737,0.471985,-0.0535152,0.267075,0.256938,0.0534049,0.203857,-0.0196241,0.0429063,0.0969829,0.0502902,0.0460191,0.0423038,-0.0499405,-0.0416069,0.173762,-0.00172593,-0.0121712,0.00543024,0.105373,0.063952,0.000620063,0.0857176,0.0625182,0.135944,0.207074,0.0358411,-0.283621,-0.52528,-0.204271,0.581666,0.507172,-0.317911,0.161851,0.0522944,0.425899,0.192993,0.237548,0.0935346,0.0714544,0.0253474,0.177799,-0.000247737,0.0951008,0.0116405,0.0421331,0.0551031,0.203457,0.0714034,0.0797354,0.181034,-0.230651,-0.18356,0.137298,0.147334,0.136802,0.30781,-0.234901,-0.488022,-0.803325,0.350733,0.645643,-0.351812,0.143977,0.151399,0.359308,0.0894057,0.0262988,0.0882344,0.219987,0.354993,0.189774,0.324499,0.178634,0.247854,0.144724,0.15804,0.234133,0.171892,0.0639153,0.232693,0.0710853,0.05766,-0.0170693,0.122776,0.299946,-0.0402437,-0.408748,-1.23782,-1.08142,-0.216769,-0.0507847,-0.505798,0.108223,-0.0450831,0.0067624,0.0806048,-0.163217,-0.00557715,0.0947418,0.0917384,-0.00902123,0.0467797,0.23788,0.0652244,0.0322375,0.112919,0.0338577,0.0440014,0.0369098,0.112219,0.104057,0.0365918,-0.043854,-0.0034748,0.0836234,0.34291,0.213811,-0.850802,-0.265391,-0.033364,-0.0592634,-0.0852839,-0.268674,0.170778,0.111182,0.0689675,0.0824917,-0.0353676,0.0883658,-0.0767672,-0.0625731,0.227302,-0.0296148,-0.0456416,-0.168279,0.140883,0.00522211,0.13695,0.0836442,-0.206916,-0.0171098,-0.227326,0.0890852,0.101242,0.118807,-0.0020314,-0.00684866,0.513557,-0.150365,-1.51322,0.210826,-0.360215,0.0200468,-0.200003,-0.112266,-0.0543633,-0.0593113,-0.167735,-0.0402413,-0.054996,-0.0490951,-0.0254646,-0.103866,-0.0132391,-0.0735634,-0.0358148,-0.146996,-0.14278,0.0121121,0.0104562,-0.145809,-0.212577,-0.193591,-0.241136,-0.0854716,0.0550451,0.747621,1.11263,0.365362,-0.233394,0.250164,-0.102364,0.00965161,-0.00603798,-0.371098,0.116036,-0.251859,0.000658622,0.0356163,-0.0680262,-0.0312083,0.0562843,-0.198635,-0.102551,0.0144911,0.00923627,0.0319781,-0.0398345,-0.208816,0.0797316,-0.187734,-0.0571278,-0.108954,-0.0355643,-0.312369,-0.0911514,0.315345,1.41908,0.458582,-0.19876,0.486679,0.146994,0.342426,0.242938,-0.0535179,0.0499571,0.250163,0.0143649,0.0804294,0.105015,0.143331,-0.157841,0.0229107,0.000146542,-0.044504,-0.107213,-0.267787,0.221649,-0.135591,-0.192203,-0.134521,-0.207998,-0.325329,-0.540515,-0.18353,0.0734923,0.542705,2.23037,2.80618,0.21734,0.38197,0.44283,0.160891,-0.0259148,-0.037679,-0.103421,0.0876785,0.184928,0.0195567,-0.074548,0.0495802,-0.0540217,-0.0721661,0.208686,-0.0418001,-0.0406183,0.075186,-0.0616859,-0.223432,-0.0671734,0.0131063,0.0136971,0.190735,0.00508664,0.0344868,-0.157911,0.203703,0.197067,0.346249,0.888872,0.298073,0.160922,-0.0924556,-0.0457069,0.0763666,0.067853,-0.0614763,-0.0509545,0.0317634,-0.0333224,-0.0347098,0.253746,0.106944,-0.020627,-0.0511695,-0.0470741,-0.0896216,0.0581747,-0.0622796,0.112717,0.208597,0.278394,0.0321403,0.0565929,0.258415,0.241592,0.687116,0.0804664,0.0965418,2.05472,0.0238881,0.0282277,0.301955,0.350778,0.0110288,-0.0279963,-0.00444571,0.140844,0.124369,0.208019,0.142874,0.0594761,0.225072,0.0454352,0.235434,0.14068,0.169947,0.178033,-0.109624,0.0164441,0.153357,0.077601,0.22082,0.224414,1.16798,0.256061,-0.523291,-1.73725,-1.63577,0.335018,0.274107,-0.427607,0.124741,0.198792,-0.0555262,-0.179732,-0.0390749,-0.0584951,-0.00312034,-0.0335511,-0.0723138,-0.0289606,0.0589276,0.147647,0.00655014,0.170351,0.1416,0.0770176,0.0814694,-0.0549622,0.13533,0.00516237,-0.0338411,-0.0853854,0.106503,-0.0486674,-0.635027,-1.81852,0.819826,-0.00642613,-0.176642,-0.182922,-0.00212826,-0.245216,0.0263777,-0.0841073,-0.0342738,-0.204026,-0.0452787,0.0377692,0.119781,-0.113228,-0.124387,0.0722696,0.00531182,-0.00761482,0.017074,-0.0475101,-0.00492535,0.179295,0.14824,-0.0666257,-0.00941652,-0.067834,-0.200801,-0.298912,-0.227115,0.173264,-0.306185,0.0428604,0.521548,0.388,0.096722,0.185669,-0.0216821,-0.0720211,-0.153856,-0.153184,-0.0578427,-0.0304218,0.0341601,0.00923132,-0.184082,-0.036017,-0.0101794,-0.0208414,0.00642727,0.15775,0.00165795,0.036762,0.0537751,-0.211709,-0.027726,-0.0399434,0.0387842,-0.0467655,-0.0208397,0.415226,0.570309,-0.138948,0.173453,-0.301004,-0.143818,0.167417,-0.0599436,0.137585,0.180294,0.0917798,-0.129303,-0.178427,0.142612,0.164022,0.0914173,0.0519184,0.0997547,0.0968619,0.00635929,0.116221,-0.150225,0.0274786,0.0306066,-0.246381,-0.185693,-0.213334,-0.232482,-0.344657,-0.524449,0.211813,0.181674,-0.102513,0.07876,0.50221,0.253398,-0.0179798,-0.012501,0.104734,-0.105564,-0.0448819,0.0307416,0.0138326,0.042275,0.115935,0.0153455,0.0112578,0.0287904,-0.0242252,-0.018733,0.0370413,0.0465765,0.110466,0.207346,-0.119364,-0.0593353,-0.074054,-0.00214693,-0.47151,0.443927,-1.17053,-0.23135,-0.590672,0.343253,0.27688,-0.268962,-0.118029,0.219914,-0.0455726,0.0723902,-0.0560717,0.0179957,0.0204679,0.0748675,0.0826107,0.0559834,0.0576252,0.0210492,0.111503,0.0447165,0.059313,0.0597035,0.0665092,-0.00431261,0.126785,-0.0719458,0.0300892,0.0729112,0.15084,-0.351371,0.0436031,0.421941,0.00320352],
			"b":1.10997
		},
		"neuron 1": {
			"w": [0.060577,0.597295,-0.380999,-0.405265,-0.0676419,-0.289566,-0.206468,-0.219288,-0.169252,-0.221502,-0.143127,-0.234404,-0.122288,-0.151654,-0.132131,-0.0949209,-0.166439,-0.0862366,-0.121624,-0.00789431,-0.0667987,-0.136095,0.00226818,-0.147289,0.0926301,-0.485483,-0.270686,-0.851673,0.759728,-0.292353,0.0409879,-0.417895,-0.228907,-0.388314,0.0585898,-0.0232338,-0.0800974,-0.106409,-0.169352,-0.239208,-0.155649,-0.0839903,-0.258267,-0.0886934,-0.120788,-0.0779705,-0.124324,-0.157504,-0.0534331,-0.0875006,-0.1128,-0.169035,0.0542479,-0.0774958,0.0521233,-0.464014,1.3021,0.280049,-0.12849,-0.5558,0.107014,0.672901,0.519134,-0.399045,-0.326815,-0.245197,-0.264195,-0.210629,-0.25881,-0.0949687,-0.160947,-0.285065,-0.124621,-0.156443,-0.165107,-0.0509104,-0.178187,-0.103895,0.0148603,0.144955,-0.0666071,0.109406,0.17102,0.0847488,0.297207,0.197863,0.551303,0.91299,0.920094,0.0778598,0.627384,-0.150988,-0.117197,-0.0611008,-0.235461,-0.336753,-0.197923,-0.156282,-0.178086,-0.162504,-0.0174778,-0.0539377,-0.101324,-0.0206147,-0.159432,-0.0521784,-0.128254,-0.148457,-0.0123361,0.081317,-0.159674,-0.259655,-0.184123,-0.0971199,-0.0469727,-0.148477,0.0761319,0.743991,0.647078,-0.147044,0.082541,0.371338,-0.15265,-0.183388,-0.427519,-0.137514,-0.375409,-0.0520284,-0.0381923,-0.0125166,-0.0226123,-0.0125497,-0.0256582,-0.0812799,-0.0725541,-0.166498,-0.203726,-0.0666096,-0.165535,-0.185757,-0.0152034,-0.105402,-0.0543682,-0.0486796,0.327094,-0.356056,0.511251,0.974315,1.32133,0.277097,-0.431201,0.104869,0.301755,0.0664761,-0.0831358,-0.138776,-0.181693,-0.118467,-0.0664574,-0.0940058,-0.157335,-0.128255,-0.0253819,-0.106584,-0.0774696,-0.0333015,-0.0433434,-0.105797,-0.104496,-0.120738,0.164931,-0.134518,-0.00691008,-0.200678,-0.122347,-0.0713579,0.675581,0.690223,0.304194,0.640024,-0.0591168,-0.238106,-0.0223369,0.302893,-0.0165684,-0.13915,-0.0513324,-0.142918,-0.0369122,-0.0501163,0.0368765,0.077316,0.116487,0.144323,-0.017392,0.00407958,-0.10606,0.0231287,0.143901,-0.0614681,-0.0320663,0.160494,0.154998,0.124711,0.284868,-0.117005,-0.103141,0.582662,1.00912,-0.942222,0.325983,-0.135399,0.335445,-0.102549,-0.0704983,-0.125914,-0.0426741,-0.125193,0.00270054,-0.238117,-0.0651964,0.0463899,-0.00553254,0.0798657,-0.102595,-0.00949466,0.0791864,0.0510769,0.167861,0.115086,0.0414556,0.212526,0.236451,-0.118153,-0.0157528,-0.0606933,-0.066163,-0.235372,-0.06054,0.481212,0.557783,0.0299124,-0.242231,-0.00225708,-0.12294,0.0203522,0.0992945,0.0839397,0.0503225,-0.00871413,-0.0110857,-0.0768463,-0.0544378,-0.00627266,-0.011779,0.125694,-0.0453241,0.0293909,-0.0212429,0.185947,0.385779,0.365474,0.291894,0.0631088,0.0313682,0.0120364,-0.313593,-0.486785,-0.0435641,0.659256,0.618929,-0.0722353,-0.086312,-0.0161467,0.00313433,0.0568361,-0.0539595,0.0528351,-0.105576,0.0795732,-0.0983731,0.105354,0.120947,0.0200156,0.111491,0.0940357,0.079955,0.208129,0.238123,0.0969154,0.191379,0.232731,0.0963596,0.344261,-0.078934,0.160151,-0.300074,-0.656585,0.123712,-0.350341,-0.0526793,0.017677,-0.0920445,-0.0168501,0.0230478,-0.180604,-0.156214,-0.118325,0.151014,-0.0353837,-0.00296264,0.212488,0.188644,0.107921,0.0804809,-0.021571,0.0287259,-0.11284,-0.106,-0.136234,-0.0735945,0.0220234,0.0801483,-0.482161,-0.1901,-1.00478,-0.601494,-1.94051,-2.13871,-0.165972,0.799359,0.629205,0.294311,0.487952,0.107939,0.0148086,-0.0987352,-0.00806181,0.0732416,-0.137159,-0.325715,-0.061856,-0.10008,-0.1963,-0.0138401,-0.0696377,-0.140319,-0.0902464,-0.407476,-0.30279,-0.173719,-0.183116,-0.321307,-0.198574,0.142039,-0.0901789,-0.253427,-0.364119,-0.293348,-0.0665985,-0.545935,0.130991,0.48813,0.262399,0.121805,-0.0363823,-0.0402878,-0.0307084,-0.104027,0.0435771,-0.0122273,-0.0616214,0.0565747,-0.0600195,-0.188351,-0.0552373,-0.101405,-0.0788645,-0.205676,-0.286226,-0.0418158,-0.0616881,-0.034565,-0.0110427,-0.225072,0.00901396,-0.444277,-0.487639,-0.170553,-0.34187,-0.0397745,1.56157,-0.014195,0.261968,-0.0164609,0.215784,0.220937,0.187571,0.0265428,-0.16841,-0.0537722,-0.0789245,-0.0611876,0.0710158,-0.0627753,-0.0619695,-0.115626,0.0264498,-0.0414344,-0.15505,-0.103531,-0.0567436,-0.175371,-0.268273,-0.263225,-0.205799,-0.302471,-0.777143,-0.560243,-0.729043,0.100255,0.0374902,-0.0241608,0.0931336,0.0262997,-0.0360589,0.0698817,0.0935993,0.181956,-0.0972833,0.069359,-0.121598,-0.17489,0.0268441,0.0166719,-0.00787665,-0.186598,-0.14029,-0.0499489,-0.206295,-0.187607,-0.0525264,-0.0267833,-0.0613716,-0.128996,-0.0346099,-0.304538,-0.481822,-0.176817,-1.18479,-1.15892,0.98113,-0.153509,0.282992,0.320176,-0.0615057,-0.101551,0.228547,0.0364638,-0.0618431,-0.0277175,-0.256552,-0.194026,-0.0552385,-0.104201,-0.0660299,0.0278481,-0.0911813,-0.180309,-0.0588426,-0.145147,-0.120522,-0.0826969,-0.0228869,-0.0543172,-0.032857,0.00846246,-0.151414,-0.169647,-1.43039,0.48413,0.964437,-0.336303,0.291412,-0.0487271,0.129613,-0.0258011,-0.0134344,0.00492917,0.0184144,0.0252075,0.00430111,-0.0850039,-0.0790086,0.00764567,-0.0654426,-0.0133651,-0.0216561,-0.0436043,-0.16965,-0.0610109,-0.0505754,-0.0222884,-0.216662,-0.0936334,-0.0599943,0.0170176,-0.190343,-0.361001,-0.875841,0.493729,1.9178,0.277893,-0.055313,0.201974,0.13578,-0.0286761,-0.0223381,-0.238817,-0.30122,0.0105493,-0.0164063,-0.0861972,-0.0471029,-0.0372269,0.0260053,-0.125987,-0.142757,-0.112019,-0.145863,-0.0283138,-0.211289,-0.214147,-0.183406,-0.269559,-0.322654,-0.028382,-0.0897066,-0.138988,-0.703961,0.616569,0.680494,0.0172539,0.0801868,0.249085,-0.0671132,0.0139134,-0.0715085,-0.0117881,0.0392652,0.0152784,-0.0733496,-0.0368624,-0.0620195,-0.0428198,0.0487876,0.0356532,-0.0485572,0.021305,-0.0687709,-0.129829,-0.0143712,0.000406639,-0.109004,0.0366837,-0.0614012,-0.168126,-0.207734,-0.354152,-0.854461,-0.023928,0.696198,0.174496,0.466616,0.0244392,0.0779774,-0.0546795,0.0041855,0.00549446,0.0723793,0.0624149,0.00575695,0.00773577,0.0574943,-0.0486597,0.0476781,-0.0750227,-0.0931346,-0.133897,-0.0241207,-0.00374358,0.0270126,-0.0486727,-0.0155915,0.0333592,-0.0356159,0.0278556,-0.0640943,-0.0481722,-0.341354],
			"b":-2.17954
		},
		"neuron 2": {
			"w": [-0.169014,0.160828,0.0718585,0.0685207,0.123674,0.110913,0.0410755,0.0590582,0.0320161,-0.0533412,0.0236446,-0.0243045,-0.0616073,0.0354364,0.0610291,-0.00151402,-0.00396546,0.00096319,0.0272743,-0.119624,-0.0809715,-0.101511,-0.0984452,0.0267675,0.00412997,-0.0630235,-0.0565921,-0.142198,-0.148099,-0.838903,-0.369613,0.126397,-0.0418919,0.128151,-0.0573965,0.108126,0.0756474,0.131181,-0.00816836,0.0504503,0.0212594,0.00975441,-0.0718477,0.029417,0.0262689,0.0198169,0.0484053,0.0124851,0.00773235,-0.0346988,-0.0227328,-0.00482836,-0.0288462,-0.0282627,0.104308,0.0062652,-0.0931446,-0.22703,-0.321916,-0.31082,-0.331844,0.589632,-0.0353587,0.0621931,0.0954658,0.093216,0.0861387,0.0573411,0.0605806,0.00903816,0.0243305,0.0227349,-0.0251493,0.0469722,-0.0249436,-0.00170598,-0.0111044,-0.0429389,-0.0687235,0.0124403,0.0797716,-0.00616186,-0.0921634,-0.0648569,-0.0985741,-0.116581,-0.00549143,-0.0467339,-0.181445,-0.665018,-0.534735,0.407658,0.351553,0.0981445,-0.139191,0.0117051,0.0149628,0.0294254,-0.0296933,-0.0416762,-0.0360326,0.0221982,0.00598231,-0.0894238,-0.117159,-0.113801,-0.123577,-0.0810564,-0.052003,-0.0221807,-0.0165364,-0.0602207,0.134441,0.0261958,0.0577864,-0.0373642,-0.0232021,-0.0659008,0.00335943,-1.44707,-0.339607,0.811934,-0.04201,0.15944,0.178354,0.0875883,0.0709245,-0.0372968,0.0998438,0.0734807,-0.111796,-0.113228,-0.021447,0.0693377,-0.0113616,-0.0182373,-0.0330865,-0.00121909,-0.00887253,-0.147419,-0.0345931,-0.0483132,-0.0837713,0.0321451,0.0606023,0.0992917,0.094927,0.0479627,-0.167003,-0.524311,-0.675156,1.00284,0.824037,0.139834,0.274008,0.144786,0.0198209,-0.0142924,0.0290316,-0.11868,0.0156665,-0.0143694,0.0318847,0.0686474,0.00967675,-0.0247347,-0.0846883,-0.076076,-0.058623,0.0083538,-0.0148734,-0.0531851,-0.00867774,-0.0096908,-0.0273916,0.0228331,-0.024778,-0.137594,-0.150601,0.162684,-0.726396,0.729651,0.416044,0.291073,0.134012,0.240471,0.338422,0.143312,-0.0559235,0.0730368,0.115455,-0.0179042,-0.0478568,-0.029451,-0.0347824,-0.0431291,-0.0928903,-0.0409268,-0.0506395,0.0263883,-0.0204106,-0.0200163,0.0188492,0.00842877,0.000270951,-0.0133203,-0.243116,-0.223695,0.00285045,-1.4334,-0.863437,0.814085,0.553247,0.490321,0.0325201,0.0187197,0.119973,0.0275926,0.218274,-0.0463078,-0.106751,0.0351223,-0.0795367,0.0195704,-0.0150056,-0.0363394,-0.0761756,-0.113291,-0.133794,-0.051229,-0.00671646,0.0446156,-0.0687104,-0.0633308,-0.160178,0.0607604,-0.125996,-0.149187,-0.110494,-0.970875,-0.326622,0.231536,0.258532,0.540092,0.290382,-0.0377454,-0.0584545,0.0574421,0.0981075,0.074057,-0.149332,-0.016074,-0.00849008,-0.0159509,0.00331111,-0.20595,-0.053387,-0.0850256,-0.0660486,-0.0885799,-0.0217183,-0.236798,-0.125781,-0.0734345,-0.056238,-0.116396,-0.157708,-0.181001,-0.166408,-0.242499,-0.180493,-0.0135263,0.286204,0.116545,0.225773,0.115165,-0.0308338,0.0899073,-0.00419226,-0.0715626,0.144835,-0.0147439,0.0102484,-0.0414678,-0.0462207,-0.077608,-0.234504,-0.083134,-0.211399,-0.0353663,-0.122586,-0.313376,-0.094376,0.000597799,-0.112081,-0.0718238,-0.114846,-0.403916,-0.419876,0.0639668,0.118749,-0.256384,-0.301064,-0.283886,-0.247567,-0.031471,-0.0954121,-0.0883361,-0.024914,0.012778,0.1233,0.105046,0.12471,0.012799,-0.118017,0.189392,-0.00202597,0.278747,0.138758,0.250952,0.204066,0.267262,0.1542,-0.0370725,-0.273822,-0.666886,-1.04287,-0.971268,-0.0800256,-1.33671,-0.0530388,-0.0649471,-0.270496,-0.0831713,0.00945409,0.0834816,0.122234,0.0513848,0.0236909,0.102671,0.227009,0.0243488,0.100924,-0.0536236,-0.0121818,-0.0161355,0.0239654,-0.186711,-0.0307065,-0.0385887,0.0668519,0.0597658,0.250042,-0.275247,-0.131483,-0.248268,-0.0959775,-0.535669,-0.153605,-0.852754,0.47317,-0.0367951,-0.456543,0.0229128,-0.0782658,-0.108802,0.0828635,-0.154076,0.172419,-0.126882,-0.0547826,-0.0453269,-0.200321,-0.0515247,-0.0194657,-0.159633,-0.0553909,-0.0164202,-0.0120628,0.0982128,0.111344,0.245685,-0.148069,-0.0530681,-0.578746,-0.340789,-0.368749,-0.597076,-0.514785,-0.369892,-0.153145,-0.345085,0.249654,0.0390654,-0.252881,-0.125918,0.0477896,-0.0673265,-0.187882,-0.0364981,-0.168029,-0.0834236,-0.157515,-0.0333882,-0.0490301,0.0483182,0.184606,0.0476978,-0.139544,0.0729899,-0.114351,0.396814,0.622058,0.233132,0.82202,0.582018,0.430873,-0.041494,-0.738566,-0.0443153,-0.0679722,0.297871,-0.0502188,0.0205707,0.0152579,-0.128325,-0.116375,-0.131582,0.0177803,-0.257969,-0.184278,-0.237457,-0.177694,-0.113495,-0.126179,-0.00856635,-0.00844953,0.0343762,0.42819,-0.110789,0.0710336,0.0849325,0.147347,-0.0596637,0.215563,-0.0597514,0.0455551,-0.2245,0.422193,-0.0760407,0.215287,-0.163898,0.0550164,-0.123126,-0.208465,-0.262072,-0.343337,-0.259027,-0.344204,-0.131461,-0.231034,-0.14124,-0.172025,-0.0319915,-0.0411486,-0.118829,-0.0676743,-0.159223,-0.23161,-0.0481581,0.144342,0.0146732,0.18451,0.0627025,0.196772,0.0619368,0.590083,1.84095,0.852287,-0.352569,-0.562114,0.1126,0.409611,-0.0965137,-0.042782,-0.148788,0.132937,-0.0112371,-0.0694849,-0.0755591,0.000782038,-0.126865,-0.109086,0.00741294,-0.0740225,0.0352319,0.0337198,0.120987,0.0527159,0.0411107,0.0124703,-0.214924,-0.112455,-0.144134,-0.0912671,0.00731916,0.211955,0.595855,0.230496,1.14256,-0.479499,0.427461,-0.146045,-0.228765,0.00599295,-0.0326413,-0.0590519,-0.197181,-0.0674154,-0.211914,-0.141756,-0.0724446,-0.138649,-0.0893788,-0.147339,-0.00473568,-0.134622,-0.040973,-0.162021,-0.280259,-0.228909,-0.257451,-0.212236,-0.113919,0.0123744,0.123047,0.278529,0.670864,0.780396,0.65612,-0.623699,0.215513,-0.000118975,0.0451523,-0.0909539,-0.124508,-0.0626752,0.0178661,-0.111682,-0.0473533,-0.130461,-0.0386947,-0.241739,-0.0742598,-0.195766,-0.110607,-0.107669,-0.0628165,-0.0149216,0.00225839,-0.048269,-0.0575303,0.107695,-0.0138936,0.108925,-0.267426,0.208499,-2.39331,4.49545,-0.327685,0.17361,0.874958,-0.0420773,0.022626,0.00490339,-0.161931,-0.0515046,-0.121407,-0.0898099,-0.138235,-0.0468714,-0.158761,-0.0494758,-0.0707055,-0.0766073,-0.0818035,-0.130384,-0.146439,-0.083988,-0.137519,-0.130925,-0.109557,-0.188313,-0.0788415,-0.0851566,0.264816,0.0422126,-1.70174,0.0217278,-0.103545],
			"b":-2.11027
		},
		"neuron 3": {
			"w": [-0.0229359,0.74151,0.13674,-0.105989,-0.0267093,0.0550486,0.0820691,0.0903429,0.047709,0.0580422,0.0539891,-0.0112908,-0.0065177,0.00168085,-0.0339814,-0.0128186,0.0656604,-0.016711,0.0163226,-0.0167571,-0.0200329,0.00209713,0.121485,-0.0424979,-0.196405,-0.295523,-0.145798,-0.252559,-0.655791,-0.859476,-0.536059,-0.386904,-0.0338089,0.385427,0.0772844,-0.0110604,-0.0169317,-0.0760955,0.0273502,-0.0331552,0.077245,-0.0561812,0.134295,0.0384261,0.201451,0.0389958,-0.0234026,-0.00713769,0.0995828,0.0107268,0.0099476,-0.0811521,9.01725e-05,0.0256606,-0.0569859,-0.021867,-0.883639,-1.05429,-1.75256,-0.789545,-0.0437501,0.906749,0.0982167,0.218176,0.0345133,0.0714402,-0.0845902,-0.045346,-0.0200202,0.0636717,-0.00547725,0.126447,0.0454952,0.0528781,0.127218,0.130377,0.0630358,0.0962277,0.0661914,-0.0104126,0.0917552,-0.150631,-0.0656825,0.163193,-0.304282,-0.275042,-0.216394,-0.579853,-0.700963,-1.00025,0.242976,-0.137355,-0.0646673,-0.0260419,-0.121762,-0.00735529,0.02716,-0.09106,-0.00472994,0.00330798,-0.0207577,-0.00929275,-0.0292546,-0.0118502,0.0241139,0.0448633,0.106296,0.0743716,0.0456058,0.19249,-0.0258948,0.0433821,-0.107259,-0.240667,0.164431,-0.00767056,0.120462,-0.50772,-0.836966,-0.73607,0.292909,0.070785,0.0042101,0.0622379,-0.0601409,-0.0140606,0.011267,-0.106178,0.0518329,0.0757372,0.124725,0.101439,0.00368704,-0.0454906,-0.0161237,-0.0504751,0.0772924,0.0389689,0.0873468,0.22287,0.0293753,0.0363165,-0.0259864,0.0257723,0.243664,0.0439877,0.12167,-0.491258,-0.722138,-0.212485,0.451171,0.0852448,0.0507351,0.0193952,-0.105374,-0.181863,0.0539304,0.0610772,0.142294,0.0684281,0.044053,0.244062,0.0813634,0.168631,-0.026792,-0.017548,0.0269914,0.0731118,-0.0130873,-0.00783477,-0.0308998,-0.00175178,0.155105,0.119674,0.219478,0.155452,-0.0388185,-0.548607,0.193267,-0.547104,-0.394363,-0.305873,0.268932,-0.00695379,0.0251856,-0.000877618,0.0451773,-0.0757207,0.0436269,0.0926711,0.170183,-0.0169732,0.0421806,0.0895829,0.0953852,0.105878,0.10786,0.129362,-0.0365658,0.175499,0.0969367,0.16679,0.0594704,0.202373,-0.117929,0.230739,0.575332,0.0190792,0.571447,-0.342465,-0.673574,-0.107571,0.0428981,-0.0425669,-0.0170146,0.100166,0.0790504,0.154001,0.206937,0.062225,0.0102664,0.17179,0.0368172,0.0552684,0.0289323,0.0167975,0.0791534,0.242261,0.0518933,0.0739428,0.128783,-0.144036,-0.0441553,0.196985,0.262014,0.167265,0.116677,1.08446,0.674561,0.670356,-0.0494602,-0.0670827,0.0802361,0.0573883,0.0116314,-0.104915,0.129547,0.126391,0.303348,0.0534417,0.190029,0.0216526,-0.0455544,0.0108432,-0.0379378,-0.0955333,0.0021581,-0.125868,-0.0694048,0.0773696,0.0306511,0.0444321,-0.016303,0.00272141,-0.149123,-0.183195,-0.221382,0.0657294,0.389449,0.60404,-0.129694,0.141238,0.156096,0.0891062,0.284013,0.104438,0.170034,0.0614737,0.115465,-0.0642172,0.0487813,0.0307152,-0.0928332,0.0162688,-0.147287,-0.16597,-0.160241,-0.0679503,-0.163162,-0.0261197,-0.0787365,-0.136009,-0.070114,-0.238654,-0.304276,-0.0950451,-0.531374,-0.485066,0.446844,0.285966,-0.198122,-0.107288,-0.0096525,-0.147489,-0.0899834,-0.0817344,-0.00669701,-0.0181486,-0.0998505,-0.166846,-0.245524,-0.0909857,-0.25994,-0.389922,-0.0540065,0.0530432,0.230515,-0.0776086,0.148231,0.0915858,0.0164611,0.298008,0.146322,0.178205,0.17497,0.256346,1.00152,0.561905,0.24014,0.711272,-0.09718,0.178144,-0.0869515,-0.132445,-0.0434406,0.0232487,0.0610001,0.0209698,-0.096776,0.0801176,0.0971391,0.0653278,0.0636039,-0.0489866,-0.00097781,-0.0973835,-0.0912323,-0.039818,-0.0244214,-0.073464,0.11121,-0.0839104,0.107673,-0.0127569,-0.28121,-0.224947,0.0522836,0.555212,0.680928,1.00761,0.295886,-0.110655,-0.0733882,-0.0706094,-0.142225,-0.171605,-0.0593017,-0.0746455,-0.25361,-0.0470343,-0.0458375,-0.0658319,-0.115022,-0.0483153,0.0304206,-0.0255363,-0.0915698,-0.188899,-0.0149369,0.00249736,-0.0305824,0.033679,-0.0871038,0.120925,0.190487,0.117119,0.332529,0.144496,0.459988,-0.0631147,-0.38751,-0.00548701,-0.092117,0.0667849,0.0418569,-0.0751366,-0.0279874,-0.0845773,-0.0376738,-0.155199,-0.00250728,0.00286469,-0.149857,-0.161931,-0.214108,-0.129258,-0.0298313,-0.0866431,-0.0641331,-0.060641,-0.111813,0.000508422,-0.0787058,-0.0494481,-0.075681,0.116808,-0.0314061,0.229407,1.52992,-0.0201027,-0.709148,0.126579,0.0144332,-0.0134985,-0.0670796,0.0284018,0.0403866,-0.0588562,-0.0154796,0.0571389,0.0348452,-0.00458378,0.0681359,-0.0289896,-0.0243402,-0.069726,0.0272523,-0.0026276,-0.117137,-0.0353748,-0.169837,0.0926975,-0.230101,-0.00528292,-0.313907,0.0743819,-0.402345,-0.376339,0.339877,-0.201741,-0.156874,0.0737616,-0.121254,0.0717112,-0.0405142,0.12213,-0.0259284,0.0703925,-0.00543408,0.0889443,-0.00142566,0.109158,0.0572,0.117601,-0.0154551,0.0235773,-0.0162119,0.0584199,0.0248609,0.0835568,0.110333,-0.0194084,0.022919,-0.190345,0.0052704,-0.197633,-0.0991833,-0.562143,-0.614947,-0.0921854,-0.414698,-0.205579,-0.00663009,0.02524,0.028802,-0.0579607,0.0285477,0.042801,0.0523238,-0.052583,-0.016653,-0.0195551,0.0545995,-0.0716886,-0.0614167,0.0516785,-0.0301295,-0.0356376,-0.0888119,-0.0216477,-0.0843639,-0.123182,0.0981896,0.227863,-0.0184807,-0.0864076,0.0260871,-0.106319,-0.412173,-0.800436,-0.0381986,1.36369,0.111624,-0.273827,-0.186313,-0.0476562,-0.0600736,0.00157968,-0.0132909,-0.0438556,0.0923586,-0.0849682,-0.0192181,-0.0948268,-0.174084,-0.0312977,-0.106485,-0.0506489,0.0751685,-0.0728999,0.0494572,-0.0671239,0.177168,-0.0302417,0.0104089,-0.390609,-0.244692,-0.0610085,-0.380717,-1.27569,-0.174493,0.370127,-0.137136,0.190235,-0.0653193,-0.045259,-0.016482,0.0201638,0.0546944,-0.087859,-0.0624412,-0.122816,0.029021,-0.0243515,-0.03086,0.0431108,0.0192363,-0.0466191,-0.064541,-0.021068,0.0808885,-0.117578,-0.0490563,-0.0571819,-0.16402,0.148272,-0.706736,-0.429644,-1.60708,-1.05308,-0.43514,0.724405,0.0572381,0.197582,-0.00957805,-0.0239734,-0.036034,-0.00751923,-0.0653271,-0.00411334,-0.0602825,-0.0610522,-0.0390718,-0.0373166,-0.0129462,-0.0664787,0.111871,-0.116726,0.0600448,0.0327659,0.0037484,-0.0432314,0.0134429,0.0558297,0.0505449,-0.189237,-0.134172,-0.18252,-0.262597,-0.688673],
			"b":-1.92094
		},
		"neuron 4": {
			"w": [0.560837,0.750844,0.111042,0.1252,0.137085,0.00625695,0.0823769,0.0757339,-0.124887,-0.170714,-0.0382272,-0.0449047,0.00610796,-0.0525754,-0.024426,-0.0754338,-0.0176808,-0.00379006,0.134104,-0.00321021,-0.0119944,-0.0117071,0.111902,-0.0721196,-0.13931,0.0132911,-0.209505,-0.162449,-0.134719,-0.342511,-0.414091,-0.240426,-0.206815,0.385305,0.191755,0.0299401,0.0595759,-0.0186022,0.0757732,-0.196967,-0.158019,0.0827263,0.0944051,0.0589441,0.133603,-0.00528585,-0.0167489,0.00295439,0.28792,0.0720665,-0.0468762,-0.052025,-0.0107313,0.0225964,-0.0012212,-0.231342,-0.226689,-1.28059,-0.518535,0.469332,0.595137,0.897885,-0.0362103,0.334445,0.108768,-0.0185706,0.0161408,0.0317067,0.113348,0.00332358,0.086949,0.0531725,-0.0122465,-0.0129572,0.110242,0.232075,0.260874,0.188817,0.173767,0.541208,0.282174,0.206566,0.207092,0.155602,-0.0746395,-0.264051,-0.0801432,-0.267432,-0.403361,-1.06188,0.781043,-0.469785,-0.155668,0.547025,0.0389037,0.194465,0.0422016,0.0846008,-0.0859371,0.013998,-0.0868423,0.0299358,-0.0470132,0.138117,0.024706,0.0826634,0.184111,0.0237103,0.175836,0.360614,0.202748,0.155814,-0.115807,-0.180929,0.0953704,-0.0232157,-0.0702793,-0.262162,-0.173088,0.399438,1.42466,0.00135641,0.157391,0.168694,0.11793,-0.0199783,0.140874,0.133006,0.0829099,0.0604887,0.0420582,-0.0258649,0.136172,0.0634934,-0.132263,0.0101358,0.0181549,0.0608056,-0.0693852,-0.0778394,-0.0281719,-0.0187712,0.228306,-0.0764784,0.199129,0.176392,-0.199205,-0.413664,-0.667687,1.52924,1.79379,0.370936,0.360685,0.0939808,0.142207,-0.00280912,0.00550352,0.169029,0.203152,0.257782,0.141049,0.0785429,0.216584,0.0131694,-0.0854499,0.0804297,0.118666,0.175568,-0.0916684,-0.0157254,-0.228692,-0.0402844,0.0730299,0.102906,0.151531,0.114316,-0.518815,-1.19589,-0.354173,1.87528,0.885056,-0.804041,0.12475,0.0411703,0.151965,0.148028,0.0456706,-0.196923,0.0358933,-0.210417,-0.0195013,-0.0797777,-0.0246523,0.0955054,-0.0127132,-0.0417289,-0.105787,0.0752969,-0.075805,0.0135957,-0.0892572,0.0918607,0.104814,0.309073,0.406647,0.404237,0.258724,-0.904101,-0.822439,-0.443821,-0.372841,-0.120196,-0.315459,-0.245288,-0.0270265,0.0788353,0.0028614,-0.105902,-0.0984314,-0.198913,-0.0780239,0.0181862,-0.0407791,-0.0504261,-0.16908,-0.0385326,-0.00786674,0.0408836,-0.0553549,-0.110683,-0.00890608,-0.130994,-0.168049,-0.0549456,-0.0233877,0.290836,0.880834,0.860501,-0.0657293,0.124872,-0.589508,-0.280966,-0.145639,-0.220574,0.103036,-0.111219,0.0117096,-0.24222,0.204778,0.102966,-0.13481,-0.110793,-0.205187,-0.223813,-0.292616,-0.172651,-0.175816,-0.148214,-0.143278,-0.17211,-0.0626634,-0.148784,0.238811,0.292919,0.179774,0.30304,0.559221,0.0783916,-0.239811,-0.201377,-0.0750637,0.109046,-0.00795752,-0.0552235,-0.103334,0.0818795,-0.0519716,-0.175449,-0.0588952,-0.106081,0.018908,-0.188378,-0.148963,-0.157991,-0.107295,-0.114554,-0.29861,-0.164315,-0.142979,-0.166468,-0.126996,-0.0314573,0.038199,-0.261118,0.165815,0.155735,-0.210806,-0.0235501,-0.305984,-1.50351,-0.52299,-0.19875,0.172504,0.0211702,0.111385,0.240377,-0.298627,0.0937207,0.40463,0.0849432,0.189848,0.241548,-0.146469,0.39412,0.543234,0.120678,-0.587461,0.380513,-0.294852,-0.247233,-0.139809,0.18092,0.316888,-0.51255,-0.587609,-1.73049,-1.53006,-1.61231,-1.57276,-0.910812,0.190289,0.465104,0.139547,-0.0846389,0.0890125,0.0244725,-0.278615,-0.298934,-0.023571,-0.0146098,-0.030153,-0.0717513,-0.0276098,-0.0388346,-0.236168,-0.0631492,0.0731234,0.0154888,0.155551,0.206461,0.237992,0.0594841,0.0559119,0.289464,0.962819,0.517958,0.446811,-0.381758,0.0399426,0.217381,1.05166,0.545623,-0.0981332,0.0160456,-0.0537524,-0.119915,0.129472,0.0854079,-0.267118,-0.0278468,-0.0637596,-0.0266239,-0.0267817,-0.0344989,6.96359e-07,0.0303346,0.0200509,-0.0377891,0.110844,0.138493,0.0268476,0.322531,0.142868,0.0737062,0.0958597,0.0562922,1.00896,0.952009,0.74808,-0.362511,-0.261052,-0.575079,-0.148399,0.277569,0.0433962,0.255189,-0.0566313,-0.155183,-0.107604,-0.0976269,0.0104056,-0.154549,0.00383362,-0.100868,-0.0478047,-0.00073956,0.065757,-0.0689202,-0.0306748,-0.0685278,0.104732,0.0638375,0.141359,0.0659218,0.448437,0.572825,-0.00605582,1.23307,1.53109,0.266233,-0.534593,0.212174,0.0280506,-0.184511,0.111697,0.0610608,0.0394507,-0.158405,0.061386,0.07342,0.000233503,-0.114439,0.0224613,-0.062733,-0.0126247,-0.0724001,-0.0648561,-0.0379556,-0.21922,-0.20521,-0.153769,-0.357999,-0.245096,-0.115933,0.0422975,0.0608009,0.300485,0.277031,0.553663,0.880866,0.508716,0.0913078,-0.1449,0.0790069,-0.142909,0.00397522,-0.0568761,0.165259,0.104218,-0.0315826,-0.193696,-0.0647162,-0.091314,-0.00333584,-0.165902,-0.150371,0.0307667,-0.0402683,0.0466924,-0.109453,-0.0266123,-0.0782766,0.206682,-0.393022,0.0580162,-0.122337,0.283757,0.595994,0.748042,1.09341,-0.186576,-0.313779,-0.0416458,0.0868366,0.0990297,-0.0236354,-0.00372545,0.0046054,-0.0934611,-0.128411,-0.0661748,-0.0677,-0.0160232,0.00525385,-0.146903,-0.0212694,-0.0842591,-0.120968,-0.00551393,-0.0214851,-0.105161,-0.269914,-0.33707,-0.0792872,-0.0788839,0.11348,0.256084,0.675762,0.30364,1.00174,-0.827639,0.30438,0.168977,-0.0294365,0.0701116,-0.0288808,0.203409,0.0238942,0.0775136,-0.0603248,-0.0422837,-0.0163501,-0.0553416,-0.055632,-0.0439973,-0.0282158,-0.0855334,0.1017,-0.155384,0.141781,-0.0620921,0.0183996,0.011905,-0.00709951,0.348955,0.147659,0.365493,0.42793,0.0173048,0.838358,-0.393171,-0.296826,-0.0490972,-0.0864251,-0.150127,-0.10091,-0.149983,0.0452554,-0.118945,-0.136533,-0.136835,-0.0494116,-0.198327,-0.0372683,-0.0960167,-0.115667,-0.0986419,0.00484871,0.00215955,-0.217854,-0.0557375,-0.211905,0.123527,0.0226932,-0.0623012,-0.430497,0.984248,-0.315433,-0.778648,-0.0343679,-0.509351,-0.0430701,-0.229069,-0.355481,0.0962092,-0.248087,0.0624145,-0.180498,-0.112737,-0.130944,-0.0913749,-0.224687,-0.171978,-0.103534,-0.131202,-0.148248,-0.0484961,-0.0774794,-0.171402,-0.0717995,-0.213406,-0.041353,-0.0839621,0.0187609,0.086396,0.21182,0.116391,-0.00970848,0.173471,0.023339],
			"b":-0.33685
		},
		"neuron 5": {
			"w": [0.508481,1.12544,0.18619,0.172335,-0.00805388,-0.00219168,0.0888418,0.00229643,-0.0218949,0.105294,0.000534851,0.0249959,-0.0411934,-0.072325,-0.080003,-0.0786583,-0.0525181,-0.116794,0.0435742,-0.161589,-0.0939528,-0.103631,-0.197728,-0.120598,-0.117874,-0.536983,0.00632947,-0.0376077,0.573568,-0.697438,0.135214,0.103767,0.081215,0.0373805,0.0457132,-0.026676,-0.0721378,0.0101011,0.0634135,-0.0319135,-0.0650456,0.00507525,-0.03167,-0.0217061,0.0098961,-0.0690821,-0.0895735,-0.136022,0.0389473,-0.0291614,-0.127037,-0.0667643,0.0100516,-0.171739,0.0527035,-0.445338,-0.083426,1.02083,0.883794,0.506055,-0.188621,1.3303,0.711606,-0.0700035,-0.0526105,-0.0590616,0.12556,-0.0754389,0.0830033,-0.0214544,-0.0492866,0.14035,-0.0838141,-0.0725939,-0.066412,-0.126752,0.0341382,-0.0971107,-0.0574924,-0.0519842,-0.0240005,-0.0427312,-0.14957,-0.106429,-0.303766,-0.452535,-0.0198062,0.358218,1.02453,0.196234,-0.413286,-0.188032,0.0189966,0.0453518,-0.0593279,0.071998,0.00378309,-0.0587531,-0.0739342,0.0256714,-0.178444,-0.121365,-0.065811,-0.0357811,-0.186126,0.00243678,-0.0435765,-0.048954,-0.0389228,0.0657531,0.0240737,-0.300839,-0.0977783,-0.252263,0.0997433,0.0200473,0.0256159,0.226488,0.526299,1.0171,0.112577,-0.375617,0.0238991,0.156507,0.0773754,0.175753,-0.0125217,0.128675,-0.0464489,-0.0318237,-0.0490729,0.130086,-0.0253803,-0.169868,-0.174337,0.0206428,0.00279096,-0.146043,-0.0178657,-0.255579,-0.0438548,-0.10478,-0.0567696,-0.205899,0.0595304,-0.146514,0.0478864,-0.178148,-0.255382,0.586383,0.160261,-0.269591,-0.154475,0.235201,0.108464,0.167875,-0.00812449,-0.014243,0.0431404,0.0830068,0.135265,0.0788275,-0.0353261,0.0805154,-0.0377182,0.130525,-0.0168137,0.103629,0.106273,-0.0530375,0.0856652,-0.170278,0.0551675,-0.0449811,0.0991108,0.0674152,-0.341618,-0.325306,-0.35369,-0.204055,-0.0513089,0.616081,-0.131046,0.127328,0.157457,0.338262,0.211078,0.048708,0.152623,0.212449,0.134941,0.0417686,0.0901231,0.123111,0.0459399,0.0944131,0.0853964,0.0955762,-0.0566354,-0.0741064,-0.0765615,-0.0279889,-0.0213954,0.0427515,0.0618698,-0.100448,-0.30041,-1.62613,-2.32085,0.20832,-0.269059,0.104681,0.269624,0.0790522,0.0283959,0.161532,0.105142,0.0786183,0.388834,-0.0529658,0.0615014,0.0573521,0.0443234,0.126905,-0.113629,0.0228438,0.0159725,0.115227,-0.170309,0.0545079,-0.0732258,0.124337,0.0567878,0.076703,0.0569995,0.0527754,0.014947,-0.297411,-0.359818,-0.818501,-0.0274624,0.208592,-0.202556,0.225427,0.326731,0.0459774,0.234238,0.0203993,0.0554394,0.0601457,0.200057,0.0441338,0.0796506,0.0793579,0.0282316,0.131992,0.034214,0.0740976,-0.0768225,0.108346,0.134618,0.0295445,0.420188,0.0828231,0.0592355,-0.199805,-0.419926,-0.846549,-0.948031,-0.743713,0.121616,0.12801,0.241099,0.0373532,0.218288,-0.0240892,0.313847,-0.0332198,0.0854813,-0.0537215,0.217416,0.0373173,0.00631532,-0.101101,-0.219625,-0.134283,-0.14046,-0.123921,-0.220143,-0.177967,-0.2195,-0.339783,-0.0629087,-0.237141,-0.0585122,-0.138966,-0.16899,-0.197539,-0.576544,-1.66882,-0.302233,-0.0626412,0.1786,0.116982,0.061998,0.116286,0.153024,0.114052,0.334201,0.14994,0.0823507,0.311028,0.109369,0.0583555,0.0853106,0.155635,-0.103307,0.209646,-0.0414733,-0.00939074,0.113348,-0.0178414,-0.0487278,-0.236624,-0.455923,-0.588504,-0.772136,-0.472925,-1.4769,-1.66257,-0.361086,-0.150835,0.0345351,0.143891,0.0273415,-0.0845976,0.160126,0.0654073,0.0338489,-0.0194745,0.00670925,-0.130896,0.0296908,0.113016,-0.0889439,0.0149879,-0.0576095,-0.0314602,-0.0565812,0.0837,0.136974,0.0675114,0.162058,0.14159,0.109143,0.00407504,0.0147279,-0.293127,-0.0533971,-0.227654,0.0683315,-0.151436,0.0890155,0.0282767,0.013698,0.030036,0.0823112,-0.148578,0.0686559,-0.0799023,-0.0920442,0.00546496,-0.063009,-0.045211,-0.219008,-0.107829,-0.137798,-0.0676033,0.00106693,0.0435795,-0.0110968,0.209022,-0.0208507,-0.0449186,-0.150303,-0.142954,-0.767057,-0.65251,-0.795591,-0.744107,-0.0419319,-0.023789,-0.0326061,0.0168832,-0.268037,-0.0396659,-0.207781,-0.0694499,0.0095226,0.0726084,-0.0487205,-0.0389295,-0.15992,-0.057041,-0.153859,0.00526343,-0.0331189,-0.0305617,-0.144584,0.113388,-0.0320969,0.26653,0.279905,0.17042,0.520694,0.428231,0.688843,0.953253,0.150745,-0.0720174,-0.108215,-0.106459,0.0329043,0.126971,-0.0171309,0.0085256,-0.0699189,-0.120156,0.039885,-0.218369,-0.0234803,-0.0111707,0.0435769,0.0771402,0.0303802,0.123949,0.0779619,-0.0050191,0.0548364,-0.0359299,0.156013,-0.320011,0.0476974,-0.0965719,0.254528,-0.0986076,0.770989,1.30832,-0.619664,0.103129,-0.225405,-0.746929,-0.258439,-0.0498228,-0.189726,-0.155126,-0.230868,-0.141335,-0.0636873,0.0412104,-0.0425901,0.0855799,-0.0291047,-0.027537,-0.0362024,-0.0553192,-0.0478957,0.0110632,-0.00363089,-0.123992,-0.0410594,0.282204,0.20006,0.0634327,0.479601,0.143117,0.362067,0.37341,0.330232,0.215511,-0.420018,-0.580766,-0.272099,-0.28693,-0.225608,-0.285025,-0.232799,-0.155943,-0.110594,-0.0931103,-0.0633941,-0.0915494,0.00552597,-0.0854569,-0.114658,-0.019169,-0.115437,0.0608613,0.101674,0.16466,-0.151359,0.0364033,0.0299401,0.217484,0.206234,0.25487,0.454418,0.353808,0.614889,0.71799,0.312349,0.976291,0.632922,0.00954473,0.0414274,-0.0117281,0.0391611,-0.126299,-0.17351,-0.192859,-0.124328,-0.0318857,0.00431913,0.0512846,-0.0351181,0.0826607,0.0364988,0.0361815,-0.115887,0.212474,-0.174337,0.253884,0.129939,0.151814,0.384974,0.3618,0.42694,0.264824,0.116836,0.484747,0.27732,-0.564628,-0.162988,-0.174865,-0.0425601,-0.0851285,-0.0621177,-0.0745685,-0.0948861,-0.19894,-0.154353,-0.0864897,-0.186536,-0.0516495,-0.131564,-0.251223,-0.0738759,-0.00384893,-0.0203821,-0.016274,0.102052,-0.0565622,0.0738952,-0.0905845,0.173272,-0.384801,0.393616,-0.217158,0.20445,-0.388236,-0.0563951,0.1261,0.143034,-0.15035,0.00611057,-0.202058,-0.0806799,-0.242937,-0.0906274,-0.130026,-0.0997518,-0.149619,-0.161228,-0.08103,-0.159673,-0.152049,-0.109497,-0.146613,-0.0970331,-0.170952,-0.148326,-0.150829,-0.106822,-0.136564,-0.113284,0.181014,0.281162,-0.0887624,-0.108886,0.46494],
			"b":-1.28619
		},
		"neuron 6": {
			"w": [0.141769,0.651855,0.497128,0.172447,0.119294,0.195623,0.153533,0.069149,0.0293439,0.129404,0.152899,0.0406441,-0.169388,-0.012926,-0.166201,-0.0893939,-0.0788827,-0.08813,-0.115568,-0.168011,-0.195025,-0.126989,-0.0437673,-0.069761,0.0655323,0.203065,0.509128,-0.299393,-0.325821,-0.707283,0.816957,0.0263553,0.458092,0.550841,0.101855,0.306657,-0.00495393,0.00738373,0.0516386,0.0716623,-0.074631,0.0230036,0.145543,0.00317252,-0.0130321,-0.0754059,-0.0360903,-0.110858,-0.0681637,-0.0707374,-0.0396867,-0.00838267,-0.184639,-0.0744138,-0.0285483,0.586122,0.193397,-1.19448,-1.08492,0.715676,1.22059,1.14462,0.101523,0.0130038,0.0694671,0.0703068,0.199473,0.0465815,0.177545,0.112475,0.0134267,0.16074,0.000639556,-0.0286903,-0.055043,0.0467168,0.0450289,-0.0122558,-0.0811368,-0.181515,0.0455702,0.0176727,-0.1041,0.0576593,-0.277743,0.0759667,-0.158533,-0.228029,-0.465675,0.688184,0.48391,-0.288731,-0.0532245,0.17099,-0.0589043,0.00780289,-0.0305616,0.107027,0.00362443,-0.0387525,0.102011,-0.0291243,-0.051214,-0.156107,-0.0593423,-0.125052,-0.0587116,0.000465336,-0.101899,0.00966905,-0.0389804,0.00494261,0.0281909,-0.208954,0.107523,-0.0943255,0.0162463,-0.201252,-0.201331,0.648808,-0.0252121,-0.795057,0.0584211,0.0429914,0.140982,0.0993108,-0.0320677,-0.119426,0.0156815,0.032377,0.0215242,-0.0519626,0.0120542,0.0601443,-0.107945,-0.0239741,0.0510898,0.00946429,-0.00318549,-0.082702,-0.114045,0.0184507,0.314278,0.106137,0.0293595,-0.0717534,-0.113805,-0.378876,-0.543315,0.401428,0.203792,-0.225994,0.184611,0.052959,0.132362,-0.0675154,0.0302773,-0.180713,-0.0908627,0.0317425,0.0873101,0.0951642,0.0264946,0.107119,-0.00312671,-0.195635,-0.0582013,-0.0418526,0.00839033,-0.0487275,-0.0675801,-0.11749,0.0669043,-0.040976,0.173992,-0.10257,0.116501,-0.0969425,0.312926,0.00390607,0.784898,-0.849969,0.488178,0.161069,-0.00524772,-0.174329,-0.0803723,-0.0224567,-0.149699,0.0884765,0.175511,0.137029,-0.0751704,-0.157888,-0.129857,-0.069506,-0.232338,0.0241894,-0.153679,-0.0258228,-0.187374,0.104115,0.060886,0.089931,0.334152,-0.071215,-0.389435,-0.151097,0.339376,0.273886,0.154623,-0.093399,-0.303967,-0.142349,0.14004,0.0555192,-0.159122,-0.254543,-0.0268969,-0.118833,-0.117981,0.0574189,-0.196771,0.0436219,-0.111074,-0.177899,-0.0797523,-0.091033,-0.124794,-0.166973,-0.0083666,0.227779,0.0664605,-0.0301794,0.113111,0.0849222,-0.669757,0.391445,0.0741565,-1.41729,-0.126681,-0.203235,0.1438,-0.0969966,-0.0979082,0.0022773,0.0882308,-0.0361283,-0.0283496,-0.0292877,0.0571661,-0.0596737,0.0652117,0.0710674,-0.0114317,-0.097503,-0.134182,0.0137372,-0.0123736,0.0820722,-0.0296631,-0.0686987,0.0417123,0.164911,-0.194573,0.00269673,0.257899,0.792235,0.619651,-0.902705,0.0652898,-0.0392909,-0.148922,0.199395,-0.0609,-0.0462218,0.134036,0.0502504,0.0430397,0.0802586,0.0499183,0.0648195,-0.0556328,0.0269178,0.0241537,0.0804365,0.186761,0.133808,0.0164027,0.0791059,-0.00455068,0.0650366,0.0103129,-0.124762,0.0379031,0.0509024,-0.492634,-0.725116,-0.619515,-1.11978,-0.0402692,-0.0858055,0.705197,0.160813,0.197637,0.287581,0.114669,-0.0208252,0.360039,0.0789646,0.491849,0.302448,0.0229413,0.0836014,0.0474721,0.0895109,0.108253,0.241486,0.234102,0.073809,0.21445,0.198553,0.290413,0.114667,-0.243745,-0.60855,-0.776601,-1.12553,-0.176922,-0.995517,-0.86062,1.34254,0.377646,0.080051,0.277303,0.142373,0.0456449,0.117226,-0.0330783,-0.0763377,0.00797029,0.0205661,0.0271385,0.194655,0.0484365,-0.135359,-0.104265,-0.0957704,-0.0225171,-0.094842,-0.063874,-0.309346,-0.00959328,0.0143163,-0.231993,-0.138927,-0.0980009,-0.180078,-0.049414,-0.7816,-0.594936,1.01537,0.339049,0.220148,0.113835,0.0318256,0.104784,-0.0610449,0.388008,-0.0458203,0.00286408,0.0443974,-0.00518881,-0.146429,-0.112339,-0.0861909,-0.0661152,-0.117331,-0.0809841,-0.0181558,-0.0427574,-0.0319228,-0.068807,-0.184241,0.037254,0.0305296,-0.0277251,-0.22393,-0.209601,-0.604484,-1.08283,0.584244,-0.0457933,0.135389,0.0905387,0.154829,0.0758187,-0.10565,-0.0287271,0.321121,0.0605648,-0.0036276,0.00532204,-0.227051,-0.0718281,-0.101715,-0.0290743,-0.0788695,-0.0155977,-0.140386,-0.156417,-0.155529,-0.069026,-0.033434,0.176136,0.14458,-0.134067,-0.270135,-0.456054,-0.0361795,-0.562971,0.248254,0.0266308,0.244095,0.213727,0.0879364,0.0140335,0.0552826,0.0855587,0.0368467,0.0328215,-0.106374,-0.109929,-0.0896148,-0.116687,-0.0365007,-0.0231542,-0.0921142,-0.0973814,-0.1152,0.0450809,-0.394083,0.0423403,-0.0267193,0.241847,-0.028583,-0.0538829,-0.294324,-0.249534,-0.0567949,-0.179727,-0.33263,-0.0406889,-0.0740894,0.0669384,-0.0886829,0.0164922,-0.0392878,-0.0284579,-0.13109,-0.054821,0.167438,0.0177584,-0.0916748,-0.0929161,-0.0629274,-0.0627988,-0.0651306,-0.0812917,-0.147645,-0.237751,-0.125419,-0.026242,-0.140724,0.21246,0.184357,0.416659,1.10301,0.501761,-1.20306,0.123021,-0.388334,-0.167765,0.0567573,-0.089665,-0.0947966,-0.102089,0.00163981,-0.0890711,-0.0849988,-0.145052,-0.151601,-0.103713,0.293747,-0.126533,-0.119344,-0.0838409,0.0753426,0.055107,0.126371,0.0043085,-0.203292,-0.0540577,-0.230148,0.0605413,0.101878,0.281871,0.745899,0.61997,0.522259,0.16796,0.43831,0.102242,0.00410288,0.160704,0.144111,0.0120944,-0.246024,-0.0798199,-0.16558,-0.228663,0.0280552,0.00723547,0.0664594,0.13712,0.0797292,0.175244,0.233779,-0.0732031,0.343909,-0.0561532,0.172116,0.0014351,-0.262719,-0.0381186,0.0985454,0.134539,0.430017,0.788507,-0.0402999,0.188098,-0.381975,0.101392,0.13512,-0.161281,-0.0498496,-0.180752,-0.0639095,-0.044711,-0.108342,-0.0877768,-0.0304043,-0.164154,-0.0525711,-0.109536,-0.110592,-0.113886,0.059517,0.033758,-0.0442171,0.0998074,-0.00548416,0.128435,0.0917813,0.12762,-0.473595,-0.0571302,-2.38389,3.21478,-0.635425,-0.276613,-0.0716342,-0.375891,-0.224991,0.0492895,-0.166068,-0.0201397,-0.104911,-0.0513223,-0.0305114,-0.175269,-0.120709,-0.109851,-0.0890423,-0.0860533,-0.120308,0.00714032,-0.154648,-0.17616,-0.183986,-0.140615,0.029284,-0.155805,-0.125667,-0.265872,-0.0464323,0.14849,-1.17637,0.264302,0.111068],
			"b":-1.07438
		},
		"neuron 7": {
			"w": [-0.301596,0.669486,0.186193,0.0725249,-0.0603409,0.109838,0.0397572,0.0441173,0.0245955,0.000533141,-0.0445796,0.0322394,0.0133125,0.0614811,-0.0104954,0.0255584,-0.0365539,-0.0184754,-0.0209778,-0.0386567,-0.0090751,0.0400234,-0.0332196,-0.0371001,-0.120356,-0.0544092,-0.22609,0.0116325,-0.0889658,-0.560016,0.525897,0.65854,0.146236,0.212612,0.13247,-0.0633263,0.0172907,0.0090439,-0.0098948,-0.062951,-0.00388395,0.124478,0.0707094,-0.0356747,0.012719,0.0565024,-0.0092834,0.00268031,-0.0636804,-0.0441931,0.0440858,-0.0181461,-0.0338072,-0.0375418,-0.0240791,-0.014324,-0.149116,-0.359908,-0.698609,-0.357743,-0.638524,0.898351,0.42908,0.133007,0.157247,0.00684415,-0.0208504,-0.0586438,-0.129108,-0.126221,0.0672454,0.0184815,0.0493858,0.0454778,0.0272489,0.0374953,-0.0634732,-0.0587847,-0.0221211,-0.115972,-0.025257,-0.0252952,-0.0680806,-0.080373,-0.23828,-0.199174,0.0107766,-0.0440866,-0.138961,-0.488392,-0.746175,0.52547,0.288288,0.0270631,-0.111056,0.0617963,0.0228997,-0.081105,-0.00238698,-0.0440604,-0.222842,-0.0486706,0.0433759,0.123364,-0.0300879,-0.0309831,-0.0293367,-0.150011,-0.062083,-0.0858511,-0.0769709,-0.0691583,0.0617099,-0.0674687,-0.0376007,-0.0556919,0.0168469,-0.188981,-0.0803005,-0.627799,-0.430987,1.01417,0.427145,0.308359,0.202076,0.0664982,0.0588715,0.117939,0.0821521,-0.0225157,-0.186593,1.15325e-05,0.000887535,-0.0919199,-0.0167412,0.00275608,0.0489261,-0.101245,-0.0439978,-0.0750898,-0.0611193,-0.0679791,-0.0602192,-0.163862,-0.0471647,-0.09954,-0.0443979,-0.175229,-0.207503,-1.2861,-0.21485,0.961034,-0.158197,0.136335,0.109334,0.212973,-0.088574,0.046135,0.148818,0.028934,-0.0958697,0.0626111,0.141138,0.0608815,-0.0457974,0.00975563,-0.0533559,-0.00489653,-0.0144908,0.0670509,0.0137937,-0.0588749,0.0698736,-0.119773,-0.17899,0.0042328,-0.366268,-0.238813,-0.0937817,-3.55544,-0.582881,2.64993,-0.0242122,0.0295192,0.212098,0.385689,0.37023,-0.0699125,0.0486409,0.110838,0.137904,-0.0506972,-0.0554602,-0.0252931,-0.0692744,0.0136306,-0.0423834,-0.0337889,-0.114242,-0.113775,-0.102135,-0.210462,-0.1467,-0.0333633,-0.221766,-0.274737,-0.0440258,-0.56715,-0.431186,-0.70886,-0.397102,-0.204646,0.987623,0.0247499,-0.104831,-0.042983,0.12036,0.0669963,0.224236,0.10323,-0.0672545,-0.119736,0.130151,-0.142953,-0.070589,-0.0433801,-0.0844671,-0.240884,-0.291208,-0.326363,-0.325023,-0.160741,-0.114593,-0.0366021,-0.0142061,0.140004,-0.185768,-0.392397,-0.316553,-0.672214,0.250971,0.540026,-0.134623,0.177149,0.170499,0.0927993,-0.0514296,-0.245495,0.0618432,0.0891647,0.0501411,0.0483789,-0.079452,-0.0581624,-0.105659,-0.125264,-0.002892,-0.0325581,-0.169161,-0.100006,-0.184793,-0.487399,-0.185299,-0.202526,-0.128198,0.0690942,-0.00224016,-0.360489,-0.273973,-0.859633,0.289294,0.133916,0.112089,-0.0237596,-0.0878529,-0.323982,-0.121926,-0.20809,-0.169354,-0.223674,-0.0903269,-0.209737,-0.22233,-0.206213,-0.249156,-0.305563,-0.282311,-0.248501,-0.285456,-0.168827,-0.291834,-0.257713,-0.161216,-0.500864,-0.0694076,-0.407012,0.338728,0.959417,-1.59789,0.357611,1.19907,-0.595543,-0.573417,-0.71477,-0.693059,-0.568772,-0.818283,-0.599769,-0.402845,-0.51186,-0.550719,-0.122656,-0.345944,-0.00669441,-0.000933699,-0.018241,-0.332953,0.359299,0.0416147,0.200547,-0.0502479,0.152169,0.260782,0.153946,0.756447,0.424709,0.245331,1.22565,3.00623,-0.50346,0.756156,-0.393112,0.0924361,-0.261299,-0.146157,-0.158622,-0.382989,-0.4074,-0.301998,-0.102097,-0.143558,-0.178845,-0.351605,-0.233044,-0.254659,0.0671282,-0.0692911,0.0417592,0.144643,0.00276844,0.131004,-0.107796,0.330248,0.0069587,-0.902673,-0.637945,-0.238116,0.666691,1.12167,0.117352,-0.0461768,-0.127939,0.101407,-0.236335,-0.255756,-0.233548,-0.0515246,-0.192748,-0.310127,-0.215685,-0.116418,-0.201941,-0.217937,-0.153051,-0.152583,-0.172572,-0.170452,-0.271972,-0.00451512,-0.0554805,-0.0986809,-0.0220427,-0.0840476,0.19419,0.143184,0.066308,-0.827984,0.272154,-0.14095,-0.812549,-0.644923,1.04343,-0.0357414,-0.154562,-0.0915873,0.00336506,-0.139965,-0.0563361,-0.0192906,-0.167885,-0.104568,-0.0250149,-0.220538,-0.175489,-0.270782,-0.141337,-0.160132,-0.0177115,0.0366664,-0.127927,-0.193005,0.033271,0.131841,0.0241616,0.303804,0.48002,0.371306,2.27033,2.32353,0.422371,-0.386678,0.982346,0.532091,0.169283,0.0219077,0.0793103,-0.194208,-0.159073,-0.280387,-0.265358,-0.0794858,-0.320694,-0.0922686,-0.190527,-0.0798973,-0.0261004,-0.102924,-0.0806967,-0.170139,-0.224006,-0.130734,0.0409097,-0.0956328,-0.096547,-0.0657974,-0.276472,0.49568,1.1243,-0.0709276,0.597286,-0.331237,1.0564,0.277211,0.169697,-0.0177719,0.102778,-0.0281141,-0.116777,-0.174181,0.0225841,-0.0113137,0.0173909,-0.00157962,-0.0231774,0.0577213,-0.0203007,-0.0295337,0.0404284,-0.127492,-0.0480503,0.00335953,-0.0138387,-0.136391,-0.0737625,0.0546856,-0.085506,-0.0219492,-0.0823426,-0.149033,0.357053,0.0650996,0.377969,0.722833,-0.03078,0.0309529,0.0274483,0.0595293,-0.0373305,0.0268717,-0.0525355,-0.00377311,0.046234,-0.0668842,-0.111758,-0.0759903,0.00617526,-0.0116526,0.00479031,0.0686006,0.0258045,-0.0503783,-0.219216,-0.13158,-0.054607,0.0620933,0.0277065,-0.0439593,-0.00198113,0.280035,0.183422,-0.562961,0.866833,0.15396,0.107985,-0.107507,-0.0371688,-0.0523009,-0.0141923,-0.0500812,0.0323185,-0.0523221,-0.0132558,-0.0525131,-0.0988018,-0.0913799,-0.0260311,-0.154713,-0.0450738,-0.0353597,-0.328174,-0.145354,-0.114556,0.0215734,-0.0156929,0.0623916,0.0107946,-0.176832,-0.155945,-0.247474,-0.0700498,-0.218926,0.124387,0.0560838,-0.065998,0.00870865,-0.00739606,-0.0670597,0.0246531,0.011399,0.0104786,0.00299383,-0.0016303,-0.0201,0.0285737,0.00071348,-0.0241971,-0.0805888,-0.0845139,-0.0978968,-0.0142141,-0.0382111,-0.0350352,-0.0561557,-0.0436826,0.00518076,0.122305,0.088181,0.173088,-0.715913,-0.970041,-0.0716301,0.139631,0.124752,0.0446022,0.0991964,-0.0382683,0.0482279,0.0117201,-0.0302823,-0.0135404,-0.0567824,0.0144629,0.0280968,0.0140989,-0.0751105,0.0174384,-0.0112183,-0.0436132,-0.0485773,-0.0600199,0.0621399,-0.00559831,0.0101011,0.0518244,0.103679,-0.0072913,-0.0379167,0.1182,-0.241395,-0.528524],
			"b":-3.13823
		},
		"neuron 8": {
			"w": [0.392531,0.305567,-0.159029,-0.00159096,-0.0573484,-0.136238,-0.0827505,-0.0436185,-0.00837853,-0.0563165,0.0286287,0.00871112,-0.00196297,0.0283557,0.012113,0.0381609,-0.0886313,-0.0426735,0.0367942,-0.0571193,-0.00338612,-0.0237588,-0.0155092,-0.100672,-0.0551252,-0.23482,-0.0768385,-0.139516,0.310597,-0.0821044,0.0503533,0.0935015,-0.0942778,-0.0525966,-0.019816,-0.0166375,-0.0965591,-0.0450108,0.0212002,-0.00150793,-0.0801845,0.0101495,-0.0473071,-0.00437779,0.0260199,-0.0605388,0.0207072,-0.120482,0.063918,-0.0626892,0.001488,0.0497661,0.0735529,-0.00320403,-0.0513549,-0.291278,0.198587,0.0484312,-0.0109407,-0.538982,-0.157719,0.32489,0.540103,-0.0473488,-0.077256,-0.0780017,0.105599,-0.0633523,-0.0989294,-0.0301205,-0.0284581,-0.00970664,0.00501949,-0.0739747,0.000541968,-0.0471532,0.0408354,0.0309251,0.0764328,-0.038175,-0.000225864,0.226306,0.0242317,-0.0150438,-0.110084,-0.204229,0.12466,0.219312,0.563639,-0.511107,-0.247487,-0.0245012,-0.0718781,-0.179224,0.00212155,-0.076409,-0.0736144,0.0152264,-0.0900476,-0.00684744,0.0851664,-0.0668841,-0.0698789,-0.0877367,-0.0493462,0.0413366,0.0716386,0.000169192,0.0792544,0.178043,-0.0493511,-0.116464,-0.0603542,-0.0249237,0.0433875,0.0147198,0.00151574,0.0585081,0.127957,0.280048,-0.272057,-0.255134,-0.128075,-0.234698,-0.218974,0.0691623,0.0148452,0.0403731,-0.021648,0.0677204,-0.0503421,-0.0164754,-0.0134161,-0.0592068,-0.0585641,0.0867344,-0.0195334,-0.0133427,-0.0217264,-0.13252,0.153939,0.115106,-0.0118893,-0.113155,-0.047862,-0.115984,-0.0848334,-0.0226071,-0.145202,0.0241265,-0.217758,-0.383861,-0.31517,-0.03692,-0.172479,-0.0514508,-0.0126961,-0.091871,-0.0318071,-0.0352655,-0.0126928,0.20113,-0.037248,0.0899421,-0.0492447,0.116272,0.0779186,0.149843,0.094632,0.060551,0.198556,0.00502076,0.32837,0.028542,0.304222,0.151555,-0.13352,-0.348581,-0.244453,-0.225677,0.141926,-0.272243,-0.26567,-0.0401923,0.086996,0.101034,0.00282129,-0.0771864,0.13869,0.153617,0.116541,0.00650848,0.0339287,0.0825285,0.104506,0.160449,0.21773,0.0882176,0.0246837,-0.0255772,0.0800144,0.105655,0.00826671,0.088653,0.246776,0.215343,-0.130142,-0.71326,-0.669672,-0.506921,0.471735,-0.275375,0.032124,-0.20255,0.0258923,0.124271,0.137808,-0.00917832,0.191954,0.00665306,0.113323,0.130999,0.122677,0.0733621,0.0362564,0.0579727,0.00322112,0.196216,-0.074105,0.0505611,0.0220411,0.022885,-0.00779587,0.076704,0.0684305,-0.000133742,-0.0198162,-0.110565,-0.0497627,-0.0882902,-1.17518,-0.0793113,-0.181722,0.0317736,0.146325,-0.0411769,0.00183971,0.0553391,0.0402323,0.0194632,0.0552395,0.0414262,0.0699338,0.0789622,0.0433206,0.0366262,0.100951,-0.00460026,-0.0592338,0.0456494,0.129679,0.151963,0.218154,0.0499369,0.0594057,0.117055,0.402506,0.119517,-0.395478,-0.645814,-0.536778,0.0698573,0.235624,0.115246,0.106472,-0.0613063,0.150515,-0.00698913,-0.0428097,0.0137336,0.414805,0.177615,-0.0196513,0.0101174,-0.0662842,-0.0597964,0.0359337,-0.0079112,-0.024199,-0.0798798,-0.051441,-0.0836443,0.051224,-0.00584367,0.138817,-0.0316893,0.0348719,0.000863711,-0.0732105,-0.361903,-0.442173,0.172534,0.232911,0.286351,0.244913,0.137295,0.321798,0.130908,0.0972882,0.151364,-0.0273621,0.04651,0.0550051,-0.0520459,-0.0479871,-0.153112,-0.177566,0.0697565,-0.137274,-0.0446068,-0.0612327,-0.273325,-0.370579,-0.473171,-0.809556,-0.702845,-0.577548,-0.484685,-0.796053,-0.166409,-0.612231,-0.212951,-0.0157708,-0.104898,-0.109313,-0.0326006,-0.00352675,-0.0896498,-0.0847241,0.0182078,0.0248015,-0.0998529,0.0727758,0.0175239,-0.0458955,0.0815802,0.00219189,0.0337866,-0.0208174,-0.0112725,0.0300226,0.0591846,0.124647,0.0328764,0.105138,-0.0414628,0.0910655,0.346143,0.423928,0.556728,-0.917096,-0.0513126,-0.117545,-0.116634,-0.0475939,-0.0664926,-0.0497277,-0.101749,-0.206583,0.037809,-0.0360458,0.0190261,-0.00336249,-0.0552833,-0.105378,-0.0506109,-0.114495,-0.103086,0.0321413,0.0907214,-0.0095377,0.0492451,-0.111949,0.113344,0.0714246,-0.00235234,-0.180854,0.287863,-0.158192,0.246681,0.873504,-0.502032,-0.160107,-0.0272239,-0.0874423,-0.0443149,-0.220388,-0.0614439,0.0182975,-0.120314,-0.0673525,-0.0127721,0.0487475,-0.0216286,-0.0484698,-0.030899,-0.106071,-0.0957318,0.0348324,0.106239,-0.021688,0.169922,0.0387071,-0.0161237,-0.018677,0.110404,0.018419,0.211529,-0.333086,0.64928,0.0352093,-0.45346,-0.154349,0.0582588,0.0523434,0.00487109,0.0499624,-0.0546673,0.091511,0.168527,0.0426562,0.0488633,0.0561138,0.0691068,0.125073,0.0789509,0.142082,0.0407371,0.0741165,0.0658074,0.124677,-0.0286306,-0.0730671,0.0555256,-0.0607609,-0.133528,0.14124,0.192582,-0.578277,0.535055,0.32102,-0.607741,-0.1454,0.0953381,-0.0741112,-0.0551902,0.0464261,0.0764107,-0.0374792,0.0324281,0.15042,0.0842689,0.0158183,0.113001,0.0174779,-0.0382527,0.027623,0.0507708,0.0117832,0.0683848,0.105928,0.0709327,-0.0427646,0.0534279,0.114551,0.011259,-0.0169802,-0.334793,-0.3093,0.127049,-0.190682,-0.420444,-0.0297228,0.054697,-0.117189,-0.0817066,-0.125647,0.0219496,-0.0495125,-0.0194231,0.079774,0.067074,-0.00256007,0.00152414,0.0836411,0.0467846,0.0584164,0.0497683,0.0308496,0.0731629,-0.0952988,-0.0169605,0.054449,0.0687279,0.116824,0.0909694,0.104745,-0.0887584,0.0276817,-0.264169,0.251446,0.403075,0.201172,-0.0296157,0.0820104,0.0364766,0.00521507,0.00342059,0.058614,-0.0144625,0.0314072,0.085983,-0.0478383,-0.00872194,-0.0285251,0.140758,0.113249,0.0278068,0.00291603,0.0299505,-0.0242561,0.0542793,0.0724944,0.071306,-0.0344334,-0.0728422,0.0787384,-0.053694,-0.0852673,-0.0989252,0.646242,-0.0681652,-0.0279321,-0.0676091,-0.00456179,-0.0935897,-0.0683561,0.0323814,-0.0522651,-0.0552766,0.0544052,0.0376814,-0.0325528,0.0175533,-0.0107285,0.0124378,-0.0144354,-0.0111385,0.0783778,-0.0509492,0.0051605,0.0448724,0.101024,0.0475999,0.0855807,-0.13985,-0.233267,-0.00527311,-0.0198469,0.0215504,0.273807,-0.107447,0.182705,-0.00236104,0.0840698,-0.0677992,0.0438434,-0.0682157,-0.0123749,0.0681946,0.106095,-0.0149815,-0.043919,-0.0107505,0.00180517,0.0138281,0.019805,-0.0451545,0.0528029,0.0362785,-0.0288788,-0.0581047,0.0302935,-0.00144831,-0.00835778,0.019392,0.075742,0.15185,-0.0121715,-0.183773],
			"b":-0.437824
		},
		"neuron 9": {
			"w": [-0.0774461,0.214959,-0.194735,-0.500683,-0.191775,-0.383279,-0.158915,-0.179507,-0.188535,-0.397261,-0.151977,-0.281856,-0.146502,-0.240857,-0.233912,-0.157946,-0.116304,-0.141731,-0.205156,-0.0617549,-0.149123,-0.119429,-0.218078,-0.178485,-0.0748792,-0.381656,0.122194,-0.147388,0.344342,-0.2242,-0.778416,-0.769207,-0.0879466,-0.0596799,0.10003,-0.106851,0.0346901,-0.192118,-0.200095,-0.260608,-0.20281,-0.163994,-0.213128,-0.19245,-0.0721992,-0.193814,-0.243547,-0.198886,-0.114163,-0.0738853,-0.0490425,-0.075125,-0.149887,-0.166198,0.119125,-0.137649,0.506183,0.0676938,-0.767319,0.0192223,-0.321425,0.563706,0.121152,-0.57932,-0.434534,-0.350853,-0.206344,-0.172503,-0.296297,-0.158415,-0.246659,-0.32605,-0.128642,-0.252311,-0.0701915,-0.114732,0.0422444,0.142661,0.0276922,-0.0326215,0.0505489,0.0970446,0.289613,0.285824,0.18593,0.689655,0.0968644,0.339315,0.705789,0.284545,0.0955478,-0.646952,-0.531475,-0.271512,-0.354533,-0.280367,-0.159594,-0.172826,-0.148671,-0.136381,-0.2669,-0.199894,-0.269158,0.0140899,-0.0728658,-0.145872,-0.0495512,-0.0461584,-0.0939323,0.213575,0.0205394,-0.133074,-0.051946,-0.281751,0.218721,-0.151367,0.356921,0.636045,0.640669,-0.206741,-0.186136,-0.18793,-0.298618,-0.306345,-0.704842,-0.296527,-0.478492,-0.131574,-0.172216,-0.171744,-0.197459,-0.127194,-0.146455,-0.156386,-0.0632957,-0.220521,-0.202727,-0.176696,-0.0335538,0.132681,0.00161144,-0.0745441,0.0524414,-0.140219,0.403723,-0.0209707,0.822658,0.661175,1.27408,0.629945,-0.403734,-0.226595,0.0410196,-0.169246,-0.416144,-0.130811,-0.142008,-0.244778,-0.140222,-0.300433,-0.169667,-0.182379,-0.111573,-0.262246,-0.131313,-0.205407,-0.135929,-0.119536,-0.121224,-0.139015,-0.0998033,-0.225291,0.160615,-0.164768,0.707959,-0.0518803,0.983804,1.88319,1.62858,0.493382,-0.536501,-0.474934,0.227601,-0.418708,-0.0219843,-0.0187781,-0.0649374,-0.0695646,-0.160629,0.135816,-0.0748229,-0.130391,-0.33408,-0.1483,-0.216043,-0.0906412,-0.345775,-0.0921237,-0.140228,0.0145333,-0.252286,0.0218922,0.13545,-0.0214014,0.242657,0.364091,0.824403,1.02286,0.523102,0.00525739,-0.196694,-0.166347,-0.382849,-0.0392905,0.145656,-0.0908661,-0.0535273,-0.120023,0.248201,-0.126976,-0.0238433,-0.106439,-0.15586,-0.130958,-0.0781714,-0.14152,-0.111693,-0.149131,-0.0980794,-0.115521,-0.116568,0.013694,-0.0061984,-0.0139642,0.0578283,0.108533,0.0943426,1.96802,1.29551,0.875682,-0.431037,0.061248,0.147319,0.0398021,-0.126941,-0.0299751,0.0761529,0.0438945,-0.0269559,-0.000201062,-0.0140579,-0.0955546,0.0116826,0.0663903,-0.0516182,0.00704104,-0.0226705,-0.107204,-0.0422786,0.111131,0.0693528,-0.107173,0.065682,0.246682,0.151294,0.641198,0.594276,1.12932,0.971853,0.568447,0.253968,-0.17029,-0.267819,-0.138474,-0.25988,-0.22139,0.114754,-0.0187936,0.0217203,-0.0653663,-0.156527,-0.105398,-0.0747812,-0.010096,-0.120328,-0.0875356,-0.0841025,-0.0207724,0.0514913,0.0876704,0.0514431,-0.000610014,-0.0694168,0.239488,0.0680585,0.316307,0.119328,0.784211,0.302144,0.202393,0.135306,-0.209604,0.0388495,-0.178775,-0.0819821,0.158966,0.00726812,-0.113422,0.0512511,0.14697,-0.09726,0.0455498,0.111372,0.0963312,0.160037,0.110869,-0.172229,0.1159,0.231965,0.143742,0.0285182,0.10868,-0.100447,0.10547,-0.12469,-0.456404,-0.524629,-0.675636,1.71153,0.150789,-0.620176,0.611495,0.0396268,0.354411,0.178147,0.184283,0.271507,0.116857,0.221723,-0.0176171,-0.0303933,0.0708935,0.0278777,0.0585582,-0.132799,-0.238536,-0.112277,-0.12209,-0.288113,-0.0995245,-0.0560593,-0.159994,-0.0251863,0.055248,-0.251308,0.0818153,0.175524,-1.18515,-0.663589,-0.647286,-0.279492,0.0428011,0.361938,0.118005,0.135058,0.033937,-0.017855,0.0869294,0.109717,0.132165,-0.0272284,0.0146528,0.0244933,-0.122809,-0.13644,-0.0188972,0.0930017,-0.0667279,-0.00820097,-0.131185,-0.0966744,-0.049475,-0.013412,-0.0239404,-0.0409342,0.190212,-0.0586592,-0.644999,-0.43122,-0.598397,-0.0442301,0.465389,-0.0170796,0.352785,0.110351,0.200866,0.250605,0.195356,0.0431359,0.164761,0.00880254,0.0144736,-0.0656961,-0.105831,0.0230461,-0.0643304,0.0215657,0.0339148,-0.0820238,-0.0726619,-0.0227033,-0.11436,-0.191719,-0.161504,-0.192936,-0.313371,-0.363801,-1.17234,-1.13857,-1.20768,0.0326867,-0.0732062,0.028352,0.302759,0.282824,0.210091,0.0675812,0.12807,0.0365297,0.185669,0.0905254,0.0280019,-0.0344635,0.0894194,0.0122901,0.0184646,-0.148314,0.062772,0.0127719,-0.0299814,-0.0437947,-0.123445,-0.234419,0.0116813,-0.0288183,-0.0118056,-0.485603,-0.878024,-0.307928,-1.27099,-0.293421,0.0518275,0.366626,0.289689,0.545302,0.0740782,0.230846,0.177197,0.108262,-0.11289,0.0193597,0.0350642,0.073746,-0.0891172,0.0715939,-0.0509567,-0.14689,-0.0412146,-0.0607532,-0.0274703,-0.084375,-0.122081,-0.0526005,-0.046539,-0.061643,-0.00283073,-0.123184,-0.653851,-0.638437,-1.70116,-0.55048,0.676672,0.143457,0.380223,0.0961459,0.320779,0.19549,0.0100615,0.133068,0.0329266,-0.0446331,-0.00955082,-0.0290302,-0.0477408,0.0292764,-0.0594177,0.0355799,-0.00842787,-0.0691575,-0.177883,-0.0847942,-0.0663004,-0.0516929,-0.0907059,-0.195062,0.00361869,-0.0755146,-0.231371,-0.356935,-1.10408,-0.337596,1.36349,-0.0477393,-0.154409,0.0860539,0.150137,0.0576153,0.137925,0.205584,0.0774668,0.0293505,0.0576085,0.0441566,0.0742488,0.0315912,-0.0338957,0.00385096,-0.0577806,-0.0866802,-0.129277,-0.0125877,-0.324636,-0.176918,-0.173471,-0.438167,-0.652618,-0.153115,-0.224325,-0.245962,-0.742246,-0.22244,0.816535,0.284611,0.364158,0.110434,0.18276,0.0256882,0.00341035,0.114892,-0.0391316,0.0281396,0.110153,0.0548541,0.0437423,0.00733937,0.0354996,-0.100419,0.0460283,0.00153243,-0.0400113,-0.106693,-0.0145876,-0.00813388,-0.044334,-0.0780355,-0.037702,-0.466747,-0.725554,-1.40152,-0.630989,-0.231605,1.25107,0.331099,0.372438,0.246362,0.263429,0.0690667,0.131887,0.00762954,0.131415,0.0978836,0.0468601,-0.00477675,-0.0586212,0.0364631,-0.111072,0.0400922,-0.0856299,0.093671,-0.0169175,-0.0309656,0.0626029,-0.0311593,0.0242589,-0.116965,-0.0601468,-0.0788176,-0.0903303,-0.145653,-0.367971],
			"b":-1.30692
		},
		"neuron 10": {
			"w": [0.281383,1.48731,0.31204,0.281041,0.0213792,0.153916,0.175903,-0.0192768,0.0063674,0.198025,0.149656,0.135165,-0.12379,-0.0267342,0.0184606,-0.053761,-0.112138,-0.0811941,0.00484299,-0.0932917,0.0112773,-0.0365221,0.0215389,-0.0696839,-0.118574,-0.0461513,-0.0767728,-0.0481195,-0.120503,-0.590782,0.433837,0.74196,0.242746,0.296783,-0.00188224,0.111899,-0.0479634,0.114932,0.151508,0.108369,0.0293303,0.110049,0.0405949,0.0402728,-0.0269613,0.0204767,0.0098275,-0.01285,-0.0279403,-0.0620053,-0.104104,-0.0705363,0.0342474,-0.171502,-0.0093586,-0.0503222,-0.257907,-0.61223,-1.0741,-0.322813,-0.0458504,1.56036,0.4419,0.263303,0.271343,0.13048,0.156365,-0.0106367,0.0774833,-0.0309733,0.0395377,0.0610005,0.0147779,0.160355,0.0216894,-0.00700052,-0.0104276,-0.00499148,-0.0152391,-0.0600241,-0.039188,-0.174729,-0.0931589,-0.0160704,-0.234101,-0.320405,-0.0964877,-0.305772,-0.298145,-0.628859,-0.355371,0.54392,0.234757,0.192668,0.179307,0.207376,0.157126,0.0557798,-0.0668509,-0.0702202,-0.0739406,-0.0207602,0.0651119,0.0558171,0.0571257,-0.00032299,-0.0158782,0.00848422,-0.0961167,-0.0647188,-0.014119,-0.0997226,-0.163107,-0.164948,0.0226218,0.0236458,-0.0701733,-0.264789,-0.277118,-0.893052,-0.237395,0.113317,0.330868,0.247866,0.295682,0.0605401,0.1317,0.104811,0.0185971,0.0205624,-0.0193973,-0.0406125,0.00808214,-0.0359608,-0.0459966,0.102588,0.0613313,0.010922,-0.0326724,-0.0990441,-0.040198,0.0349206,-0.0539876,-0.0738378,-0.0142103,0.0476758,-0.136574,-0.396397,-0.676651,-0.694708,0.0536304,0.082475,-0.0735715,0.175394,0.143045,0.136906,0.0263777,0.0871367,-0.0582642,-0.0210591,-0.0405474,-0.132142,-0.0238758,-0.00675074,-0.0566229,0.0157075,-0.0605955,0.0814522,0.0109873,0.025995,-0.0701563,-0.0278658,-0.00607146,0.0789279,-0.0924537,0.00415945,-0.336688,-0.641686,-0.346965,-0.876069,0.522159,0.451241,-0.1522,0.293405,0.0205156,0.0731134,0.146282,0.178405,0.0882357,-0.0554342,0.00108004,0.00289577,-0.00150342,0.0602454,0.0457239,0.042059,0.067657,-0.00347274,-0.0840478,-0.0156936,0.0268104,-0.00496165,0.0636407,0.080576,-0.11863,0.0828439,-0.0895881,-0.869068,-0.818985,-1.38678,0.301634,0.0665211,0.23869,0.0430801,0.0292643,0.132885,0.136772,-0.0109883,0.0893693,-0.0217278,0.0243265,-0.0255847,-0.0221631,-0.0484598,-0.0183028,0.0147501,-0.0113016,0.0309858,-0.116766,-0.0150616,-0.0314443,-0.0337744,-0.184607,-0.0196315,0.0318353,0.0668251,-0.0821549,-0.328783,-0.388192,-0.680714,-0.0744107,0.223923,0.0265211,0.20767,0.230784,0.0776274,0.12421,0.0987459,0.0985606,0.0372633,0.0119718,-0.0324916,-0.025844,-0.0175518,-0.0310166,-0.0787143,-0.0847403,-0.0430891,-0.0607614,-0.089679,-0.078986,-0.14427,-0.20139,-0.112342,0.00884779,-0.0709549,-0.0292451,-0.271402,-0.302685,-0.74738,-0.531331,0.282253,0.406597,0.183237,0.254542,0.176317,0.114779,-0.0601788,0.150339,-0.0510208,0.26501,-0.0164837,-0.0693997,-0.101824,-0.120201,-0.102449,-0.12011,-0.156237,-0.262194,-0.166624,-0.217026,-0.176457,-0.0288218,-0.231987,-0.00216892,-0.0627575,-0.0734601,-0.134506,-0.146135,0.0752299,-0.157153,-0.192162,0.062647,-0.00290851,0.00603331,0.0242143,-0.106289,-0.103136,-0.0816899,-0.226908,-0.244112,-0.0258107,0.0369669,-0.0148376,-0.0680825,-0.118801,-0.359902,-0.0413016,-0.150666,0.10184,0.136372,0.168748,0.150105,-0.100762,-0.0710222,-0.0645058,-0.185193,-0.00976733,-1.66748,-0.211877,-0.176529,-0.000411642,0.0141882,-0.103975,0.00543472,-0.0924413,-2.95382e-05,-0.0235216,-0.0466592,-0.00801997,0.158225,0.0707866,0.0703861,0.219248,-0.0544992,-0.00446344,0.00786887,-0.159555,-0.00850674,-0.0736382,0.153474,0.0435061,0.145343,-0.122054,0.0233139,-0.313869,-0.253712,0.0860194,0.281516,0.433725,0.103954,0.0731456,-0.10855,0.0494752,-0.116674,-0.136154,-0.0258264,-0.0705646,0.0994965,-0.0916588,-0.0617926,-0.0249371,0.0189807,-0.03323,0.027558,0.0424053,-0.0770405,-0.169798,0.123605,0.0913587,-0.0200531,0.175571,-0.109568,-0.147905,-0.113191,-0.0956539,-0.0777559,-0.0115176,-0.154933,-0.164316,0.101555,-0.153758,-0.135497,-0.0273036,-0.0631357,-0.0505817,-0.00986353,-0.0561672,-0.0449728,0.0642596,-0.0413582,0.0116047,-0.0332215,-0.0562599,-0.0570299,-0.0131423,0.00234575,-0.146039,-0.0630611,0.0848958,0.0592863,0.20081,0.200183,0.220778,0.376511,0.671834,0.395563,0.745361,0.349515,0.846733,0.124124,-0.0467282,0.0558723,0.0477871,-0.0823335,0.0323076,0.0127462,-0.0956429,-0.045584,-0.256211,-0.0699387,-0.0468089,-0.0998849,-0.0571537,0.0189285,0.0215909,-0.0659124,0.0461755,0.061048,-0.0279894,0.150485,-0.147428,0.0959386,0.120765,0.170595,0.0556496,0.474227,0.731706,0.314799,0.277408,0.0338779,-0.30767,-0.297065,-0.085698,-0.388808,-0.0925314,-0.186335,-0.107881,-0.153773,0.00668139,-0.133495,0.0807411,-0.0674654,-0.0853586,-0.0881366,-0.0549831,-0.0853791,0.0218068,0.049323,-0.105151,0.0828391,0.247356,0.197721,0.0465771,0.378112,0.0809149,0.341404,0.563385,0.490901,0.0728848,-0.0222941,-0.503036,-0.369553,-0.283097,-0.140018,-0.158547,-0.129676,-0.0333127,-0.079786,-0.0784045,-0.066349,-0.134411,-0.0172095,-0.0692854,-0.172916,0.0679393,-0.0236405,-0.0073914,-0.017487,0.0269628,-0.00961606,-0.0692858,0.151899,0.189309,0.0964374,0.118585,0.41237,0.329639,0.436435,0.107789,-0.135209,0.971061,0.316706,0.00364048,-0.0412824,-0.000997303,-0.0243103,-0.155545,-0.166919,-0.0215105,-0.0489371,-0.0268908,-0.0772727,-0.010717,0.0441427,0.00113355,0.016794,-0.0382814,0.0300513,0.138393,-0.134268,0.254579,0.0980998,-0.00241455,0.385033,0.236341,0.102852,0.483557,0.139021,-0.0493277,0.291335,-0.439846,-0.117392,-0.0506475,-0.0870828,-0.113398,-0.0409057,-0.0997277,-0.12611,-0.111028,-0.147672,-0.0137752,-0.169489,0.00335357,-0.132366,-0.095004,-0.107708,-0.0969793,-0.0810686,-0.0980395,-0.0173741,-0.0787383,0.0419005,-0.0872074,0.0914511,-0.104667,0.305947,-0.0104733,-0.478402,-0.487932,0.0647699,-0.0935716,-0.0947753,-0.153101,-0.145199,-0.08636,-0.0747648,-0.201841,-0.0824866,-0.260367,-0.143984,-0.104675,-0.106144,-0.0839438,-0.147673,-0.0941926,-0.111068,-0.1214,0.00925329,-0.0686138,-0.108705,0.0233255,-0.0979597,-0.0315282,0.108332,0.0081682,0.127981,-0.34226,-0.131989,-0.377062],
			"b":-2.09372
		},
		"neuron 11": {
			"w": [-0.292031,1.14128,0.0923238,0.121225,-0.0150018,0.0829281,0.0279618,0.109174,0.0391783,0.0521436,0.037022,0.000881901,-0.04427,-0.102799,-0.0618917,-0.064089,-0.0412462,-0.0852889,0.0719896,-0.0878731,-0.0746315,0.0343628,-0.0132961,-0.00838004,0.0287608,0.0522425,-0.0237286,-0.0778557,-0.11567,-1.16663,0.198772,0.435725,-0.0738617,0.138232,0.00882272,0.00751687,-0.0378499,-0.0262043,0.017839,0.0844564,-0.00928093,-0.0356685,-0.0271638,0.0167955,-0.0220139,-0.0276341,0.0420682,-0.0363574,0.00284629,-0.0139996,-0.0411938,-0.0476862,-0.0316971,-0.0761416,0.0358552,0.0020349,-0.0921893,-0.530445,-1.34528,0.0612106,-1.12124,1.52368,0.018578,0.103156,0.0971547,0.128016,0.106064,-0.0317232,0.0672023,-0.0775775,-0.0253704,0.00506701,-0.0619933,-0.0195436,-0.0106081,-0.0332915,0.02713,-0.03644,0.00266506,-0.045711,-0.00946481,-0.0261358,-0.0347183,-0.00458084,-0.0438263,-0.119397,0.0033617,-0.0920255,-0.267138,-0.818077,0.464672,0.511252,-0.0567996,0.0884678,0.006217,0.0569401,0.0590693,0.153126,-0.109981,0.0487922,-0.168403,0.0442319,-0.0500555,0.0888051,-0.0311045,-0.0276582,-0.0367717,-0.0923896,-0.0742602,-0.0301704,0.0178365,-0.0923373,-0.0100722,-0.0210519,-0.0681455,-0.00141683,-0.106613,-0.0773359,-0.108586,-0.804078,-0.00421134,1.16919,0.363312,0.265675,0.185667,0.115326,0.101249,0.00308391,-0.0388422,0.0391395,-0.025579,0.0164439,-0.0518638,0.0454964,-0.0189251,-0.120925,-0.0678589,-0.0307395,-0.165674,-0.0926344,-0.0320168,-0.0093774,0.0354601,-0.0599423,0.0362635,0.129889,0.0245643,-0.17518,-0.289955,0.0581136,-0.81641,0.802198,0.455014,-0.0119945,0.141014,0.287985,-0.0106467,0.125418,0.122765,0.0640476,-0.0439948,-0.0259234,0.0404877,-0.0501889,-0.0552139,-0.060519,-0.0470644,-0.0309929,-0.0171768,0.0276358,-0.0223251,-0.086932,0.0710242,0.0650033,-0.0137753,0.0269221,-0.200464,-0.446216,-0.24331,-0.11517,-0.814316,1.00159,0.305131,0.411897,0.0738034,0.345637,0.199863,0.239859,-0.0520076,0.0183328,0.0605588,-0.047261,-0.0361586,-0.0594104,0.0157581,0.0156598,-0.147834,-0.0679722,-0.0871598,-0.0581885,-0.0453023,-0.12658,-0.0197582,0.0568254,-0.137459,-0.18902,-0.28275,-0.578099,-0.715864,-0.938658,-1.14967,0.363392,0.377484,0.23417,0.0246636,0.0435756,0.215515,0.187239,0.316219,-0.00388601,-0.127447,-0.0464543,-0.0322263,-0.0478235,-0.0339955,-0.095341,-0.0852757,-0.0489214,-0.0848804,-0.159761,-0.300753,-0.139016,0.00103096,-0.0418303,-0.118387,0.114151,0.0269545,-0.288885,-0.426541,-0.217262,-0.057783,1.01774,-0.183186,0.105471,0.14533,0.0240781,0.0937032,0.0508217,0.142401,0.0989013,-0.0744063,0.0762871,-0.11861,-0.0548583,-0.0669255,-0.0742016,-0.106799,-0.133508,-0.202835,-0.0712874,-0.208527,-0.476527,-0.175135,-0.177563,-0.128381,-0.111604,-0.237666,-0.969051,-0.385093,-0.450739,0.412512,0.408552,0.415751,0.154803,0.164706,0.144561,0.0171088,0.201519,0.298268,-0.0816593,0.0801406,-0.191978,-0.0727971,-0.0986308,-0.0702429,-0.0348368,-0.170183,-0.23764,-0.251035,-0.131481,-0.239332,-0.166625,-0.40825,-0.559573,-0.243307,-0.251141,-0.266465,-0.590557,0.384778,-0.553123,0.759322,-0.377811,-0.628184,-0.383503,-0.582431,-0.254325,-0.396049,-0.328402,0.0301344,0.0577296,0.0665985,0.240883,0.14004,0.140859,0.379065,0.323159,0.45225,0.169059,0.519128,0.5393,0.326844,0.660801,0.820521,0.794154,0.817733,1.05185,0.479778,0.414814,-2.87792,0.391381,1.22401,0.0515207,-0.241349,-0.173082,-0.132162,-0.0967788,-0.172616,-0.100033,0.0676318,0.0157269,-0.184971,0.0594149,-0.180576,-0.140953,-0.114346,0.0832301,0.0182004,0.0419517,-0.111962,0.11054,0.111662,0.113024,-0.223456,0.164428,-0.00346008,0.576334,0.458998,0.297088,-0.0616476,0.427291,1.30009,-0.76546,-0.306636,-0.32515,-0.204147,-0.140923,-0.113309,-0.159678,-0.27151,-0.128694,-0.0955182,0.0774052,-0.0144161,-0.0347078,-0.133719,-0.102659,-0.0744463,-0.229941,0.104134,-0.26106,-0.229908,0.31665,0.0479709,0.149691,0.0884502,-0.260408,0.594222,0.431355,0.591849,-0.899508,0.477871,-0.190072,0.0405187,0.478997,-0.0148826,-0.252266,-0.132527,-0.0295288,-0.133736,-0.0128968,-0.00801634,-0.0481533,0.0914808,-0.00890633,-0.0532828,-0.101223,-0.100597,0.073002,-0.163884,0.0538678,0.0379689,0.0356992,0.264864,0.182286,-0.109889,-0.236469,0.133315,0.541481,0.0788621,0.362751,0.67741,-0.455463,-0.291808,0.023797,-0.00640835,-0.0227547,-0.00924116,-0.0113141,-0.00662094,0.0280415,0.0111282,-0.176546,0.00859167,-0.115575,-0.0294308,0.0121753,0.148858,0.0598731,0.140827,0.116176,0.0127532,0.0265742,-0.0370873,-0.118039,-0.13027,0.0398738,0.16416,-0.258808,0.0913009,0.330873,1.78567,-0.154243,-0.117205,-0.205328,0.043725,0.0448675,0.0817408,0.0459306,0.0408111,0.177284,-0.027057,0.244135,-0.0157507,0.0254047,0.120307,0.109738,0.0305862,0.136743,0.0845836,0.0934561,0.206616,0.056697,0.184786,-0.0972641,0.199137,0.0762195,-0.106001,-0.548907,-0.795068,-0.302591,1.19032,0.136763,-0.440449,0.110711,0.0524974,-0.0519882,0.0243255,0.0127742,-0.00696297,-0.0420112,-0.0126599,-0.00624032,-0.0175743,0.179068,-0.0553092,0.0995319,0.0549153,-0.0277157,0.0616691,0.0487579,0.0728476,-0.0144911,-0.049642,0.227014,0.0908907,-0.0359046,0.0520224,-0.0487702,-0.444571,0.536816,1.32599,1.11963,0.178551,-0.0836472,-0.011492,0.104787,-0.0657927,-0.0404781,0.144497,-0.178327,-0.0938109,0.0592994,0.0514426,0.0156089,-0.0652347,0.00355741,0.146926,0.131012,0.0889155,0.0570014,0.200898,0.103192,0.152249,0.0276171,0.126909,-0.366649,-0.351579,0.0375474,-0.359847,0.355519,0.16417,0.544144,-0.0426531,0.11974,0.0721929,0.160514,0.0121187,0.0574494,0.0281295,0.0146207,-0.0746151,0.0845181,0.0217902,-0.0337616,-0.0206215,-0.041075,-0.0631254,0.0854077,0.119297,-0.00506825,0.131148,-0.0511727,-0.0247246,-0.0170165,-0.00630544,0.328335,0.623513,-2.17307,-2.25227,-0.170276,0.466726,1.10998,0.214719,0.0480066,0.137594,-0.0642962,-0.0638405,-0.0311683,-0.023888,0.0156759,0.113292,-0.0329142,0.0118922,-0.0137433,-0.00778416,-0.0750889,0.169356,-0.0425532,0.188548,-0.00734532,-0.0412798,-0.0226809,-0.0632285,-0.0411862,-0.0799873,-0.074934,-0.132995,-0.401061,-0.225803,0.2433],
			"b":-2.39627
		},
		"neuron 12": {
			"w": [0.31359,0.470524,-0.234988,-0.134175,-0.0109586,-0.0261436,0.087975,0.12797,-0.0980213,-0.0605657,-0.0894461,-0.0322703,-0.0231905,-0.112482,-0.0912485,-0.0142028,-0.0607911,-0.0286277,-0.0866658,-0.0690834,-0.0529325,-0.000854022,-0.0130452,-0.0510681,-0.120777,0.0298077,0.0288111,-0.00931658,-0.156136,0.178325,-0.205712,-0.327575,-0.512522,0.11659,0.197146,-0.0188429,0.0760237,-0.042431,-0.0681678,-0.116912,-0.0633218,0.026626,0.0457799,-0.0552367,0.0660796,-0.000992397,-0.182029,-0.10705,0.106708,0.0397009,0.142463,-0.0375449,0.169445,0.0176871,-0.0304276,-0.198072,-0.00812011,-1.37798,-1.93453,-0.237144,0.08178,0.0757868,0.286055,-0.215521,-0.238383,-0.152804,-0.0542934,-0.0975865,0.0574997,0.129529,-0.151884,-0.0913804,-0.0209,-0.117984,0.13618,0.197795,0.223075,0.297404,0.308123,0.477134,0.347854,0.478082,0.659334,0.390321,0.316318,0.38701,-0.151453,-0.306357,-0.771061,-0.353364,0.270581,-0.93235,-0.161388,-0.0302666,0.14455,-0.0275847,0.0444907,-0.0737394,-0.209858,0.00093721,0.0650791,-0.0897905,-0.096715,0.130005,-0.00827224,-0.0575381,0.234886,0.0744124,0.187843,0.388067,0.220533,0.272189,0.00379563,-0.0158811,0.226829,0.0905197,-0.0729194,-0.346883,-0.607452,1.25301,1.19817,-0.483488,-0.059722,-0.119549,-0.229822,-0.0631093,-0.239819,-0.151224,0.0204607,-0.043972,-0.0559835,-0.177406,-0.0576537,-0.0819043,-0.103624,-0.238216,-0.0871944,0.0221881,-0.0515601,0.127866,0.199073,0.222604,0.165672,-0.108369,0.0354977,0.167697,0.122501,-0.267462,-0.313506,1.28481,1.66542,-0.264338,-0.39676,0.00172446,-0.425013,-0.200499,0.000540341,-0.201297,-0.0856242,-0.0396459,-0.146653,0.0375006,-0.0634128,-0.0873036,-0.123146,0.0244376,-0.0598118,0.0734616,-0.118856,0.160024,-0.173526,0.00261907,0.0996426,0.205895,0.241923,0.180607,-0.0157904,0.330566,0.383627,1.4509,0.705871,-1.17639,-0.127348,0.00955853,0.0591376,0.0767235,-0.250157,-0.390781,-0.00292112,-0.296837,-0.178056,-0.0774244,-0.177752,-0.144347,-0.0425126,0.00733613,-0.160758,-0.0107602,0.0315214,-0.144475,-0.132733,0.240316,0.137364,0.366063,0.441257,0.317058,0.934748,1.05453,0.867881,-0.914573,-0.474387,-0.544583,-0.396987,-0.361707,-0.0227288,0.0840457,0.0322835,-0.258598,-0.163982,8.63043e-05,0.0241948,0.0458454,0.0391871,-0.072032,-0.0529311,-0.0479598,0.0286593,-0.0210962,0.029317,0.108677,-0.15351,0.0131265,-0.0146695,-0.287377,0.0602196,0.29958,1.10316,0.515762,0.566347,-0.323599,-0.462588,-0.0857234,-0.339887,-0.159689,0.0600764,-0.0306485,0.2066,-0.155173,0.168007,0.330406,0.0664905,-0.154099,0.0183369,0.00160027,-0.055032,0.0577593,-0.115971,-0.156127,-0.0695731,0.146137,0.157515,0.043793,0.0405172,0.0730521,0.313522,0.429238,0.636597,0.887168,0.659506,-0.328709,-0.275504,-0.0186425,0.0555246,-0.0593648,-0.175053,-0.0934609,-0.0591839,-0.0886242,-0.201006,-0.00369969,-0.179109,-0.124759,0.0589034,0.000715178,0.107192,-0.0440848,-0.12781,-0.0922893,0.000363542,-0.0944468,-0.0570045,0.0457565,-0.0478629,0.0103466,0.291547,-0.368725,-0.00660065,0.0845263,-0.943689,-0.719576,-0.430216,-0.244583,-0.40876,-0.313708,-0.276313,-0.170055,-0.640051,-0.192587,-0.1015,-0.368522,-0.155531,-0.140925,-0.666032,-0.00930329,0.0624964,-0.410159,-0.620422,-0.158539,-0.610522,-0.203121,-0.345716,-0.0848206,0.075195,-0.525056,-0.309857,0.114793,0.381025,2.61312,3.47372,-0.652873,0.189403,-0.685514,0.0684333,0.131039,-0.0914313,0.0375467,-0.179386,-0.015713,-0.0106544,0.0209728,-0.0496889,-0.0121626,-0.0657996,-0.183994,-0.173851,0.081151,0.0707454,-0.0367451,-0.183164,-0.0248659,-0.00496349,-0.160021,0.544221,0.0447029,-0.937913,-0.505631,-0.57034,0.730166,0.172723,-0.177749,0.549161,-0.0477355,-0.32927,-0.141155,-0.028739,-0.281847,-0.0768629,-0.0761022,-0.193917,0.0109077,-0.00488514,-0.0210622,-0.152289,-0.12968,-0.135629,-0.0118164,0.0243223,-0.136797,0.112945,0.0772004,-0.105571,-0.089132,-0.260271,0.196072,0.0840782,0.244514,0.197309,1.05303,0.929819,0.165212,-0.816238,-0.532995,-0.0362795,0.0381945,0.106765,0.183336,0.144252,0.0814195,0.127812,-0.111075,0.0980913,-0.0138061,0.114987,0.153639,0.0920178,0.0324124,-0.130156,0.0369136,0.17982,0.133432,0.273112,-0.0373699,-0.170553,-0.280021,-0.100635,0.0481654,-0.320253,-1.05703,-0.482156,0.135294,-0.357096,0.21165,0.00984625,0.0823995,0.135321,0.0925832,0.14914,0.146682,0.114704,0.250454,0.112543,0.292186,0.0976755,0.185038,0.0225381,0.0101209,0.140265,0.0109447,-0.102084,-0.0453487,-0.111549,-0.0994034,-0.0531308,-0.124422,-0.23321,0.0656705,-0.416309,-0.792225,-0.724005,0.441581,0.96275,0.755561,-0.241955,0.319109,0.209219,0.19053,0.357286,0.302002,0.162694,0.171984,-0.0276203,-0.00750382,0.101064,0.10608,-0.005492,0.0777154,0.0497995,0.139126,0.176823,0.228107,0.00906158,-0.118392,-0.0347417,-0.0642424,-0.00372424,-0.0400596,-0.128857,-0.652996,-1.15755,1.13085,-0.120888,0.34831,-0.0113026,0.50479,0.156922,0.180742,0.147409,-0.051202,0.0709189,-0.0332359,0.00579602,0.0318544,0.0522666,0.0256788,0.0744004,-0.10167,0.0687346,0.0753255,0.0989659,-0.0120329,-0.273464,0.0567344,0.0659681,-0.190595,-0.0742101,-0.00797091,-0.0565273,-0.522373,0.234128,1.11801,-0.739272,0.216898,0.40033,0.0396408,0.0738319,-0.0995324,0.195072,0.204726,0.0660579,0.186538,0.150709,0.121737,0.111816,0.0213389,-0.0193967,-0.0388761,0.0710678,0.0778297,-0.0640269,0.215052,0.139536,0.280736,0.0366968,0.074084,-0.190861,-0.388773,-0.136952,-0.401453,-0.697997,1.37268,-0.884675,-0.175786,0.136754,0.00775126,0.282223,0.0745283,0.0537973,0.121603,0.0874773,0.0463927,-0.0521655,0.0877557,0.122692,0.062524,0.106325,0.134903,0.00932283,0.0160792,0.109165,-0.00985608,0.0324681,0.0740294,-0.0164193,-0.0540934,0.025943,0.10368,-0.0537408,-1.21371,-2.35395,0.97264,-0.596804,-0.846658,0.269321,0.34429,0.199031,0.0791106,0.239608,-0.0360222,0.00862259,0.0355701,0.0706897,0.0305246,0.0693731,0.0834109,-0.00763297,-0.000854626,0.134657,0.0378583,0.148814,0.0349108,0.0425239,0.134273,0.215355,0.0309299,0.0718396,0.0919114,-0.0743685,0.543502,-0.45517,0.479564],
			"b":0.146429
		},
		"neuron 13": {
			"w": [-0.435614,1.54963,0.279799,-0.086345,-0.116323,-0.212949,-0.128486,-0.312786,-0.0572289,-0.178336,-0.0976173,-0.136114,-0.171434,-0.170483,-0.176895,-0.15206,-0.365681,-0.398935,-0.201356,-0.350074,-0.149135,-0.131361,-0.272616,-0.260678,-0.217854,-0.563217,-0.37748,-0.992672,0.16958,-0.467909,1.64041,-0.139345,-0.3067,-0.0337027,-0.208203,-0.164584,-0.331943,-0.222766,-0.25024,-0.233074,-0.123631,-0.158659,-0.309804,-0.0649232,-0.198007,-0.258854,-0.229227,-0.26485,-0.157845,-0.175595,-0.298564,-0.218968,-0.370833,-0.383785,-0.168357,-0.763719,0.389456,-0.568656,1.91708,-0.486017,1.19455,2.46052,0.406347,-0.0732084,-0.0637724,-0.182849,0.00547565,-0.372965,-0.397922,-0.173918,-0.179105,-0.0377269,-0.0999354,-0.08779,-0.175187,-0.0560213,-0.0950861,-0.0141768,-0.0442091,-0.135645,-0.162834,-0.28654,0.00158265,0.125593,0.142909,-0.143503,-0.186379,0.376355,0.982548,0.131627,-0.162218,-0.921128,-0.607968,-0.169184,-0.434696,-0.387671,-0.182613,-0.200109,-0.321775,-0.185208,-0.123626,-0.317157,-0.0998545,-0.801783,-0.467812,-0.163956,-0.217228,0.00810833,-0.442285,0.142093,0.550526,-0.0340226,0.681862,-0.158095,0.101716,-0.0349656,-0.0533365,0.382587,0.528811,-0.574388,0.388283,-0.878246,-0.636217,-0.225662,-0.320677,-0.211607,-0.507509,-0.206004,-0.266747,-0.143711,-0.273294,-0.0458012,-0.223243,-0.368457,-0.168054,-0.269104,-0.319644,-0.242871,-0.143227,-0.299279,-0.136282,-0.0992515,0.679184,0.13685,0.817986,0.0963542,0.870521,0.15966,0.825798,-0.546259,1.00353,-0.186847,-0.217963,0.0745069,-0.0710789,-0.0366945,-0.0507432,-0.26836,-0.165361,-0.338198,0.00336894,-0.408259,-0.0976214,-0.149113,-0.216569,-0.255911,-0.175918,-0.224435,-0.301996,-0.267989,-0.0438287,-0.649733,0.312208,0.0116688,0.580114,-0.132145,0.968315,1.27119,-0.0584839,-0.254081,0.90999,-0.173503,-0.346551,-0.351191,-0.00449663,0.0437394,-0.153638,-0.178138,-0.183186,0.268433,0.161821,-0.128727,-0.256997,-0.118906,-0.209965,-0.205175,-0.133327,-0.192402,-0.125979,-0.0274086,-0.121857,0.0136193,0.158648,0.220638,0.68808,0.708309,0.265184,0.339781,0.167403,-1.18533,0.875793,0.342536,0.17905,0.529992,-0.00973657,0.126906,0.258037,-0.257417,0.496328,-0.229277,0.0228974,0.0245964,-0.006712,-0.00604341,0.01356,-0.100566,-0.107519,0.0282295,-0.138953,-0.327091,-0.0960312,-0.000729545,-0.111599,0.112898,-0.178174,-0.442792,-0.932103,0.047042,-0.19658,0.0361816,-0.0470032,0.991205,0.234112,0.551413,0.419765,0.0102557,0.466256,0.570293,0.259551,-0.00494006,0.213175,0.028259,0.0830647,0.143795,0.0548729,-0.0132601,-0.0522563,-0.148401,-0.125441,-0.0159843,0.0277902,-0.0911974,0.060851,0.126761,-0.0673773,-0.0685455,-0.141448,0.0727453,-0.153716,-0.213374,-0.700194,0.47399,0.883659,0.271143,0.662694,0.769408,0.993006,0.0864833,0.36446,0.161396,0.341582,0.197339,0.0528638,0.00775639,-0.185268,-0.229603,-0.0506483,-0.00300462,-0.220805,-0.0486811,-0.171116,-0.294553,-0.121538,-0.160185,-0.0905897,-0.0994948,-0.218462,-0.298265,-0.433884,-0.863493,-0.320748,0.222836,0.965981,0.97165,1.01715,0.729317,0.732969,0.221041,0.178135,0.637686,0.286284,0.0937675,0.0984422,-0.175533,-0.405818,-0.0755957,-0.249298,0.00873307,-0.0173703,-0.0754211,0.0867681,-0.111718,-0.372665,-0.450639,-0.624521,-1.02162,-1.06644,-1.40392,-0.614172,-0.399962,-0.107789,0.147387,-0.307228,0.199677,0.21878,0.105784,0.100973,-0.0621391,0.00263834,0.0421883,-0.0149445,-0.174016,-0.154994,-0.100797,-0.115719,-0.205052,-0.154459,-0.098024,-0.0957609,-0.133077,-0.0582275,-0.00819462,0.175131,-0.279409,0.364542,-0.230461,-0.279964,-0.386855,-0.177106,-0.451102,2.08262,-0.37453,-0.209343,0.041039,-0.194496,-0.147109,-0.106463,-0.255557,-0.20705,-0.0799982,-0.081999,-0.0379897,-0.112276,-0.225328,-0.195401,-0.0364276,-0.207703,-0.352505,0.0618263,0.0937564,0.056894,0.176593,-0.160852,-0.0471827,-0.280092,-0.245331,-0.146343,-0.193498,0.0862747,-0.875328,2.51485,-0.127246,-0.56965,0.00907707,-0.0619086,-0.0682778,0.0459939,-0.0842314,-0.135846,-0.145467,-0.181908,-0.133469,0.0120002,-0.196278,-0.214297,-0.0749768,-0.0547896,0.0446663,-0.181838,-0.0999525,-0.110772,0.114918,0.166879,0.0148821,0.0571608,-0.2618,-0.199983,-0.714541,-1.49129,-0.522294,0.311115,-0.263253,-0.121947,0.00930363,-0.00632373,0.0450396,-0.0773154,-0.0368227,-0.167106,-0.162347,-0.0659468,-0.274362,-0.139297,0.0179395,0.0206213,0.051496,-0.0798265,-0.117644,0.19122,0.0483759,-0.0179015,0.22608,-0.213963,-0.0484508,-0.113328,0.0817938,0.127712,0.10095,0.239504,-0.240967,-0.923447,-0.246918,0.264218,-0.0110766,0.170483,0.0816515,0.0160067,-0.192997,-0.228041,-0.0623984,-0.182657,0.065505,-0.0513285,-0.107262,0.0456094,-0.0568671,-0.0713633,-0.157939,-0.112865,-0.149266,-0.141316,-0.181867,-0.221516,-0.194738,0.0265052,-0.00562288,-0.0529387,-0.134448,-0.346892,-1.07679,-0.178887,1.39691,0.0849785,-0.023352,0.0073879,0.0706521,0.222265,0.0354525,0.054048,-0.0344754,0.00420981,-0.0346392,-0.143493,-0.0419253,-0.12244,-0.21504,-0.101607,-0.175621,-0.0554905,-0.108959,-0.175133,-0.352278,-0.175699,-0.1646,-0.176471,0.0161804,-0.0515215,-0.129375,-0.212403,-0.280812,-0.502314,2.26225,-0.0994681,-0.239167,0.0538011,0.0159121,0.0423317,0.0235338,-0.109045,-0.201019,-0.127581,-0.0360884,-0.0990028,-0.107539,-0.152773,-0.0841975,-0.265331,-0.210822,-0.156106,-0.36588,-0.198261,-0.514398,-0.350438,-0.172082,-0.231536,-0.320747,-0.0848234,-0.041231,-0.085205,-0.49351,0.862247,1.56936,0.328376,0.294207,0.13489,0.167233,0.0617374,-0.078053,-0.0763112,-0.0329173,0.021932,-0.0378607,-0.0430243,-0.0910803,-0.0245212,-0.160453,-0.149018,-0.200079,-0.0961312,-0.0679686,-0.110395,-0.0555109,-0.031876,0.0441532,-0.0465557,-0.137057,-0.296415,-0.408574,-0.146068,-0.867771,0.840017,2.20697,0.682504,0.673171,0.237837,0.0452502,-0.130641,-0.0692356,-0.0931307,-0.0616228,-0.0240891,-0.00674281,-0.0642733,0.0178404,-0.144974,-0.0551631,-0.109707,-0.164258,-0.122948,-0.12307,-0.125964,-0.0151878,-0.161707,-0.0892027,-0.0552016,-0.0213975,-0.0277448,-0.249953,-0.20929,-0.603186],
			"b":-2.62487
		},
		"neuron 14": {
			"w": [0.127882,1.75755,0.363761,0.338741,0.169172,0.110331,-0.0338636,0.0125971,-0.0753815,-0.049844,0.00568182,-0.0513812,-0.0405896,-0.0477899,-0.0423224,-0.0729085,-0.0228043,-0.0892114,0.0351786,-0.13618,-0.0403282,-0.0208041,0.0176762,0.0520604,-0.0388902,0.0174246,0.00839832,0.0107876,-0.108469,-1.0212,1.30549,1.16622,0.394413,0.240312,0.180628,0.012521,-0.0418193,0.0113005,0.0185038,-0.0541802,-0.0117558,-0.0639795,0.00849106,-0.0250151,-0.0359148,-0.0302532,-0.0546731,0.00357927,-0.0719946,-0.107958,-0.0525637,-0.0483359,-0.0297044,-0.0814686,0.0192134,0.0736406,-0.178836,-0.403993,-1.02483,-0.415341,0.22477,2.02407,0.384594,0.0306215,0.195515,0.0986875,-0.0721069,0.045327,-0.0644152,-0.112867,-0.0190393,0.0674367,0.0799354,0.0121217,-0.0652951,0.0212185,0.0115156,-0.21554,-0.0989284,-0.206109,-0.104082,-0.351104,-0.138113,-0.103846,-0.138265,-0.232933,-0.063163,-0.0998382,-0.233942,-0.588281,0.220312,1.5044,0.862258,0.37399,0.00843715,0.0272104,-0.0334868,0.00471087,-0.00669174,-0.0105549,-0.100563,-0.00696297,-0.0377807,0.00993379,-0.0966537,-0.128661,-0.0237802,-0.2164,-0.137723,-0.114926,-0.108434,-0.227256,-0.226797,-0.113512,0.0140301,-0.107118,-0.131704,-0.0810565,-0.139359,-0.982739,-0.109714,0.991549,0.514944,0.531383,0.466348,0.0344826,0.0266721,-0.0739945,-0.0111526,0.0211027,-0.133428,-0.00518633,-0.0668122,-0.108526,-0.0488554,-0.0563347,-0.0380485,-0.0655762,-0.0713427,-0.157984,-0.0890153,-0.123338,-0.207845,-0.390779,-0.0320971,-0.102173,-0.207813,-0.21284,-0.449403,-0.0871062,0.0293986,0.858178,-0.0541197,-0.00596115,0.0362931,0.159755,-0.128449,-0.0234537,-0.00595271,-0.0775851,-0.170834,-0.37358,-0.193573,-0.142017,-0.0526916,-0.090288,-0.302847,-0.00299859,-0.186389,-0.282154,-0.38112,-0.153913,-0.252101,-0.1225,-0.328786,-0.124336,-0.188724,-0.349511,-0.124026,-0.4429,-0.162269,1.23087,-0.36497,0.0373318,0.0923089,-0.253129,0.0838643,0.130009,-0.0121944,-0.350005,-0.202789,-0.141427,-0.190606,-0.0731779,-0.269503,-0.235636,-0.319875,-0.189889,-0.216098,-0.225461,-0.419765,-0.363856,-0.268417,-0.0731699,-0.341534,-0.304938,0.0836835,0.0755259,0.788065,-1.08953,1.92388,-0.424575,0.0811601,-0.431882,-0.0435231,-0.247071,-0.33931,-0.177662,-0.58454,-0.215196,-0.162682,-0.266272,-0.222604,-0.132811,-0.260327,-0.187895,-0.212109,-0.384486,-0.213433,-0.293371,-0.375783,-0.120899,-0.21484,-0.141223,-0.0122468,0.0656624,-0.11469,0.229658,0.206071,-0.0283733,1.9595,0.221337,-0.335925,-0.133091,-0.26831,-0.00363744,-0.107183,-0.228247,-0.262091,-0.216286,-0.163726,-0.0538931,-0.205719,-0.190131,-0.171205,-0.103818,-0.11415,-0.0537732,-0.103958,-0.150464,-0.189166,-0.393722,-0.164458,-0.218701,-0.193697,-0.198078,0.0811909,0.0121641,0.231582,-0.439356,1.75138,-0.0460745,-0.314733,-0.0164506,-0.355722,-0.154799,-0.120002,-0.239605,-0.266319,-0.268466,-0.270917,-0.358453,-0.160457,-0.252664,-0.0632511,-0.108717,-0.0935662,-0.13188,-0.0988803,-0.101078,-0.0160433,-0.0860852,-0.0111252,0.155752,0.0705094,0.0821481,-0.0807771,0.0176595,0.186384,-0.908068,0.358437,0.114384,0.256502,0.0113238,0.40785,0.312943,-0.303633,-0.0625456,-0.0407701,-0.408049,-0.186883,-0.394686,-0.28602,-0.190653,-0.235034,-0.266642,-0.179518,-0.0533062,-0.185697,-0.208184,-0.25385,-0.203314,-0.268574,-0.324942,-0.231539,0.10521,0.0828103,0.00969469,-0.895465,-0.290864,0.194246,1.31767,0.329316,0.456946,0.314222,0.0444626,-0.125636,-0.0761886,0.0437025,-0.0446189,-0.237032,-0.0514584,-0.229979,-0.0971806,-0.0754307,-0.1559,-0.0816139,-0.0726588,-0.211868,-0.11328,-0.0992915,-0.400302,-0.14592,-0.129649,-0.62784,-0.171556,-0.366954,-0.126939,-0.125877,-0.492759,-0.144969,1.02929,0.605341,0.567551,0.113095,0.070818,0.0543208,-0.138072,-0.0758404,-0.00125889,-0.0111718,0.0182366,-0.0182944,-0.0584387,-0.0470778,0.00951922,-0.0878719,-0.124508,-0.137737,-0.223462,-0.211027,-0.0359458,-0.0489101,0.0752254,0.0794319,0.0164314,0.0966342,-0.0306126,-0.0912559,-0.848881,0.882584,2.01317,0.123868,0.218607,0.174386,0.256,0.0320377,0.029702,-0.00550003,-0.0164054,-0.0981071,-0.0875226,-0.0129524,-0.0834059,-0.120619,-0.017552,-0.0315333,-0.017422,-0.0316475,-0.13223,-0.00632362,-0.0649324,-0.144729,-0.134601,-0.219176,-0.0831275,0.0118942,-0.0319847,-0.284103,-0.370544,0.447164,0.873559,0.378337,-0.00113766,-0.0247081,0.00396964,-0.173431,0.0141342,-0.0518769,-0.14182,0.00749609,-0.12253,-0.149181,-0.000890605,-0.0544983,0.021572,-0.0407197,-0.0830081,-0.230812,-0.0919911,-0.0881106,-0.202416,-0.0731946,-0.0304078,-0.0984357,0.00856747,-0.07903,-0.172235,-0.324835,-0.261203,-0.372975,1.18053,0.324396,0.0297121,0.0278357,0.0360006,0.0227509,-0.0475495,-0.056384,0.0368427,-0.0375281,-0.0220523,-0.017574,-0.125813,0.00763378,-0.0542993,-0.00336547,0.0614969,-0.0102044,-0.0224704,-0.0702025,-0.0297155,0.0369648,-0.0487925,0.115283,-0.0372185,0.044281,-0.00567861,-0.200705,-0.840229,0.813933,1.03999,0.0291078,-0.0766967,-0.01258,-0.0531019,-0.0227401,0.0405156,-0.0172588,-0.0517952,-0.0373264,-0.0567468,-0.0402425,-0.0188564,-0.180588,-0.0543446,-0.144588,-0.059579,0.00663289,-0.0158321,-0.0140581,-0.102299,0.0151863,0.105825,-0.0154781,-0.0432245,0.0205858,-0.0380898,-0.0257944,-0.677223,0.623546,1.77079,-0.0169933,0.0417417,0.0200849,-0.0312356,-0.00129525,-0.0354605,-0.17821,-0.193642,-0.0420461,-0.0612046,-0.0278661,0.106196,0.025183,-0.0303924,-0.0800903,-0.0882678,-0.0406618,0.0220421,-0.0158271,-0.00503904,-0.0435918,-0.245366,-0.190424,-0.179552,-0.0555551,-0.0284299,-0.0602114,-0.37681,1.20354,0.203943,0.00616497,0.0499424,-0.0843219,-0.0561673,-0.0691885,0.0368345,-0.0110225,-0.0427395,-0.0825249,-0.0324931,0.0312851,0.0644357,-0.014816,0.0288602,0.0373392,-0.0132492,-0.0529078,-0.0172114,0.0257246,-0.0358438,-0.0362438,-0.00215644,-0.048982,-0.0357169,-0.129536,-0.265665,-0.777674,-1.05751,-0.176557,0.734897,-0.0282026,0.0631823,0.0635004,0.0472256,0.0908413,-0.0495446,0.0277058,0.106829,-0.0566577,0.0184368,-0.0676648,-0.0356599,0.0148721,-0.0899303,-0.0380815,-0.0920772,-0.00613999,-0.0789629,-0.0739511,-0.0460138,0.00417969,-0.0791342,-0.0239304,0.0125213,0.0537191,0.0346297,-0.00403861,-0.173769],
			"b":-3.97032
		},
		"neuron 15": {
			"w": [0.374382,0.804801,0.0998842,-0.220522,-0.21857,-0.298454,-0.173917,-0.157869,-0.17012,-0.243901,-0.151883,-0.111578,-0.130943,-0.114531,-0.102299,-0.12591,-0.0317926,-0.116107,-0.129143,-0.0501258,-0.198867,-0.169763,-0.276391,-0.128847,-0.230263,-0.246331,0.270644,-1.01633,-0.127645,-1.06297,-0.198259,-0.264056,-0.213572,-0.0212679,0.0908629,-0.0302344,0.0524075,-0.180511,-0.18666,-0.0700878,-0.10254,-0.108343,-0.256774,-0.0998351,-0.0763501,-0.159378,-0.109658,-0.188083,-0.0729137,0.0470687,-0.0365741,0.0341386,-0.0379812,-0.119894,-0.0487355,-0.26465,-0.18888,-1.0746,3.39672,-0.169311,0.0543933,1.26663,0.113274,-0.0702146,-0.185916,-0.0822361,-0.0592117,-0.0948074,-0.179711,-0.192762,-0.235066,-0.203056,-0.314739,-0.137655,-0.166423,-0.100177,-0.1127,-0.0947608,-0.0334473,-0.013102,0.0225943,0.132517,0.243006,0.167372,0.295763,0.790862,0.0329414,0.2406,-0.185157,0.273148,2.37672,0.982045,-0.194884,-0.134727,0.018881,-0.055334,-0.0651929,-0.00104685,-0.103084,-0.00153275,-0.28158,-0.104014,-0.026025,0.0468376,-0.0248379,-0.111376,-0.0900794,-0.158329,-0.0410126,-0.0237678,-0.111638,-0.0582422,-0.111931,-0.30902,-0.0282957,0.00666609,0.129268,0.863281,1.21106,-0.30205,-0.446469,1.29913,0.271774,0.0762959,-0.0985802,0.00900892,-0.159389,-0.160556,-0.177958,-0.0160644,-0.188284,0.00041432,0.0701308,0.00869522,-0.0494993,-0.197563,-0.182264,-0.18681,-0.10377,0.000479021,-0.0102982,-0.0659029,0.109593,-0.137368,-0.0391452,0.0279866,0.15424,0.235909,0.350955,0.846477,-1.72703,0.303274,0.160465,0.0527624,0.139868,0.0301544,-0.161796,0.00906208,-0.125151,-0.391855,-0.136794,-0.465368,-0.169955,-0.331948,-0.0159308,-0.320641,-0.26142,-0.24561,-0.134193,-0.14604,-0.194404,-0.125918,-0.129386,-0.114257,0.102663,-0.184281,1.25404,2.39813,1.67732,-0.0112552,-0.210532,1.29732,-0.215513,-0.120004,0.0694015,0.0681292,-0.0316224,-0.00699854,0.0225296,-0.0654021,0.067204,-0.115966,-0.295995,-0.103381,-0.268761,-0.169916,-0.220603,-0.20677,-0.124765,-0.201927,-0.151147,-0.211385,-0.112486,-0.0502578,0.12144,0.124105,-0.08008,1.16856,-0.917751,-1.37864,0.0266228,0.349916,0.526514,0.0685466,0.0107921,-0.115543,-0.0273864,-0.15733,-0.0112678,-0.131363,-0.0968418,-0.176287,-0.0863689,-0.0999015,-0.110359,-0.269527,-0.0867768,-0.290745,-0.101447,-0.368543,-0.137402,0.0567074,0.00724192,-0.0729907,-0.155302,0.000710133,-0.456239,-0.356666,-0.139241,-0.196296,0.71706,0.588037,0.12054,0.16678,0.0205183,-0.0524975,-0.336779,-0.302467,-0.151429,-0.1381,-0.417305,-0.329564,-0.45915,-0.277935,-0.326612,-0.212769,-0.126522,-0.260158,-0.220099,-0.155814,-0.214001,-0.407084,-0.0841042,0.358048,0.209928,0.775502,0.744031,0.65268,0.352894,-0.441512,0.715311,-0.0845642,-0.179411,-0.335677,-0.364624,-0.560677,-0.452231,-0.283432,-0.337464,-0.402076,-0.216823,-0.253845,-0.233131,-0.268427,-0.207521,-0.228886,-0.0948007,-0.169958,-0.240717,-0.0294212,-0.074213,-0.153568,-0.168837,-0.244503,-0.0716756,0.167475,0.342201,0.675159,-0.406998,-1.32612,1.6064,-0.584636,-0.645463,-0.718106,-0.845633,-0.500956,-0.577331,-0.586008,-0.303276,-0.608501,-0.510755,-0.315969,-0.368177,-0.186741,-0.218584,-0.230821,-0.231054,-0.310377,-0.501377,-0.230541,-0.108432,0.109263,0.15439,0.300019,0.494673,0.879362,1.18344,0.890699,-3.00275,-2.04917,0.518978,0.880559,0.323499,0.160564,0.0992599,0.145603,0.0938771,-0.11163,-0.0555739,-0.259292,-0.270101,-0.154618,-0.339526,-0.101556,-0.189079,-0.0867131,-0.144459,-0.148726,-0.246051,-0.0942614,-0.155116,-0.768618,-0.474783,-0.281064,-1.15759,-0.604351,-0.225995,-0.174126,-0.375545,0.0712562,0.376708,0.562134,0.464991,0.127231,0.259274,0.059967,0.0562513,-0.0343989,-0.180251,-0.0206484,-0.139271,-0.185542,-0.132329,-0.0662955,-0.0659478,0.00800539,-0.0537637,-0.224365,-0.212544,-0.144885,-0.282629,-0.0277809,-0.0461034,-0.121965,-0.0843305,-0.149347,-0.364823,-0.205851,-0.261113,0.00940714,-0.790502,1.44687,-0.313152,0.0948133,0.129018,0.170243,0.260444,0.0403618,0.0581629,-0.157395,-0.183444,-0.120488,-0.0623386,-0.181753,0.0224994,-0.123513,-0.266732,-0.0234489,-0.10873,-0.239131,-0.0843051,-0.130173,-0.263714,-0.131476,-0.14971,-0.195749,-0.0667564,-0.565559,-0.784974,-0.111585,-0.522945,0.996302,-0.0240459,0.125166,0.137952,0.100679,-0.139888,-0.100802,-0.122592,-0.0123947,-0.0592085,-0.293679,-0.208001,-0.0729977,-0.0410327,-0.0171001,-0.235594,-0.144648,-0.104008,-0.0213096,-0.000820608,-0.19958,-0.167988,-0.179835,-0.129912,0.0714915,-0.0770311,-0.143328,-0.18859,-0.781256,0.694361,1.4182,0.850857,0.451464,0.126076,0.0495159,0.127127,0.120121,0.0662174,-0.0712267,-0.120433,-0.0323643,0.0233478,-0.183452,-0.0626461,-0.0464717,-0.153337,-0.0945568,-0.0726658,-0.0618182,-0.295789,-0.13407,-0.0386279,-0.258669,-0.0517449,0.0342919,0.0188722,-0.192515,-0.062868,-1.24173,-0.462725,1.17582,1.42854,0.171019,0.228479,0.25985,0.189948,0.0349235,0.0111212,0.13926,-0.199164,-0.0714927,-0.174453,-0.0748858,0.036289,-0.182144,-0.194613,-0.199829,-0.104344,-0.0373241,-0.146075,-0.249658,-0.149069,-0.0828734,-0.0483914,0.0226635,-0.0305831,0.0600693,-0.0489532,-0.549868,-1.44703,0.760242,-0.157922,0.098894,0.202742,0.0579236,-0.0653291,0.00554958,0.0173129,-0.136378,-0.0930825,-0.0286378,-0.0274952,-0.0101267,-0.0187762,-0.0923272,-0.04677,-0.0866524,0.0311782,-0.0701958,0.0273173,-0.0692846,-0.0423883,-0.033175,-0.244251,-0.127706,0.0618059,0.0630596,0.00362413,-0.534192,0.557357,0.755844,0.225118,0.412153,0.155269,0.0825367,0.0246903,0.014029,-0.0156173,-0.0355111,-0.104965,-0.0822284,-0.00446095,-0.0562936,-0.00428845,-0.124974,-0.201127,-0.0988356,-0.105758,-0.0711083,0.0254835,-0.00640743,-0.0531917,-0.0907678,0.00876907,-0.0255929,-0.154921,-0.438282,-0.900073,-1.07308,1.12682,1.87228,0.404926,0.0860729,0.00984379,0.167294,0.0561556,-0.0368001,-0.0338514,-0.000719021,-0.0373978,-0.0630285,0.00176323,-0.0201582,-0.124747,-0.0711473,-0.0719491,-0.0174641,-0.101451,0.000517128,-0.00761475,-0.0553999,0.0419633,-0.0253857,-0.0238521,0.0417101,-0.0455792,-0.184126,-0.208973,-0.181231],
			"b":-3.47699
		},
		"neuron 16": {
