{
"Network": {
	"Layer 0": {
		"neuron 0": {
			"w": [0.160117,-0.385859,-0.280923,0.00741143,-0.0720317,0.0944515,0.364815,-0.0826056,-0.474247,0.367088,0.0093649,-0.302542,0.138063,0.0690402,-0.11527,-0.255392],
			"b":-0.0624432
		},
		"neuron 1": {
			"w": [0.657722,-0.147106,-0.246974,-0.0365637,-0.253617,0.261302,-0.0224395,0.428634,-0.208246,0.12979,-0.0225008,-0.0865211,-0.00575874,0.0137125,0.024664,0.307969],
			"b":-0.0149161
		},
		"neuron 2": {
			"w": [0.0624565,-0.126187,-0.181615,0.071715,0.223154,0.070683,0.00232966,-0.0579679,-0.4403,0.250596,0.00803087,-0.00494881,0.216528,0.0786284,-0.102669,-0.282622],
			"b":-0.549424
		},
		"neuron 3": {
			"w": [-0.223273,0.0722021,-0.0865594,0.51364,-0.245685,-0.593518,0.0298333,0.0135793,0.0366133,-0.19906,0.0318497,0.486152,-0.248189,0.146293,0.308416,0.00912648],
			"b":0.597344
		},
		"neuron 4": {
			"w": [0.215767,-0.293306,-0.369743,-0.201044,-0.441321,0.354439,0.386656,0.224158,0.103515,-0.422035,0.174418,0.369454,0.0879916,0.176687,-0.106856,-0.0492365],
			"b":0.211897
		},
		"neuron 5": {
			"w": [-0.00950249,-0.127601,0.0299595,-0.721364,0.0941278,-0.211253,-0.0583727,-0.0247926,-0.0578003,0.0839463,0.311537,-0.380765,-0.130288,-0.0322259,-0.0945527,0.174562],
			"b":-0.314248
		},
		"neuron 6": {
			"w": [-0.0439656,-0.15927,-0.190832,0.128308,-0.393423,0.104533,-0.447752,0.243656,-0.28326,-0.284765,0.2419,-0.10709,0.334451,0.361738,-0.484579,0.263967],
			"b":0.48466
		},
		"neuron 7": {
			"w": [-0.151284,-0.073073,0.151116,0.13085,0.0388669,-0.104964,-0.0279805,0.267384,-0.362219,-0.441914,0.490772,-0.147091,0.0312128,-0.748461,-0.160775,0.0832274],
			"b":0.743062
		},
		"neuron 8": {
			"w": [0.30993,-0.0403015,0.0240115,0.144677,0.0128555,0.143116,-0.000620646,0.126212,-0.601127,-0.0330653,0.147757,0.0701661,0.0604959,-0.142103,0.343469,-0.307321],
			"b":0.302991
		},
		"neuron 9": {
			"w": [-0.171609,0.053685,-0.065123,-0.500073,-0.280521,-0.0933767,0.0470422,0.292796,0.0978396,0.211765,-0.200915,0.0806759,0.14192,0.148917,0.143492,0.363001],
			"b":0.304399
		},
		"neuron 10": {
			"w": [-0.779049,-0.0117285,-0.123826,-0.275081,-0.142948,0.0131134,-0.322109,0.0209833,-0.240556,-0.46217,0.808423,-0.23378,0.214051,0.302897,0.0295433,0.0430443],
			"b":0.347203
		},
		"neuron 11": {
			"w": [-0.365737,0.383064,-0.024413,0.118942,-0.267567,0.392662,0.084012,0.203378,0.190124,-0.0266732,0.101882,0.0545716,0.121631,0.447906,0.0449381,-0.0481222],
			"b":-0.220095
		},
		"neuron 12": {
			"w": [0.457268,-0.0107748,0.0292887,0.0377418,0.269811,0.258634,0.0194309,0.494095,-0.348149,0.0469052,0.176453,-0.406531,0.0399395,0.0998842,-0.380779,0.292597],
			"b":-0.495003
		},
		"neuron 13": {
			"w": [-0.1195,0.118089,0.324111,-0.0629942,-0.486937,-0.175803,0.315483,0.418863,0.102769,0.351439,-0.455649,0.0445281,-0.00252902,-0.150743,-0.608745,-0.233663],
			"b":-0.0475133
		},
		"neuron 14": {
			"w": [-0.133872,-0.132772,-0.18518,0.192925,0.180175,0.0210235,-0.37274,0.113255,0.183382,0.177858,-0.144734,0.0661801,0.427152,-0.158135,-0.236301,0.197015],
			"b":-0.0709471
		},
		"neuron 15": {
			"w": [0.353473,-0.189857,0.0377096,-0.314752,0.00716531,-0.186555,0.122898,-0.470626,0.130729,0.398205,-0.125621,-0.073917,-0.00516697,0.25486,0.207829,-0.225868],
			"b":0.224805
		},
		"neuron 16": {
			"w": [0.0872945,-0.161744,-0.533024,-0.158587,0.364326,0.0776514,0.134374,-0.183387,0.134601,-0.19807,-0.0467437,0.0762565,-4.50468e-05,-0.0436928,-0.0773217,-0.132113],
			"b":-0.138146
		},
		"neuron 17": {
			"w": [0.579199,-0.315,0.0366733,-0.61028,-0.13784,-0.335846,0.062664,0.0251322,-0.237952,-0.0279412,-0.284746,-0.290321,0.327904,-0.227285,-0.162933,0.219398],
			"b":-0.0284784
		},
		"neuron 18": {
			"w": [-0.29325,-0.536858,-0.252144,-0.151723,-0.365975,0.141337,-0.24506,-0.0819482,-0.178186,-0.148352,0.0507683,-0.0238482,0.0143058,0.0519291,-0.121433,-0.149169],
			"b":-0.157446
		},
		"neuron 19": {
			"w": [-0.00265573,-0.0733029,-0.539775,0.553747,0.0908945,-0.00774668,-0.239386,-0.0390159,-0.0729807,0.0440321,0.0157527,-0.197282,-0.0462095,-0.480295,-0.437473,0.0785425],
			"b":-0.0147888
		},
		"neuron 20": {
			"w": [-0.0183894,-0.0297354,0.328545,-0.300974,-0.527248,-0.10918,-0.158248,0.431163,-0.555659,-0.102883,-0.0212133,0.510592,-0.102654,0.0241284,-0.132939,-0.0402649],
			"b":-0.134624
		},
		"neuron 21": {
			"w": [-0.0692553,0.0508495,0.17271,0.1082,-0.409864,-0.254833,-0.129829,-0.155816,-0.140332,0.0235683,0.218828,0.173198,0.108977,-0.0791105,0.443978,0.155892],
			"b":-0.453939
		},
		"neuron 22": {
			"w": [0.32585,-0.0617527,-0.426575,-0.076474,0.0386998,1.00835,0.0212695,-0.36359,0.141026,0.622866,-0.394607,-0.301924,-0.0209037,-0.0546319,-0.159599,0.163836],
			"b":0.0493583
		},
		"neuron 23": {
			"w": [0.430135,0.260533,-0.247444,0.0653221,0.260844,-0.0999219,-0.595858,0.415185,-0.170557,-0.0905193,-0.184774,0.224693,-0.0649714,0.0336021,-0.25544,-0.0498051],
			"b":-0.0843375
		},
		"neuron 24": {
			"w": [0.178814,-0.464379,0.0537164,-0.329802,0.0131985,-0.334795,0.145486,0.0108505,0.322466,-0.323912,-0.301887,-0.433248,0.0726505,0.351259,-0.231305,-0.170589],
			"b":0.307795
		}
	},
	"Layer 1": {
		"neuron 0": {
			"w": [-0.109708,-0.22661,0.022304,0.240443,0.078283,-0.27595,-0.236178,0.592611,0.388218,0.0692964,-0.148311,0.257047,-0.152118,0.153986,0.147838,0.0921304,-0.00202739,0.0917018,0.287591,-0.12382,0.130083,0.278708,0.228491,0.19275,-0.236057],
			"b":0.0486548
		},
		"neuron 1": {
			"w": [-0.0114866,-0.257308,-0.240534,0.598846,0.0885942,0.0313027,-0.0578614,0.21173,-0.104185,0.3167,0.200299,-0.165354,-0.140891,0.389511,-0.0292931,0.0461999,-0.170044,-0.401643,-0.15481,0.0129575,0.0297533,0.459911,-0.328987,-0.0565,0.102552],
			"b":0.0752554
		},
		"neuron 2": {
			"w": [-0.0774691,0.0434239,0.0537261,0.427481,0.0498298,-0.0384683,0.0767123,0.271345,0.144677,0.185152,0.00612395,0.30098,0.230591,-0.0297007,-0.0966526,0.304821,-0.0492558,-0.336056,-0.0503049,-0.256902,-0.0584948,0.0822497,0.235109,-0.217826,0.113512],
			"b":0.129187
		},
		"neuron 3": {
			"w": [0.00524503,-0.107611,0.436054,0.452318,-0.210179,0.127002,-0.0647744,0.0162,0.607827,0.225056,-0.649716,-0.151092,-0.170871,0.56889,-0.146266,-0.0559115,-0.319105,0.13617,-0.00284834,-0.34494,-0.0670422,-0.548543,-0.366056,0.36396,-0.0721437],
			"b":0.253185
		}
	}
}
}
