{
"Network": {
	"Layer 0": {
		"neuron 0": {
			"w": [-0.414531,-0.164653,-0.130127,0.266982,0.0459147,-0.442153,-0.424452,0.34197,-0.0767066,0.056299,0.000815308,-0.395955,0.142515,-0.142264,-0.10012,-0.150336],
			"b":-0.28019
		},
		"neuron 1": {
			"w": [-0.110673,-0.0116169,-0.0783559,-0.178608,0.139979,0.578044,0.192645,0.220599,0.368654,-0.00561034,-0.490213,0.0416517,0.172868,-0.216284,-0.0724711,-0.0615749],
			"b":0.490595
		},
		"neuron 2": {
			"w": [-0.0310596,0.100903,-0.0549326,-0.401898,-0.186815,0.572868,0.232106,0.0542378,0.299959,0.0705179,0.290895,-0.0742132,-0.130424,-0.070147,0.442796,0.337312],
			"b":-0.163928
		},
		"neuron 3": {
			"w": [-0.305461,0.142064,0.12532,-0.174431,0.226484,-0.355919,0.000949977,0.0638289,0.0218817,0.0592675,0.344234,0.163073,0.330329,0.627976,0.297753,-0.359228],
			"b":0.227716
		},
		"neuron 4": {
			"w": [-0.113024,-0.400099,-0.0721695,0.0385544,-0.092645,-0.229913,0.213532,-0.267695,0.382776,-0.247805,0.0681357,-0.178596,-0.1323,0.36463,-0.0380401,0.266682],
			"b":-0.365408
		},
		"neuron 5": {
			"w": [-0.184624,0.055944,-0.0636751,0.0232317,-0.0497291,0.0163832,0.00380364,0.0797107,-0.265439,-0.106099,-0.217892,0.00126738,0.555714,-0.199561,0.191011,0.109307],
			"b":-0.223312
		},
		"neuron 6": {
			"w": [-0.0978485,0.239271,0.134457,0.276583,0.195155,-0.157235,0.0634291,-0.522085,-0.0975703,-0.0656175,0.569521,0.154217,0.405453,-0.0362288,0.136129,0.41609],
			"b":-0.101742
		},
		"neuron 7": {
			"w": [-0.234858,-0.191559,0.0618174,-0.083978,0.0273946,-0.0896518,-0.0761131,-0.227491,0.492811,-0.408852,0.0775851,0.346514,0.265781,-0.134901,0.472631,0.075767],
			"b":0.134535
		},
		"neuron 8": {
			"w": [-0.0550546,0.0502296,-0.252698,-0.343696,-0.335845,-0.505461,0.0952731,-0.165162,0.819695,-0.0378152,-0.264659,0.0283462,0.178437,-0.385924,0.0450773,-0.0462986],
			"b":-0.0464438
		},
		"neuron 9": {
			"w": [-0.0818562,0.088833,0.688893,-0.129785,-0.299742,-0.514119,0.18405,0.0233394,0.282675,-0.00656642,-0.075604,-0.280697,0.0189741,-0.159575,-0.335716,0.1833],
			"b":0.0530726
		},
		"neuron 10": {
			"w": [0.164941,-0.236706,0.185061,0.0298341,0.347532,0.595218,0.0464343,-0.298371,-0.0247215,-0.189404,-0.118033,-0.219928,0.30171,0.265304,-0.0582723,0.0869314],
			"b":-0.343551
		},
		"neuron 11": {
			"w": [0.0834711,0.00326465,0.412821,-0.0665292,-0.127284,0.25726,-0.131692,-0.0458039,-0.538132,-0.184292,0.17631,-0.140763,0.0159358,0.522838,-0.0564332,-0.179417],
			"b":0.521046
		},
		"neuron 12": {
			"w": [-0.0357136,-0.2345,-0.094036,-0.0567781,0.0311761,-0.327681,-0.148961,0.0803515,-0.31983,-0.0705983,0.0821309,0.164357,0.178793,0.169673,-0.136081,-0.364376],
			"b":-0.182659
		},
		"neuron 13": {
			"w": [0.475086,-0.0479309,0.35767,0.142665,0.0212836,-0.306044,0.0829507,0.297269,0.0181183,-0.215013,-0.396066,0.214445,0.139036,0.117292,-0.0134003,0.279676],
			"b":0.396227
		},
		"neuron 14": {
			"w": [0.544917,-0.389533,0.145606,-0.177525,-0.0425651,-0.114658,0.819535,-0.0325199,-0.135683,0.168724,-0.414621,0.268675,0.0197612,-0.244418,-0.763028,0.120302],
			"b":-0.0381665
		},
		"neuron 15": {
			"w": [0.147949,-0.0626934,-0.719791,0.0577916,-0.213271,0.0428518,0.239917,-0.606249,0.0923467,-0.0800114,-0.275344,0.0714361,0.20753,0.218283,0.402029,0.323814],
			"b":-0.217236
		},
		"neuron 16": {
			"w": [0.184875,-0.183826,-0.187918,-0.304232,0.330201,0.0759806,-0.0661033,0.0766286,0.0503102,0.378895,0.213416,0.307681,0.093857,-0.228626,0.151603,-0.425181],
			"b":-0.363078
		},
		"neuron 17": {
			"w": [0.337942,0.19657,0.388545,-0.0350547,-0.287329,-0.546958,0.124593,0.274908,0.219776,-0.0268835,0.0247425,0.00668409,-0.605393,-0.201346,-0.0579873,-0.279435],
			"b":-0.561012
		},
		"neuron 18": {
			"w": [0.00903468,-0.312591,0.292059,0.742697,-0.445375,0.0289798,-0.18808,-0.395104,-0.346585,-0.122841,0.0388057,-0.127255,0.310214,0.0512839,-0.0868706,0.11032],
			"b":-0.463802
		},
		"neuron 19": {
			"w": [0.0654159,0.236184,-0.131884,-0.0746061,0.430793,0.0418461,-0.210472,0.528162,-0.300668,-0.0687648,0.461801,0.0967812,-0.0155981,-0.25381,-0.180741,0.244533],
			"b":0.24526
		},
		"neuron 20": {
			"w": [-0.533875,-0.0562462,-0.133541,0.145699,-0.127563,-0.162039,-0.16505,0.292681,-0.230972,-0.238319,0.497868,0.0440062,0.423941,0.228688,0.0107395,0.19991],
			"b":0.0745542
		},
		"neuron 21": {
			"w": [-0.181114,0.2489,-0.0548305,-0.224399,0.147036,-0.482993,-0.0282901,0.307577,-0.280064,0.132902,0.348186,0.0294887,-0.00543879,-0.270085,-0.257112,0.0343645],
			"b":0.481595
		},
		"neuron 22": {
			"w": [0.0340924,0.363851,0.42388,-0.156471,0.149356,-0.0850856,-0.0976935,-0.397074,-0.142131,0.100384,-0.461419,0.114631,-0.241512,-0.159876,0.0130285,-0.215169],
			"b":0.156382
		},
		"neuron 23": {
			"w": [0.11113,0.425068,0.235684,0.209371,0.0926907,0.113436,-0.427128,-0.29786,-0.332473,0.321866,-0.0343958,-0.269312,-0.174615,0.271552,0.392122,0.00438083],
			"b":0.0179501
		},
		"neuron 24": {
			"w": [-0.204576,-0.227791,-0.259564,0.286256,0.0511164,-0.398336,0.27704,0.0906588,-0.235187,-0.289696,-0.25777,0.47043,0.223371,-0.152351,0.642954,0.459599],
			"b":0.151935
		}
	},
	"Layer 1": {
		"neuron 0": {
			"w": [-0.210542,0.0903417,0.441006,-0.341392,-0.240143,-0.24692,0.131327,0.324677,-0.0216473,0.181973,0.287884,-0.0951731,-0.309532,0.0981729,0.178984,-0.133298,-0.0306513,-0.0733937,0.385162,0.131601,0.450001,0.231384,0.225384,0.167514,0.213666],
			"b":0.317249
		},
		"neuron 1": {
			"w": [-0.024248,-0.277218,-0.207803,0.310654,-0.138304,-0.166692,0.302193,-0.0171065,-0.343518,-0.00150617,-0.323311,0.034263,0.0148314,0.570002,0.180618,0.199849,0.0429262,0.0359255,0.202543,-0.31248,0.216559,0.801407,-0.159365,0.237342,0.450966],
			"b":0.0487528
		},
		"neuron 2": {
			"w": [0.0899167,0.129291,-0.160447,-0.00695987,-0.380902,0.297023,0.177527,-0.0482298,-0.275212,-0.0809051,0.0636317,0.621141,0.143071,-0.10838,0.166564,0.0381192,0.259144,0.30339,-0.198974,0.0737512,0.176,0.107847,0.0102629,0.133191,0.573787],
			"b":0.208612
		},
		"neuron 3": {
			"w": [-0.120744,0.637028,-0.288203,-0.322034,-0.282495,0.052829,-0.186984,0.134766,-0.444263,0.27105,0.564996,-0.480051,-0.128713,0.484635,-0.0850268,0.0728253,-0.0557202,-0.0778193,0.0795024,0.0724503,-0.0142785,-0.0414731,0.124395,0.586169,0.426869],
			"b":0.204884
		}
	}
}
}
