{
"Network": {
	"Layer 0": {
		"neuron 0": {
			"w": [0.013218,-0.0280379,0.0483183,-8.61017e-05,0.012763,-0.0586582,0.0279617,-0.0697861,0.0139673,0.0288974,-0.0761446,0.00157638,0.051245,-0.0191218,0.0115482,0.0104442,-0.0279895,0.0100587,-0.0376913,0.0202824,-0.0692854,-0.0123582,-0.0110942,0.0162922,-0.0410076,0.0128438,0.0236018,0.0135613,-0.0218906,-0.0118476,-0.0117839,0.028745,-0.0492804,-0.0723485,-0.00227572,-0.0217439,0.0436336,-0.0156469,-0.00518375,-0.0280765,-0.0161501,-0.00105919,0.0361543,-0.0227985,-0.0496742,-0.056783,-0.0581631,0.0163454,0.00271491,0.0323039,-0.00754585,0.0329749,-0.0286595,0.0216442,0.0158661,-0.00259282,0.0896247,-0.0400783,-0.0757755,0.0570445,0.0403565,0.0381358,0.0362543,-0.00897916,0.120506,0.0880867,-0.0455617,-0.0169674,0.00828828,0.00647923,-0.0256758,0.023437,-0.00674727,0.0437308,-0.0204258,0.0192542,0.0392701,0.0351194,0.0418258,-0.0166367,0.0254343,-0.023574,0.0034309,-0.0743541,-0.0145909,0.0494315,0.0123009,0.0198798,-0.00331786,0.00990194,0.021513,-0.0448007,-0.0102665,0.0123628,-0.0665608,-0.00256795,0.0693574,-0.0304205,0.0156052,-0.00465249,-0.0209716,-0.0233549,-0.046049,-0.0261895,-0.0121171,0.0142202,0.0168094,0.0213213,0.0676784,-0.0972904,-0.00157534,-0.0306845,0.0649506,0.0460695,-0.0712155,0.0165756,0.0177754,-0.00765506,-0.00598923,-0.0088064,-0.0269323,-0.031273,-0.0265197,0.0909739,0.0345774,0.0208515,-0.0567898,0.0114539,-0.0174171,-0.0173825,0.00955948,-0.0461107,0.0205693,0.0619544,-0.0263868,-0.0191726,-0.0385203,-0.0146776,0.0413569,-0.0359825,-0.00599484,0.0224736,0.00867338,0.0263762,-0.0475224,-0.0330752,0.0129668,0.0507546,-0.0151098,0.0151456,0.0205153,-0.0118188,-0.00782878,-0.0258612,-0.0115865,0.0422751,0.0425107,-0.0643979,-0.0140614,-0.0324263,-0.0453818,-0.0667331,0.0758134,0.0135816,0.000938084,-0.0382699,-0.03574,0.027158,-0.00156503,-0.0130552,-0.0328747,-0.0268007,0.0180138,0.0103221,-0.0650553,0.0181011,-0.0592172,-0.0302685,-0.00439994,0.00691444,-0.0275956,-0.00189691,-0.00234849,0.0220044,0.00208198,0.000291413,-0.0172442,0.0671292,0.0154407,0.0233947,0.0131264,-0.0233893,0.0420146,0.0105009,0.0395749,-0.0174306,-0.00792384,0.00078106,0.00607175,-0.0254791,-0.0265468,-0.0675159,-0.0741989,0.0450467,0.0327579,-0.0106328,-0.0249166,0.041456,0.0564047,0.025567,0.0320343,0.0782885,0.0131646,0.00482391,-0.00218003,0.00254755,-0.000170616,0.0375813,0.00754959,0.0472056,0.0535012,-0.061548,0.0282846,-0.0332497,0.0418519,0.0267325,0.00259805,-0.0134098,-0.0157975,0.00113635,0.0259535,0.0435261,0.0638418,-0.0642168,-0.0333536,0.0923717,0.00271842,-0.0310595,-0.0135108,0.0742534,0.0257793,0.0370527,0.0628512,0.0559371,-0.0138629,-0.013311,-0.0424432,-0.0430817,-0.0336941,0.0698066,-0.0857513,-0.0563912,0.0290438,-0.0447118,0.016802,-0.0141592,-0.0525249,0.00735702,0.0337971,-0.0571205,-0.0253282,0.0517378,0.0359076,0.00688682,0.0312495,0.0378766,0.0604443,-0.0239058,-0.016598,0.108157,-0.0045426,-0.00713452,0.0548777,-0.00917898,-0.0108832,-0.0225849,0.0119181,0.00453773,-0.00648798,0.0274615,0.0540041,0.0621145,-0.0111492,0.00955536,-0.0724472,-0.047431,-0.00222314,0.0087791,0.0111996,0.103565,-0.0543228,0.0443791,-0.0318099,0.0353175,-0.0202726,0.00370568,0.0299807,0.0217138,-0.0255741,0.0500314,0.00766269,0.0930914,-0.00266216,0.0313174,0.0343987,-0.00127533,-0.0429604,0.0589957,-0.0185513,0.0323546,0.00448722,-0.0508557,-0.00754676,0.0604828,0.026102,0.0744508,-0.0420119,-0.0140529,0.0755688,0.0230083,-0.0399879,0.0649244,0.0123783,-0.0233281,-0.0496747,0.0141591,0.0221975,-0.00680008,0.0915825,0.0170528,0.041915,0.0106918,0.000835303,-0.0115241,0.0537772,0.0542757,0.0275822,-0.0143932,-0.0198101,-0.027259,0.0277644,0.0392919,0.00944073,-0.00602281,0.0612284,-0.00303928,-0.00699505,-0.0051413,0.00728969,-0.0428248,0.0198079,0.0403378,0.0257292,-0.0163225,0.0591295,0.0285252,-0.0307966,0.0185686,-0.00795026,0.0329623,0.0607451,-0.0433679,-0.0282356,-0.0197103,-0.0473853,0.0504045,0.0217695,0.0843643,0.0269579,0.0719135,-0.0302821,-0.00812505,-0.0285912,-0.00412821,-0.0137551,0.0456315,0.037752,-0.0583497,0.0801828,-0.06268,0.026678,-0.0397405,0.0337577,0.00557175,0.0228005,0.0496387,0.0189852,-0.0983481,0.0713904,0.0531117,0.0293378,-0.0512977,-0.0571791,-0.0232688,-0.0381576,0.0219805,0.066224,0.141727,0.0401154,0.0642631,0.00204804,-0.000522254,0.0326275,-0.0285923,-0.0210014,0.0594663,0.0702108,-0.00378295,-0.042829,0.00642619,0.00144873,0.0434895,-0.0632452,-0.0392203,-0.0136284,0.0938713,0.0404089,0.00847869,0.0143646,0.110671,-0.0258206,0.0105561,-0.0691772,-0.00382851,-0.0194601,0.0345079,-0.0131304,0.0379654,0.0415374,0.0393725,-0.0424947,-0.010685,0.0127229,0.00326534,-0.0125393,0.0417891,0.0521347,0.0224138,0.0923379,0.00581064,0.0222497,-0.0188796,-0.0584087,-0.00799128,-0.00433916,0.00797007,0.0576247,-0.0370623,-0.00515486,0.0287779,0.0856959,0.0243262,-0.0612254,0.0436201,0.073395,-0.0196747,0.0671147,-0.0120012,-0.039843,-0.00795862,-0.00993373,0.00276607,-0.110492,0.0658177,0.015407,-0.0102451,0.0363186,0.0128288,0.0339289,-0.0271809,0.0206979,-0.020481,0.0221754,-0.0202888,0.068312,-0.0367547,0.0433287,-0.0629265,0.0687637,0.0740028,0.00793927,0.011932,0.0285643,0.0290134,0.000391479,0.0413817,0.00255522,0.0315354,0.0920907,0.0510932,0.0174742,0.0604724,0.101064,-0.0191347,-0.0454011,0.0414355,-0.00343659,-0.0437107,0.00834975,0.0139113,0.00292881,0.0389738,-0.0403304,-0.0580746,0.0110254,0.00271232,-0.00777873,-0.0280234,-0.0650262,0.106711,0.0611108,0.0137147,-0.0157214,-0.00983136,0.0661104,0.024279,-0.0754915,0.090234,0.068363,-0.000554532,-0.0332282,-0.0725073,-0.0124061,-0.0328978,0.046118,0.00266076,0.00840022,0.0103532,-0.0885562,0.0134966,0.0347072,0.0418259,-0.0313063,0.0608796,-0.00430296,-0.00652485,-0.00515157,-0.0594692,0.033714,-0.082157,-0.00117876,-0.0436156,0.0367946,0.0210681,-0.0363638,-0.0232581,0.00871651,-0.00377616,-0.0210771,-0.0310661,-0.0369145,0.0414979,0.0305796,-0.0652984,0.0751442,-0.0245096,-0.0329859,0.0673685,-0.0727702,0.070203,-0.0408203,-0.025074,-0.0601411,-0.0160386,-0.0217853,0.0305404,-0.0520795,-0.0195717,0.0167063,0.105526,0.0576688,0.00643226,-0.0100432,0.0120126,0.00443975,-0.00146216,0.00852472,0.0758645,0.030608,0.0349297,-0.0297341,0.0579075,0.0534365,-0.0797102,0.0263293,-0.0734468,-0.00639058,0.00454565,-0.00176819,0.049295,-0.00641857,0.0806988,-0.0476166,0.072911,-0.0367277,0.0494873,-0.00682761,0.0184501,0.0152847,-0.016267],
			"b":0.157578
		},
		"neuron 1": {
			"w": [0.0535503,-0.0182348,-0.0140009,-0.0517804,0.0544111,-0.0697515,0.0184232,0.036266,-0.00629005,0.012219,-0.0253253,0.0447391,0.0243261,0.0293204,0.00454461,-0.0029552,-0.0158341,0.000165747,0.140574,-0.0206708,-0.0705603,0.0112151,-0.01366,-0.0209966,-0.0141214,0.0207763,-0.0343919,-0.0271928,-0.0130662,0.0245186,0.01464,0.0243983,-0.0089069,0.00322536,-0.101458,-0.0560067,-0.058933,-0.00821769,0.0131849,-0.026399,0.0459167,0.0500743,-0.041695,-0.066947,0.0876792,-0.0502854,-0.0586535,0.0640126,0.0383529,0.00516707,0.0140282,-0.0554873,0.00863793,-0.0495963,-0.024846,-0.0664229,0.0187236,-0.0193492,-0.0235607,-0.0291489,-0.0568754,-0.0290141,-0.0198636,0.0237234,-0.063589,-0.0337098,-0.00358441,0.0594238,-0.0555451,0.00859438,-0.0566604,-0.0260599,-0.0313235,-0.0021405,0.0293447,-0.00466989,-0.0199699,-0.0335328,0.0240884,0.0800978,-0.0862446,-0.0013339,-0.0436537,-0.00390881,0.0187789,-0.0217453,-0.0583332,0.00381451,-0.012172,0.0287019,0.0550074,0.0309895,-0.0212148,0.0278943,0.025939,0.00163105,-0.041237,0.0519877,0.0101372,-0.00318254,0.00783261,-0.085704,0.0433949,-0.0677344,0.0149314,-0.00156742,-0.016645,0.00302446,-0.0422986,0.108369,0.0182991,0.053615,-0.088694,0.0056033,-0.0241377,-0.0826008,-0.0946338,0.0293101,0.0858611,0.0973861,0.0624657,0.0400494,0.0241065,0.0442909,0.0233218,-0.0371891,-0.00839869,0.0352847,0.0059297,-0.0360379,0.0402057,0.00296686,0.0703414,-0.0977164,0.00522338,0.00608563,-0.00468896,0.0251733,0.0115133,-0.0196803,-0.114786,0.032183,-0.0212188,-0.0287103,-0.0360047,-0.032039,-0.0211276,-0.0205578,-0.0509116,0.051092,0.0391126,0.0359254,0.0483724,-0.0724283,0.0244471,0.0134018,0.00506546,-0.0236669,0.0323366,-0.0563104,-0.0138891,-0.0652503,-0.0393141,0.00610322,-0.0209739,0.0242664,0.0090438,0.0567024,0.045835,0.0274549,-0.0262356,-0.000209097,-0.0377327,-0.0227134,0.00823398,-0.00951611,0.0272555,0.0306288,0.0380084,-0.00776569,0.0154775,0.10084,0.00388901,-0.0274932,0.00916842,0.0428957,0.00737885,0.0478672,0.0718252,0.0587443,0.0089988,0.0450948,0.0212554,0.0121323,-0.0791389,0.0241446,0.00319832,-0.0137416,0.0185908,0.0902535,0.0628183,0.00273687,-0.0388809,-0.0693572,0.0702453,0.037506,0.02437,-0.0370587,0.0138161,0.137266,0.0598621,0.0607551,-0.0120128,0.0268778,0.0400482,-0.0208524,-0.00872488,-0.0109777,0.00793135,0.0270748,-0.0265189,-0.0365722,0.039139,0.0238043,0.00393099,-0.0595446,0.00324173,-0.06996,-0.00234223,-0.0362206,-0.0048052,0.0109194,-0.0607495,-0.0410418,-0.0205795,0.00471133,0.0435331,-0.0409636,0.0413359,0.119482,0.180079,0.0604339,-0.0358745,0.0362171,-0.0326726,-0.103656,-0.0329357,-0.0243821,-0.0871473,-0.0153003,0.0122476,0.0497883,-0.00506472,-0.0522949,-0.0792099,-0.0204041,0.0774251,-0.030974,0.0369735,-0.0223735,0.01052,-0.0108462,-0.0147954,0.0209125,0.0346511,-0.0316911,0.0268535,0.0116759,-0.0529818,0.0984095,0.137295,0.00709415,-0.0440262,0.0436525,-0.0287876,0.00890632,-0.110312,-0.00381992,-0.0572026,-0.0248289,0.0357695,-0.0157241,-0.038431,0.00179702,-0.050148,0.0555824,0.00257602,0.0222012,-0.00120513,0.0334674,0.0824373,0.0798631,-0.0324317,-0.0154265,0.00437944,0.0242304,-0.0971588,0.0546803,0.0727942,0.155476,0.131978,0.0144971,-0.0186827,0.0446601,0.00908067,0.0187673,-0.0428977,0.00534607,0.00559206,0.0542528,0.0422355,-0.0434701,0.0871135,-0.0351142,-0.0452322,0.0401986,-0.0181713,-0.029006,0.0368094,0.0295699,-0.0379939,0.0985343,-0.0233828,0.0214518,-0.0159321,-0.0280342,0.0362477,0.0843912,0.0273952,0.0415327,0.116211,0.109362,0.00535454,-0.0414712,0.0554235,0.0554205,0.0452383,-0.0596848,0.0390945,-0.0189201,0.0233046,-0.0694409,0.0326235,0.0210432,-0.0171887,-0.070744,0.0404619,0.0129336,0.0600986,0.0227448,0.0259742,-0.0057347,-0.0549561,-0.00589404,-0.0593635,0.0136978,-0.00464865,-0.013707,-0.0276866,0.0617924,0.190109,-0.000550355,-0.0231316,0.0387923,0.0257918,-0.0456138,-0.0399829,-0.00858918,0.0190893,0.00348567,-0.0268083,0.0121772,0.0307224,-0.00103495,-0.00806241,-0.0220414,-0.00562995,-0.00632641,-0.0170912,-0.0273787,-0.0224178,-0.00396919,-0.0186193,-0.0104782,-0.02002,0.0383867,-0.0372924,0.0301103,-0.0144475,0.0526622,0.0156479,0.062069,0.0549341,0.0170996,-0.0312012,0.0428297,-0.0114103,-0.000974045,0.011988,-0.0259519,0.0175106,0.0576259,-0.0317553,0.0130609,0.0489042,0.0154547,0.0089279,0.00432351,0.0358928,-0.0110665,0.0235571,-0.0193248,0.0110821,0.0685837,-0.00756297,0.062828,0.032697,0.0745405,-0.0132339,0.0699596,0.0809116,0.0140785,-0.0741988,-0.0222232,-0.0810441,0.0384802,0.0351479,0.0459441,-0.0306328,-0.0463869,-0.0108334,0.0191521,-0.0747476,-0.00847773,0.00729292,0.0536969,-0.0434291,0.00912859,-0.0587934,-0.0208478,0.0131483,-0.0194991,0.0436602,0.121447,0.0531184,-0.0143935,0.0333185,-0.0156269,0.0046782,0.0583918,0.0233151,0.0244494,0.0248639,-0.024321,-0.0215406,-0.0217546,-0.00298253,0.0482543,0.0283151,-0.0196542,0.00929583,0.0175671,0.0189926,-0.0649254,0.0348557,0.00174963,0.011694,-0.0213435,-0.0163491,0.0300087,0.00285561,-0.0894558,-0.0146269,0.00886532,-0.0160646,0.0442984,0.057712,0.0389936,-0.0179343,0.104432,0.0293546,0.0854669,0.0195521,-0.0172222,-0.0293701,-0.0227998,-0.027171,0.0400004,-0.00599487,0.0266881,0.0406408,-0.0395497,0.0140414,0.0818741,-0.0301083,0.0026325,-0.0194606,0.00669057,-0.0332966,0.0719712,0.0249622,-0.0444106,-0.0567156,0.0205111,-0.0919645,0.00835722,0.00891081,0.0169866,-0.0171786,0.0655233,0.0367012,0.0552335,-0.0246395,-0.0264023,-0.0575319,-0.0102225,-0.0153229,0.0151764,0.0124178,-0.0236181,0.00715148,-0.0217253,-0.0024598,0.051664,0.00152914,-0.0806591,0.0192005,0.00588591,0.00337047,-0.00442265,-0.0719655,-0.0492251,0.0271457,0.00801844,0.0100931,0.0504946,-0.00474131,0.00133936,-0.0302582,0.0277227,0.0501323,-0.0428947,-0.0100465,0.016078,0.0314695,0.000307445,0.0285832,0.0202488,0.0090917,-0.0112619,-0.0142117,0.0418532,0.0332889,0.0504851,-0.00687911,-0.0285587,-0.00249202,0.0425862,0.0451197,-0.0281252,0.0619575,-0.0572321,0.0486449,0.0368303,0.0678384,-0.0559942,0.0153578,-0.0134296,0.0370846,0.0892878,0.0273717,-0.0159192,0.0168344,-0.0124564,-0.033167,-0.0282676,0.00267885,0.0471688,0.044971,-0.00574608,0.0124263,-0.0214608,0.0684271,0.0208738,-0.0708949,-0.00310178,0.00818076,0.0236775,-0.0355326,-0.0912234,-0.0348274,0.0293462,0.0341445,-0.0356207,-0.0425417,-0.0215724,0.0508184,0.00731396,0.023841,0.0134956],
			"b":0.193942
		},
		"neuron 2": {
			"w": [0.0425108,0.0266832,0.0165787,-0.0508136,0.044012,0.0717192,-0.0509708,0.00246851,0.0221628,-0.0704547,0.00300864,0.0198942,-0.0129054,0.0585445,0.0463378,-0.0365624,0.040966,0.0219959,-0.057299,-0.010665,-0.0539588,0.0233713,-0.016534,0.0117539,-0.0742111,0.0148424,-0.0206159,0.00599591,-0.0047961,-0.0410975,-0.0223507,-0.0128477,0.0321667,-0.0203422,-0.0199735,-0.0104312,0.037337,0.0397291,0.0721593,0.0255643,0.0375681,0.0849764,0.0384228,-0.0248761,0.0238664,0.0131176,-0.000136327,0.0156304,0.107622,-0.0215206,0.0790935,-0.075443,0.042835,0.00545487,-0.000830418,0.0332502,-0.0215258,0.00911258,0.0530005,0.0552887,0.0480319,-0.00237804,-0.037913,-0.0114682,-0.0119949,0.0290891,0.0505757,0.0600605,0.0332711,0.0359033,-0.0108606,0.0288498,-0.0675759,0.0321372,0.0318724,0.021366,0.0298174,0.0134426,-0.0367263,0.0469151,-0.0584548,0.020846,0.000307348,-0.0211671,0.0289602,-0.00538425,0.0657939,0.0219408,0.011061,0.00782384,0.0461919,-0.0234101,0.0282078,-0.0105918,-0.0728745,0.010135,-0.00286277,0.0231137,0.0394911,-0.00295065,-0.049857,0.043177,0.0866815,-0.000914995,0.0366443,-0.0473756,0.0379022,0.0184664,0.00889076,-0.00929542,0.0208504,-0.0163675,0.0640299,0.0716649,-0.0533458,-0.0175605,0.0136103,-0.0476596,0.0927315,0.0361466,-0.0995515,-0.0466718,-0.00786599,-0.0291899,0.0202191,0.0255495,-0.0264047,0.043109,0.0170397,0.0345735,0.0250308,0.0120283,0.0691532,0.010074,0.00370473,0.0699224,0.07405,0.10748,-0.0299376,-0.0637539,-0.0697344,0.0547951,-0.00116814,0.0153355,0.0490923,0.00607029,0.0354708,-0.0524228,-0.0121739,0.0469853,0.0382169,0.0154687,0.00353754,0.0126104,-0.0428683,-0.0200402,-0.0609218,0.00821799,0.0429723,-0.0199836,-0.0743734,0.0296989,-0.0121331,0.0738855,-0.0134499,-0.00761111,-0.00508741,-0.0493632,0.0932385,-0.0310704,-0.0195798,0.0163895,0.053089,0.0176765,-0.0104178,0.00250498,-0.0045864,-0.0202068,0.02819,0.105891,0.0370142,-0.0204151,0.00223523,0.0219626,0.0799117,0.00105789,-0.000587584,-0.0803681,-0.0266503,-0.0119142,0.00950948,-0.0129191,0.0111356,-0.00720675,0.0249083,0.0129896,0.0365104,0.0574307,0.0349464,0.066478,-0.0327475,0.0459727,-0.00373036,0.02184,-0.0573061,0.0386228,0.0650915,-0.00478568,0.0161476,0.163412,0.0607375,0.0102152,0.0360321,-0.0240395,-0.000496538,3.24117e-06,-0.0246556,0.0836736,-0.0563784,-0.00919683,-0.00915708,-0.0816739,0.0426936,0.000595012,-0.0264299,0.0207693,-0.000158429,0.0222638,0.0731287,0.0112642,-0.0792702,-0.0193887,-0.0119787,-0.0772908,-0.00971268,0.0100127,0.00561808,0.013104,0.0765179,0.149915,0.160103,-0.0289759,-0.0641429,0.00321939,-0.0191648,0.00675883,-0.00369027,0.0222784,-0.0442689,0.01114,0.0171881,0.029024,0.0111697,0.0150546,-0.0282089,0.0306052,0.0188751,-0.00874321,-0.0880506,-0.021149,0.02598,-0.0954379,0.00576278,0.029875,0.0441992,0.0394239,0.0314546,-0.0353743,0.0330087,0.041202,0.0855821,0.00586892,0.0189431,0.0374261,0.0366495,-0.0217483,0.0384472,-0.00774187,0.0216864,0.0569252,-0.0133057,0.0158351,0.0603743,-0.0775776,0.0219304,0.0287295,-0.0417868,0.025479,0.000651808,-0.038941,0.104862,-0.0339567,-0.0259094,-0.0312621,0.0545682,0.0120204,-0.0177051,-0.103396,0.0779658,0.0791165,0.152975,0.0455875,0.0168027,0.0261544,0.0503589,-0.0369827,0.00909476,0.000405057,-0.0545786,-0.00613036,0.0265025,-0.00299444,-0.00727173,0.0157114,-0.00817162,0.00960112,0.048708,-0.0424615,0.0353728,-0.0330493,-0.0206492,0.0454566,-0.102604,0.0268936,-0.0375513,-0.00356611,-0.0255828,0.0203516,0.0645836,0.142187,0.182967,-0.0760609,0.0237425,-0.0129279,0.0207384,-0.0301469,0.0414037,0.0360884,-0.0168669,0.0180173,-0.0136238,-0.0222281,-0.00348806,-0.009436,0.0778592,0.00524945,0.0293359,0.00166492,0.0360693,-0.00455321,0.0327344,0.0248383,-0.0154517,0.00838354,0.0392592,0.00635409,0.0355331,0.101893,0.0774738,0.0841097,0.065635,0.0694692,0.0625626,0.0095999,-0.0125029,-0.00866044,-0.00458437,-0.00856461,0.0145602,-0.0947445,0.051117,0.0527078,0.0130314,0.0229886,0.0521259,0.0321146,0.046641,0.039313,-0.0254279,-0.00442909,-0.0446575,0.0855788,-0.0251793,0.0148378,-0.0721946,-0.0229748,0.0583303,-0.0145515,-0.010654,0.0838448,0.106868,0.0382579,0.025441,-0.0121109,-0.00676534,-0.0385049,-0.032924,-0.0547064,-0.0288427,-0.058854,0.0064171,0.0138923,0.0349276,0.0810407,0.014845,0.0297269,-0.0241188,-0.0426567,0.0314079,0.00960947,-0.0307999,0.0166524,0.00670207,0.00494224,-0.0195854,-0.028158,0.000781533,0.0139115,0.0505421,0.194734,0.0390629,0.0680441,-0.0251876,0.00853601,-0.0533612,0.0307407,-0.0238728,-0.0305343,0.0296585,-0.0306993,-0.037526,0.0293045,0.0281711,0.0485042,-0.0397184,0.0112369,0.0354625,-0.0310689,0.0241748,-0.0870435,0.00348079,-0.0366401,-0.0107396,0.000757687,0.0119339,0.0308639,0.000609434,-0.020812,-0.00864458,0.0933718,-0.0615166,0.0171338,0.0516755,0.0246738,-0.00504502,0.0281416,-0.0407593,0.0190752,0.0374855,-0.0170884,-0.0362503,-0.0149414,-0.053254,-0.0381319,0.04295,0.107788,-0.0559934,0.0305112,0.0463098,0.0914418,-0.0282085,-0.00465946,0.0626263,-0.00440003,-0.0204726,-0.0420584,0.0396351,0.024067,-0.0281019,0.0228354,-0.00906624,0.0140981,-0.0357608,-0.0442746,-0.026179,-0.00879304,-0.136792,0.0877632,0.0609056,-0.0366889,0.0275757,-0.0169302,-0.0624679,-0.0264675,-0.00148795,-0.0301133,-0.0069774,-0.00997312,0.0984786,-0.00164976,0.0520873,0.0258813,-0.0211601,-0.00800848,-0.000190835,-0.0254561,0.0113487,0.0607794,0.0281381,0.0256346,0.0291366,0.033384,0.00266828,-0.0790231,-0.00955203,0.0756516,-0.00229473,0.014298,0.0784351,-0.0349946,-0.0115424,0.0132767,-0.036101,0.0401714,-0.021975,-0.030473,-0.0327348,-0.151538,-0.0179102,-0.00365246,-0.0938256,0.024983,-0.0528074,-0.0365273,0.0784861,-0.0211031,-0.00527234,0.00530826,0.0383042,0.124526,-0.0263395,-0.0295186,-0.110708,0.0051324,0.00627304,0.0512682,-0.0133627,-0.0401882,0.0394212,-0.00484077,-0.0579082,0.0584846,0.0586236,0.0032316,0.0161033,-0.0287204,-0.0200267,-0.0159244,-0.0606647,-0.0461533,-0.0621656,0.0228181,0.0119281,-0.0517967,0.050194,-0.000315891,5.18435e-05,-0.0313296,-0.005097,0.105822,-0.00551658,0.00885546,-0.0622731,0.0489832,-0.0302257,-0.0132604,-0.0292472,-0.0215879,-0.0297346,-0.0309682,0.00500909,0.0138689,-0.0262612,-0.0878874,0.00291643,0.0340483,0.0884299,-0.0263213,-0.0811361,0.069165,0.0108581,-0.000990204,-0.0229107,0.0144252,-0.0395807,0.0540527,0.0180739,-0.0145124,-0.0356732,-0.0861603],
			"b":0.275362
		},
		"neuron 3": {
			"w": [-0.0634578,-0.0238541,0.00193572,-0.0254403,0.0143201,0.0123552,-0.040716,0.0656978,-0.062862,0.0271821,0.0320553,-0.0703323,0.0470804,-0.0491426,0.0650351,0.0445119,-0.023153,-0.00396903,0.0284589,-0.0171159,-0.038805,-0.0259124,-0.0577798,0.00576155,-0.00936301,0.0777691,0.091542,0.0158809,0.0588367,-0.0684163,-0.0129235,0.0155806,-0.0366766,-0.0573291,0.0257846,0.0516538,-0.023649,-0.0128111,0.0362872,0.00358625,0.0672138,-0.00113089,0.0334227,0.0235773,-0.0229307,0.0931631,0.0118884,0.0334117,-0.0910734,-0.0127596,0.0473396,-0.0078999,-2.35574e-05,-0.00562163,-0.0122095,-0.0144085,0.00540379,0.0311195,0.01775,-0.0138356,0.00700397,0.0172834,-0.00531548,-0.00529125,0.0431895,-0.0367351,-0.0135492,-0.0404417,0.0626851,0.00363335,-0.0160715,0.0362306,0.030519,-0.0366325,0.08311,-0.0287235,0.0214764,-0.0263655,-0.0305587,-0.0297315,-0.0256153,-0.0182545,-0.138298,0.00610266,0.0276038,0.0591955,0.0579198,-0.0564777,0.0253417,0.0453374,0.00943984,-0.00127927,0.0119695,0.0455373,-0.033503,-0.0335847,0.0339032,-0.0388349,0.00740443,0.0215974,0.0792873,0.0434238,0.0645173,0.0265758,-0.00199752,0.0668286,0.0298315,0.0163963,-0.0298243,-0.0231095,-0.0572485,0.00117481,-0.0122163,-0.0443325,-0.0269075,0.0229506,0.0503851,-0.0519914,0.00156597,0.0882964,0.0279267,-0.02446,-0.00121693,-0.0899114,0.008089,-0.00899374,-0.0117606,0.0375775,0.0274084,-0.0746575,0.0746073,0.0514976,-0.011835,-0.00363157,-0.0735726,0.0479118,-0.0468078,0.0772588,-0.0973454,0.0189807,-0.000699158,-0.0192061,-0.0340823,0.0244302,0.00524268,0.0161331,-0.0458604,-0.0291847,0.0423958,0.0846019,0.0770029,0.0269295,-0.102254,0.0193284,-0.0321813,0.0127321,-0.0366706,0.0430475,-0.00587148,0.0119908,-0.0224774,0.00952287,-0.0359165,0.00770799,-0.00510881,-0.0644229,0.0380641,0.0332642,-0.0336471,-0.0496307,-0.0120072,-0.0295759,0.0687306,-0.0147939,0.0593921,0.00455133,-0.0257625,0.0382189,-0.0143291,0.0506787,-0.0156053,0.0555153,0.0426471,-0.0255183,0.0122755,0.00423501,0.0221741,0.0174603,-0.0139301,0.0310321,0.0166742,-0.0328299,-0.0329496,0.0340083,-0.0850625,-0.0349496,-0.0336884,0.0309969,0.0911736,-0.0346854,-0.0782784,-0.0224892,0.00618759,0.0632318,0.0738115,-0.022596,0.0472402,-0.0371239,0.0288608,0.0245815,0.0169836,0.0250603,0.0162056,-0.0291892,-0.114629,-0.0475894,-0.0338196,0.0203486,0.0143997,-0.0345343,-0.0158897,0.000771372,0.00789887,-0.00188311,-0.0707846,0.072277,-0.0250269,0.0666373,-0.0565769,-0.00635591,0.0166388,0.00244934,-0.0105498,0.0547783,0.0271139,-0.0268873,-0.0257744,-0.0982865,0.0221782,0.115568,0.113749,0.0414303,0.0214869,-0.0857001,0.0322933,-0.0227439,0.0622631,0.0338254,-0.0213758,0.0181445,-0.00882104,0.0594729,0.0158022,0.02108,-0.000166383,-0.0657934,0.101514,-0.0351904,0.0077381,-0.00689923,0.061954,0.0368753,-0.0145945,-0.08478,0.095492,0.0806943,0.0528319,0.0007091,0.098481,0.0631058,0.028804,0.0216446,-0.0163438,-0.0125948,-0.0797553,0.00101507,-0.0611723,-0.0528974,0.0385834,-0.0174034,-0.0153057,0.035417,-0.0309319,-0.0223581,-0.0599509,0.0329471,0.0915626,-0.0188577,-0.00287662,0.0210904,0.0123494,0.00758811,-0.0215073,-0.000320844,-0.0114073,0.0613419,0.0523308,-0.0562827,-0.0252555,0.0889583,0.139626,0.0190164,0.0077305,-0.0199949,-0.0216473,0.00932518,-0.0385686,0.0318332,0.0217091,0.0210681,5.72264e-05,0.0036341,-0.0462919,0.0161696,0.0378697,-0.0119599,-0.000789625,-0.020403,0.0142666,0.035032,0.011851,-0.0283189,-0.0541924,-0.0626285,-0.0509858,-0.0347762,0.00446136,-0.0643266,0.0382,0.0378485,0.125522,0.0361503,0.0289485,0.0108875,-0.0370114,-0.0489837,-0.0476771,0.00927565,0.0524889,0.0132535,0.0278354,0.0363905,0.00514021,-0.0599054,-0.091305,-5.96837e-05,0.00646644,-0.0794178,0.0559278,0.0322618,-0.0111866,0.0510234,0.0471982,-0.052719,-0.0288736,-0.0201732,-0.0100723,-0.0298195,0.0444907,0.0290173,0.173542,-0.0115705,-0.0298452,0.0202034,0.0494268,0.0487063,0.0584687,0.00778157,0.0513869,-0.057562,0.0508314,-0.0138524,-0.0378061,-0.0192437,0.0059387,-0.0175891,0.0982387,0.00109835,-0.012098,-0.0382484,-0.0272941,0.0270413,0.0625971,-0.102612,0.0596086,0.036779,0.0187266,0.0265155,0.00015226,0.0758029,-0.015769,-0.0332631,0.0174542,0.0277447,-0.0469864,0.00939358,0.0481056,-0.00809109,0.0846632,0.00360927,-0.0333583,0.0347763,-0.036857,-0.0622997,-0.0244692,-0.0877634,-0.0159737,0.0223277,0.0220037,-0.076306,-0.0455847,-0.0255776,0.016493,0.0378269,0.0819491,-0.000632335,-0.0353153,0.042587,-0.0173391,0.0694179,0.0197684,0.00809183,-0.0135132,-0.0952566,-0.0305529,-0.0320489,-0.0318211,0.11456,-0.0127941,0.0764373,-0.000629053,-0.0483061,-0.0177064,0.00379352,-0.0450574,-0.00371774,-0.0183186,-0.062749,-0.0493645,0.0305697,0.0309595,-0.00906523,-0.0356054,0.107402,-0.00594627,0.00275507,-0.0670269,-0.0121764,-0.00294198,0.0868392,0.0397019,-0.00125224,0.0689827,-0.0296248,0.0695053,0.000355689,-0.0648205,0.00258037,0.0260415,-0.0105421,-0.00705344,-0.015635,0.0638187,0.00546312,0.0427315,-0.146755,0.0305635,-0.0235219,0.0682037,0.0206846,0.0631137,0.0614054,0.00815825,0.0602717,0.0307719,-0.0117002,-0.00503542,0.0440378,0.0623093,0.0532032,0.0839737,-0.0390182,0.0483534,0.0302887,0.0560365,-0.0195133,0.0398732,0.0179665,0.0287975,0.0265239,-0.035662,0.07808,0.0422986,-0.0373931,0.0162895,-0.0238161,0.134187,-0.0545625,-0.0576096,-0.0551195,-0.0522368,0.0218228,0.00421696,-0.0157895,0.00232346,-0.0380976,-0.00504412,-0.0272652,-0.0323859,-0.0378864,0.0113317,-0.0742125,-0.0210715,-0.0894126,0.0656895,0.0262279,-0.0551503,-0.0176589,0.0492139,-0.0338144,-0.0304271,0.0245022,-0.00114281,0.0300934,-0.0878416,0.034122,-0.0666562,0.0227927,0.064012,0.0158009,-0.00352252,0.01236,0.0191918,0.0416164,0.0295197,-0.0171819,-0.0175975,-0.0302321,0.00153347,0.0442119,0.00652484,-0.0495558,-0.0329116,-0.00991055,0.0341621,-0.0167214,-0.0560723,0.0234172,-0.0127323,-0.0194334,0.0402391,0.103736,0.00459699,-0.00995405,-0.0483964,0.00992395,-0.0328002,0.0454613,0.0363434,0.0267396,-0.0203828,0.0704133,-0.0227551,-0.0135743,-0.030706,-0.0181915,-0.110902,-0.0437577,0.0179943,-0.0567346,-0.00928426,0.0141947,0.0599333,0.0473031,0.0420248,0.0444418,0.103183,0.037078,-0.00561921,0.0722334,-0.0552102,-0.00814673,-0.0743057,0.00061719,0.0406052,-0.0237401,-0.03029,0.0040837,-0.0468213,0.0412739,0.0195988,-0.00654822,0.0639907,-0.0101912,0.00594999,-0.0598327,-0.0172209,0.0191966,0.00960676,0.0035323],
			"b":0.179692
		},
		"neuron 4": {
			"w": [0.0160497,-0.043767,0.000513929,0.0228875,0.051953,-0.012242,-0.0211702,-0.0570528,-0.0877342,0.0168138,0.0506882,-0.00331542,0.000853524,-0.0645318,0.0219657,0.0415089,-0.000746175,0.0197997,-0.0595488,0.00419721,-0.0337429,0.00434213,-0.0491294,-0.0387872,0.00281847,0.0501586,-0.0238946,0.043737,0.0145996,0.0580819,0.0517001,-0.0142887,-0.0159726,-0.0287604,0.00268529,0.0201885,0.0579612,0.0292375,0.0236244,0.0180306,-0.0271216,-0.00372005,-0.014533,-0.0447816,-0.0541704,-0.0296214,-0.0600412,-0.0647664,0.0200327,0.0627229,0.0828739,0.00683019,0.00279445,0.0126022,0.00364604,-0.0169568,-0.0056359,-0.022021,0.0544506,-0.0140874,0.0136223,-0.000147895,-0.00384943,0.0389831,0.0741592,0.0253366,-0.101004,0.0537739,-0.0235251,-0.00729401,0.0273098,0.0166494,0.0286192,0.00290661,0.0472182,0.047884,-0.018235,0.0047408,-0.00497623,-0.0171925,-0.0166437,-0.0791275,0.0255263,-0.0549874,0.0488481,0.0699184,0.0221104,-0.00161677,-0.00468403,0.0284621,0.0466059,-0.0117414,0.027372,0.00795307,-0.00147328,0.0216732,-0.00316989,-0.00332917,0.0121774,0.0753017,-0.0405593,-0.00102556,0.132083,-0.0135685,-0.0232304,-0.020284,0.0191747,-0.0122078,0.0951573,-0.0476406,0.0195512,0.0193019,0.0540472,0.04021,0.0199375,0.0435222,0.0471773,0.000544616,-0.00498178,-0.0139627,-0.0110574,-0.0584926,-0.0503132,0.0054606,-0.0567511,-0.0323101,-0.0891866,0.0303793,-0.0655232,-0.0321012,0.0232674,0.0370385,0.03085,-0.00767361,-0.0256003,-0.0136676,0.052784,0.0146162,-0.00765883,-0.0464191,0.020853,-0.0645222,-0.074538,-0.0513191,-0.0394704,0.106571,0.0642013,0.00827432,0.0930407,0.0763982,0.0876309,0.0343781,-0.0155633,-0.00059561,-0.00979109,0.0290123,-0.0298946,0.0338433,0.0506864,-0.00637818,0.0109993,0.00194504,0.073451,-0.0436115,-0.000873691,0.00776345,0.0685445,-0.0218332,0.0407254,-0.0377041,-0.0773985,0.0031918,-0.0287933,-0.0416331,-0.0354662,-0.0572361,-0.0498154,-0.0166572,0.0194868,0.0548817,0.0375485,0.0678293,0.0113913,0.0150618,-0.0347805,0.00105269,0.00939147,-0.0964818,-0.0155228,0.0239294,0.109345,-0.0382456,-0.0170747,-0.00117128,-0.00597544,0.00896496,-0.00925478,0.0398432,-0.00743146,0.00920402,0.0030227,0.0217991,0.0142535,-0.0026284,0.0401671,0.0618118,-0.0254255,0.0458947,0.0160625,0.116307,0.0542728,0.0262571,0.0411891,0.0189881,-0.0960051,0.0698099,-0.013422,-0.0162278,-0.00644106,-0.0422148,0.0443185,0.0441079,-0.00304432,-0.0299295,0.00673666,-0.000437927,-0.00300055,-0.010679,-0.0373285,0.0271853,0.00663056,0.0347764,-0.0024545,-0.0291107,-0.00133385,0.0364094,0.00346754,-0.0549563,-0.0431473,0.081428,0.116589,0.0302057,0.0141581,0.0241282,0.0177159,-0.0298973,-0.0296983,0.0131876,0.00669177,0.00936676,-0.0400017,-0.0155763,-0.0012917,0.0759051,-0.0399147,-0.0156368,0.0521914,0.0185757,-0.00791154,0.0382334,-0.00126557,-0.0197244,0.0618547,-0.0609766,-0.0634559,0.0173467,0.0171585,0.0433342,0.078226,0.105502,0.0251643,0.0756882,0.0363328,-0.0305678,-0.0233585,0.155738,0.0192868,0.0660919,-0.00958478,0.0469984,-0.0300935,0.020704,0.0310402,0.0235952,-0.0441184,0.008981,-0.0176942,0.0775834,-0.0250839,-0.0317757,-0.0072332,-0.0815251,0.0152636,0.00742583,-0.0559398,-0.0124219,-0.0191312,0.0034514,0.0212856,0.167541,0.164184,-0.0621279,0.00363293,0.00204977,0.0311369,-0.00907899,0.00640318,0.038014,0.0533661,0.118878,0.0171319,0.0347111,0.0376123,0.00969038,-0.0184118,0.0366765,-0.00233168,0.00913565,-0.00558877,0.0541199,0.0155973,0.022537,0.0274905,0.000172633,-0.0429496,-0.0254381,-0.0449736,0.0345563,-0.00538233,0.153665,0.0994781,0.00330229,0.0928474,0.0088852,-0.0101923,0.0138513,0.0755819,0.0151197,-0.00450581,0.00761897,-0.0885289,0.0103246,-0.0639287,0.00786431,0.0122029,0.000895823,-0.00226582,-0.0149189,-0.0112292,0.022078,-0.0298564,-0.0259095,0.0379052,0.0280127,0.00327704,0.0242963,0.0300623,0.0335085,0.0224192,0.0630397,0.041798,-0.011301,0.0120557,-0.0385622,-0.00976164,0.00688299,-0.0176255,0.0232343,-0.0255964,-0.086836,0.0217367,0.0918317,0.0265815,0.0460439,-0.0146355,0.00735284,0.0771585,0.00818424,0.0690779,0.0194371,-0.0377608,-0.0453443,0.0248972,0.0498927,-0.00879969,0.0549152,0.0417947,-0.0275024,0.00612994,0.0674506,-0.00351455,0.033229,-0.0169018,0.0413034,-0.0469236,-0.038763,-0.0268248,-0.0292393,0.0260254,0.02518,-0.0594981,0.0331643,-0.0117637,-0.124101,-0.00974825,-0.0264839,-0.0239318,-0.0623029,0.0571721,0.024174,0.00940881,0.0591147,0.037918,0.0317541,-0.010594,0.00733014,-0.00102428,0.0676949,-0.0113009,0.105299,0.0632017,-0.00296184,0.0297184,0.0432062,0.0295239,-0.0415552,-0.040035,0.00866371,-0.0755401,-0.0551127,0.0385656,0.0435778,-0.0187396,-0.0266905,0.0626356,-0.000436423,0.0621952,-0.0120635,-0.0242995,-0.00246483,-0.0527148,0.0074469,0.015781,0.0240144,0.0273877,-0.0011963,-0.0016728,-0.0227661,-0.0368648,0.0681233,0.0499637,-0.0107108,0.0135984,-0.108864,0.0110624,0.0472943,-0.0620853,0.00269704,-0.0388649,0.0130567,0.0980087,0.0654946,-0.0119929,-0.0829278,-0.031175,0.0289486,0.0907576,0.105169,-0.0180298,-0.0488063,-0.0573994,0.000369417,0.0027415,0.0184517,-0.0255253,-0.00534096,0.00912241,0.0360106,0.00232205,0.0501974,0.00700288,-0.027083,-0.000582242,-0.0331496,-0.0494509,0.0589966,0.0220787,-0.0150675,-4.87239e-06,-0.0368409,-0.0137488,-0.0137497,-0.00290495,0.00610943,0.0509054,-0.0434002,0.0239456,0.067827,0.00786429,-0.0199592,0.0498831,-0.0730741,0.0660557,-0.0118316,-0.0322701,0.0321444,0.0668624,0.0150311,0.00801836,0.00841313,-0.0183603,-0.124002,-0.0276856,0.0288626,-0.0817137,0.0181258,-0.0209884,-0.0570681,-0.0461086,-0.0442931,0.039536,0.0117803,0.0142915,-0.0144641,0.0337831,-0.00184974,-0.0676568,-0.0754674,-0.0949385,0.0176672,0.0372329,0.0425325,-0.0451065,-0.0568612,0.0113049,0.0135215,0.0140817,-0.0724449,-0.0259009,-0.00113176,-0.0411187,0.014851,-0.0428776,-0.0078124,-0.106513,0.0548541,0.0484716,-0.0215559,-0.0504486,-0.0313543,-0.0136464,0.00170321,-0.102702,-0.000138513,0.0354692,0.00876545,0.0155482,0.0171876,-0.0130514,0.0360603,-0.0513985,-0.0188687,0.00612903,0.00885412,0.00620277,-0.0262037,-0.0202396,-0.0456768,0.0573121,0.0966965,0.0208224,-0.0793855,0.0248028,-0.0304702,0.0186418,0.0169055,-0.0332014,-0.0241568,-0.0120073,-0.0337159,-0.0129377,0.0315928,-0.0738007,0.0262696,-0.00032881,0.028077,0.0823876,0.0374746,-0.0574509,-0.010077,0.0361236,-0.00106131,0.000306288,-0.0222725,0.0206384,-0.0828152,0.0326069,-0.0288897,0.0162104,0.0395502],
			"b":0.222558
		},
		"neuron 5": {
			"w": [-0.0424777,0.00635476,0.00892942,-0.00805663,-0.00809975,0.0656308,0.00667753,0.00876107,-0.0885658,0.0157663,0.0178384,-0.0555049,0.0024895,-0.00714946,0.0414048,0.0147457,-0.0154943,-0.0252875,0.0163893,0.0669363,0.0121321,-0.0392895,-0.0196448,-0.0210223,-0.00914543,-0.0517479,0.0415991,-0.0515532,-0.089016,-0.0134577,-0.00324823,0.0542558,0.0273543,-0.0497914,-0.11749,-0.0682815,0.0202445,-0.0249496,0.0271449,0.00966323,0.00376941,-0.00110156,0.0218126,0.0236136,-0.0491659,0.0352178,0.0236814,0.083947,0.0293814,-0.0664602,-0.0439882,-0.0348103,-0.0185536,0.0210413,-0.00153396,-0.0106806,0.00751016,-0.0199301,0.0499062,-0.036679,-0.0030778,0.0593645,-0.0410762,-0.0198012,-0.0362655,0.0418064,0.0565277,0.00843608,-0.0157336,-0.0416337,0.046207,-0.0110596,-0.0510394,-0.00354208,-0.00878195,0.0239718,-0.0103765,-0.0333762,0.0224094,-0.0308533,-0.033565,-0.0307109,-0.0316434,0.019824,0.000926165,0.00904599,0.06604,-0.0340535,0.0118092,0.0762579,0.0226245,0.0494929,0.013366,0.0359993,0.0412174,0.0342922,0.0151864,-0.0204174,-0.0879992,0.060883,0.0206926,-0.0758279,0.0307872,0.104087,-0.0256467,-0.07101,0.046426,0.0570008,-0.0276903,-0.0338341,0.0206586,-0.0212156,-0.0309641,0.00305023,-0.0325466,0.0147455,-0.00208282,0.0634936,-0.0275014,0.0507578,0.0302342,-0.0107635,-0.0298297,0.0215648,-0.051518,0.0024062,-0.00380091,0.0202013,-0.00548207,0.00561364,-0.0132476,0.000188989,0.0518338,-0.0314983,-0.0239382,0.0727478,-0.0467425,0.0297115,-0.00999919,0.00593045,-0.019622,-0.00696229,-0.0234243,0.0227933,-0.0811389,-0.0375104,-0.0652269,0.0740437,0.0412065,0.0334062,0.0157592,-0.0472498,0.0217865,-0.0494834,-0.00241933,-0.0326947,-0.0618209,-0.0321785,-0.0176057,0.0107013,0.028554,-0.10882,-0.00741643,-0.00640682,0.001312,0.0335358,0.00181263,-0.0220968,-0.0552294,-0.0268382,0.01463,0.0341842,0.0511206,-0.00970605,-0.0266021,-0.00665592,0.0310415,0.0303301,0.0267593,0.0175658,-0.0323002,-0.0655324,-0.0274238,0.0280276,0.0124132,0.0540717,0.0705197,0.0119006,0.0357276,0.0384586,0.0142788,-0.0413693,0.0133271,0.0330804,0.0152643,-0.0452743,-0.00985108,0.0204639,-0.0189544,-0.0262736,0.00629941,-0.0591673,-0.0785994,-0.0126397,-0.0298735,0.0490212,0.0444121,0.0121069,-0.0251752,0.0516161,0.0576853,0.0127308,0.0222422,0.02519,0.0266381,-0.0186919,-0.0245525,-0.0144253,-0.0175337,0.0721059,0.0397617,0.00656875,-0.00240488,0.100397,-0.0470284,0.0141255,-0.0305063,-0.00149955,-0.0434288,0.0301789,-0.0254945,0.00866735,0.0504129,-0.0195627,0.0474844,-0.0632376,-0.0146511,0.0549908,0.04057,0.0686189,0.069557,0.0342811,-0.0123418,0.0634564,-0.0363417,0.00615626,0.0158172,0.0300684,0.046202,-0.0614495,-0.0141656,0.00479492,-0.0516578,0.0529326,-0.0587327,-0.0198734,0.00260703,-0.0389341,0.00935963,-0.00548709,0.00986194,0.10365,0.00948609,0.0251923,-0.0648192,-0.0155126,-0.0255473,0.0672169,-0.0555415,0.0486488,0.0922115,-0.0219596,-0.0430966,-0.0190823,-0.00857967,0.0463743,-0.000397226,-0.0778044,-0.00566144,-0.00562582,0.0619076,-0.0341364,0.0219689,-0.0101205,-0.0561701,-0.0109205,-0.051822,0.000296582,-0.0233916,-0.0273704,0.0363708,-0.0547356,-0.0201326,0.0350203,0.0252012,0.00582541,0.0238223,-0.0266729,-0.0352062,0.0587873,0.0906782,-0.034086,-0.0395767,-0.0397683,-0.0216976,-0.0119311,-0.0457532,-0.0294626,0.0141177,-0.0198619,-0.0416412,-0.0273916,-0.0529962,-0.00162177,-0.000555223,0.0157171,0.0206424,0.00240524,0.000477936,-0.0906725,0.0111825,0.00849125,-0.0842246,0.0429727,0.00319664,0.0460311,0.0226458,0.102901,0.0174045,-0.013181,0.0650932,0.0197581,0.0226396,-0.0118875,-0.0523604,-0.00199247,0.0358399,0.0487697,-0.047457,0.0885354,-0.0138169,0.0843055,0.0227779,0.0216804,-0.0363106,-0.000931838,-0.0172287,0.0134943,-0.0114446,0.0262064,-0.00624479,-0.0401021,-0.0491098,-0.0468969,-0.0105135,-0.0331351,-0.0195092,-0.062178,0.0288363,0.0829648,0.024014,-0.0263959,-0.0355019,0.0272849,-0.0705013,0.0399735,0.0721642,0.0127903,0.075717,-0.0144402,0.0363502,-0.0356646,0.00750427,-0.0139451,-0.032783,-0.0198488,0.0781188,0.00103993,0.0539723,0.0229352,0.00738463,-0.00188886,0.00654768,-0.0293444,0.0916717,0.0151593,0.0630414,-0.0703539,0.111421,0.0591144,0.0875797,0.0233698,0.0435105,-0.113363,-0.0588371,-0.0063243,-0.0752912,0.000516241,-0.0113528,-0.0212206,0.0681009,-0.109537,0.0914936,-0.00497001,-0.0673126,0.0320015,-0.0278628,0.0399856,-0.0117535,-0.0208691,0.00145878,-0.0179117,0.0199594,0.0424525,0.0301191,0.0188389,0.0276471,0.0120553,0.0743165,0.068139,-0.0617625,0.0189755,0.0505885,0.0870293,-0.0167263,0.0289214,-0.0131199,-0.0128835,-0.052251,0.0480208,0.00685078,0.0266423,0.0325734,-0.0173088,0.0404003,-0.011316,0.0218591,0.084054,-0.00288968,0.00495403,0.00786011,0.0177964,-0.00524301,0.0171843,0.0600321,0.00578474,-0.0865687,0.0212907,0.0448139,-0.0203261,0.0461361,0.0321739,0.0309881,-0.0282498,0.014769,-0.0278121,0.0386357,-0.00155918,0.0722799,0.0118591,0.015425,0.0250528,0.0378711,-0.0285492,0.0546425,0.00883455,-0.00904036,-0.0339452,-0.0152646,0.00719499,0.00708887,-0.0012849,0.0152734,0.0196863,0.0168772,-0.00950412,0.0394792,-0.0287302,0.038018,-0.0139161,0.0666483,-0.032416,0.0723063,-0.00519263,-0.0677358,-0.0442848,0.0266907,-0.0105097,0.00890631,0.0184716,0.0135845,0.033916,-0.0264417,-0.000347616,0.0592025,0.0557212,0.0777934,0.00857293,0.0116109,-0.0270908,0.000687332,0.0173529,-0.044485,0.0148643,0.0444463,-0.0117364,0.0182956,0.00210359,-0.0254644,0.0420161,-0.025097,-0.0269936,0.0350363,-0.011028,-0.00860144,0.0319173,0.0396024,-0.0513667,-0.0107853,-0.0159704,0.0293067,0.0255539,-0.033493,-0.0319835,-0.0396474,0.0850358,-0.0541303,-0.00605898,0.00311566,-0.000818154,0.019205,-0.0140199,0.0123756,0.0143567,0.0813147,-0.0468745,0.00553669,0.0725819,0.0420869,0.00579687,-0.00138561,0.000913784,-0.036421,-0.0309666,-0.0550312,-0.0414506,-0.0353672,-0.0892936,-0.0598989,0.0148999,-0.053862,-0.0288239,-0.0172872,0.0263697,0.0540188,0.0360658,-0.0303929,0.0278487,0.0531406,0.0546384,0.00657461,0.0604698,0.0123893,0.00676825,-0.0265153,0.00767716,-0.116582,0.0201824,-0.0190389,0.0130798,0.0522201,-0.0672061,0.0708792,-0.0131752,-0.0336632,-0.051888,-0.0216513,-0.0586967,-0.0666929,0.0276415,0.0506036,-0.023612,-0.049515,-0.0645299,0.0185183,-0.0203594,-0.0234963,0.0167512,-0.0284228,0.0418372,-0.0124706,0.0166785,0.0408098,-0.0164133,-0.00891871,-0.0366118,-0.0326466,0.00445835,-0.000872822,0.0376288],
			"b":0.0888212
		},
		"neuron 6": {
			"w": [0.0443685,-0.0607606,-0.0679447,-0.0374667,0.0160665,-0.0372333,0.0323251,0.01075,0.0931708,0.0262008,0.0722869,0.00125785,0.0172103,-0.0566494,-0.0462672,-0.0549688,-0.038557,-0.0035013,0.00697826,-0.0511143,-0.026545,-0.0603066,0.0460819,-0.0315257,0.0143007,0.0383377,0.0638141,-0.0166089,-0.00632293,-0.0204837,0.0652001,-0.000800542,0.00503063,-0.032706,0.0636534,-0.0150431,0.0188314,-0.03008,-0.0198115,0.0160207,0.0484596,-0.00216375,0.00567275,-0.0832359,0.019726,0.0272891,-0.0291055,-0.0304789,0.0344305,0.0299448,0.040603,-0.03128,0.0766027,-0.0501394,0.00587918,-0.0117372,0.0155142,0.00121885,-0.039945,0.0554733,0.0191858,0.0507303,0.0126633,0.0102558,3.31663e-06,-0.0518435,0.000399113,-0.0383842,0.0143439,-0.0341871,-0.00455716,-0.047983,0.0481371,-0.0647044,-0.00250752,-0.0593216,-0.06846,-0.0165453,0.0168398,-0.0185969,-0.0456718,0.0352465,0.0542871,-0.0678638,0.0485582,0.0332863,0.0313308,-0.0205391,-0.0263064,-0.0218417,0.0557984,-0.0651874,0.000877134,-0.0329476,-0.0623549,-0.0240134,-0.0340839,0.0482742,0.00102977,0.00660813,-0.0781916,-0.00370422,-0.0140807,0.0130466,0.010442,0.0249945,-0.0526435,-0.00225698,-0.0202754,0.126235,-0.00623861,-0.0226622,-0.00318989,0.0432484,-0.010159,-0.0151549,0.0266459,-0.00838106,-0.00905975,-0.0411644,0.00319978,0.0034035,0.0160543,-0.0389444,0.0354077,-0.0161566,-0.0659217,0.033241,-0.012323,0.0190207,-0.0354707,-0.0703476,-0.0395168,-0.00414638,0.0526466,0.0258594,0.0163352,0.0560544,-0.0347942,0.000763648,-0.0348523,-0.0237959,0.0545596,0.0933122,0.0729904,-0.00394115,0.0126716,0.0440005,0.0726571,0.0304127,-0.0110022,0.0199292,0.0674016,-0.0473814,-0.0321175,0.0452876,-0.0302625,-0.0528465,0.0542949,-0.066881,0.0287604,0.101861,0.00481053,0.0391428,-0.0862579,0.0364035,0.0260375,-0.0796733,-0.015076,-0.0395072,0.0196673,-0.081817,-0.00926696,0.0156022,0.058345,0.022497,-0.0408011,0.0483389,-0.0471584,0.0125375,0.0179369,0.0396925,0.0913132,0.0189145,0.013241,-0.021295,0.021524,-0.0261193,-0.0946775,0.0454582,0.0514632,-0.0626652,-0.0362551,0.0015009,-0.025388,-0.0150494,-0.0246732,0.00186244,0.0228446,0.0437987,0.0795039,0.000438885,0.0181309,-0.00779657,-0.038861,0.0578911,-0.0216197,-0.0251037,0.0233971,0.00811897,0.0670338,0.0867237,0.0417101,0.0165103,-0.0373773,-0.0257376,-0.0444999,0.00853922,-0.00624105,0.0257113,-0.0227172,-0.0248827,-0.119208,0.0590819,-0.0122037,0.0176249,-0.037487,-0.0289364,0.011745,0.0270926,0.0209045,-0.0408222,-0.019914,-0.0633197,0.035345,-0.0364048,-0.0185083,0.0289404,0.0186061,-0.00371302,0.0889474,-0.0139916,-0.00505827,-0.0231254,-0.0247886,-0.0037677,0.0529828,-0.0119888,0.022343,-0.00618324,0.0534595,0.0236096,0.0667982,0.0370485,0.0458447,0.0114224,-0.0178035,-0.0174273,-0.0170289,-0.0192205,0.0656257,-0.00177657,0.0334324,-0.053009,0.00839136,-0.0804022,-0.0517926,0.083593,0.0211227,0.0646341,0.115438,-0.00275464,0.0299595,0.0130065,-0.0132122,-0.0580698,-0.0228993,-0.0741395,-0.0316985,0.0015574,0.00610019,-0.0108229,-0.0550168,0.00783398,-0.0347485,0.0219303,-0.00721616,-0.0499636,0.101911,0.0980196,-0.0464016,0.0108639,0.0218224,0.0324522,-0.00301235,0.0221577,-0.00605358,-0.0426997,-0.0433484,0.0451465,0.108966,-0.029212,0.0120815,-0.00479932,-0.0232018,-0.0191369,0.0266935,0.0570517,-0.0115742,0.0275378,-0.0668687,-0.0278008,0.078008,0.0267752,0.00999467,0.0050128,0.0306399,-0.000228202,0.00401206,0.0707718,0.028245,-0.0573082,0.00212055,0.0180995,0.0291631,0.0564719,-0.033728,-0.0503932,0.0320631,0.0104193,0.0608864,0.0281634,-0.0787424,0.0317729,-0.0984562,0.0558502,0.0611461,0.0276374,-0.00453256,-0.0319501,0.0310058,-0.103475,-0.00939227,-0.00534515,-0.0156473,0.00627346,-0.00283755,-0.0480967,-0.0341916,0.0257878,0.0296535,0.0402534,0.0414477,0.0897945,-0.0511818,-0.0454016,0.0463055,0.0544907,0.00180755,0.0525838,0.103966,0.0455262,-0.0601731,0.0934487,-0.00579312,0.0526908,-0.0209472,-0.022361,-0.0190578,-0.108963,-0.01678,0.0478979,0.00646313,0.0403471,0.00513679,0.0847834,-0.0218757,0.0158482,0.0548863,0.0596396,-0.0351584,-0.0267752,-0.0195645,0.0437391,-0.00295591,0.0469903,-0.0269695,0.000707587,-0.00621179,0.0233511,-0.00383627,0.0629874,-0.012843,0.012773,0.0590428,-0.0400801,0.0196129,0.0141595,0.0284305,-0.0110195,0.0381929,0.00159502,0.000122161,0.0447576,0.0203483,0.0388584,0.0431055,-0.019472,-0.0199026,0.0219454,0.0124942,-0.0343997,0.00553966,-0.0116033,0.0191359,0.0135507,0.082986,0.0146437,0.00711844,-0.0113384,0.0744457,0.0157315,0.0323488,0.0554336,0.0579977,-0.00202485,0.0649675,-0.0165731,-0.0188767,-0.000943499,-0.0854486,0.0138519,-0.046075,0.0247268,-0.00324849,-0.0665778,-0.0377699,0.0157713,0.0495532,0.134005,0.018364,-0.0116044,0.0142106,0.0169684,-0.0319831,0.0312705,-0.0213961,-0.00753747,-0.0652106,0.0433283,0.0496924,0.0466405,-0.0298218,0.0871476,-0.0870006,-0.0413398,-0.0609456,0.100658,-0.0130635,0.0122827,0.00988244,0.000623404,0.107091,-0.046551,-0.0674953,-0.0455682,-0.0229901,0.03406,0.00880133,-0.00777827,0.00231486,-0.0561645,-0.0235349,-0.0512352,0.0144274,0.0141872,-0.0864305,0.00975316,0.0686649,0.0369689,0.0198379,0.025964,-0.0624292,0.028499,-0.0447145,0.0562219,-0.056287,-0.00637664,0.0507438,0.014362,-0.0491919,0.0326358,0.0143389,0.00406746,-0.0122571,0.0382036,-0.00901364,0.018976,0.00380093,-0.00656812,0.0751301,0.0144735,-0.0574523,-0.0281014,0.07695,0.0131034,0.0131324,-0.0549816,-0.0137971,0.0257112,-0.0267651,-0.0538943,-0.0158358,0.0145264,-0.0103569,0.0428336,0.0168448,-0.0154371,-0.00780655,0.00603391,0.0484883,-0.0491052,0.0216335,-0.0201503,-0.0276352,0.0396315,0.0154091,-0.00886532,0.0871241,-0.0589418,-0.0425356,0.0144764,-0.00467993,0.00595627,-0.0290823,-0.0181268,-0.0330631,-0.0185836,0.030647,0.0905679,0.0237761,0.0259267,0.0081895,-0.00654423,0.0535367,0.131656,0.0626506,-0.0121413,-0.0654183,0.0287312,-0.0896031,-0.0176554,-0.0633216,-0.038999,-0.02188,0.0427485,0.0241704,-0.0712853,0.0297794,-0.0452871,-0.0626489,-0.0320638,-0.0805008,0.0406262,0.0144323,-0.0521684,-0.0128127,-0.0296217,-0.0400161,-0.0152021,-0.0190926,0.053907,-0.00311333,0.0535633,0.0719487,0.0202807,0.0386296,-0.00208668,0.0161625,-0.0337716,-0.0361751,0.000168177,-0.0140569,-0.0400298,-0.0277561,-0.00285015,0.00525435,-0.0126077,0.0207349,-0.00259617,-0.0206266,-0.036743,-0.0543449,0.0336538,-0.0346824,-0.0194839,0.0515805,-0.0421783,-0.0198467,0.0379282],
			"b":0.193083
		},
		"neuron 7": {
			"w": [0.0244017,-0.000733718,0.05764,-0.0236582,0.0370787,0.00855277,-0.0233023,0.0233621,0.0213378,0.0377481,-0.0188581,0.0483287,-0.067787,-0.0205017,0.0410678,0.109054,0.00282785,0.0587447,0.0258181,0.056684,0.0176198,-0.0227471,-0.00334496,0.0596014,-0.0137829,0.00963991,-0.0572228,-0.0690226,-0.0541812,0.0514317,0.022593,0.0280084,0.0648472,-0.00423341,0.0398959,-0.0236552,-0.035425,-0.0466684,0.0175841,0.0739462,-0.00844152,-0.0558015,0.0413445,-0.0110402,0.0525379,0.0249346,-0.0288069,0.0296274,0.0676635,-0.0254062,-0.0179376,0.00901628,-0.0511907,-0.00738442,-0.128314,0.0153298,0.0311571,0.00547577,0.0545576,0.141534,-0.0119071,0.0499705,0.0450929,0.00873512,0.0382678,-0.0512544,-0.0352007,0.0166704,-0.0177473,-0.0425383,-0.00482942,0.0276849,0.0357778,-0.0149066,0.0963552,0.0441618,0.0200777,-0.0261993,-0.0132976,0.0178067,0.0333292,-0.0055157,0.0427158,0.0190782,0.00407753,0.0551373,-0.0236975,0.0569341,-0.0128462,-0.016028,0.0965191,0.0614151,0.0760864,-0.0278099,0.059224,0.0352534,-0.0248891,-0.000341055,-0.00975531,-0.00519981,-0.0132193,0.0691713,0.0728687,0.00855006,-0.00751336,0.0313383,-0.0440872,0.00849285,0.0530728,-0.00359387,0.0582043,0.00583346,-0.0189111,0.0517492,-0.00753353,0.0523697,-0.0549245,0.000259241,0.00912939,0.0562811,-0.00226085,-0.0338868,0.0282228,0.0177408,0.0219755,0.0560738,-0.014336,0.06463,0.0296288,0.0524466,-0.0104578,0.0157493,0.00976166,-0.007616,0.0192401,0.0307696,-0.0332487,-0.000499039,0.0211034,0.0178362,-0.0361729,-0.0246228,-0.00122543,-0.0511127,0.0551314,-0.00735235,-0.000230655,-0.00554257,-0.00324792,0.0117801,0.0648106,-0.0411388,0.0396696,-0.0386497,0.00372047,0.0162976,0.0933005,-0.0025363,0.0139371,0.0042107,0.0449598,0.0348226,-0.0633347,-0.013745,-0.0123362,0.011663,-0.0737717,-0.0151371,0.031931,-0.0292461,-0.0315023,0.0308082,0.0190421,0.0485913,-0.0175371,-0.0452644,-0.0900059,-0.00484923,0.0132718,0.0652247,0.132267,0.0486717,0.0282836,-0.0494162,0.023197,-0.00311035,-0.0434269,0.0141502,0.0363506,-0.0321606,0.0365947,-0.0421146,0.0269433,0.0625947,-0.00433531,-0.0256702,0.0107323,0.0159416,-0.0526903,0.0257712,0.0427242,-0.0170763,-0.01498,0.0318526,0.0540542,-0.0323354,0.00359438,0.0115017,0.0638469,0.0464757,0.0335484,-0.0678058,0.05195,-0.0344198,-0.0362392,-0.00140475,-0.0294503,0.0735152,0.022448,-0.00875288,0.039735,-0.0360232,0.0154481,0.0271049,-0.0491267,0.0527136,0.0705203,0.0201147,0.0612981,0.00217514,-0.0178865,-0.0495644,0.0100361,0.00776899,-0.0173828,0.0543004,-0.0554652,-0.0281137,0.00565029,0.07755,0.148791,0.0584573,0.0108606,-0.0074183,-0.0432165,-0.0445706,0.0338355,0.008238,-0.0224559,0.0212459,-0.0272585,-0.0413587,-0.00108564,0.00121332,-0.0518786,-0.0316742,0.104356,-0.0626262,-0.046219,-0.040374,0.00578913,0.0395211,-0.040462,-0.00467956,-0.00499369,-0.00102694,-0.0333986,0.0327343,-0.0330595,0.101323,0.119009,0.0130724,0.0308768,0.0492426,-0.0170772,0.0353169,0.0118183,0.107437,0.0103938,-0.0376773,-0.0240758,0.0232223,-0.0093797,-0.0235808,-0.0319601,0.123547,-0.0792445,-0.0756542,0.113893,-0.0070605,-0.034554,0.0379588,0.104905,0.0254037,-0.0142701,-0.0427323,0.0443964,0.120252,0.0329054,0.139425,0.190605,-0.0153034,0.0411488,0.0248023,-0.0308475,0.014447,-0.0285173,-0.0381859,0.0467724,0.0249071,0.0587705,-0.0368822,0.0730068,-0.0252918,-0.0419119,-0.0372306,0.0314225,-0.0147225,-0.00193308,-0.034816,-0.0705001,0.0302241,-0.0299455,0.134266,0.00985718,-0.00451503,-0.0602698,0.0156237,-0.0207381,0.0828496,0.097979,0.038942,0.0174998,-0.0564136,0.0583559,-0.0272713,-0.0181379,0.0115539,0.0288758,0.0337685,0.010237,-0.0190374,0.0201738,0.0295084,0.0254685,0.00948443,0.0131856,-0.0099893,0.00869131,0.0184214,0.019177,0.0196917,0.0185016,-0.0211199,0.033619,-0.0457093,-0.027672,0.00357064,0.0457145,0.16315,0.117852,0.0179983,0.091591,-0.00661683,-0.0516028,0.039682,-0.0299662,-0.0679235,-0.0593979,-0.0203475,-0.0279259,0.039959,-0.00610449,0.00276371,-0.0181899,-0.0176779,0.0499388,-0.0139256,-0.0170571,-0.0422308,0.0122655,0.014974,0.0267507,-0.0110299,-0.0574406,0.00725073,0.0285256,-0.0458299,-0.0268084,0.0957216,0.0603279,0.0608511,0.020673,0.0242811,0.00351329,-0.0326849,0.0045477,0.0416821,0.0324373,-0.0373975,0.0158921,-0.00728917,-0.00717223,-0.0796031,0.0160462,0.0237046,-0.0437138,0.00959918,-0.00460406,-0.0691839,-0.0168001,0.0402977,-0.0337967,-0.0376645,0.00788738,0.00284229,0.0301383,0.030253,0.0175014,0.0807641,0.000613566,0.0326321,-0.02794,0.0045298,0.102012,0.00758479,0.0240017,0.01187,0.0675251,-0.00305488,0.0474035,-0.0574214,0.0181959,0.0211756,0.0428031,-0.00855769,0.0257262,-0.0164559,0.0392795,-0.0492256,0.025899,-0.0705478,0.023382,-0.0500396,-0.011793,-0.0332999,0.00406006,-0.0337853,-0.0105634,0.111615,0.0407076,-0.064658,-0.00417397,0.037524,0.0562247,0.0270088,-0.0094091,-0.0409933,-0.00223836,0.0631871,0.0138458,0.0437297,-0.00261245,-0.051801,-0.109598,0.0168797,0.0296297,0.0350933,-0.00453135,-0.0994349,0.052861,0.0196909,0.0321246,0.0107891,-0.0752835,0.0126002,-0.0125291,-0.0611246,0.065218,0.0430342,0.0974447,0.0548896,-0.0482158,0.0112707,0.0155651,0.0039672,0.029727,0.00636025,-0.0551059,0.0446016,-0.0733918,0.06766,0.00416525,0.049782,0.0131281,-0.0191334,0.0593962,-0.0223713,-0.0600749,-0.0447009,0.0413648,0.0637118,-0.0335489,-0.00700012,0.0103283,0.014993,0.00319603,-0.0356938,0.0268014,-0.0289517,0.0617583,-0.120815,0.00825489,-0.0875171,0.0557124,0.0630539,-0.0791662,-0.0460076,0.0216469,0.027091,-0.0164287,-0.000170102,-0.0321466,0.0316586,-0.0226692,0.0419628,-0.0414273,0.00196731,-0.0275378,-0.00862132,-0.0536966,0.0130623,0.0180116,0.0210976,0.0439071,0.0289302,0.0296457,0.0265257,0.0265128,0.0601467,0.116311,-0.0766182,-0.0227128,0.0747579,0.0210345,-0.0040619,0.0190721,-0.0455852,0.096097,-0.0442747,0.0229267,-0.115442,-0.0350178,0.00327853,0.0055243,-0.0109307,-0.00227066,0.0961518,0.0277325,-0.0813094,0.0026858,-0.00565212,0.00735496,0.0840111,0.0612082,0.023444,0.00197874,0.00221797,-0.0105424,0.0113095,0.0512837,0.0506931,0.0483803,0.0732578,-0.0161471,-0.0381317,0.00288639,-0.0107369,0.0234664,-0.0403071,0.0372409,-0.0252747,-0.0434011,-0.0123015,0.0586614,0.0292378,-0.0260626,0.00408891,0.0167589,-0.00765729,0.0558145,0.0329857,-0.0818078,-0.000589419,0.0719225,-0.0270571,0.0306275,-0.0738758,0.0258925,0.0565645],
			"b":0.34019
		},
		"neuron 8": {
			"w": [0.0379425,0.0579193,0.07502,-0.0272723,-0.00876512,0.0334354,-0.0305815,0.006584,-0.0604433,-0.0188874,-0.000955198,-0.04961,-0.0295684,0.0388414,0.0418758,0.0194223,0.050711,-0.0170472,-0.0320552,0.0140814,0.0142515,0.0335871,-0.10542,-0.0686988,0.000529186,-0.0561613,0.0240649,0.0363856,0.0282492,0.0578623,-0.0225547,-0.00122592,0.0101276,0.0285849,-0.0123969,0.0535267,-0.0610303,-0.0308633,-0.0401418,-0.0468799,-0.00684589,0.0159061,0.0253566,-0.0842347,-0.0693788,0.000571499,0.0177415,0.00623438,-0.00011367,-0.0478217,0.00757296,-0.0258076,-0.0500597,0.0182912,-0.0471605,0.0120297,0.0373813,-0.00493967,0.0121297,0.0474682,0.103863,-0.00539959,0.0495454,-0.0295348,-0.020055,0.0012645,-0.0700196,0.0272201,-0.0543032,0.0679286,-0.00437931,0.0054658,-0.0263137,-0.0270768,-0.0114602,0.0147229,-0.0749657,-0.023008,-0.0324593,-0.0507279,-0.0315222,0.0647174,0.0178836,-0.0495103,0.0226001,0.0422451,0.0404307,0.0523837,-0.00912006,-0.0198573,-0.0328651,0.0319039,-0.0130145,0.0303184,-0.0437923,0.00856598,-0.0428772,0.0197376,0.0437542,-0.000132836,0.0294775,-0.00128911,0.0527705,0.00819244,0.0565063,-0.0487076,0.0140988,-0.00174341,-0.0106002,0.00324274,-0.0150699,-0.0107941,0.0281259,0.0251373,-0.0147439,-0.000991923,0.00775863,-0.01716,0.012334,0.0583557,0.0494796,0.0828911,0.00332282,0.0250507,-0.0157417,-0.0115576,0.00535472,-0.0590839,-0.0130376,0.00968526,0.0205816,0.00810673,0.0279287,-0.0898186,-0.00453174,-0.00354712,-0.0454523,-0.0707495,0.00738248,-0.0107581,0.0527823,-0.00713042,-0.045441,0.114175,-0.0214925,-0.0403354,-0.0154655,-0.0306241,-0.00875004,0.0517805,0.0312705,0.031202,0.0294951,-0.0261331,0.014895,-0.0226834,-0.0276992,0.0251445,-0.0202314,-0.0134773,-0.0139185,-0.0807646,0.00308248,0.102239,-0.0161003,-0.0112845,0.0399444,0.0142655,0.0212232,0.0513429,-0.0649545,-0.0617764,0.0306946,-0.010746,0.0542409,-0.068017,0.00492221,-0.031398,-0.00925247,-0.0230164,0.0445973,-0.00398761,0.0120854,0.00618561,-0.000289865,-0.0497159,-0.0936689,0.0306632,0.028703,-0.0283846,-0.000824418,-0.0222226,-0.0461755,-0.0274868,0.0310195,0.0255437,0.000160294,-0.0576461,0.00823024,0.0106293,-0.0549567,-0.073095,0.0481219,0.038083,0.00146365,-0.00537972,-0.00924055,0.000421324,-0.0393381,0.00985041,0.0752755,-0.066586,-0.0249633,0.0420641,-0.0211238,-0.00308615,0.0472973,-0.0706674,-0.000459046,-0.0593739,-0.0285754,-0.011845,0.0070146,-0.0146263,-0.0235746,-0.00649616,-0.0773908,0.0252862,-0.0513015,0.0303717,0.0119107,0.0193987,0.0351228,-0.0134829,0.0212388,0.0678527,0.00139355,0.00554074,-0.00893972,-0.000390551,0.0889374,0.0268844,0.0208942,0.0467986,-0.00896038,-0.0423358,-0.0426396,-0.0111319,0.0111697,-0.00224835,0.0548975,0.0635625,0.0142246,-0.0561778,0.0365932,0.140075,0.0281155,-0.038424,0.0494661,0.0286471,0.013981,-0.0153747,-0.0548274,-0.0573113,-0.00558941,-0.085137,-0.0474833,0.0422664,-0.0034511,0.0123691,0.0659083,0.0564487,0.0740961,-0.0412843,0.000911925,0.0208528,0.0524732,0.00515222,0.000843575,0.00919252,-0.0122912,0.0198966,0.0185125,-0.00589703,0.0328391,-0.0635909,-0.0460046,0.053881,-0.0312259,0.017656,-0.0284627,-0.0422297,-0.0652635,0.0194942,-0.0489572,0.00461925,0.0124427,0.0563262,0.0441657,0.090056,0.109651,-0.00764544,0.0606938,0.0355369,-0.0545682,0.0210945,0.05791,0.0371211,-0.0676524,-0.0158965,0.0253279,0.0599155,0.0403499,0.00504797,-0.0104651,0.0073352,-0.0410342,-0.00104342,-0.0621511,0.00524327,0.0374376,-0.070873,0.00784399,-0.00796398,0.0127566,0.0270324,-0.0209466,0.0413397,0.0429163,0.121645,0.103669,0.00111217,-0.0176976,-0.0628637,0.0495744,0.00854136,0.0240845,0.0247944,0.0140216,0.00871284,0.0213453,0.0668174,-0.0430532,-0.0219989,-0.0940882,-0.0216697,0.0189072,0.0199234,-0.0502797,0.0247223,0.000660108,0.0439789,0.0033848,-0.0342295,0.0252041,-0.00768959,0.0767534,0.0210947,0.000535867,0.0387654,0.087392,-0.028341,-0.0700046,0.0174871,0.0476561,-0.0939439,-0.0443171,-0.0328907,-0.0183081,0.0483521,0.00144476,-0.00854762,-0.0199453,-0.00243321,0.00290518,-0.00678146,-0.0247592,-0.00591506,0.0256491,0.0342539,0.0378012,0.0124594,0.0378481,0.0434359,-0.0464625,-0.00933815,-0.0440596,0.0194399,-0.0163973,0.0325662,0.00487583,0.0454075,-0.0374439,-0.0138753,0.00690431,-0.0251893,0.0210023,-0.0574692,-0.0526206,0.0157559,0.0116713,-0.0625054,0.0421432,0.00532543,-0.063777,0.0385829,-0.00842087,0.0758019,-0.0101993,-0.0496951,0.0700704,-0.000271408,-0.0142906,0.0717828,0.0420898,-0.0106795,0.0256963,0.0472917,-0.0594922,0.0742278,0.0597699,0.0325799,-0.0269339,-0.0599558,0.00994846,-0.00101159,0.0118106,-0.0841983,0.0127095,-0.014487,0.0421922,-0.0101313,0.0277472,0.000934471,-0.0556479,0.0324794,-0.014148,-0.025228,0.031222,-0.022993,0.0390663,-0.0319642,0.0534498,0.00937513,0.024811,0.00143946,0.0293683,-0.0375639,-0.0420092,0.0285048,0.0543678,0.0507722,0.0386671,0.0366912,0.0188766,-0.0428477,0.0154928,0.0226171,-0.0658673,-0.0107692,-0.0153309,0.0147735,0.00632518,0.0339366,-0.0113725,-0.0493929,-0.0193977,0.0225462,-0.0421673,-0.0737425,0.0453646,-0.028791,0.0410536,0.063996,0.043289,0.0310836,0.0194506,-0.0439707,0.0274663,0.114682,0.0317642,-0.0701922,0.0280698,-0.0068099,-0.0327774,0.0342561,0.0290337,-0.0131966,-0.0156098,-0.00174626,-0.0274401,-0.00153463,0.0135237,0.0491978,0.0345994,-0.0252306,-0.0100361,0.00876032,0.080222,0.0357617,-0.035476,-0.0586281,0.0591164,0.0202807,0.0529248,-0.010894,0.0333136,-0.021287,0.0188018,0.0802445,0.0138162,0.00125426,0.0697352,-0.0553303,-0.0598667,0.0634834,-0.000302625,-0.0110261,0.0246484,-0.0165509,-0.0213362,0.0204116,0.0365685,0.0261401,0.0827036,0.0618662,0.0359941,-0.0771055,-0.00553479,-0.036617,-0.043981,-0.0462042,-0.0218918,-0.035127,-0.000133478,-0.0535053,0.0109797,-0.00283377,-0.00309217,0.00046019,0.0275918,0.00155967,0.0272657,0.00752069,0.0571968,-0.0143345,0.0160192,-0.0302074,-0.0582373,0.0436673,0.0651508,-0.0355621,-0.0485064,-0.0643812,-0.0948633,-0.0202157,0.00608972,0.00929289,-0.0345661,0.00791903,-0.0338953,-0.0275834,-0.00577161,0.0117265,0.0510226,0.0218505,0.0390834,0.0504139,-0.0136975,0.0883555,0.00207765,0.0578102,0.0850062,-0.0392254,0.0204943,0.0058932,-0.0346498,-0.0866085,0.0562949,0.104864,-0.0256054,0.00226375,0.030447,0.0321767,-0.057182,0.00206411,0.0446799,0.0693831,-0.024821,0.0071335,-0.0411896,-0.0512496,0.0333737,0.0130919,-0.00664649,-0.01702,0.0297134,0.0464137,0.0177482,0.00133444],
			"b":0.275922
		},
		"neuron 9": {
			"w": [0.0719019,-0.0884488,0.0596439,-0.0447976,0.031842,0.0109677,-0.00611177,0.00419808,0.0276904,-0.0232385,-0.0199595,0.0414782,-0.0209237,-0.0377963,0.0376694,-0.0352368,0.0831526,0.159683,0.00336547,-0.0215372,-0.0531039,-0.00445619,-0.0173067,0.015941,0.0326485,0.064391,0.019707,0.0247274,-0.0633348,0.0855906,0.0730503,-0.0122455,0.024977,0.0393299,-0.0406611,-0.0366468,-0.0193848,-0.030599,-0.0258619,-0.0166333,0.0188253,-0.0354188,0.0500951,0.0197208,0.0267229,-0.025855,0.037515,-0.0401915,0.0566629,0.046092,0.0342031,0.0189319,-0.0167792,-0.0153497,-0.0631585,-0.0078478,-0.0521288,-0.0546711,0.0174611,0.0648535,0.100769,-0.0725272,0.103959,-0.00840956,0.0511354,0.0381911,-0.0116013,0.0656936,-0.0225884,-0.0347339,-0.0135324,0.028246,-0.000670875,0.0903089,0.047984,0.0177264,0.0102509,-0.0168406,-0.0297668,-0.0265599,-0.0293192,0.079169,-0.00127778,0.0458855,-0.0312292,0.0433534,0.0246673,0.0245137,-0.00566479,0.0397731,0.00393147,0.066334,-0.0478428,0.0300812,-0.012658,-0.00881873,-0.0121449,0.06511,-0.0511275,-0.0626802,0.00462744,-0.0118727,0.00972492,-0.0490636,-0.0485486,-0.00796254,-0.0192683,-0.00757936,-0.0496033,-0.0298818,0.0330433,0.00130872,-0.0235692,0.0510658,0.0823163,-0.0158377,0.0100002,-0.0210557,0.0103307,0.085806,0.0482281,0.0460747,0.0995008,0.00939183,-0.00458943,0.0938303,-0.00453043,-0.0402487,0.0343838,-0.0512438,-0.00375459,-0.0230514,-0.0233183,0.0367834,0.0118636,0.0333486,0.00884764,-0.00497159,-0.0123347,0.0463137,-0.0201855,-0.0606791,0.0425772,-0.0416916,-0.00283825,-0.0183914,0.0223567,-0.0483261,0.00229637,0.0162288,0.0834069,-0.0144147,0.00847951,-0.0565793,0.013089,0.0400505,-0.0238135,-0.00275905,-0.000274761,0.0483643,0.0180516,-0.077515,-0.0179087,0.0419222,-0.00526356,0.0812076,-0.047547,-0.0294726,-0.0800613,-0.0527828,0.0279799,0.0119625,-0.0436781,0.0630378,0.0114125,-0.0244439,-0.0241905,-0.0106617,0.00731764,0.0952027,0.0969981,0.0780204,-0.0509005,0.0322245,-0.0332915,-0.0201496,-0.0184337,-0.105585,0.0410284,0.0128408,0.0385353,-0.0815774,-0.0593283,-0.0696651,-0.0424908,0.0313425,-0.0103454,0.0317267,0.0230797,-0.0746269,-0.0713774,0.0465081,-0.0543344,0.0274001,-0.00280673,-0.0100573,0.000675417,0.0153755,0.010488,0.0642845,0.0936496,-0.00644021,0.0361309,-0.0945961,0.0772382,-0.0181104,-0.0657014,-0.00373812,0.00110208,-0.0283093,0.0814852,0.0373582,0.00477481,-0.0555906,-0.0262855,-0.0450612,-0.0273351,0.0030191,-0.000283844,0.0559309,-0.0527456,-0.0209466,0.0128217,0.0352195,0.0570241,-0.0299782,-0.0587324,0.0145699,-0.0112454,0.118514,0.21803,0.0217661,0.0306001,-0.0245467,0.0660373,0.0205788,-0.088424,-0.054228,-0.031084,0.061988,-0.0546347,0.0592419,-0.0153433,0.063352,-0.0407208,0.0759316,-0.0246248,-0.0737917,0.0913597,0.0785406,-0.0292131,-0.0172447,0.0546157,0.0109994,0.0150256,0.051091,-0.0311366,-0.0322975,0.0445973,0.112296,0.120538,0.0266712,-0.0149267,0.0493317,-0.00621209,0.0582211,0.00467514,-0.0473446,0.0324941,0.0397707,0.0151435,0.0543791,-0.0429953,0.0663902,-0.0376021,0.00879752,0.0163689,0.0362913,-0.0489643,0.013761,0.0399983,0.0483693,-0.0344297,-0.0152275,-0.0299132,0.0608982,0.0830445,-0.00627604,-0.0499366,0.149206,0.262293,0.0345866,-0.00137414,-0.031866,-0.0365139,-0.0721591,0.00260322,0.00788435,-0.0535434,-0.0613725,-0.0325688,0.0753572,0.0256162,0.0581451,0.00610968,0.0457363,-0.0129341,0.0170668,0.0144365,0.01094,0.0251173,0.00398373,0.017703,-0.0430064,-0.0592155,-0.0283503,-0.0393766,-0.0355518,0.00668621,0.193508,0.168057,-0.00954808,0.0329852,-0.0512615,-0.0577907,0.0709411,0.0618409,0.0770366,0.0217178,0.0653486,0.0110265,0.0583091,0.00402352,-0.0251741,-0.00868381,-0.000460197,-0.0444084,-0.0276522,-0.001757,-0.00784795,-0.038132,-0.0288066,0.0179917,-0.0198225,0.00142869,-0.0364175,0.0233535,0.00952466,0.00592529,0.150647,0.107347,-0.0116195,-0.00762597,0.0314076,-0.048762,0.0578882,0.0213978,0.00139253,0.0087092,-0.0111394,-0.0392742,0.0332039,0.0355288,0.0193398,0.0603498,0.0572026,-0.0427374,-0.082412,-0.0165295,-0.0581284,-0.0616062,0.0428097,-0.0170744,-0.0499931,0.0103375,-0.0158058,0.034352,-0.0283238,0.0491847,0.100281,0.0282656,0.00960042,0.0403204,0.0317973,-0.0264482,0.00614148,0.0452187,0.0808036,0.0199477,0.00194899,0.0818192,0.0143183,-0.0376655,-0.0403852,-0.0528213,0.0445815,-0.0559354,0.0270965,-0.068359,0.0227457,0.0710475,0.0314219,0.0338373,-0.059212,-0.000709866,-0.0480628,0.00703203,-0.0622737,-0.0687306,0.110261,0.034121,-0.0404394,0.0181874,-0.00711079,-0.0201562,-0.043983,-0.0399697,0.00646269,-0.050909,-0.057529,0.00853441,-0.024491,0.0255033,0.00605531,0.0284813,0.06756,0.0195842,-0.0100249,-0.0520951,0.0410115,-0.0422645,0.0513596,-0.0257647,0.0343113,-0.038461,0.00181616,-0.0322872,0.0276754,-0.0124059,0.0594907,0.0637498,-0.022613,-0.0186094,-0.0045146,-0.00414713,0.000426335,-0.0213027,0.0249935,0.0637358,-0.06509,0.0101944,-0.00781664,0.0415973,-0.000384077,-0.0262363,-0.0429248,-0.0373668,-0.0503899,0.0228962,-0.0243846,0.00412018,0.0874662,-0.0145631,-0.0297338,-0.0219244,0.0153518,-0.0480788,-0.0264333,-0.0265728,0.125117,0.0817309,-0.078335,-0.0423007,0.00799237,-0.0686398,0.0322331,0.0119793,-0.0119969,-0.0343079,-0.0335052,-0.0338295,-0.0322308,0.020456,0.0131973,0.0409928,-0.0147354,0.00315344,-0.0772537,-0.025002,-0.0323235,-0.0219498,0.0258867,-0.0341428,0.132515,0.0840247,-0.00335052,-0.0692957,0.0046162,0.0183021,0.0388963,-0.0178616,-0.0409256,0.0055861,0.051991,0.0540659,0.0262601,0.0273134,0.0816309,0.0272078,-0.0572839,-0.0309801,0.0280944,-0.0552001,0.0483659,-0.00838534,-0.031592,-0.0278384,0.0871263,-0.0653576,0.0820071,-0.0103374,0.0456481,-0.0425719,0.108258,-0.0225416,0.0466221,0.0460457,0.0340951,0.0353084,-0.0254361,-0.00664887,-0.0354876,-0.0598372,-0.0542878,-0.0099492,-0.0159804,-0.0551976,-0.0548798,-0.0228182,-0.00353989,-0.0250321,-0.0294181,-0.0513405,-0.0213392,0.0208681,0.0421516,0.024399,0.0331303,0.00418467,-0.0722294,0.0460089,0.0451544,0.0499047,-0.0187533,-0.0606785,0.0294031,0.0209465,0.00343057,0.0936257,-0.0236531,0.0303446,0.0023566,0.00405537,0.00387437,-0.0271988,-0.0182494,0.0414943,0.0465891,-0.0135228,0.0358237,-0.00173438,0.0109477,-0.0449555,0.023349,-0.0136592,0.0442447,0.0214082,0.0297758,0.0835234,-0.0441019,0.057603,-0.00834848,-0.0168115,-0.0405982,0.0371975,0.0286597,0.0139899,0.00549308,-0.0247133,-0.0448129],
			"b":0.344213
		},
		"neuron 10": {
			"w": [-0.00630675,-0.0239196,0.0490789,-0.0139251,0.0539221,-0.0686774,0.00543031,0.005449,-0.0288136,-0.00824496,-0.00761111,0.0334932,-0.0134246,0.0356788,0.0166127,0.0568513,-0.0264834,0.0791363,-0.0459804,-0.0230848,-0.0333625,0.0344692,0.0209395,-0.0257845,0.0281206,0.0351248,-0.0452228,0.0524932,0.00725224,0.058819,0.0789996,-0.0409158,0.0125371,-0.0390587,0.00354225,-0.0279213,0.0868807,0.0267718,-0.00155087,-0.00658275,-0.0585331,-0.0465338,0.00922688,-0.00317046,-0.00570779,-0.0198697,-0.0504,0.0608343,-0.00847492,0.0394079,-0.0086221,0.00514562,-0.015045,0.0202822,-0.0120542,0.0670672,-0.00333441,0.00129821,0.0379663,0.0417325,0.032723,0.073602,0.0214762,-0.0382046,-0.0443467,-0.011308,0.00133434,0.085997,-0.0426078,0.0157872,-0.0330514,-0.044344,-0.0103435,0.0723636,-0.0141123,-0.0263259,0.021788,0.0248472,-0.0662596,-0.0676372,-0.0254057,-0.00269117,-0.0388525,-0.0137121,-0.0110975,0.0410351,-0.0344646,-0.0124529,-0.0297028,-0.0156524,0.0753895,-0.011988,0.0279766,-0.046757,-0.00831836,0.109703,-0.058904,-0.0829869,-0.00959575,-0.0376973,-0.0889943,0.0217182,0.0401284,0.0211416,0.00727164,-0.0425493,-0.0285132,-0.0486561,0.0185947,-0.0308794,-0.0290474,-0.0735932,-0.0362114,0.00225153,0.0543729,0.0699283,0.000477853,-0.000169967,0.0342368,0.0835122,0.0547058,0.00185564,0.0371359,-0.0199123,-0.0685924,0.0252716,0.0491443,0.0182907,0.133753,-0.0365892,-0.0120608,-0.0174655,-0.122176,0.0151368,-0.0216039,0.0791253,-0.0222675,-0.0332329,-0.0531616,-0.00974292,-0.0632306,0.0420284,0.0262026,0.0105406,0.0133577,-0.0240352,-0.0336439,0.0328383,-0.0803902,0.0686061,-0.00837319,-0.00641134,0.0326378,0.101793,0.0426044,0.00472015,0.0214978,0.029842,-0.00818503,0.0161254,0.0180585,0.000639861,0.0348328,-0.0613,-0.0368926,-0.021512,-0.0476966,0.0733161,0.0380413,-0.0214519,0.0506201,0.0269183,0.048768,-0.0178821,-0.0158724,-0.00077656,-0.00156412,-8.91028e-05,0.0114613,-0.0106893,-0.0224679,-0.00268253,0.0301631,0.00955613,0.0141848,0.0514872,0.0104811,-0.0344453,0.0226307,0.0257942,0.0169831,0.0524283,-0.0205772,0.0368739,-0.0254455,-0.0332102,-0.0466875,-0.0433666,-0.0196467,0.00874174,0.0250957,0.0236304,-8.94944e-05,-0.0144521,-0.0510361,0.0242129,-0.0505174,0.0380334,0.0396292,-0.0326349,0.016006,-0.010747,-0.0337311,0.055976,-0.0370974,0.0215782,-0.00348497,0.0274865,0.0723846,0.0606757,0.0559838,-0.0366764,-0.00962954,0.0151176,-0.0466446,0.0384565,-0.0376688,-0.0355985,0.0358394,0.053977,-0.0276638,-0.0125579,0.056658,-0.0330442,0.0180552,0.0911819,0.0211733,0.0320272,0.0605649,0.0490334,0.105897,0.00940771,-0.0177141,0.0418386,-0.0258466,0.0232331,-0.00490203,0.0161604,0.0323879,0.0427664,-0.00597512,0.0127329,-0.00342138,0.00851193,-0.0141062,0.0420869,0.0376906,-0.0437224,0.0351418,-0.011632,0.0301581,0.0115036,0.00809245,-0.011021,0.0222535,0.00556166,0.0658474,0.000189928,0.00908976,0.0259774,0.0404808,0.00238923,-0.0342129,-0.0590276,-0.0616301,-0.0820552,-0.0570928,-0.0144523,0.00822988,0.00608816,-0.0312722,-0.010055,0.0245449,0.0123497,-0.0231185,-0.0213297,-0.0593512,0.0189986,0.0144701,-0.00933399,0.0956215,0.00278542,0.0409751,-0.0565633,0.0450732,0.0409697,-0.0771249,-0.076604,-0.00152245,0.0693961,0.0790742,-0.0543975,0.0127182,-0.0532877,0.0045681,-0.0100693,0.0289711,0.00976555,0.0030435,0.0162674,-0.05224,0.0134308,0.0100504,-0.0246316,-0.0258777,0.00104441,-0.0668783,-0.003786,-0.0659267,-0.0313979,-0.0992496,-0.0259173,-0.00256296,-0.0423564,-0.00456391,0.105856,-0.00709262,0.0257264,-0.0141508,0.00264861,0.109385,-0.0353175,-0.00660349,-0.0304943,0.0371571,-0.00168882,0.0265314,0.0829712,0.0119773,-0.00323421,0.0181609,-0.0169429,0.0115507,0.00720132,0.0505977,-0.0508522,-0.0100567,-0.011452,-0.0267154,-0.00234289,-0.0446495,-0.0604418,0.0263808,-0.0362345,-0.00964829,0.0405375,-0.0428474,0.0133223,-0.0266726,0.0154901,0.0901624,-0.0484345,-0.0266006,0.0194875,0.0363945,-0.0109584,0.0323132,-0.0385019,-0.0245643,0.0357575,-0.0216172,-0.0523957,-0.0416662,0.0460534,-0.00995352,-0.0197596,-0.0404309,0.0254337,0.108024,0.034178,0.031713,-0.00611932,-0.0430328,-0.0388755,-0.0586224,-0.00754838,0.0656956,0.0130743,-0.0254453,0.0859063,-0.00662792,-0.0460023,-0.0889744,-0.015457,0.0538977,-0.00831049,-0.0444048,0.0525756,0.0417142,0.00688737,-0.0129144,0.0569673,0.0236231,0.0235911,-0.0769021,-0.044067,0.0193265,0.0114178,0.0350335,0.0324589,-0.0481226,-0.0204982,-0.0407815,-0.00819935,0.0293236,-0.0459043,-0.0494066,0.0377304,0.0539367,0.0966773,0.0216517,0.0172436,0.000681715,-0.0203789,-0.0526084,-0.0634924,0.00245839,-0.0118587,0.0117265,-0.034043,0.0144464,-0.0521071,-0.0199178,0.0374965,0.00904369,-0.0308742,0.000999927,-0.0328547,-0.00674332,-0.0636298,-0.00847968,-0.0211685,0.00482746,-0.0124347,-0.0689521,0.000346508,-0.030426,-0.06541,0.00840522,0.0432899,0.123175,-0.00790811,-0.0250098,-0.00719216,0.0014466,-0.014693,0.0436136,-0.0333023,0.0162614,-0.0232614,-0.00562365,0.0633494,0.0724506,0.043499,-0.0119935,-0.0276516,-0.0772395,-0.0758209,-0.00393635,0.0383734,-0.024732,0.011192,0.146944,-0.000368654,-0.0119111,0.0257287,-0.0148189,-0.0297484,0.0250104,0.0299911,0.0116338,0.0014501,0.0449408,-0.0420479,-0.0444927,-0.0357199,0.036251,0.0130275,0.0373801,-0.00813215,-0.0498668,-0.0720708,0.055094,-0.0286296,0.00879467,-0.101674,-0.0163392,0.00970842,0.00210177,-0.00825147,-0.0717453,0.00927532,-0.0849311,-0.0118233,0.0403397,0.0861136,-0.0392147,-0.0015971,0.00795485,0.0685917,0.0686561,0.0518234,0.0134584,-0.0185182,0.00343476,0.0302516,0.0266494,0.00174929,-0.0155888,0.0479445,-0.049185,-0.0193388,0.0166378,0.0253659,-0.0373636,0.0385175,-0.0150903,-0.0321215,-0.04753,-0.0227714,-0.0552006,-0.0745038,-0.0073268,-0.00129592,0.00043161,0.0311326,-0.0566063,-0.00271413,0.0164142,-0.00353153,0.0244175,-0.0501477,0.0557911,0.102672,-0.0879948,-0.0174761,0.016196,-0.0729846,-0.0406269,-0.0123803,0.036786,-0.0193382,0.0606041,-0.0377169,-0.0152533,-0.0147922,-0.0967213,-0.00812229,0.0228327,0.0136137,-0.0494334,-0.035053,0.0613509,0.0413163,-0.010971,0.0308226,-0.0261415,-0.0327006,0.087163,0.042213,0.0880809,0.054963,0.0137709,-0.017197,-0.0360397,-0.0222953,0.0426433,0.0656395,-0.0229792,0.0312834,-0.0437023,0.0525262,-0.0465257,-0.0111532,-0.0858048,0.0297198,0.0727549,0.0338388,0.00859532,-0.060414,0.00606208,0.0580457,-0.0223892,0.0122643,-0.0411672,-0.0131953,0.0224883,-0.0228522,-0.00770753,-0.0459303],
			"b":0.180633
		},
		"neuron 11": {
			"w": [0.0269783,-0.0266085,-0.036919,0.0161298,0.0159733,-0.0373718,0.0295356,-0.0129502,0.0138038,-0.0344793,-0.0377719,-0.0091613,0.06366,0.0209776,0.0105114,-0.0670241,-0.0643979,0.0225426,0.0119967,0.0193724,0.0440234,0.032386,0.00794678,0.0324962,-0.0609507,0.0217334,-0.0204975,-0.0198552,-0.0424032,0.00498855,-0.0448977,0.0516492,-0.103421,-0.0570695,0.00843674,0.0362373,0.0238391,0.0214841,0.0292399,-0.00365919,0.0131768,-0.0149614,0.0224361,0.00508013,-0.00303041,-0.0324876,0.00945906,0.0535963,0.00700145,0.0162604,0.0715144,-0.00569794,-0.0281163,0.00331857,-0.036308,-0.0609278,-0.0620125,-0.0321274,-0.0164481,-0.00940259,-0.0018795,0.0697472,0.0729518,0.115677,0.0702826,-0.0523701,0.0533695,0.0432628,0.0656054,0.0176037,-0.0130762,-0.0379047,-0.0167892,-0.00140847,-0.057235,0.024232,-0.0473596,-0.028203,-0.024549,-0.0412806,-0.0287134,0.0594167,-0.0460011,-0.0502471,0.046727,0.0436952,0.0263352,0.0290991,0.0593118,-0.0113164,-0.00616467,0.0386836,-0.0349515,-0.00831804,-0.00695654,-0.0335081,0.0381492,0.004753,0.00636116,-0.0860478,0.079207,-0.0121646,-0.0411915,-0.0382474,-0.0440703,-0.050121,0.0108443,-0.000149872,0.0731713,0.00411892,0.00169588,0.0376635,0.0177677,0.0149352,0.0121226,0.00916201,-0.0618098,-0.0313303,-0.0396032,0.0434897,-0.0234564,0.0653698,-0.0304751,0.0653637,-0.00822444,-0.0284705,0.00294139,-0.0438835,0.0174901,-0.00917319,0.0249587,-0.0369009,0.0451448,-0.0394617,0.0213535,-0.0234457,0.0384304,0.0242167,0.00914033,-0.018482,0.0348974,-0.0513952,-0.0138499,0.0474143,-0.0304775,0.025401,0.0741558,0.123983,-0.0506377,-0.0136015,0.0199771,-0.014068,-0.00316611,0.0286616,-0.0426347,0.00557006,-0.000339938,0.0120751,-0.0306821,0.0018001,0.00467122,0.0173985,-0.0171631,-0.0529228,-0.0217301,-0.0158865,0.02025,-0.00859737,0.0214952,0.0400492,0.0699264,0.0737323,0.0398091,-0.00619991,0.0866213,0.00635204,-0.113352,0.043289,0.0884406,-0.00600766,0.0688382,0.0187946,0.0525639,-0.0795139,0.00988131,0.0607781,0.0132736,-0.019606,0.0192265,0.0548264,-0.0293029,0.00411162,-0.010233,0.0268986,-0.0593187,-0.00720548,-0.0264557,0.00116041,-0.0230614,-0.0686828,0.00885955,0.0278498,0.00173346,-0.0181819,-0.0277355,0.00923533,0.00732393,-0.0603907,0.0152763,0.0229661,0.0405755,-0.0250874,0.0464197,-0.0345797,0.0270913,0.00208558,-0.0716229,0.00470327,0.0437843,0.0468327,-0.00551264,0.0262026,0.050816,0.049033,0.0545012,0.0367672,-0.0595492,0.0336637,0.0486146,-0.0158594,0.0103986,0.02087,0.0241079,0.032776,0.0359471,0.0324695,-0.00902342,-0.00903313,-0.014927,0.0464479,0.102383,-0.0191655,0.0033757,0.122414,0.0274994,0.0308796,-0.024243,-0.00229852,-0.00589921,-0.0163828,0.0243831,-0.0227987,0.0375703,-0.000630676,-0.0129837,-0.00521494,-0.00167982,0.0316668,0.00223739,-0.0220783,0.094773,-0.0437756,-0.00072715,0.0556185,-0.0497516,-0.00944027,-0.00539584,0.0127269,-0.0332621,0.0930587,0.0128077,-0.0658707,-0.00885548,0.0502769,-0.011174,-0.00456883,-0.00234633,-0.00294346,-0.0306093,-0.0991146,0.0128001,-0.0126667,-0.00272764,-0.00484404,0.0228802,-0.0270184,-0.0187969,0.0318966,-0.0398377,-0.0185148,0.0219178,-0.0284169,0.0259158,-0.0386625,-0.0592487,0.00559066,0.00710595,-0.0477306,-0.0697691,0.116877,0.162291,0.00563415,-0.0271772,0.0594015,-0.0252725,-0.0255217,0.00452161,0.00229619,-0.0452263,-0.00459599,0.0162491,0.0820056,-0.069605,0.0353578,0.0687392,-0.00477649,0.0223716,-0.0686211,0.0218037,-0.0245293,-0.0619998,0.000227491,0.0371326,0.0814313,0.00401456,-0.091852,0.0254932,-0.03602,0.0299368,0.0648949,0.101778,-0.0710457,-0.0258116,-0.0557401,0.0440388,-0.0338471,-0.0127678,0.0480505,-0.0095672,0.0281909,0.0221135,0.0186548,-0.0846095,-0.0700066,0.09933,-0.0195163,-0.0389067,-0.0105339,-0.0318887,-0.0254713,0.121895,-0.0164242,-0.017952,-0.0804458,0.0741001,-0.0728399,0.0551941,0.00525957,-0.0256765,-0.0133032,0.232114,0.0419819,0.00345874,0.0475757,-0.0595388,0.00401779,0.0216376,0.0995661,0.0202364,-0.0318859,-0.0166826,-0.0165623,-0.0579423,-0.0187397,0.0415114,-0.0260167,0.0194542,0.00374747,0.0342942,0.0129745,0.0164009,0.0414609,-0.0358771,-0.0307976,0.0139614,-0.0483129,-0.00972474,-0.0039478,-0.0385149,0.0106235,0.136293,0.0528006,0.0193113,0.0714521,0.0661862,-0.0266642,0.00507657,-0.00248124,0.0391237,-0.0247376,0.0334671,-0.0286209,-0.0127865,-0.0837037,0.143421,0.0265853,-0.0356058,0.00809246,-0.0485024,0.0209624,-0.089385,-0.0730698,0.00950855,0.00816794,0.00274014,-0.0353845,-0.0885089,-0.0713556,0.00697761,0.0428967,0.000253355,-0.0386308,-0.02378,0.0350923,-0.00858187,0.00165462,-0.0195868,-0.0275159,0.0373197,-0.0447977,0.00464244,0.0746622,0.00712547,-0.0144588,-0.00187436,-0.0411679,0.0564799,-0.0647004,0.00180069,-0.00654823,0.0583086,-0.00172601,0.0193939,-0.0133916,-0.000290224,0.0106878,0.016798,-0.0293674,0.0119239,0.057287,-0.0203381,0.0891607,-0.0106475,-0.00655041,-0.0175864,-0.00990869,-0.0615211,-0.0433098,0.0196086,-0.0155648,0.0212072,-0.0695213,0.0290284,0.0268037,0.00822737,-0.0561605,0.058677,0.0245936,-0.0288387,0.0170285,0.0430531,0.024153,-0.00534933,0.000566155,0.0316636,-0.0021499,0.0764908,0.0180556,-0.0186384,0.0763395,0.0383593,0.0577534,-0.00149639,-0.0461936,-0.0610837,0.102005,0.00665156,0.00337076,0.00525029,0.00645868,0.0493933,0.000976495,-0.0362028,-0.0163265,-0.0615987,0.0184819,0.0482733,-0.0164409,0.0208316,0.0221585,0.00504551,-0.0305116,-0.0227291,-0.0355581,0.00696893,0.024079,0.0282566,0.047955,-0.016,0.113311,0.0784141,-0.0902663,0.0396376,-0.0161045,-0.0732474,-0.0456686,0.0934605,-0.0516346,-0.0745528,0.0109178,-0.0254978,-0.0094678,0.0116772,0.00463532,0.0137196,0.0189444,-0.0170689,0.0094198,0.0245274,-0.00442583,-0.0585435,0.0186107,-0.0133147,0.0222694,-0.000600479,-0.0313563,-0.0347919,0.0160275,0.023478,0.0646203,0.029741,0.0263925,-0.0572609,-0.0961757,-0.0098142,0.0824165,-0.00625552,0.0453076,-0.016339,0.0535537,0.048899,0.0275977,-0.0152838,0.015842,0.0309787,0.000797498,0.0119243,-0.0308476,0.0354395,-0.0240401,-0.0761695,-0.0121662,0.0504411,0.0394798,-0.0102293,0.0607474,-0.0258609,-0.0416636,-0.0654597,0.0476679,0.00780515,0.0442908,0.0453049,-0.0225905,-0.0061605,0.018576,0.0291218,-0.0612045,0.0257935,-0.0526767,-0.109753,0.0614562,0.00371493,-0.0134836,0.0242752,-0.0324588,0.0404277,0.045657,0.000221408,-0.0614187,-0.0793729,-0.00244506,0.0078957,-0.0175528,0.0510577,-0.0427878,0.028165,0.0743146,-0.0658438,-0.0218873],
			"b":0.174788
		},
		"neuron 12": {
			"w": [0.0326205,0.0801933,0.0215219,0.0498325,-0.0555384,-0.0351891,-0.0337572,-0.0604088,-0.01483,-0.0259823,-0.045622,0.00431275,-0.00692021,-0.036415,0.00493573,0.0175552,-0.0102835,-0.0117953,-0.00721222,-0.0832749,-0.00476721,0.0495426,-0.0919177,-0.00787518,-0.0562911,-0.0226318,-0.0216338,-0.00316445,0.0324501,-0.0392216,-0.0133942,-0.00150227,0.0616538,-0.0195744,0.00459824,0.0531061,-0.0664349,-0.0256442,0.0261587,0.0142368,-0.0484706,-0.0428023,0.00720434,0.0190014,-0.0771261,-0.0292248,0.00262235,0.0163921,-0.0304265,0.0444594,0.00227987,-0.0371543,-0.0729814,0.0867252,0.00805596,0.0267557,-0.0131451,0.0458203,-0.0510736,-0.0293027,0.0375169,-0.0597824,0.0813247,-0.0164812,0.0484743,-0.0361283,0.0142263,-0.0258886,0.0123803,-0.0521273,0.031757,0.0180965,-0.00512763,-0.0308322,0.118728,-0.0126108,0.00513457,0.0397197,-0.0891892,0.0317297,-0.00779558,0.0569385,0.0281503,0.0505994,-0.0109594,0.00574688,0.0492237,-0.0230336,-0.0234141,0.0433846,0.066172,-0.0335462,0.0313913,0.0522744,-0.00195247,0.0781605,0.00900126,0.000777976,0.0668854,-0.0521822,0.0327438,-0.0480905,-0.040908,0.0038859,-0.00576221,0.0222891,-0.0405822,0.0460116,0.00681098,0.0135038,0.00115282,-0.0120685,0.0470649,0.0144362,-0.0271395,0.0236316,-0.0305215,0.00873766,0.0753396,0.0509824,-0.0159399,0.015891,-0.0257199,0.00113116,-0.0351164,0.0490441,-0.022749,0.0279501,0.00506056,0.0568975,0.0503363,-0.0136707,0.0300157,0.00605822,-0.106674,-0.0150001,0.0211224,-0.0352553,0.00570533,-0.0264182,-0.0420345,0.0358759,-0.0483258,-0.00995966,0.0186063,-0.00849076,-0.0166701,-0.0071914,0.00249715,0.00779872,0.0090295,0.0333251,0.00947885,0.0122928,-0.0112891,0.0471962,-0.0387745,-0.0279951,-0.0118936,0.0518684,0.00921452,0.0131785,0.00761305,-0.0436744,0.063266,-0.0262055,0.0572192,-0.0212435,-0.0354046,0.0214876,-0.0192481,0.0058832,-0.0595617,-0.027371,0.0250453,0.0244527,-0.0242701,0.0746825,-0.0393853,0.0451329,0.0760659,-0.0150276,0.0832027,0.0120489,0.0377283,0.00452682,0.0453221,0.0476897,-0.0867279,-0.0285162,-0.023312,-0.00823469,0.0836359,-0.00818717,0.061693,-0.0207149,0.056486,-0.0901213,0.0556469,-0.000481763,0.0556229,-0.0738249,-0.0322651,-0.0479949,0.103263,0.0424855,0.0471652,0.01515,0.0469689,-0.0190725,0.0902191,-0.0742022,0.0432435,-0.0157243,-0.0180154,-0.00553121,0.0513469,0.0228652,0.0382569,-0.0751241,0.0207672,-0.0357595,0.0177979,0.00839339,-0.0583156,0.00174809,0.0414734,0.0596116,-0.0668324,-0.026745,0.0781109,0.0359434,-0.0252784,-0.00939526,0.0273976,0.0161803,-0.0365789,-0.00524423,-0.00638752,-0.0120629,-0.01549,-0.00835319,0.0397842,-0.0549621,-0.035302,0.0138862,-0.011725,-0.00301574,0.0180812,0.0234709,-0.0420197,0.0103172,0.0443165,0.0431895,0.0916753,-0.000514689,0.0110929,-0.0400281,-0.00280467,0.0518921,0.00445365,-0.0462773,-0.0124069,0.0157436,0.0263394,-0.08151,0.00407531,0.00146913,-0.0208418,0.0431223,0.0199492,-0.0522366,0.0387366,0.0500781,-0.104916,0.0376343,0.0126671,-0.0225347,0.0218048,-0.0644791,0.0390554,-0.00301585,0.025198,-0.0183574,0.00360329,-0.0408896,0.00201844,-0.00287174,0.00777539,-0.0143959,-0.0165223,-0.00776295,0.0397046,-0.0331014,0.0854388,-0.104322,0.10132,0.00739715,-0.0294916,0.0560066,0.0247413,-0.0178988,0.00454961,0.0501089,-0.0307392,0.0423192,-0.015133,-0.0379703,0.0646218,-0.0509549,-0.01877,0.062651,-0.0305153,-0.0152995,-0.00570427,0.0785535,0.0515965,-0.0881579,-0.0314754,0.00599756,0.0238396,0.0117015,-0.0332592,0.0144948,0.10575,0.104511,0.0586513,0.0309316,-0.0215662,0.0381134,-0.00464425,-0.0930915,-0.0636205,0.043945,0.0672821,-0.0845134,-0.0158878,0.0299796,-0.0293153,-0.0298477,-0.00879316,-0.0026364,0.0177216,-0.0885049,-0.0642917,-0.0663492,-0.0715859,0.0182098,-0.0400332,-0.0326697,0.00165445,0.0231408,0.0129607,-0.0126957,0.0754409,0.0143049,0.0521952,0.00394254,0.00368726,-0.0169635,0.0204792,0.043759,0.0537284,-0.00685693,0.0383079,0.011311,0.0165713,-0.0300225,-0.0865042,0.0150821,0.0168794,-0.0574878,0.0619908,0.0166664,0.0404262,0.0240336,-0.0342242,0.0756588,-0.00711382,0.100874,0.00956229,0.00408349,0.0474424,0.0307734,0.00650113,0.00516215,-0.00350241,-0.0199569,0.000450487,0.000578901,-0.0311492,0.018796,-0.00910698,-0.0170945,-0.00232198,-0.0140185,0.0766113,-0.0418147,-0.0385998,0.0126989,-0.00960778,-0.0685633,-0.000120112,0.0385137,0.0063645,-0.0545907,0.00206002,-0.0275731,0.0196863,-0.0250018,0.0113757,0.0149239,0.131052,-0.0363884,-0.00308491,-0.0408753,0.0615788,0.0614389,0.0537715,0.0115189,0.06004,-0.0621157,-0.00403474,-0.000984971,0.0232157,0.0464994,0.0984623,0.000396852,-0.0567376,-0.0401007,0.0588057,-0.0879158,0.0802398,0.0439539,-0.0749977,0.0252379,-0.00641037,-0.0889518,0.0278435,0.0241238,0.0354153,-0.0397327,0.00788432,0.00963727,0.0187375,0.0794554,0.0423608,-0.00521165,-0.0519334,0.100848,-0.0409041,-0.0151707,-0.0319822,0.0571789,-0.0552126,-0.0380426,0.00221446,0.00449918,-0.024726,0.014787,0.0101867,-0.0188694,-0.0188538,-0.0223307,0.0292217,0.0719379,-0.0512525,-0.0150345,-0.00545794,0.0197507,-0.00496796,-0.0516131,0.059351,-0.000466614,0.010572,-0.0473571,0.0223476,0.0159475,0.00958432,0.0224365,-0.0090356,0.0354039,0.0415494,-0.0854989,-0.0239351,-0.0312971,0.0418208,-0.00085976,-0.04049,0.0551191,-0.0114045,0.0434022,0.0640274,0.00350496,0.00390386,-0.0233347,-0.028123,-0.00693718,-0.0593103,-0.00813259,-0.0721314,0.0243195,0.006493,0.0255733,-0.0445188,0.00222377,-0.083937,-0.0667696,0.00796303,-0.000243203,-0.0424068,0.0378129,-0.0608395,0.0133491,-0.0235061,0.0368015,0.0621512,-0.012974,0.00423409,0.0233829,0.0586318,0.0173334,-0.0319373,0.0524174,0.127033,-0.0629612,0.0548434,-0.0369814,-0.0168314,0.0283871,-0.0387718,-0.00515212,-0.0520546,-0.0177028,-0.0331272,0.0606362,-0.0339185,-0.0457228,0.0139337,0.10294,-0.004774,-0.0386807,-0.0028471,0.0218127,-0.0191069,0.0611485,-0.0267101,-0.00688892,-0.0370725,-0.00159102,0.129328,-0.0810791,-0.0495289,0.0376857,0.0529444,-0.0106351,0.0615323,0.0434344,0.00993926,-0.0398066,0.0347504,-0.0254572,-0.0124913,0.0135665,0.000214684,-0.0142567,-0.0478387,0.010239,-0.0406643,0.0837207,0.00437375,0.0130151,0.0041673,-0.0651494,0.0249162,-0.0149232,0.102196,0.02249,0.0167546,-0.0202299,-0.0263739,-0.0341396,-0.0527187,0.0338521,0.0765257,0.0257384,-0.0254974,0.0113291,0.0261171,-0.0538663,-0.0633526,-0.0753946,-0.000499066,0.0414125,-0.0119483,-0.0377423,-0.0702849,0.0372322,0.00929694,-0.0180922],
			"b":0.126348
		},
		"neuron 13": {
			"w": [-0.0859959,0.0020531,-0.0309635,-0.00962597,-0.0146183,-0.0514323,0.023599,-0.0387934,0.00724082,0.0771282,-0.00919673,-0.0335891,0.00911088,0.0297937,0.0246343,-0.09354,-0.0125134,-0.0453461,0.00599157,0.0334324,0.0320186,-0.101928,-0.0331681,-0.0417148,0.0461356,-0.0236949,0.0123124,-0.0730562,-0.0297727,0.0686506,0.0203087,0.00671923,0.09921,-0.0247345,-0.00971566,-0.0226015,0.0130149,0.0370062,0.0181314,0.0101479,0.115614,0.0255874,0.0199293,-0.00538531,-0.0364415,-0.00103635,0.0552004,0.0522684,-0.0520821,0.0694488,-0.0211401,-0.0404653,-0.0251227,-0.0179863,-0.058056,0.0096066,-0.0100414,-0.0542089,0.0590774,0.0461934,0.021677,0.0106923,0.0526138,-0.0348667,0.0976881,0.0167479,-0.0282495,-0.0643164,-0.0118143,0.0264817,0.0266681,0.00830106,0.0161041,0.0306197,0.0276394,-0.011982,-0.0050746,0.0587947,0.0436492,-0.0137638,0.023374,-0.0118531,0.0152059,-0.00756274,-0.00976727,0.0176056,-0.00314358,0.0362839,0.00416246,-0.0851323,0.116564,-0.0465495,0.0608857,0.04898,-0.0600355,0.00436649,-0.00787675,0.0544444,-0.00354093,0.0205117,-0.0211644,0.0446054,0.0309935,-0.0537295,-0.0464096,0.0657038,0.00610534,0.0816792,0.010237,0.0013534,0.0253579,0.00166974,-0.110704,-0.0400151,-0.0536313,0.0591351,0.000984692,0.0393752,0.0317697,0.0362859,0.0160092,0.0140584,-0.0277418,-0.017955,0.0293714,-0.000666003,0.0131668,-0.00610372,0.0343733,0.0409394,-8.4499e-06,-0.00959174,0.0191792,-0.0215277,0.041691,-0.0110034,-0.0514402,0.0619028,-0.0231783,-0.0318603,0.0470256,-0.0517844,-0.0361254,-0.0427434,-0.029681,-0.0773792,0.110722,-0.0578726,0.0343131,0.0173025,0.0852855,0.0388282,0.00122271,0.0665356,0.0316871,-0.0176454,-0.0204291,-0.0303379,0.0624566,-0.109229,-0.00317685,-0.0534979,-0.0373415,-0.0285536,-0.042926,0.0176617,0.01067,-0.0520263,-0.0154575,0.0438257,-0.0731529,-0.0399936,0.0967047,-0.0185318,0.000358108,0.0836948,0.0381634,-0.010028,-0.000635355,0.0925597,0.0337378,0.0452339,0.00118594,-0.0563048,0.0811711,0.0178907,0.0486997,-0.0648946,-0.0428935,-0.00931036,-0.0351846,0.0908985,-0.0400265,0.00990177,0.00896102,-0.0315559,0.010722,0.00756374,-0.0636317,0.0383806,-0.0473396,-0.0119549,-0.0128142,0.0642113,-0.0641742,0.0226526,-0.0143854,0.0194601,0.061452,0.110473,0.062185,-0.0458693,0.0375769,-0.00975498,-0.0132881,0.0162965,0.0318985,0.0228433,-0.000977742,0.00255337,-0.0660332,-0.0167994,-0.0244841,-0.0453277,-0.0170024,-0.0428021,0.00554418,-0.0131559,0.0108466,0.011101,0.0956254,-0.01715,-0.0311443,0.000839509,-0.0159049,-0.00373402,0.0689265,-0.0282398,-0.0314458,0.063478,0.117231,-0.0363376,0.0259843,-0.0157055,0.00877811,0.0158892,-0.0688871,0.036189,-0.0575142,-0.0189253,0.0385708,0.00799221,0.00578011,-0.0238826,-0.0158593,0.0599177,0.0646686,-0.00981055,0.0244526,-0.055981,-0.00619189,-0.00265918,-0.0625024,-0.0511854,-0.0160772,-0.0482465,-0.0078584,-0.0510823,-0.00891801,0.135311,0.109621,-0.0554177,-0.0166581,0.0112232,-0.00353678,0.00276374,0.00454322,-0.0747567,0.0188191,-0.0364913,-0.0684717,0.00732474,-0.0129134,-0.0538747,-0.0151773,-0.0420407,-0.00998836,-0.018368,0.015321,0.0614192,0.0371782,-0.00695113,-0.0307014,0.0557087,0.0192931,-0.0246868,0.0465747,0.0247419,-0.0330717,0.0888421,0.253248,-0.0354368,0.0191221,-0.0346079,-0.0582496,-0.0287408,0.0201533,-0.0135551,0.00455167,-0.0296096,0.0270595,-0.0252988,-0.00166396,0.0440127,0.117857,0.0156031,0.0877402,0.0325926,0.0262517,0.127612,0.0129741,-0.0265861,0.000485843,-0.0191121,0.0540023,-0.0867721,0.076628,0.0194888,-0.0234452,0.0301362,0.141844,-0.0642557,-0.00351875,0.0355849,-0.0640749,0.0316143,-0.0272895,-0.00709122,0.0581249,-0.0729377,0.0342501,-0.004066,0.013758,0.0366083,0.00926431,-0.0582629,-0.103404,0.00697504,0.0875374,-0.0194203,-0.000387532,0.0454787,0.0526244,0.0583243,0.0132585,0.00132284,0.0268832,-0.0847529,-0.0485186,0.136627,0.0560638,0.0174278,0.13862,0.0219744,0.0315009,0.0205355,0.070516,-0.00355359,0.0249982,-0.0580232,-0.0432307,-0.0333823,-0.0298065,0.00826784,-0.0201928,-0.0463279,-0.00996142,0.00302573,0.000767991,-0.0446776,-0.0452436,0.0479615,-0.00342666,0.0204378,-0.0218712,-0.0602786,0.0389478,-0.0866171,0.0300749,0.139223,0.0906733,-0.0374212,0.0396751,-0.0201442,-0.0283281,-0.0118805,-0.0124516,0.0352304,-0.0715905,0.0556435,0.00247582,0.0426321,0.018146,-0.117076,-0.0405579,-0.035153,-0.00744901,-0.0587318,0.0024917,0.0946494,0.0262299,-0.000736229,0.0420824,0.0292047,0.00749872,-0.0550492,-0.0343725,-0.00370955,-0.012998,0.142266,0.0969322,-0.0213274,0.039945,-0.0211346,-0.0424578,0.0134279,0.018709,-0.0425308,-0.030536,0.0145561,-0.0312798,-0.0474248,0.0595617,-0.00062957,-0.0244669,0.014092,-0.0283731,0.0655412,0.0258305,0.00971316,-0.0148946,0.0453381,0.000875792,-0.0035263,-0.000469128,0.097634,-0.061328,-0.0533296,0.0319875,0.0378372,0.0438437,-0.0180405,0.00957245,-0.000541168,0.0155651,-0.0443481,0.081069,-0.0388885,0.077707,0.0343119,0.0184137,0.00969459,-0.0178026,0.0685483,0.0358569,0.0162133,-0.0099177,0.0570171,-0.018412,-0.0103361,0.0635508,-0.00459237,0.0457677,-0.0542008,-0.0285373,0.0343156,0.0651729,-0.0226327,-0.00203838,0.109793,0.0710052,0.0948554,0.0412793,-0.0669498,0.0520731,0.120542,0.0456986,-0.011636,0.0182243,-0.0300374,0.0278256,-0.0645229,-0.0278501,0.00983501,-0.0221011,0.0147581,-0.00180972,-0.0650704,0.00697382,-0.00920251,-0.0616471,0.0331533,-0.00998832,0.0251253,-0.0378406,0.00327954,0.0152157,-0.0148031,0.0269984,0.0247479,0.0183258,-0.0333863,0.0471181,-0.018545,-0.0283275,0.0162137,-0.00569536,0.00207673,0.00329796,0.0493055,-0.0103648,0.0507356,0.00567588,-0.0992269,-0.0315103,-0.00109541,0.0341524,0.0225266,0.0149431,-0.00948873,0.059839,-0.0413647,-0.0358415,0.0560147,0.0443668,-0.0323752,-0.00896988,-0.00883082,-0.0309128,0.0112966,0.0563004,-0.0354545,-0.0238513,-0.0563016,0.0402076,-0.0407462,0.0314337,-0.0701231,0.00745918,-0.0463455,0.0139122,0.0346487,-0.0575228,-0.0039653,-0.00522686,-0.0678872,0.00126467,0.0208643,-0.0126152,0.00388674,0.0481839,-0.0204643,0.0211985,0.00302203,0.009567,-0.0622941,0.0171309,-0.0561599,-0.0128582,-0.0447483,0.0756962,0.031668,0.00759859,-0.0251663,0.0931994,-0.0580638,0.026175,0.0047597,0.0502367,-0.0640273,-0.0124596,0.0788714,0.0193224,0.0452542,-0.0572453,0.0294779,0.0106226,-0.000106337,-0.00400939,0.0133673,-0.0360394,-0.0120818,0.0792634,-0.0128449,-0.0608741,-0.0274365,0.0423443,0.0193654,-0.00176333,0.0593219],
			"b":0.2161
		},
		"neuron 14": {
			"w": [-0.00348864,-0.043284,0.0249152,0.0222074,-0.0274549,-0.0814807,0.0302056,0.00324287,0.0428521,0.0103063,-0.0423685,-0.0350235,0.0691028,-0.00153509,-0.0422674,0.0575373,-0.0104037,-0.0264568,-0.0165891,0.121813,0.0253025,-0.0175659,-0.017603,-0.0115819,-0.0134276,-0.0526245,-0.00169926,-0.00189557,-0.0237658,-0.0178104,0.0311197,-0.067921,0.0322234,-0.0252032,0.0736134,-0.00626251,-0.00695202,-0.0507502,0.0388157,0.0644289,0.0258936,-0.0410276,0.0311198,-0.0126039,0.0262152,-0.0192579,-0.00684422,0.0107467,-0.0132756,-0.0113353,-0.0449469,-0.0439051,-0.0437265,0.000134294,0.0381823,-0.048135,0.000287367,-0.00928112,0.00690064,0.0418943,0.0091424,-0.0333712,-0.0379305,0.0334843,0.0765786,0.0405088,-0.0345322,-0.0341406,0.0141653,0.0154888,-0.0326838,0.0277599,0.0235241,0.0497766,-0.00277604,-0.0485466,0.0391497,0.0224333,-0.0464962,0.0411734,0.022421,0.0297037,-0.111267,0.0280907,0.074184,-0.0138094,0.0319152,0.00344065,-0.104257,0.0170703,0.0215784,-0.0509,0.063073,-0.0541009,0.00996369,-0.00159956,-0.00184279,0.0164926,0.00386928,-0.0238804,-0.00039893,0.0139219,-0.0470611,-0.0162513,-0.0486073,0.0684859,-0.0203904,-0.01344,-0.000986663,0.00584158,-0.0892878,0.0372176,-0.0234759,0.0273031,-0.0514333,-0.0625831,-0.00280581,0.0353305,-0.0573264,-0.00282798,0.0338471,-0.0309243,0.0237216,-0.00529165,-0.0312538,0.0413078,-0.0429392,-0.000903449,-0.0466493,0.0850774,0.0144191,-0.0023758,-0.00014788,0.0369536,-0.0850947,0.0239526,-0.00308065,-0.0175501,0.0214367,-0.000228976,-0.000172311,0.0341424,0.0651516,-0.0176532,-0.00804109,0.0647299,0.0240956,0.000964824,-0.0214993,0.0274891,0.0959099,-0.0143633,-0.0171183,-0.0146466,0.0377566,-0.0330597,0.00301877,0.0287223,0.0313541,0.0337341,-0.0169948,-0.000556138,0.0303131,-0.00628751,0.0844911,-0.0466523,0.00697914,-0.0347055,0.00904782,-0.0184031,-0.0232256,0.0236778,-0.0292146,0.0994158,0.000383311,-0.00857997,-0.00129625,-0.0124978,0.0349079,-0.0183112,0.00770972,0.0101006,-0.0662839,-0.0178702,0.00930397,0.017159,0.0566471,0.0515379,-0.036578,0.05646,0.0128707,-0.0501425,-0.0275458,-0.0695411,-0.0365851,0.0437177,0.0499816,0.00494396,0.0675369,0.00212087,-0.0380823,-0.0650655,0.029627,-0.0411674,0.0569385,-0.0011743,0.0142686,-0.0206617,-0.0300594,0.0102977,0.0386929,0.0149238,0.0322149,0.0114324,-0.0500676,-0.00797022,-0.0237884,-0.027187,0.0227235,-0.0338881,-0.0134992,-0.0829448,0.0369445,-0.0286924,-0.0900528,-0.00548473,-0.0134747,0.00426012,-0.0812182,0.0691694,-0.0296353,-0.0318182,-0.0112325,0.075474,-0.0203291,0.0368015,0.00976652,-0.0229521,-0.0114852,0.131438,0.151527,0.0528383,-0.0783759,0.0313623,0.018096,-0.0165878,0.0643893,-0.0193151,0.00905031,-0.0339192,0.0452693,-0.0261467,0.027315,-0.0394582,-0.0289653,-0.0984698,0.028,-0.0603597,0.0230665,0.00235968,-0.0473691,0.0187948,0.0134475,-0.0578114,-0.0156004,-0.0242649,-0.0330137,0.0268183,-0.0172083,0.070338,0.109403,0.00250416,0.0366244,0.126514,0.0475241,-0.0313963,-0.0553906,0.0228731,0.0105454,0.0224041,-0.00468541,0.0150081,-0.0695471,-0.00257289,-0.00921678,0.0230636,0.033543,0.0481246,-0.0330227,-0.0553203,-0.0603299,-0.00342517,-0.0591081,0.0430718,0.0199241,-0.0405171,-0.0451242,0.0399875,0.014837,0.19551,0.121315,0.0216093,0.0250797,0.00177733,0.0256578,0.0221013,0.0391636,-0.0195853,0.0189036,0.000503345,-0.0135506,0.0728618,0.016926,-0.0660564,-0.0328398,0.0470712,-0.00600426,-0.0271997,-0.0786417,0.00666257,0.0359404,0.0159433,0.103336,0.0661161,0.0428881,-0.000481584,0.0244303,0.0986081,-0.0486786,0.0384769,0.0988308,0.0149974,0.00199635,-0.0636445,0.0190322,-0.0111627,-0.0133382,0.0611383,0.028931,-0.0481334,0.012897,0.0368169,-0.00906024,-0.0157312,-0.0507651,-0.0283295,0.0582443,0.0100125,-0.00377459,-0.0228398,0.0174905,0.0024856,0.02874,-0.0237282,-0.0558185,0.00179279,-0.0380847,-0.0721807,-0.000371792,0.161876,0.0756454,0.0571261,-0.101193,0.0017048,0.0113151,-0.026014,0.0795681,-0.00931125,0.0370892,-0.0182143,-0.0339672,-0.0269874,0.00351193,0.0170695,0.0421375,0.00273964,0.00881396,-0.011527,0.0414906,0.0602191,0.0288082,0.0523529,-0.0519894,-0.0239393,-0.0128208,-0.0310695,-0.0449371,0.0394209,-0.0190711,0.104106,0.0407191,0.0435585,0.00645265,-0.0180617,0.0295393,-0.0443117,0.0537354,-0.0292258,-0.0366827,-0.00165434,0.00198143,-0.0402574,0.0472719,0.0290117,-0.00637688,-0.0525766,-0.0108803,-0.0619022,0.0132201,0.0382714,0.0131722,-0.00569144,0.0126134,-0.0105575,-0.0278816,-0.0543802,-0.011214,0.0579504,-0.00229204,0.0140864,-0.0251498,-0.0449822,0.0035853,-0.0413069,-0.0402886,0.0432801,-0.0682276,-0.000796848,-0.0359977,-0.0222126,0.0248512,-0.00790352,0.0351008,0.0101499,-0.0235892,0.00065322,0.114664,-0.0130037,0.065484,-0.0300088,-0.0370071,-0.0139815,0.0402407,-0.0245944,6.32343e-05,0.0161317,0.012353,0.0579473,-0.00247851,0.0939775,-0.0285176,0.000273665,0.000232148,0.00167395,-0.0714849,-0.0288296,0.0555213,-0.0653869,-0.024251,0.00698463,0.0994596,0.034781,-0.0425056,0.040983,0.0355337,-0.0174905,-0.0356431,-0.0193203,-0.0127803,-0.0159627,0.0289009,-0.0246761,0.0404608,-0.0474002,-0.0607783,0.0543061,0.00170171,-0.0659314,-0.0104103,0.111827,0.0158587,-0.0449591,-0.0153214,0.0290711,-0.120504,0.0262062,0.0193534,0.0852074,-0.0117641,0.0190984,-0.0536566,-0.0430652,0.0127926,0.0369827,0.0309568,-0.0428237,-0.131454,0.00546567,-0.0584827,0.0310736,-0.0295899,-0.0287185,-0.0484971,0.0311202,0.0353193,-0.0022711,-0.0484743,0.00408458,-0.00361615,0.0808103,0.0610106,0.0759558,0.0194045,0.0319174,-0.00717044,-0.0196025,0.0279735,0.0195473,0.00497147,0.0805332,-0.0338649,-0.00581035,-0.000853761,0.0131846,-0.0650255,0.0641846,-0.0350912,-0.0129021,-0.00977405,0.0202353,-0.00740543,-0.0375017,-0.0240786,-0.0595052,-0.0162595,-0.00113662,-0.024845,-0.0596948,-0.032635,0.000188511,0.119856,-0.0276412,-0.0318775,0.0583095,-0.0810898,-0.00689491,0.0630442,0.041711,0.0322091,0.0556842,0.0531835,0.0624161,0.00558468,-0.00404964,-0.0611386,0.0236781,-0.0993615,0.0125508,0.00854029,-0.00554626,0.022619,-0.0155767,-0.0070792,0.11613,0.0654821,-0.0828503,-0.0249783,0.0312399,-0.145331,0.0896971,-0.0387257,0.0118008,0.0156134,0.167824,0.0170397,-0.0306767,0.0301034,0.0159294,0.0211441,0.0163532,-0.0186824,-0.0141091,0.00455479,0.0274629,-0.0244759,-0.0106064,-0.00857387,0.0119475,-0.0876713,-0.00341396,-0.0610598,0.00311831,-0.0400032,-0.00482816,-0.0303526,-0.0270427,0.0312429,-0.0249259,0.0194861,-0.0617989],
			"b":0.249078
		},
		"neuron 15": {
