{
"Network": {
	"Layer 0": {
		"neuron 0": {
			"w": [0.0447766,0.0293725,-0.0547792,-0.0959378,-0.0122154,-0.00650668,-0.0296126,0.0147697,-0.0681287,0.00646007,0.0027664,0.0186692,-0.0255217,-0.0767791,-0.0360113,-0.0204999,0.0129987,-0.0146211,0.0248406,0.048004,-0.0171198,-0.0154607,-0.0167469,-0.0105824,0.0260458,-0.00161081,-0.0324425,0.0246503,-0.0298758,0.0473322,0.0324155,-0.00956142,0.029204,0.0374158,-0.0285366,-0.052785,0.0523056,0.0144306,-0.0238719,0.104892,0.0341611,-0.0218328,-0.0222106,0.0887496,0.0470561,-0.0271642,-0.0414256,0.0973968,0.0471029,-0.0108241,0.00119227,-0.00493766,0.0110634,0.00626753,0.0866357,0.0408924,0.0249326,-0.00716943,0.0342651,0.00905242,0.0397202,-0.0121919,0.000428381,-0.00252508,-0.00198839,-0.0289211,0.0150149,-0.0415432,0.0513922,0.0986873,-0.0520881,0.0369983,-0.00493067,-0.00510233,0.107279,0.028124,0.0429597,0.00323706,0.0268269,-0.01909,0.0510881,-0.0260163,0.0533092,0.095545,-0.0313818,0.0140398,0.00890515,-0.00217128,0.0279902,-0.0525154,-0.0204047,-0.0845126,0.00803463,-0.0383716,0.0475498,-0.0654413,0.0105476,-0.0676437,-0.00648521,-0.0244318,0.0030807,0.0706421,-0.0404097,-0.0140646,-0.054432,0.0686931,-0.0313047,-0.0115991,-0.0320925,0.0532136,-0.026538,0.00012272,0.0288019,-0.0787416,0.0270304,0.0192933,0.0194854,0.00558657,0.0168993,-0.0162606,0.0490762,0.0556398,-0.0384189,-0.0125841,-0.0115249,0.0732944,-0.00955497,-0.0652442,0.0320832,0.0170959,0.0510054,0.017354,-0.0497336,0.0266143,0.0221714,0.0469862,-0.00913873,-0.00538662,0.0458354,0.0499028,0.0189894,0.008977,0.0325862,0.0180353,-0.0366246,-0.0293896,-0.0181824,0.0132494,-0.0414583,0.0362357,0.0319353,0.026961,-0.0109047,-0.0136939,0.0372523,-0.0244345,-0.0528567,-0.0114116,-0.0102059,-0.0169601,0.0296226,0.0402108,0.0332146,0.0489934,-0.0491249,-0.0536062,0.00106061,-0.0186929,0.0661893,-0.00444955,0.00240319,0.00306452,0.00739267,0.0655568,-0.0296137,-0.00843669,0.000547297,0.00981971,-0.0355869,0.0178776,0.0120388,-0.0312152,-0.0528693,0.026304,0.0488045,-0.00484692,0.0114017,0.00310421,0.0409464,-0.0419932,-0.03302,0.0652013,-0.0102675,-0.0608948,-0.0201061,-0.0159036,0.00837018,0.0334803,0.0243632,0.0368688,-0.0282575,-0.0854585,0.00595387,0.0302793,-0.00165366,-0.0162763,-0.0658507,-0.0187787,-0.0682818,-0.0123044,0.0423583,-0.00101604,-0.0361995,-0.0248795,-0.0253036,0.00408833,-0.0116456,0.00980737,-0.0482009,0.0655965,0.00553067,-0.0275565,-0.00430609,-0.0615729,-0.00485406,-0.0641811,0.0688234,0.00807818,0.0467661,-0.0542115,-0.0123539,0.0247958,-0.0229588,0.0193644,-0.0423543,-0.00496548,0.0291646,0.00121529,-0.0118288,-0.0107877,0.0304719,-0.059071,0.0506914,0.023383,-0.0515549,-0.0148081,-0.00523519,-0.0120728,-0.0330439,-0.0412029,0.0678922,0.0608934,0.0149468,-0.0092631,-0.0141878,0.0440239,-0.0175778,0.0520592,0.00266468,-0.0175787,-0.00839339,0.0165743,0.0142231,-0.0125247,-0.0298162,-0.0620417,-0.0117936,0.0237241,-0.0333423,0.0655466,0.0558235,-0.0343415,0.00639948,-0.0403301,-0.0471485,0.0373135,0.00496081,-0.0105302,0.0256852,0.0270941,0.0164521,-0.0787175,0.0233008,0.0177465,0.0257665,-0.0102119,-0.0464983,-0.0230001,-0.00131813,-0.0151862,-0.0622224,-0.00554619,-0.00300208,-0.0370592,0.000265983,0.0246902,-0.0170806,0.00693876,-0.00329162,-0.00829604,0.00754251,-0.0448317,-0.0428948,-0.0311706,0.0297471,-0.0575652,0.053151,-0.0258452,-0.033456,-0.005385,-0.0827577,0.0139636,-0.0719833,-0.0461117,0.0290405,0.0596694,0.0412376,0.00944025,0.00997891,-0.0320856,0.0477078,-0.0253121,-0.0391883,0.0106049,-0.0247466,-0.0457455,0.025845,-0.0072231,0.0331634,0.0210382,0.0416203,-0.0097437,0.0182958,-0.0372091,-0.00794391,-0.0216823,-0.0799357,0.00975924,0.033994,-0.0216663,0.018573,0.0405821,0.0402517,-0.022465,0.00584709,-0.0225425,0.0901352,0.0590392,-0.0240436,0.0249501,0.0247359,-0.0422725,-0.0115431,0.0292014,0.034672,0.0118999,0.0189827,-0.0316992,0.019789,0.00399825,0.0782146,-0.0331003,-0.0972904,0.0393413,-0.0257423,0.00301575,-0.0639694,0.0748627,-0.0207154,-0.000637794,-0.0161424,-0.0204105,0.0130386,0.0687984,0.013995,-0.0317029,0.0152195,-0.0548049,-0.00543595,-0.0413332,-0.0141672,0.00428706,-0.00267439,0.0830607,-0.0901687,0.00397857,-0.0544571,-0.0071522,0.00695922,0.0488128,0.0274047,0.0178153,-0.0604049,0.0364056,0.0390876,-0.0513808,0.0269224,0.0155193,0.0497283,-0.0392991,-0.0323793,0.0577788,0.0599412,-0.0295749,0.0175654,0.0481395,-0.0504588,0.0785502,-0.0105376,-0.0729398,-0.0669781,0.0121308,-0.0416095,-0.0229211,0.0326263,0.0284746,0.0337103,-0.0510739,-0.0203139,0.0978933,0.0393862,-0.0340089,0.00358795,-0.0547416,0.00965079,-0.014621,0.0236393,-0.000819509,-0.0673366,-0.0388909,-0.00701245,0.0681155,0.0352802,0.0213113,-0.0347878,0.0301039,0.0113082,-0.0928449,0.0106568,0.0191568,-0.0535821,0.0544876,0.0283216,0.140989,0.00843241,0.0365283,-0.00387769,-0.0102262,-0.00176095,0.0786004,0.0665569,-0.00522636,-0.00312747,0.039614,0.0330128,0.0487315,0.0531158,0.0440324,-0.00407729,0.0771598,-0.010556,-0.0559115,-0.0756571,0.0321029,-0.00328232,0.0417075,-0.0129416,-0.0109584,0.0195427,-0.0344273,-0.125513,-0.00571467,-0.0011874,0.00184372,0.0605143,0.0393351,0.0485222,-0.0204114,0.0111345,0.111434,0.0160387,0.00703898,0.0140682,-0.0122864,0.000723536,0.0282696,0.0224178,0.00904533,0.0499818,0.0601648,0.0548457,0.0173372,-0.0101734,-0.00242884,-0.00672952,0.0383504,-0.104345,-0.046925,-0.0610722,0.0466495,0.0900912,-0.0268233,0.00810726,0.0124562,-0.0337492,-0.0178389,0.0968436,-0.0185354,0.0307881,0.0283724,-0.0360018,0.02261,0.0281503,-0.040278,0.0525203,0.0064682,0.0729719,-0.052161,-0.0366674,0.00619095,-0.00709773,-0.0438364,-0.0118868,0.00682858,0.0207523,0.043513,-0.031384,-0.0169857,-0.0558305,-0.0108992,0.0390617,0.00712197,-0.00125534,0.0169321,-0.027248,-0.0253977,0.0266789,-0.0103869,-0.00428499,0.0757826,-0.0208449,-0.00235654,0.0128271,0.0980629,0.0655059,-0.0551744,-0.0375907,0.0306287,0.0306398,-0.035842,0.0280638,0.0558779,0.0475492,0.0357669,-0.110926,0.00815766,-0.0110908,-0.00202307,-0.00107656,-0.000554083,-0.016908,0.000834914,0.064534,-0.0147155,0.0421997,-0.0528856,0.0461077,0.0362836,-0.028925,-0.0628123,0.05026,-0.0400249,0.0586849,0.0383443,0.0259411,0.0484041,0.0730984,-0.00843701,-0.0394543,0.0194827,0.00588934,-0.0187068,-0.0157646,0.0462598,-0.0311651,-0.0108392,0.0232796,0.066735,-0.0459107,0.0222148,-0.00109859,0.0519273,0.00642532,-0.00440233,-0.0290139,-0.0500767,-0.0142361,-0.0846386,-0.0177252,0.00182476],
			"b":0.135283
		},
		"neuron 1": {
			"w": [-0.0340506,0.0097611,0.0295359,0.00127095,0.0495586,0.0112847,-0.0361473,-0.071695,0.0383032,0.0909207,0.0418666,-0.0125888,-0.0280985,0.0359586,0.0444605,-0.034258,0.0666014,0.024119,0.0585154,-0.00860994,-0.0206792,-0.0212084,0.066297,0.0184129,0.00395922,-0.0250004,-0.0268493,-0.0394496,-0.0196213,0.0667908,0.00398008,0.0141581,0.00380315,0.0400054,0.0414168,-0.0192789,-0.000398046,-0.0883859,0.00608223,-0.0432025,0.00676919,-0.0763281,-0.0464008,0.0102127,0.0210995,-0.0214521,-0.0472281,0.0348356,-0.00672239,-0.00196592,0.00419931,-0.0309388,-0.0624189,-0.00362797,0.0426334,0.0155545,-0.103355,0.0587826,0.0142085,0.029176,0.0461317,0.00828745,-0.0319972,0.0388787,0.0477347,-0.0198088,0.0836776,-0.0638709,0.00313902,-0.00174908,-0.00729678,0.0373334,-0.0166671,-0.00475064,0.0572491,-0.0409283,-0.00512511,-0.141833,0.0124751,-0.0908273,-0.00574971,0.0158936,0.0197239,0.0109081,-0.0432905,-0.0221499,0.0182443,0.0161049,0.0383994,0.0432723,0.0557043,0.0471309,-0.016339,-0.0192282,-0.0208113,-0.0218759,0.00885819,-0.0184823,0.0611907,0.000951718,-0.027771,0.0142444,-0.0828463,-0.0756995,0.0489016,0.0117458,-0.0203007,-0.0376423,-0.00243142,-0.0582174,0.0322341,-0.113284,-0.0377422,0.107921,0.0549228,-0.000894418,0.0180833,-0.0501101,-0.0401405,0.0593228,0.00277181,-0.00941616,-0.00984808,-0.000555927,0.0349154,-0.0352555,0.0275052,0.00584515,0.0472342,-0.0102214,-0.0389488,0.0165449,0.0312472,0.0174396,0.0543816,0.0600015,0.0359511,0.0323196,0.00734744,-0.0114531,-0.0394814,-0.0128932,0.100546,0.0385181,-0.00244047,0.0648433,-0.0158137,-0.0131307,-0.0931805,0.0874027,0.0337716,-0.0355037,-0.00816908,0.0141414,0.0110432,0.0175505,0.0148153,0.00788391,0.0289605,0.0139894,0.0190548,0.0019487,-0.0409393,0.0171624,-0.0466564,0.0453075,-0.012071,0.036748,-0.0172367,-0.024431,0.00428676,0.0437153,0.0141381,0.0141615,0.0251242,0.0468136,-1.54243e-05,-0.0914648,-0.0138048,0.0447591,0.0359395,0.0412134,-0.0316359,-0.0202144,0.0872818,0.0418684,0.0380822,-0.0270046,0.138497,-0.0207643,-0.012976,-0.0095494,-0.011225,0.0386869,-0.0382094,-0.00401643,0.0414096,0.0163663,0.0437148,-0.00149649,-0.0636756,0.0370594,-0.0230582,0.0294851,0.00475214,-0.00550768,-0.004728,0.0749088,-0.0373299,0.0709646,-0.0416907,0.0213658,-0.0642446,0.0405232,0.0251951,-0.00395112,-0.0661602,0.00851033,-0.0628382,-0.0579952,-0.0565838,0.0344076,-0.0251706,-0.109016,-0.026576,-0.00288478,-0.0399388,-0.0816737,0.00621979,0.0535079,0.00834289,-0.00495091,-0.00935094,0.0553163,0.0209057,-0.0680135,-0.120217,0.0408183,-0.0175945,0.102432,0.0862081,0.0348362,0.0430555,-0.0145525,0.00931842,-0.0364141,-0.0181587,-0.0277028,-0.0159817,-0.0315993,-0.00618351,0.027927,0.00758798,0.0284417,0.0444659,0.0819538,0.0374189,-0.0333015,0.0525921,0.027593,-0.0569813,-0.00630184,-0.0255861,0.0136282,-0.0268897,0.0765618,0.0206124,-0.0114262,0.0220298,0.0948788,0.0933652,-0.00705893,-0.0618196,0.0164027,-0.0033915,-0.0105068,-0.0219713,0.0156712,-0.0325621,-0.0263725,-0.000658594,0.0883188,-0.0213041,-0.0380699,-0.0157092,0.0328505,0.0231418,-0.0322244,-0.0128775,-0.0171519,0.0059934,0.0151962,-0.0149494,-0.00356802,0.0108755,-0.0707981,0.0673857,-0.0140147,-0.0108623,-6.79032e-05,0.0812539,-0.0197592,-0.0148993,0.0336975,0.00682811,-0.00148902,0.0326445,0.0386628,-0.0125765,-0.053762,0.0464459,0.033028,0.0136464,0.0356041,0.0358499,0.0801567,-0.00654222,0.0805581,0.0279411,0.0106266,-0.0797318,-0.0237798,0.0387687,0.0493949,-0.0389894,-0.00582215,-0.0850596,-0.00469659,0.0447071,0.144844,0.0986182,-0.00676505,0.0397446,0.00337374,0.0122746,0.0705574,0.0229787,0.0649409,0.032547,0.0579926,-0.0231636,-0.046957,0.0542232,0.0338441,0.00550208,-0.018759,-0.0216513,0.0375169,0.080103,-0.0169914,-0.00252009,0.0227879,-0.0484497,0.037182,0.00744223,-0.0799414,0.000493398,-0.0417647,-0.0129475,0.0614876,0.0928727,0.0565246,0.084561,0.0350349,-0.0607027,0.0122606,-0.0142318,0.0229616,0.0174987,0.0274379,0.0348432,0.0232115,0.0549246,0.0383095,-0.0441714,0.0101042,0.0381662,0.0361489,0.0450276,0.0585344,0.00288284,-0.0307358,-0.0598666,0.0494505,0.0210215,0.0240536,-0.0225564,-0.0194102,-0.0365696,0.000860994,0.0435952,-0.0457421,0.0167648,-0.0149205,-0.0542083,-0.0141991,0.0417078,0.0370876,-0.0167299,-0.00654387,0.0154446,0.0373525,-0.00516002,-0.0507272,0.0806736,0.00268733,-0.00921454,-0.0543785,0.102864,0.0263537,-0.0297319,-0.00221654,0.0505719,-0.0145969,0.0684597,0.00374999,-0.00116364,-0.0254909,-0.0207548,0.10855,0.0212488,0.0909529,0.0308793,0.0283701,-0.0183666,-0.0379023,0.0669489,-0.0284435,-0.00334404,-0.0838922,0.00220075,-0.0966806,-0.00235558,-0.0182943,0.0555234,-0.0803098,0.0053547,0.0400736,-0.0265262,-0.0307836,0.0435732,-0.0173673,0.000707235,-0.0236745,0.0541797,-0.0268756,-0.080071,0.0177589,0.0795765,0.0682932,0.0250349,0.0260099,0.0226702,0.0221073,0.070577,-0.0358354,0.0504902,0.0678882,-0.0410414,0.00590972,-0.0811806,0.0969238,0.0572014,-0.0385719,0.0519482,0.0242178,-0.0121695,-0.0359574,-0.033326,-0.0207672,0.0202358,-0.0197917,-0.0216591,-0.0340083,0.0262361,-0.00597471,0.0824483,0.0177465,0.00418365,0.0248312,0.0171611,-0.0333611,-0.0367202,0.00975172,0.0134484,-0.0775265,-0.02795,-0.0615215,0.0127762,-0.040956,-0.0026477,0.109334,0.013577,0.0221772,-0.067568,0.00385627,-0.00119731,-0.0391073,0.0359695,0.0300175,-0.0243141,-0.0687119,-0.000588272,-0.0442862,0.123116,0.00553356,0.00746756,0.00545831,-0.0418792,0.0266408,0.100076,-0.0304309,0.0231624,0.00096523,0.0578616,0.0237746,-0.0471337,0.0313424,0.0460338,-0.0468664,-0.00463201,0.0606365,0.0113631,-0.0603823,0.0109563,-0.00402433,-0.0104881,0.041439,0.093949,-0.0266476,-0.0302349,0.0517069,-0.00450498,0.0189439,-0.0735336,-0.00616237,0.0438933,-0.0170326,-0.114478,-0.0107711,0.00175683,-0.0192001,-0.00392946,-0.0186989,0.00070729,0.0462422,-0.0744265,-0.0753709,0.0593912,0.0404581,-0.00580221,0.0655994,0.049953,-0.0105811,0.0173338,0.0336702,0.102973,0.0330012,-0.0499974,0.0212523,-0.0281317,0.0633337,-0.0254184,-0.0372776,0.0572182,0.0815039,0.0415952,-0.00637658,-0.0268781,-0.00672273,-0.00305557,-0.0181118,0.062758,0.0601498,-0.0184724,-0.00661121,-0.0039406,-0.0100424,0.00627124,0.0310126,-0.012286,0.00885054,0.020346,-0.00292482,-0.0469436,0.0382751,0.0101228,-0.00115422,-0.00184984,0.119325,0.0496415,0.0689954,0.0509848,0.020684,0.00491788,-0.0277325,-0.0691102,-0.013936,-0.0706684,-0.00394639],
			"b":0.145597
		},
		"neuron 2": {
			"w": [-0.0160022,-0.0386888,-0.0114003,-0.0272719,0.000254362,-0.0527348,-0.00599548,0.0282308,0.0142523,0.000628438,-0.00551747,-0.0599578,-0.051495,-0.026297,-0.0407625,0.0261313,0.0170182,0.0184067,0.0092082,-0.0225365,-0.0213764,0.017942,-0.0761081,0.033952,0.0463731,-0.0114862,-0.00878153,-0.00120591,-0.00200943,0.000558741,0.0825767,0.0302144,0.0358027,0.0531895,0.0358544,-0.0645807,-0.0268234,0.0199174,-0.110071,-0.075909,-0.0351083,0.0295459,0.0235465,0.0397049,-0.0061673,0.0483953,0.00602282,0.0166768,0.138279,-0.00565285,0.048906,-0.0200738,-0.0288555,0.0362666,0.0854312,0.00752391,-0.0270181,0.051026,-0.0252914,0.04503,-0.0101002,0.0163019,-0.0108023,-0.0236472,0.0305251,0.0109032,0.0442165,-0.0263183,-0.0272737,-0.0278862,-0.0239702,-0.0590033,-0.0248287,0.0212561,-0.0192103,-0.0167889,0.0655706,0.00182025,0.0339663,0.0527094,0.0470443,-0.0309265,-0.00539419,0.0485572,0.0801626,0.0349093,0.0427651,-0.0161972,-0.0059029,0.0248399,0.0489463,0.0491901,-0.0586454,-0.0495114,-0.00671906,0.0437061,0.0303494,-0.0307031,0.00131016,-0.004552,-0.0275777,-0.0027011,0.0643326,-0.0372646,-0.016232,0.0162931,0.0506212,0.0493566,0.0219635,-0.0707222,-0.0252514,-0.0316871,0.0326242,0.0362764,0.0392735,0.0201996,0.0191186,-0.00259838,0.0796429,0.0209735,0.00232855,0.059247,0.0144969,0.0287293,-0.0486878,-0.00593193,-0.0347403,0.0550887,0.00612061,-0.000933262,0.0403589,-0.0393315,0.0182827,-0.0331749,-0.000548662,-0.00610239,-0.00831544,0.0963876,0.0232918,0.0501047,0.0167566,0.0335319,-0.0376183,-0.0941206,-0.0213984,-0.00594065,0.0425391,-0.0834923,-0.0334066,0.0461574,0.0491614,0.0263466,0.00992894,0.002442,-0.048654,-0.0100531,0.0224059,-0.0402956,0.0162483,-0.0439717,-0.0250667,-0.0389932,0.0390888,-0.0302271,-0.0320266,-0.0293529,0.0684622,-0.0049524,-0.0114016,0.0244894,-0.014371,-0.00996389,-0.0459855,-0.0402601,-0.0101889,-0.0199677,-0.0191163,0.0362333,-0.0082208,0.0702244,0.109579,0.0043081,0.0577351,0.0208395,0.0418587,-0.0117221,-0.0675557,0.0214215,-0.018461,0.0141305,-0.0220469,0.0712295,0.0104418,0.030485,0.0136942,-0.0132848,-0.0204517,0.0227743,0.0353967,0.00708747,-0.0265298,-0.0330264,-0.0335338,0.0379994,0.0195613,0.0309965,0.0444533,-0.0163923,-0.0315832,0.0881255,0.0547843,-0.044693,0.0547684,0.0221476,-0.0206385,-0.0261506,-0.015873,0.0463916,0.00978119,-0.00622266,-0.062052,-0.0306272,0.027743,-0.0207693,0.0172642,-0.00816113,0.0530828,0.036945,0.0209718,-0.0155074,0.0414242,-0.0261404,-0.0590212,0.0298116,0.0313491,-0.0497532,0.0431693,0.00309321,0.0122968,0.0996848,0.100456,-0.0438335,0.0180872,-0.02258,0.0064591,-0.0203475,-0.000252279,0.0721477,0.000145481,-0.0215297,0.0108673,0.0100047,-0.0158209,0.0376914,0.045174,0.03338,-0.00328405,-0.0188708,0.0550838,0.000360139,-0.0378027,-0.0229063,-0.0811419,-0.0354483,0.00399208,0.00128378,-0.0448218,0.0130099,-0.0191828,0.106539,0.202816,0.0464481,0.0152742,0.0649079,0.0742955,0.00359565,0.026267,-0.0277839,0.00183839,-0.0103889,0.0159415,0.0315548,-0.0641361,0.00578386,-0.0569655,-0.06275,0.0330205,0.0185671,0.0758008,0.0230065,0.015749,0.00963659,-0.0675439,0.0585958,-0.0802007,0.0407427,-0.0576453,-0.0234257,-0.01946,0.132562,0.114403,0.00800129,0.0201156,0.0309899,0.0323363,0.0324942,0.00183262,0.00553884,0.00834808,-0.0289804,0.0500309,0.0623275,-0.00739878,-0.0471218,0.0306964,-0.0868237,0.040596,0.00474504,0.0924199,-0.00834177,0.0560266,-0.0138355,0.0420468,0.0488566,-0.000106031,-0.00561423,0.0285825,-0.0492969,-0.0229405,0.129885,0.160198,-0.017096,0.0899097,0.0179085,0.0582309,0.0492123,-0.0225287,0.031255,0.0101055,0.0257412,-0.0678765,0.0115211,-0.0305678,0.0579487,-0.0160856,-0.0423878,0.0453195,-0.0393265,-0.0139702,0.0133846,-0.00105567,-0.00877214,-0.0664518,0.00276117,-0.0415041,0.0425615,-0.0082221,0.00988805,-0.0295745,0.11875,0.132318,0.0169395,-0.0226631,-0.0749134,0.129349,-0.0472351,-0.0220431,0.0403383,0.00371071,0.0503826,-0.0370861,0.0582989,0.039759,0.0119499,-0.118259,-0.0219027,-0.00420567,-0.046883,-0.0639774,0.0418731,-0.0116366,0.0425079,0.0515235,-0.0647934,0.051036,-0.0135545,0.0467665,-0.0260786,0.00306807,0.115085,0.124574,-0.00688981,-0.0277975,0.0249945,0.0302768,0.00852184,0.00391702,0.0237206,0.0707613,-0.0330786,-0.0216691,-0.0419748,0.0181712,-0.00462342,-0.0451328,0.0730938,0.023837,0.012781,0.0265826,-0.0210263,-0.00948706,0.0221705,0.0146163,-0.0851531,-0.03931,0.0812607,0.00523033,-0.0232755,-0.0474504,0.111085,0.100404,-0.0107602,-0.0508706,-0.0381306,-0.0544626,-0.0369448,-0.0314861,-0.0107416,0.0374045,-0.0488641,0.0182847,0.0103933,0.0310309,0.0545851,-0.0431205,0.0334992,-0.0774392,-0.0115985,-0.00599259,-0.0521215,0.0472604,-0.0235386,-0.0512096,-0.0676126,0.0223749,-0.034692,0.00752012,0.00906228,0.00197885,0.0873597,0.0159741,0.0152467,0.0480483,-0.0803309,-0.032226,-0.105762,0.0382877,0.0335394,-0.0492177,0.0299347,0.0163833,0.0121962,0.0322259,-0.0212892,-0.0178342,-0.039956,0.0139321,-0.0171061,-0.0228841,-0.0046061,0.0609091,-0.019585,-0.0103182,0.0264539,-0.0127044,-0.0735569,0.0177312,-0.0183406,0.0126885,0.101146,0.00186452,0.0329014,0.0321669,-0.0141069,-0.0129663,0.0106777,-0.0106928,0.0127036,0.0360229,0.0780733,-0.0589071,-0.0262372,0.0103008,-0.0436253,-0.129181,-0.0259455,0.0149053,-0.0215847,0.00721297,-0.0113624,-0.0428882,-0.0216784,0.00313212,0.0172343,-0.0479743,-0.0547398,0.0537828,0.0292887,0.0148443,0.00609201,0.0561546,0.0561818,-0.0215503,-0.0643224,0.0191507,-0.036039,0.00546359,-0.0100721,-0.0302,0.0290337,-0.047795,-0.0195456,-0.00429408,0.0240131,0.00499402,0.0125942,0.0138659,-0.0422175,0.0598871,-0.00784668,-0.0233199,0.0526242,-0.0566059,-0.00538346,0.0171252,-0.0401179,-0.0419873,0.0219582,0.0332399,0.0155966,0.00970679,-0.0375144,-0.025811,0.150205,-0.0194361,0.0274766,0.0348416,0.0634404,0.0102399,-0.0769703,-0.0379779,-0.0130377,-0.0122665,-0.0315881,-0.00919989,0.0438918,0.0341221,0.0833052,-0.00116051,0.00470145,0.0466837,0.0652472,0.0319777,0.00465999,-0.0700042,-0.00744193,-0.0441323,0.0693108,0.0685994,0.0767712,0.00533673,-0.0680152,-0.0913797,0.0477251,0.00256431,-0.0363452,0.0153937,-0.00476921,-0.0580106,-0.0235706,0.0260692,-0.0225662,-0.00571525,0.0117785,0.0719043,-0.0269244,0.0199336,-0.0216344,0.0532194,-0.00203613,-0.0217452,-0.0188916,-0.0284055,2.17312e-05,0.0208603,-0.132274,-0.0887174,0.0646793,0.0329128,0.046134],
			"b":0.299744
		},
		"neuron 3": {
			"w": [-0.0180376,-0.0643285,-0.0199575,0.0491568,0.0257634,0.00625677,0.0119498,0.0287349,-0.0572899,-0.0168544,0.0104311,0.0531581,-0.061444,-0.0141188,0.038908,0.0121387,0.0306581,0.00177093,-0.0125412,0.00627848,-0.00969666,0.0710523,0.0386899,0.00604681,-0.0559848,-0.030717,0.01859,-0.0520712,-0.0732682,0.0364389,-0.0234601,0.0180245,-0.0388679,0.0353289,0.0411338,-0.0320791,0.0119603,-0.00437307,0.0255873,-0.057542,-0.00553644,0.00677468,0.0422331,-0.0207156,-0.00360293,0.0881349,0.0346303,-0.0197891,0.000168916,-0.0263658,0.0812762,-0.0229513,0.024477,-0.0393855,-0.0121081,-0.00551124,0.0234214,-0.0228782,-0.00548902,0.105469,-0.000988858,-0.0181265,-0.0340172,0.0683739,-0.0458578,0.0368127,-0.0552849,0.0567852,-0.0248576,-0.0241473,-0.0801342,0.003629,-0.0491032,0.0687832,0.0260091,0.0508598,-0.0485968,-0.00201729,0.0296052,-0.0775057,-0.0223425,-0.0127622,-0.0174733,-0.0201244,0.0187116,-0.0305866,-0.0139836,0.00717196,-0.0703862,0.0530959,0.0518601,-0.0258493,0.0010174,-0.0175593,-0.054217,-0.00292442,0.0413307,-0.0409203,0.0172265,-0.0513813,0.00694506,0.057057,0.0226336,-0.0181125,0.00276655,-0.0623737,0.0520566,0.0827841,-0.0447508,-0.0152992,0.000285456,0.0338306,0.00327259,-0.0281773,0.11058,0.00675359,0.00316891,-0.00875567,-0.0191757,0.0321126,0.118512,-0.0897485,-0.00639185,-0.0425262,-0.0391637,-0.0813039,0.0268682,-0.0299896,0.0452582,0.0151348,-0.0635918,-0.0091336,0.0371199,-0.00727387,-0.00205016,0.0106181,-0.0297242,-0.0135596,-0.00922578,-0.0278413,-0.0174776,0.00586799,-0.0510179,0.0813174,0.0416326,0.0224617,0.0361548,-0.00974697,-0.0469412,0.121175,0.0367374,-0.0046645,0.00844389,0.0513361,0.0119452,-0.0425108,0.0511151,0.0139609,-0.0302328,-0.0357186,-0.0332385,-0.012375,-0.0287639,-0.0681387,0.010304,0.019774,-0.00969936,-0.0538743,-0.0400424,-0.0026328,0.0288215,-0.0102691,0.0117501,0.0192568,-0.00208984,-0.0462041,0.0639281,0.0708963,0.0576907,0.120094,0.0876366,0.00555109,0.0440679,0.00214812,-0.013342,-0.0603931,-0.0156164,-0.0563283,0.0310281,0.0355157,-0.000849289,-0.0148238,-0.105637,0.0106434,-0.000646835,0.0399908,-0.109553,-0.00877153,-0.00265658,-0.0489817,-0.0317049,-0.0744012,0.0230356,0.029012,0.0278212,0.0261829,-0.00237709,-0.00679334,0.0342298,0.166093,0.0840597,-0.00259084,0.0169609,-0.0361484,-0.0344173,0.0730685,0.0217331,0.0156638,0.0029968,0.0629555,0.000940843,-0.0027058,-0.0278995,-0.0564153,0.01791,-0.0283016,-0.0272776,0.0286853,-0.00312787,-0.0132158,-0.0314754,0.0410398,0.0105282,-0.048633,-0.00195476,-0.07472,-0.042588,0.0864634,0.0137551,0.120122,0.24364,0.00385263,0.0371633,-0.00194397,-0.0402526,-0.0283224,-0.0193699,0.0359047,0.0381458,0.0830676,0.0502511,-0.0287812,-0.0437356,0.00321561,-0.0241396,-0.0480678,-0.0214923,-0.0223926,-0.00899764,-0.00391539,0.0240189,-0.00657486,0.0197102,0.000990839,0.0527492,0.106985,-0.105288,0.00877461,-0.00229566,0.0700445,0.132971,-0.00351228,-0.0415222,-0.0346099,0.00672685,-0.00286191,-0.00405847,-0.0294839,-0.0304372,0.0269106,-0.00505478,0.0227542,0.0850696,0.0347353,-0.0505095,-0.0125157,-0.0125158,-0.0213194,-0.0256333,0.020204,0.0321873,0.040365,0.0502032,-0.0492654,0.0230093,2.98976e-06,0.0375453,0.0187576,-0.00713046,0.152127,0.193136,-0.0163957,-0.0135908,0.00321031,0.0251886,0.00297315,-0.0763192,-0.000844029,-0.060253,-0.0199777,-0.0963254,-0.032143,0.0215445,0.037354,-0.00599808,0.00768805,-0.022501,-0.053993,0.0529536,-0.0107796,-0.00383533,-0.0113161,0.0200273,-0.033752,0.0355603,-0.0253338,-0.0316012,0.00964949,-0.0106395,0.106072,0.122741,-0.00943911,0.0548143,-0.046531,0.00726225,0.0893187,-0.0499373,0.0275929,0.0669368,0.0432325,-0.0678233,0.0309293,0.0376824,-0.040202,0.0193586,0.0456177,-0.0543793,-0.0226009,-0.0420767,0.0774604,0.038621,0.00871606,0.0331075,-0.0331288,0.0283224,-0.0512654,-0.0141222,-0.0663549,-0.073615,0.138504,0.155853,0.0040564,0.0465373,-0.0377003,0.0401442,0.0549797,0.0226003,-0.00633267,0.0939559,-0.0115838,0.0361349,0.0672227,-0.00372587,0.0410671,0.0264853,0.0134749,0.0451253,0.0838654,-0.0233048,-0.0103167,-0.0445734,0.026773,-0.0242982,0.0104155,-0.0256907,-0.00440769,0.0139962,-0.025625,-0.0393774,0.136577,0.0605863,0.0135954,-0.0141803,0.0474025,-0.011727,-0.0475226,-0.064642,0.0156943,-0.0328815,0.0225847,0.00829534,-0.00672644,0.0203611,-0.0105264,0.0260316,-0.0153858,0.00199288,0.00245274,-0.0309074,0.00924921,-0.0347019,0.0203744,0.017141,0.0360683,0.0363326,0.00630424,-0.0474049,-0.00807208,0.0245375,0.124514,0.108503,0.0106857,-0.0201882,-0.00723849,0.0881952,-0.0238058,0.0801076,0.0626663,-0.056573,-0.0107645,-0.00633435,0.050859,-0.0606486,-0.0231005,0.000647011,-0.0508815,0.0290608,-0.0711721,-0.0321273,-0.0252817,0.0398091,-0.0466229,0.0347471,0.0338452,0.0816477,0.00722569,-0.017168,0.0385027,-0.028569,0.0777913,0.0824935,-0.0500845,-0.00881963,0.00906848,0.0118999,-0.0815651,0.0431399,-0.0367228,0.00210705,0.0291235,-0.0673272,0.0131185,-0.00651074,-0.0178357,0.0599608,0.0628175,0.0143285,0.0871335,-0.0286095,-0.0106028,0.011261,-0.0803197,0.0672209,0.00295267,-0.026564,-0.0970537,-0.0013216,-0.0692742,-0.0672927,0.0523075,-0.00866941,0.0519947,0.0114764,-0.0202812,-0.014283,-0.0327345,-0.00207334,-0.0700544,-0.0279257,0.00832194,0.00496493,-0.0247863,-0.018566,0.0417383,-0.0107123,0.00958033,-0.00397853,0.0107299,0.0510247,0.0454671,-0.0729595,0.0755103,0.0246097,-0.0401445,0.000228963,0.0288535,0.00266355,0.0207736,-0.0235968,0.0763689,0.0583792,-0.0282939,0.0302464,-0.0505447,0.0706623,-0.0317772,0.0181624,-0.0395327,-0.0338993,-0.141628,0.0094909,-0.0574738,0.0220271,0.0109064,-0.0302559,0.0438413,0.00833606,0.00197631,-0.0191226,0.0386998,0.00187671,0.0531907,-0.0183975,0.0755206,-0.00903649,0.014623,0.0378681,0.0798654,0.0469954,-0.00226794,0.00761758,0.0550209,0.00882613,-0.0595112,-0.0744136,-0.0461955,-0.0388129,0.0238791,-0.00623651,0.0178665,-0.0575742,0.0260455,0.0618723,-0.0666215,0.0095608,-0.0168303,0.0509012,0.0234325,0.0583586,0.015236,0.0483886,-0.0199508,-0.0721421,0.0232194,-0.0341892,-0.0546165,0.0549396,-0.0468282,0.0217522,0.0454701,0.037665,0.0218065,0.00976252,0.0058471,-0.0333071,0.0174884,-0.0244774,0.047179,0.0235901,0.023761,-0.0300109,0.0289281,0.0218545,-0.0149054,-0.0621124,0.0330451,0.0460467,0.0297175,-0.0657559,0.0424772,-0.00833265,-0.0345247,-0.0691452,0.0345962,0.0374753,-0.0430373,0.0317631,-0.00916184,0.0513685,0.00916678],
			"b":0.273766
		},
		"neuron 4": {
			"w": [-0.000728394,-0.0305917,0.00452926,0.0512872,0.0378626,-0.0204585,0.0010672,-0.0268917,0.0903408,0.027518,-0.00703342,-0.0220277,-0.0952801,-0.0578334,-0.0104952,0.0598664,-0.0189761,0.0899362,0.0344098,0.010036,0.0252154,0.0370944,-0.0127685,-0.0229998,0.0438901,0.0272813,0.0263393,0.00763487,0.0677461,0.0747846,-0.0863316,0.0240555,0.00759187,0.0333406,-0.0458684,0.071599,0.0435237,-0.0076336,-0.0243638,0.0145252,-0.0434601,-0.078747,0.00546766,0.0113432,0.0640832,0.0366924,-0.0198248,0.0136183,-0.0258518,0.0531542,-0.0610788,-0.0121632,0.0110203,0.0147054,-0.0545985,0.067495,-0.032448,0.0559553,0.0235735,0.0209355,-0.028051,-0.0313497,0.0279653,0.00163439,7.3137e-06,0.0171733,-0.0264524,0.0670009,0.01818,-0.0350331,-0.0161481,0.0134059,0.023289,-0.0667838,0.00603046,0.00978392,0.00881074,-0.0540918,-0.0613417,-0.0154043,-0.0325109,-0.0627335,-0.00403711,0.0343756,0.0651519,-0.0393665,-0.00580902,0.0276214,0.0398064,0.00667726,0.14692,0.0222769,0.0443232,0.0207597,0.0844894,-0.012347,0.00458724,0.0134486,0.0692631,-0.00605937,-0.00463446,0.0430596,0.0211376,0.0104893,-0.0580155,0.0224031,0.0296739,0.0491717,-0.0380044,-0.0307089,-0.00764264,-0.00992223,0.0340931,0.0108463,-0.0732523,-0.0509708,0.0116297,0.0300775,-0.0499321,-0.0316473,0.0695856,-0.0241442,0.0141436,-0.0414409,0.00649103,-0.0177293,0.0211622,0.0156474,0.0060049,0.00435193,0.0341707,0.0063682,-0.0288022,-0.0634308,0.0539137,0.0239188,0.0283737,0.00800194,-0.00909245,0.0635216,0.057114,-0.00563227,0.0196719,0.00575235,-0.0293567,-0.0196617,-0.0279443,-0.0411168,0.0118937,0.041848,-0.0260631,-0.0719796,0.0874263,0.0227872,0.0283469,0.0303578,-0.0285428,0.0664174,-0.00488444,0.0219641,0.010886,-0.0264359,-0.0763714,0.00781775,-0.0225195,0.0267844,-0.0513492,0.0451647,-0.0459341,0.0368429,-0.069049,0.0615757,0.0518502,0.00559278,0.0952335,-0.0531788,0.0258276,-0.0175009,0.00222014,0.115332,0.017904,-0.0499525,-0.0067096,-0.0151715,0.0155876,-0.0198146,-0.0621008,0.0377203,-0.00886217,0.0298943,-0.0216914,-0.0275223,0.0527166,-0.00537182,0.0522042,0.0804082,-0.0265174,-0.0287696,0.0608993,-0.0186572,0.0559604,-0.0346535,0.0270101,0.0182909,-0.0699851,-0.0806802,0.0701454,0.0148009,0.018042,0.120603,0.074881,-0.0614593,-0.00909271,-0.069127,-0.0354419,0.00906014,0.0106739,-0.0134888,0.00380165,0.0390616,-0.0368047,0.021235,0.0741508,-0.00174699,0.02059,0.0615007,-0.00924065,0.0029275,-0.101832,0.0159027,-0.0130244,-0.00119352,-0.00181952,-0.0258833,0.0140517,-0.0334254,0.0348844,-0.01996,0.008574,0.10686,0.0906088,-0.0513156,-0.0104597,-0.0321151,0.0581367,0.0370093,0.0128143,-0.0560257,0.0129299,-0.0366971,-0.0293315,-0.00907681,0.0774631,-0.0269759,-0.0336924,-0.0151091,0.0149003,0.00813463,-0.026031,-0.0397798,0.0949332,0.0269578,-0.0248345,0.0586286,0.0275872,-0.0333055,0.00964916,0.00254732,-0.00426253,0.0739347,0.100384,0.0160221,-0.0213857,-0.0143374,0.0438832,-0.00451059,-0.00179299,-0.0432499,-0.021239,-0.00658075,-0.0306789,0.0971774,-0.0310078,0.0315905,0.00647601,0.00338657,-0.065523,0.0155628,-0.00047755,-0.0159782,0.0096988,0.0310698,-0.0220168,-0.0957643,0.00976023,0.0499826,-0.0280317,-0.0446408,-0.0263391,0.0678794,0.0894844,-0.0440511,-0.068891,-0.0154783,-0.0410227,-0.0205096,-0.0215956,-0.0387328,0.00263096,-0.0294904,0.00491536,0.0159202,0.0659328,0.0032204,-0.0368812,0.0740618,0.0207655,0.0236952,-0.0240643,0.0195427,0.0235814,0.0410069,0.0556142,-0.0841773,-0.0168951,0.0247681,0.0128489,-0.0601173,0.0704115,0.0653516,0.0979308,0.0266097,-0.0341074,-0.0116404,0.0263073,0.04931,0.0691757,-0.0779831,0.0326548,0.0592839,-0.0338994,-0.0156564,0.0078556,-0.0137827,0.0425254,-0.0596861,0.0325769,-0.00489482,0.0392951,-0.00167569,-0.0246924,0.0190775,0.00202384,0.0378844,-0.0249307,0.0463624,0.0214456,-0.0136314,-0.0592112,0.115239,-0.00901973,0.0538642,0.0839157,0.0233519,0.0341868,-0.00210692,-0.0578672,0.0187428,-0.0588217,0.113537,0.00850415,0.0291233,0.00488353,-0.0109636,-0.0741544,0.0102884,0.00454587,-0.00219686,0.0240368,0.0309122,0.0216118,0.0277603,-0.02146,0.0214828,-0.027819,0.0399259,-0.0222957,0.0136551,0.032625,0.117284,-0.0249378,-0.0160434,-0.00521174,0.0132831,0.0618494,0.0234852,0.0477005,0.115945,-0.0208249,0.0256713,0.0458024,0.00376095,0.0141074,-0.0365539,0.00351983,0.0903049,-0.0765587,-0.0575611,0.0213874,-0.0033205,-0.000500322,-0.0402682,0.0483657,0.0745179,0.00636746,-0.0565849,0.0284097,0.0173849,0.0100225,-0.0442538,0.0704265,0.0551557,0.0396159,0.032697,0.019563,0.00525972,-0.0186169,-0.01551,-0.055836,-0.0190086,0.0529903,-0.0484351,-0.00967817,0.0340297,-0.0812416,-0.0457841,-1.36403e-05,-0.0402569,0.00418737,-0.0783063,-0.0229673,-0.00532858,0.0735067,0.0135189,0.0489026,-0.0394966,0.00716892,0.0251772,0.00501716,0.0543509,-0.00646963,-0.0224372,0.0348913,0.0321362,0.0206912,0.0553653,0.0252214,-0.0235756,-0.00496388,0.0465778,-0.0547203,-0.000869219,-0.0363302,0.00939479,0.0356852,0.0126572,0.0812828,-0.011381,-0.0357427,-0.0489388,0.0234609,0.0434436,-8.72765e-05,0.0132783,0.0270391,-0.101251,-0.00702016,0.0950452,0.0428196,-0.0602388,0.00721551,0.0183059,0.0539969,-0.00469623,0.012269,0.0511807,-0.037701,-0.0317751,-0.0258804,0.0221816,-0.0217749,-0.0224391,-0.0612994,-0.0113749,0.0182016,-0.0188151,-0.00442915,-0.00489728,0.0486943,0.0204492,0.00769704,0.0119925,0.0376861,0.051822,0.0224983,-0.0217872,-0.0510437,0.0464539,0.0402264,-0.0306496,0.0229314,-0.0405981,-0.00208201,0.0345614,-0.00669649,0.0226268,-0.0893528,0.0585847,0.0140245,-0.0122178,-0.052257,0.0164867,-0.0529713,0.0121331,-0.0180781,-0.0563522,0.0595667,-0.0190795,-0.0144354,-0.0738593,-0.0408245,0.00806779,0.027208,-0.0623807,-0.0363399,-0.0173054,-0.00653927,0.0725094,-0.0113165,0.00454839,0.0572701,0.0322657,-0.0304545,-0.0758433,0.0252792,-0.0711801,0.0166461,0.0694701,0.0478517,-0.0065529,-0.0243317,-0.0644779,0.0253621,0.103164,-0.0178257,0.0276535,0.0389755,0.040755,0.0484479,-0.0828044,-0.00367397,0.0863171,0.0272458,0.0263245,-0.0154414,0.0215485,0.00999309,-0.02288,-0.0116286,0.0637589,0.0542426,0.0587929,0.0526838,0.0332667,-0.00863922,-0.0055684,-0.082156,-0.0609736,-0.0326057,0.0151507,0.0210348,0.0457614,-0.0143535,0.0036181,-0.0573451,0.0285296,0.0128266,0.00652337,-0.00380362,0.0369547,0.0309064,0.0568225,-0.0896146,-0.0537194,-0.0285051,-0.0348924,-0.0392854,0.105098,0.0561882,-0.0305413],
			"b":0.168819
		},
		"neuron 5": {
			"w": [-0.065823,-0.0205105,-0.019311,-0.0231535,0.009793,-0.00747568,0.00843817,0.00213358,-0.00379156,0.00497504,0.0377104,0.000583097,-0.0279062,-0.0116978,-0.0246824,0.0208012,-0.0154823,-0.0577441,0.0141145,-0.021595,-0.0371042,0.0563626,-0.0548044,-0.0083029,-0.0166807,-0.0379178,0.0135302,0.0160323,0.0309334,-0.0691702,-0.0829196,0.0258888,-0.0412794,-0.00701495,-0.0129451,0.031457,-0.000215914,0.0254075,0.0400297,0.0428124,0.0508131,0.00208562,-0.0556726,-0.00962713,0.0161561,0.0121658,-0.00385889,-0.0280379,0.00477818,0.0114466,0.0384076,0.000981524,-0.0664722,-0.0113758,0.00739615,0.0173437,-0.02518,-0.0117981,-0.107665,0.0342142,-0.0151058,-3.87587e-05,0.044857,0.00919158,-0.0169108,0.0782541,0.0527658,-0.0792243,0.00878831,0.0634434,0.0351608,0.0476109,0.0136246,-0.00149038,0.01122,0.0893534,-0.0612261,-0.0525806,-0.0428415,-0.00453232,-0.0559411,-0.00933018,-0.0187714,0.003276,-0.0870031,0.0269857,-0.0224794,0.0602354,0.0022631,0.0214194,0.00887008,0.08324,-0.00366762,0.0289443,0.00352831,0.00799625,0.0171056,0.0293432,0.0152125,0.0524227,0.008474,-0.010055,-0.0326441,0.0816693,0.00454897,-0.0405176,0.0307132,-0.0421968,0.0331068,0.00761636,0.0302595,0.0729352,-0.0623224,-0.106034,6.40349e-05,0.0641776,-0.0338763,-0.00994243,0.0238653,-0.0134196,0.0492278,-0.0270532,0.0436675,0.00581139,0.0168147,0.0280226,0.0561966,-0.0797396,0.00780182,-0.0329319,-0.0317255,0.016139,-0.0438565,0.0575075,0.0734797,0.0166729,0.0579261,0.0467809,0.0386229,-0.0595087,0.0461164,0.049873,0.0539404,0.0155583,0.034725,0.037473,-0.0139578,0.037697,0.00372749,0.0353468,0.00766249,-0.0819175,0.0497319,0.0148738,0.0206287,0.0198552,0.0137657,0.0480768,-0.0232003,0.0145302,-0.0302412,-0.026342,0.00514654,-0.00693075,0.0121779,0.0592582,0.0439922,0.0239509,0.00676852,0.0397045,0.0504397,-0.0321349,-0.0836796,0.0252843,0.000229977,0.0297208,-0.00697718,-0.00970918,0.0434126,0.118675,0.0784073,-0.0441573,-0.105884,-0.00948392,-0.0705717,0.00225074,-0.0325454,-0.0294774,0.0214388,0.0633976,-0.0398019,-0.00358068,0.00531024,-0.0202063,-0.0315635,-0.0185343,0.0483518,-0.0563451,-0.0788051,0.0400066,-0.0762125,-0.000429,-0.0625141,-6.04513e-05,0.0022362,-0.0201051,-0.0142211,-0.0129509,-0.0465477,0.0459583,-0.0132506,-0.0542979,-0.0115955,0.0596298,0.0173053,-0.0529124,0.0110588,-0.00408388,-0.0104597,0.0927798,-0.0382101,0.0159121,0.00707372,0.0530546,-0.0332244,-0.0295636,-0.00510816,0.0558411,-0.0457544,-0.0306485,0.0270779,0.00834914,0.0405025,0.0141104,0.0792716,-0.0249742,-0.0114833,0.0288798,0.0420701,0.101151,0.155906,-0.0237501,0.0839032,0.0202632,-0.00601548,0.0189121,0.0277103,-0.0512745,0.00963616,0.0551016,-0.00902283,-0.0526878,0.00988065,-0.0109257,0.0176573,0.0452076,-0.00629715,-0.040189,-0.0578449,0.011773,0.0063295,-0.0485684,0.0475278,0.0147721,0.052267,-0.0130179,-0.00729763,0.0302384,-0.0505893,0.0475913,0.213978,-0.0139681,0.00377653,0.0629083,-0.029555,0.0112502,-0.0436002,0.0304252,0.06783,0.00619251,0.062179,0.0431338,-0.0693372,0.0185333,-0.0657026,0.048505,0.0138393,0.0431692,0.0335391,-0.0160485,0.00357387,0.0522534,0.0589108,0.0341457,-0.0131863,0.0586115,0.00508845,0.00347998,-0.00114029,0.0914521,0.163462,-0.0425786,0.0362137,-0.0555371,0.00749635,-0.0285666,0.016942,0.025411,0.0308294,0.0601027,0.0378759,0.0157279,0.0148924,0.0373562,0.0151532,0.0377286,0.00629071,0.0186481,-0.00867856,0.030964,-0.0641759,0.00599462,0.0166533,0.0236082,0.00487167,-0.00812182,0.00615255,-0.0231513,-0.0317708,0.032966,0.192755,-0.0843299,0.0354,0.000832994,0.00034542,-0.00547584,-0.0509571,0.0219457,0.0541335,-0.0593008,0.0101775,0.0398583,-0.028974,0.0516015,0.0334268,-0.0268843,0.0466928,-0.017574,-0.0517224,-0.0138161,0.00752444,-0.0659327,-0.00212343,0.0353879,-0.0143481,0.00966386,-0.05177,-0.00458693,-0.000772631,0.0853535,0.179994,0.00150403,0.0297201,-0.05002,-0.0576252,-0.0567539,-0.0202157,0.00214711,-0.0473039,0.0248842,0.023058,0.00903903,0.0143117,-0.0996072,-0.0222094,-0.0399442,0.0135308,0.00160897,-0.00196136,-0.0283699,-0.0385932,0.00360939,0.0270489,-0.0381636,0.0824565,0.0680571,0.0428843,-0.0377903,-0.0134214,0.0843296,0.0392435,0.0431053,0.0114109,-0.0337512,0.0162151,0.000319848,0.0327225,0.0149806,0.0122349,-0.0339032,-0.0590374,-0.0277703,-0.0120484,0.0512357,0.0222663,-0.0420467,-0.103613,0.0116392,0.0324351,0.0402323,-0.00203118,-0.0367889,0.0106431,-0.0281099,0.0395156,-0.0193523,0.0229349,-0.0654861,0.00385533,0.140622,0.0339542,-0.0535587,-0.0253028,0.00677495,-0.00353188,-0.00769606,-0.0264174,0.00653693,-0.021934,-0.0249529,0.0397226,0.0399236,-0.052368,-0.0358514,-0.0833623,0.0222211,-0.032043,-0.0165262,0.0138796,0.0385896,-0.065096,0.052483,-0.0147035,-0.0133956,-0.0109542,-0.0127012,-0.00492022,-0.0186128,-0.00380784,0.115738,0.0865332,-0.0648513,-0.0404693,0.0443371,0.044874,-0.00760292,-0.0377164,0.0327817,0.0443506,-0.0105611,0.00719648,-0.0122897,-0.030265,-0.0325593,0.0400471,0.0368589,0.0576461,0.047176,0.0100838,-0.0721074,0.0471502,-0.0232595,0.0211945,0.0410259,-0.0499315,-0.00663614,0.00687617,-0.00832589,0.00584369,0.089793,0.0457936,-0.0113161,0.0482812,-0.0282772,-0.00829846,-0.0560281,-0.000972567,-0.00173166,0.0713555,-0.0215721,-0.018701,0.0292298,-0.0275667,-0.0449085,0.00804527,0.00105499,-0.0340225,0.0187611,0.0156296,0.0684962,0.0460344,-0.0338103,0.0224036,0.00473508,-0.0125099,0.041241,0.00858793,-0.0208582,0.0173612,0.105383,0.0306372,-0.0382859,-0.0341648,-0.0064812,-0.0135943,0.00947375,0.0036229,-0.0217249,0.0107373,0.0346289,-0.0112477,0.0230045,-0.0328377,-0.00265466,0.0496774,-0.000668088,0.0606814,0.0136271,-0.0451326,0.0170884,0.00409304,0.0351526,0.0547815,0.0558231,-0.00690344,0.0387339,0.0266392,-0.0978526,-0.0474311,0.00319888,0.0992915,0.0496554,-0.0042818,0.0525351,0.0197694,0.00594837,-0.0133141,0.0309713,0.0612932,-0.0318131,-0.0132634,0.0335534,-0.011067,0.0195128,-0.00189625,0.0403732,-0.0300928,0.0152552,-0.0045687,-0.0174294,-0.0896924,0.0232302,-0.0175358,0.0112683,-0.0354841,0.0291585,-0.0521034,-0.0192201,-0.034357,-0.0405192,0.0411665,0.0305362,-0.0474073,0.0224895,0.0176728,0.0383032,0.0157982,-0.00726531,-0.0400775,-0.0274785,0.00617809,0.0266395,0.0180748,-0.0625732,-0.0551775,0.0563525,-0.0850403,0.0656976,-0.032298,-0.0245318,-0.00314263,0.0663235,-0.0239254,-0.0348762,0.0313395,0.0493376,0.0611882,0.0315769,-0.0659713,0.0298385],
			"b":0.247865
		},
		"neuron 6": {
			"w": [-0.00154941,-0.0394866,0.0489933,0.0163212,-0.0102205,0.0190342,0.0609213,-0.011812,0.0149618,-0.00936655,-0.0515121,0.0444302,-0.0759415,0.055882,-0.0432931,0.0311481,-0.0297071,-0.0333935,-0.00147778,0.0468905,-0.00348247,0.0171056,-0.0394782,-0.00519577,-0.0508006,-0.0183392,0.00153594,0.00436733,-0.0102467,0.0182443,0.0569943,-0.0173811,0.00843454,0.0188313,-0.00904717,0.0117058,-0.0320912,-0.00568737,0.0516655,0.0212621,0.00724604,0.0333758,-0.0211289,0.0383795,-0.0483821,0.0395928,0.00315522,-0.0218014,-0.0188819,-0.0281593,-0.0366792,-0.0213461,-0.0567136,-0.04915,0.00391992,-0.0291205,-0.0262903,-0.00290831,-0.00602506,-0.0879201,0.0111607,0.00407025,0.0358642,-0.00701297,-0.0207655,-0.014303,0.00598314,-0.00613583,-0.0723691,0.032563,-0.0393719,0.05104,-0.0578535,0.00752671,-0.0141668,0.000182296,0.0409048,-0.00908295,0.0452649,0.015028,0.0500408,-0.00628254,0.0196714,0.0239273,0.007988,-0.0482369,0.0892748,0.0297022,0.00311147,0.0588742,0.0280746,-0.0189467,0.108876,-0.0348811,0.0144195,0.0165517,-0.0125556,-0.0218903,-0.0208392,0.0606693,-0.00179177,-0.0354967,-0.0507562,0.0111144,-0.0268603,0.047333,0.0144718,0.00275124,0.0262407,0.0543475,0.038067,-0.0758068,-0.00709849,0.0214014,0.00859267,0.00974882,-0.00434443,-0.00369345,0.011028,0.0248364,0.0649731,0.00147657,-0.0209891,-0.0242834,-0.0325583,0.0720591,0.05869,-0.0334262,0.0698141,-0.103323,-0.00405232,0.0153918,-0.000795336,-0.0284109,-0.0180138,-0.0164423,0.0298915,0.0302552,0.0190225,0.0571244,0.0208019,-0.0366753,0.0418888,0.0198668,0.0407522,0.0556694,0.0374573,0.0227002,0.0743705,-0.013226,0.0508705,0.0724882,0.0245177,0.0366089,0.0697711,-0.00236185,-0.00235752,-0.054066,0.0531808,-0.0144845,-0.00482188,-0.0241323,-0.0432383,0.0355965,-0.00902451,-0.0296646,-0.0160007,0.0268067,0.0125778,0.0778133,0.0106953,-0.0341972,0.0445888,-0.0913412,-0.0144791,0.0134276,-0.0257339,0.0147458,0.0079376,-0.00170925,0.00130863,0.0207081,0.0885544,0.0148968,-0.0614352,0.00959204,0.0460885,-0.027689,-0.0275552,0.0273777,-0.0267448,-0.00512663,-0.0216964,-0.0464304,0.00719473,-0.00210133,-0.0433737,-0.00634543,0.0441873,0.0535073,-0.046346,-0.0494508,-0.0343536,-0.0405235,0.0247167,0.0317188,-0.0520055,-0.00159566,-0.0456968,0.0262123,-0.0127831,0.0276711,-0.0271397,-0.00616323,-0.0274926,-0.0260108,0.10593,0.0852373,-0.0143516,0.0488463,-0.0673743,0.037095,-0.0141272,-0.0684399,-0.0708146,-0.0183425,0.0303435,-0.0099657,-0.116257,0.0220615,0.0160174,0.0115593,-0.0260295,0.0445776,-0.0264652,-0.00890292,0.00466014,0.00899902,0.0412239,0.00264875,0.11907,0.00383419,-0.0266272,-0.0358783,0.0560366,-0.0366563,-0.0580598,-0.040161,0.0239969,-0.0554634,-0.00290731,-0.0544149,0.00285303,-0.0269318,-0.056695,-0.0269042,-0.0348128,0.0482465,0.00946429,0.0202604,0.0190898,-0.13921,-0.0126678,-0.00163796,-0.00342142,-0.0248157,-0.0309601,0.0390259,0.0341995,0.0539784,0.0734562,-0.0912612,0.0146684,-0.00409991,-0.0536818,-0.0124717,-0.0613212,0.111691,0.00828711,0.0110933,-0.00613461,-0.0228936,0.0109731,0.0155847,0.0750294,-0.0286026,-0.0832339,-0.0426344,0.0207505,0.020765,0.0395803,-0.0156155,0.0121985,-0.0243214,-0.0244187,0.0502936,0.0893431,0.0433227,0.0296952,0.114048,0.0919046,-0.063053,0.0326944,-0.0357177,-0.0181062,-0.0211892,0.0186288,0.0325882,-0.0278409,0.029301,0.0216643,-0.00476695,-0.0620335,-0.0426388,0.0631431,1.12808e-05,-0.00232753,0.00108368,0.00493784,0.00912806,-0.0101408,0.00604249,0.0642221,-0.0356588,0.0881144,0.0322557,3.83808e-05,-0.00445757,-0.0123158,0.0948055,0.0810071,0.0383701,-0.0722102,-0.024461,-0.00249209,-0.0458827,0.0645723,-0.073796,-0.0559094,-0.0228138,0.00727329,-0.0134649,0.00221444,-0.0288283,0.0406079,0.0824482,-0.0266717,-0.004074,-0.0240179,0.00524662,-0.0603977,0.0121801,-0.0164962,0.0576675,0.0171716,0.0137463,-0.0538934,0.0374117,-0.0159289,0.0340726,0.0649272,-0.0228778,0.0203181,-0.0287857,-0.0351505,-0.0520572,-0.041364,0.0269331,-0.0642467,0.0515141,-0.0386072,0.0833903,-0.00898387,-0.021838,0.00262429,0.0733164,-0.0673264,0.0257404,0.0237285,0.0085807,-0.0661764,-0.0500776,-0.0161382,0.00687305,0.0424968,-0.0249266,0.0143527,-0.0826112,-0.00412248,0.0656083,0.0529608,-0.0477174,0.00650304,0.0321673,-0.0220104,0.055557,-0.0180689,-0.0987082,-0.0215656,-0.011789,-0.0486622,-0.0136034,0.0281562,-0.0173718,-0.00728109,0.00433568,-0.0332416,0.00448607,0.0214066,-0.0110196,0.0148413,0.0627262,-0.0462673,0.00878246,0.0322751,0.0731947,0.0125507,-0.00789304,0.0133638,-0.0102288,0.0464148,-0.0298196,-0.0341475,-0.0441925,0.0141514,-0.0252744,0.0429846,-0.0273737,0.0659482,-0.00747576,0.0528073,-0.0413139,-0.0414896,0.0847864,-0.166654,-0.0196422,-0.0532724,-0.0241918,0.0062524,0.00271846,-0.0152083,-0.0395657,-0.0391581,0.00514014,0.0645686,-0.0777888,0.0865976,-0.0105653,-0.0135916,0.0521147,-0.0307442,0.0420544,-0.0453698,0.0252088,0.0155298,-0.0132421,-0.0148026,0.0300842,0.0198579,-0.00141602,-0.0570327,0.0553637,-0.00690332,-0.00346602,-0.0155441,0.00801527,-0.00394312,0.0174023,0.0382064,0.0419859,-0.0383961,0.0313628,-0.000352515,0.0300352,0.0252024,0.0765954,-0.0123622,-0.0156213,0.0495304,0.105488,0.0355877,0.00992522,-0.00466941,-0.0353461,0.0542982,0.0276386,-0.00868357,0.00181118,0.0117558,-0.0270352,0.0906788,-0.0453994,-0.0505276,0.0106083,0.0100285,-0.020771,-0.008152,-0.0892739,-0.0236513,0.095682,0.0171369,-0.0425159,0.0413103,0.0473151,-0.0357578,-0.0255596,-0.0535197,-0.0189375,-0.0415963,-0.0184379,0.0889567,0.00643307,-0.0250531,0.0236039,-0.0777936,-0.0136902,0.00624092,0.0629867,-0.0501044,-0.0198287,-0.0668588,0.0368662,0.0380722,-0.0315077,0.0336668,0.0243397,0.0168112,-0.0157192,0.0113677,0.0333312,-0.00618543,-0.00769162,0.0281252,0.00769725,0.0254784,-0.0195318,0.0197114,0.0511332,-0.059753,0.0276889,0.0141609,0.0350855,0.0334806,-0.0450712,0.0604752,0.00657202,-0.00952192,-0.00378366,0.00307711,0.037513,0.0519743,0.0390173,-0.0393804,0.0143442,0.0483164,0.0239288,-0.000758191,-0.0112047,0.048223,0.0620176,-0.0451914,0.020617,-0.029326,0.0141674,-0.0645212,-0.0292728,0.0601558,0.0105665,-0.0412343,0.0383363,0.0443399,0.0264514,-0.00772653,0.0104095,0.0277229,0.0103588,0.00786804,0.0416965,-0.036484,0.00877649,0.10789,-0.0245269,-0.00470558,0.0481604,-0.0258554,0.0637944,0.0136058,0.0487136,-0.0217289,-0.0287053,-0.0435484,0.058306,-0.0359993,-0.0217658,0.00577924,-0.0465659,0.052109,-0.0394832,0.0587036,0.0325083],
			"b":0.174237
		},
		"neuron 7": {
			"w": [-0.0151331,0.0694092,0.0590747,0.0554063,-0.0438344,-0.0322658,-0.0206117,-0.0502617,0.0331616,-0.0478156,0.0851794,0.0594693,-0.015334,-0.031468,0.00703221,-0.00916302,0.0725031,-0.0391995,0.0286364,-0.0116942,-0.0297078,0.0457667,-0.0272667,0.0951476,-0.00982535,-0.0609544,0.0479207,-0.0365806,-0.0589258,0.087445,0.00144007,0.0108439,-0.0413668,0.00176647,-0.0148501,-0.021027,0.00770432,0.0418331,-0.00295086,0.0526847,0.0151595,-0.0671965,0.022249,-0.106347,0.0175287,0.0189271,-0.00900452,0.0273309,0.135446,-0.0295207,-0.037059,0.0413777,-0.0168122,0.0685091,0.00027534,0.100092,0.0507306,0.110983,-0.0180586,-0.0155668,0.0543021,-0.0214442,-0.0147124,0.0173141,0.0337581,0.023663,0.0439216,-0.0462922,0.0704797,-0.0390517,0.0849149,0.00990947,0.0129294,-0.0406615,-0.0791218,0.000337192,0.0463195,-0.0187788,-0.00289866,-0.00375619,0.0206819,0.0269808,-0.0332476,0.111451,-0.0151741,-0.0116625,0.00798321,-0.00645485,-0.0110465,0.00626264,-0.0504428,-0.017332,-0.0250685,0.00848676,0.0209161,-0.0592054,0.0562249,-0.00665159,-0.0330686,-0.0163112,-0.0118232,0.0513807,0.0243207,0.00114343,0.0656048,0.0589026,0.0349197,-0.00725155,0.0297269,-0.00371396,0.0290006,-0.0112225,0.00716849,0.0139219,-0.0369463,-0.00721499,0.0195037,-0.0172947,0.048852,0.0461207,0.107415,-0.0430422,-0.0209936,-0.0399751,0.0115373,-0.00990848,0.0181039,0.0130097,-0.040325,-0.0124393,-0.00822716,-0.0164537,0.00895208,-0.0264148,0.0313707,0.0330451,0.0314172,0.0405639,-0.0538326,0.0318922,0.0297902,-0.061905,0.00898639,-0.0806739,0.0272216,0.0318857,0.0132467,0.0269803,-0.0139211,0.0230343,0.0781221,-0.0213073,-0.0472062,0.020964,-0.00545936,0.0869973,-0.0168188,0.0225486,0.0183016,-0.0607595,0.0500392,0.0328081,-0.048939,0.02382,0.0395898,-0.00936683,0.0120259,-0.0255707,-0.0293101,-0.0165147,0.00199505,-0.00843953,0.0272511,0.00498317,0.0309673,0.0667116,-0.0780271,0.0177337,0.0370125,0.080415,0.0746006,-0.00525903,-0.00856543,-0.128267,-0.010957,0.00568059,-0.0232629,-0.0285634,-0.0148014,0.0665117,0.0175636,-0.0192839,0.00983826,-0.0139568,0.0625233,0.0277047,0.000265274,-0.0136572,-0.107027,-0.0439883,-0.0168932,-0.00311392,-0.0248199,0.00938112,-0.00781707,0.0474678,0.00467074,0.0351873,0.0556759,0.0929637,0.087184,-0.0321549,-0.00617328,0.00372974,0.0449553,-0.0165054,0.000327114,0.0101575,0.026586,-0.0540005,0.0131683,-0.0143912,-0.00759075,-0.0256898,-0.0142245,-0.0309664,0.00342145,-0.0616395,0.0221551,-0.105112,0.0362982,0.0296344,0.0224397,-0.0106029,0.0623175,0.0239621,-0.036803,0.00830292,-0.0246994,0.0428249,0.115931,0.0458744,-0.0383402,0.0740117,0.0353964,0.0010036,-0.0353525,-0.0626199,-0.0148305,0.0443969,0.0174637,-0.0315679,-0.00326991,0.0285192,0.034764,0.055958,-0.0235294,0.0971192,0.0183024,0.00586874,0.0509692,0.0276208,0.00448422,0.00354833,0.0566047,-0.0378495,-0.0598539,0.0995181,-0.0737179,0.148823,0.171478,0.0626321,-0.0392448,-0.0541917,-0.032471,0.0962911,0.0436129,0.0133989,-0.0105124,-0.00192895,0.0342262,-0.0381876,-0.0119253,0.0560168,0.015626,-0.0346206,0.0154287,0.0873676,0.0122734,-0.0122978,-0.0040403,-0.0622023,0.0213276,-0.0341902,-0.0209679,0.00510667,0.0072389,-0.00117169,-0.0571185,0.0330382,0.157968,0.12285,0.0312543,0.0115746,-0.0477453,0.0303458,0.0065503,-0.0359454,-0.0558028,0.00588349,-0.00303935,0.028669,0.02541,-0.0189103,-0.044614,-0.0181791,-0.062556,0.0274987,-0.00105587,0.0619366,0.0296979,0.0566859,0.076906,0.0136681,-0.0441569,0.00154813,-0.0693975,-0.0361906,-0.0257745,0.0560208,0.179808,0.0608143,-0.0369536,-0.000430331,-0.043985,-0.000861408,0.083719,0.0430774,-0.0177188,-0.0361289,-0.0342652,-0.00857308,-0.00300735,0.0229495,0.00565814,0.0186617,0.0152343,-0.00367196,-0.00277652,-0.0250602,0.0812283,0.0239326,-0.0396432,-0.013426,0.0698923,-0.045902,0.0255417,0.043088,-0.0130627,0.125407,0.107091,-0.035164,-0.0268362,0.00294425,-0.0284511,0.0475888,0.0542774,0.0480964,0.00437248,0.0389293,-0.025087,-0.0549531,-0.0614007,-0.0290771,-0.0135127,0.0473747,0.0605727,-0.0279675,0.0191578,0.0023424,0.0227697,0.0389167,-0.0430179,-0.0571629,-0.0416494,0.0208196,-0.0300657,0.0318742,0.00122708,0.150181,0.0556418,-0.0559221,0.0198797,-0.114019,0.00675626,0.0269209,0.0745074,-0.0957175,-0.0117626,-0.129771,-0.0418771,0.0474375,-0.00308039,-0.0444908,-0.0651802,-0.0174678,-0.00178249,-0.0113894,0.0440329,0.0195431,0.0736663,0.0293348,0.0399507,-0.00500445,-0.016809,-0.0351935,-0.000836393,-0.00675556,-0.0210879,0.13795,0.0665689,-0.0224288,0.0768753,-0.0608674,0.0159294,-0.083071,-0.0252254,-0.0292292,0.0205184,0.0247978,0.0671211,-0.0720026,0.0312606,0.0606649,0.111187,-0.0395411,-0.00606994,0.0276779,-0.0105623,0.00862892,-0.0179871,-0.0109143,0.0178331,-0.0482703,-0.0117173,-0.0525223,0.042428,0.0138059,0.0411142,0.00885635,0.00100773,0.06348,0.0218446,0.000294895,0.0543697,0.00843073,0.0207147,0.0125548,0.0488866,0.00944322,-0.0591021,0.0893391,-0.0382092,-0.0354707,0.0180476,0.0293071,-0.0704957,-0.00695247,0.00924618,-0.00681317,0.0453848,0.0599886,0.00422542,0.0829519,0.000468078,-0.0227388,0.0355155,0.0455911,0.019533,0.112009,0.0766339,0.0542978,0.0496504,0.0143834,0.00306455,-0.0372078,-0.00781917,-0.0126984,-0.0088996,0.0188279,0.0717865,0.0284708,-0.0051842,-0.00131978,0.0620469,-0.0154121,0.000644931,0.0182626,-0.018257,0.0458434,0.000843797,-0.0409876,-0.0103066,-0.0852366,0.0373303,0.00529984,0.0542292,0.0972066,-0.0287379,0.076563,0.0400219,0.0332505,0.0074582,-0.00270239,0.0225333,0.000523873,-0.0364501,0.0547055,0.0397635,0.0450011,-0.0390065,-0.0211811,0.0276727,0.0536465,-0.0241414,-0.00146885,0.00266509,-0.0496195,-0.046641,0.066979,-0.0761147,-0.0299077,0.0146118,-0.000193787,0.011489,0.00344888,0.0194968,0.0240315,0.0459988,-0.0190591,0.0418917,-0.000799712,-0.0664404,0.0362887,-0.0305939,-0.0159911,-0.0245621,0.00529046,-0.0179693,-0.00142159,0.0510888,0.0247384,-0.0572207,-0.00662127,0.00298773,0.0185431,0.00322123,-0.0341415,-0.0308264,0.104249,-0.0570515,0.0182149,-0.0292633,0.0784729,0.0216371,-0.0114776,0.108604,0.0601196,0.00166373,0.0567411,0.0122298,-0.00372304,-0.0489397,-0.00945804,0.0273267,0.0125848,-0.00668359,-0.0322695,0.0108018,-0.0372247,0.0162808,-0.0222344,0.0130138,-0.0047318,-0.00823191,0.0447927,0.00615396,0.0481526,-0.0176228,0.0152385,-0.0403146,-0.00124238,0.0336674,0.0584982,-0.0248544,-0.0571175,0.0796212,-0.0178442,-0.0454727,0.0116247],
			"b":0.218183
		},
		"neuron 8": {
			"w": [-0.0139424,-0.0199329,0.00181039,-0.0346537,-0.00398333,0.0477445,-0.0138789,0.100914,-0.0396077,-0.0725767,-0.0738999,0.0418188,-0.0316891,0.0675759,-0.017811,-0.0328065,-0.0789966,-0.0949315,0.0574043,0.0160262,-0.038785,-0.0116911,-0.0150242,-0.064427,-0.0688291,-0.0568174,0.038764,-0.0349231,0.00116388,-0.0058687,0.0502091,0.00803501,-0.0564338,-0.0296826,-0.0478978,0.0662762,-0.0638879,-0.0196495,-0.00654043,-0.0120677,0.0447699,0.000181847,0.00836762,-0.036454,-0.00208649,0.0340705,0.018636,0.0425915,-0.032374,-0.0899482,-0.0665841,-0.00268517,-0.0167327,-0.068178,-0.0322203,0.0296841,-0.00327674,0.0424315,-0.0139407,-0.0075122,0.047111,-0.0164932,-0.0537811,0.0155957,0.0882956,-0.00838897,-0.0854343,-0.012401,-0.00293575,-0.00598953,0.0082227,0.0492604,-0.0397157,0.00863594,-0.0432548,0.0482163,0.0191756,-0.0226231,-0.0297109,-0.0180813,-0.0346971,0.0711113,-0.0162633,-0.0215284,-0.0714989,-0.032282,-0.0376691,-0.0334149,0.0291934,0.00874187,0.0372987,0.000241339,-0.0230597,-0.0102918,-0.00860626,0.0118364,0.0767109,0.0251994,-0.00348858,-0.0388614,0.0520719,-0.0259694,-0.0171666,-0.0107238,0.0544652,-0.0375461,0.044441,-0.0529043,0.0152682,-0.0483109,0.0103827,0.00546194,-0.010501,0.126666,-0.00591755,0.0174866,-0.0267832,0.0311789,0.0479466,0.00955831,0.0318343,-0.00702713,-0.0406189,-0.000138089,-0.0872306,0.0155073,-0.0238353,-0.0622348,-0.0465657,0.0137144,0.00672443,-0.0672804,0.00811572,-0.049557,-0.0736804,0.0434998,-0.0518957,0.0689859,-0.0134337,-0.0172619,-0.029882,-0.00744279,0.00706658,-0.0466874,0.00211286,-0.0298447,-0.0507536,-0.0345027,0.0127568,0.115798,-0.0115595,0.068031,-0.00378204,-0.0256332,-0.0143174,0.0396665,-0.00258566,0.102607,0.0249132,0.00746634,0.0172409,-0.0478705,0.0373955,-0.0795819,0.00884603,-0.0933414,-0.0172234,-0.0532777,0.023022,-0.00138986,0.0178168,0.0572761,0.0381661,0.0273027,-0.0215088,-0.087981,0.0238872,-0.0211112,0.0692745,0.0544791,0.0775721,0.0785292,-0.010819,-0.0679195,0.0448758,-0.0182263,0.00785601,-0.0108167,0.0459137,-0.0584346,0.0231982,0.00955527,-0.0158745,-0.133128,-0.00280683,0.0155454,-0.0257826,0.0671506,0.0682557,-0.0838731,0.0438099,-0.0240323,0.0249534,0.0178045,-0.0230653,0.0280762,0.0647391,0.084359,0.00551967,0.135481,0.111834,0.0285975,-0.00970335,0.011047,0.0183264,-0.00632365,-0.0276864,0.01161,-0.0102234,-0.0795239,-0.00164766,-0.0495403,0.00263742,0.0073582,-0.01476,-0.0190006,0.0421484,0.0691162,-0.0217216,-0.03789,0.029052,-0.0347508,-0.0512328,-0.0653714,-0.0466961,-0.000221689,-0.0560969,0.0655582,0.0360756,0.151214,0.0737838,0.0471563,-0.0162657,0.00498677,-0.0171192,-0.0409068,-0.0706669,-0.0266725,-0.0567334,0.0325031,0.00417418,-0.0417542,0.0793472,-0.0501001,0.0311912,0.0765945,0.0491662,0.0463557,0.0193169,0.0040442,0.0357342,-0.0263897,-0.0347236,-0.0572643,-0.0128021,0.0087211,-0.066967,0.0557967,0.0746703,0.074793,0.184871,0.0498679,-0.0119072,0.0364639,0.00796101,0.016541,-0.0380849,0.0273433,-0.0312558,-0.00788969,-0.0748087,0.0321653,0.0387762,-0.00894942,-0.0275439,0.0302195,-0.0204648,0.013978,-0.0153204,0.0113548,0.0597965,0.0285232,-0.00472492,0.0130636,0.0714134,0.0743466,0.0481421,0.0154836,-0.0560289,0.140135,0.0893893,0.0252815,0.0365499,-0.0248215,0.0157511,0.0734367,-0.0578426,0.0665267,-0.0254486,0.0288987,-0.0402591,-0.00786633,-0.0318516,-0.0264974,0.0601012,0.0359704,0.025498,-0.101915,-0.0140741,-0.0254852,0.09047,0.00563736,0.0246435,0.0539435,0.000344986,-0.0281646,0.0103221,0.0256462,-0.0245139,0.0162627,0.0874459,0.00426025,0.0254739,0.0614378,-0.0105675,0.000813852,0.0304586,-0.00708811,-0.0491281,0.077875,-0.0750315,-0.0495027,-0.0364809,-0.0264502,-0.0502823,-0.0546147,0.0458305,0.0134681,0.00601327,-0.0472446,-0.00889617,-0.00454558,-0.00923074,-0.0730317,0.0146975,0.00243541,0.0389384,0.0146535,0.00698472,0.120245,0.131223,0.00759953,0.0941795,-0.0287557,-0.0108028,-0.0087907,0.0822896,0.0185514,0.000707028,0.053556,0.0315993,0.0040608,-0.0592732,-0.0844739,0.0102406,0.0502214,-0.00843184,-0.035632,9.72534e-05,-0.026484,0.0222885,0.0418325,-0.0124772,-0.107517,-0.00013144,-0.00955828,0.00628488,0.0244868,-0.0292215,0.115139,0.0206425,0.0109849,-0.0360797,-0.0245534,-0.042112,0.0355091,0.0802715,0.0101896,0.0639565,0.0154076,-0.00748202,-0.0102459,-0.018422,0.0570689,0.0834166,-0.0473875,-0.0331845,0.01926,0.00067275,0.0198474,-0.0293862,-0.00964119,0.0289819,-0.00768487,0.0301892,-0.0324372,-0.00316645,-0.0837589,0.0733106,-0.0201127,-0.00214149,0.100158,-0.033336,-0.0646111,-0.0140948,0.0565196,0.0420884,-0.0242293,0.037005,0.0765537,0.0774567,0.00782795,-0.0349514,-0.0366451,-0.0140039,0.063094,-0.0337777,0.0328343,-0.0188166,-0.0368292,-0.0221303,0.00795101,0.0170904,-0.0646709,-0.0373012,0.000607131,0.0661446,0.0266059,-0.0358182,0.0987805,0.0398426,0.0163286,-0.0182916,0.0336512,0.0659827,0.0145629,0.00244993,-0.0796227,-0.0529496,-0.0113251,0.0460485,0.0335562,0.0547199,-0.00678508,0.10481,-0.0548796,0.00325267,-0.0599474,0.0494166,0.0139814,0.00211618,-0.0354901,0.00179871,-0.019508,0.00899227,0.0907115,-0.0870917,-0.0306472,-0.00038682,0.0238833,-0.0224643,0.0562631,-0.029091,0.0597386,-0.0202188,0.0557439,-0.0347242,0.0128531,0.0250385,-0.01077,0.0187591,-0.0102527,-0.012221,0.0512642,-0.0157648,0.0471203,-0.0329416,0.00784024,0.0316786,0.0693793,-0.0387147,0.100093,-0.12986,-0.0685337,-0.0158231,0.0273793,-0.00758101,0.0341939,0.0291809,0.000267956,0.0250856,-0.00914168,-0.0552481,0.0120846,-0.0491038,-0.0350944,0.010471,0.0368627,-0.0183155,-0.000570434,-0.00673713,-0.0068922,-0.0798092,0.016127,-0.0141905,0.000620678,-0.00934569,0.0150544,0.0210672,-0.0488633,0.0531006,0.00206417,0.0737979,-0.00298948,-0.00276845,0.0645606,-0.0127044,-0.0508107,-0.0535531,0.0432237,0.0846986,-0.00715572,0.0111821,0.0385707,0.014168,-0.0172537,-0.00446638,0.0374435,-0.00839508,0.00210648,0.019544,0.000561059,-0.00926409,-0.0234387,-0.0356479,0.0453355,0.047045,-0.0372581,0.0811745,-0.0110279,-0.0977863,-0.0533856,-0.00713735,-0.0629523,0.0318061,-0.026336,-0.000263619,-0.00095116,-0.0446822,-0.0378669,0.00513254,0.0099252,0.0167823,0.0188718,-0.0833338,0.0955575,0.0207753,0.0751953,0.0147731,0.00907694,0.0659455,-0.0104706,-0.0130352,0.0488872,0.0466931,-0.0844826,-0.106442,-0.0114884,0.00964694,0.0575715,0.00502845,0.0294705,0.0472423,-0.00426062,-0.0668852,0.00969911,0.0423968,0.0141251,0.00826262,0.0557818],
			"b":0.200848
		},
		"neuron 9": {
			"w": [0.0548267,-0.02455,0.101489,-0.0580996,-0.0266693,0.0542818,0.0247225,-0.00169544,-0.000186122,-0.0726528,0.0394878,0.0477926,-0.0250954,0.0361021,-0.022873,-0.0299568,-0.0402074,0.0466938,0.0214989,0.0446002,0.0373375,-0.00881868,0.0429305,0.0352705,-0.0284863,0.0420728,0.0261905,0.0336539,0.0205265,0.0431471,0.058763,-0.0341895,0.051218,-0.0827462,-0.0593653,0.0112609,0.0259656,-0.0546842,-0.0224352,-0.0404791,-0.0350433,-0.00936993,-0.0278883,-0.0260497,-0.015078,0.00379227,-0.0455237,0.00136139,-0.0612655,0.0588143,0.0238252,0.106583,0.0688859,-0.0181168,-0.0142505,-0.0168252,0.0815551,-0.0058504,-0.0509855,0.037476,0.00601644,0.0127855,0.00547222,0.0341267,-0.0017486,0.0273958,-0.0372943,-0.0340308,0.0263414,0.00610192,-0.0728128,0.0136053,0.0637462,0.0244146,0.0505665,-0.0854487,-0.00656582,0.0646318,0.00259442,0.00470718,-0.0871894,-0.0617902,-0.0363904,-0.0183982,-0.0147406,-0.0276726,0.0278454,-0.0423419,0.00796501,-0.0492202,0.0206639,-0.0875891,0.0724838,-0.0207637,0.015749,-0.00352483,-0.0316318,0.052948,-0.0385456,0.0316503,-0.0539283,-0.0810012,0.0975974,-0.0249159,0.0102912,-0.0453776,0.0173898,0.0547013,0.0267769,0.00872526,-0.0280304,-0.0308807,-0.0395491,0.0395048,0.0321847,0.0420194,-0.0437467,-0.0788131,0.0343168,0.0798992,0.0854592,-0.00161365,0.0283474,-0.0137626,-0.0263181,-0.0895706,0.0423319,-0.013329,0.0331083,0.018296,-0.0181681,0.0675596,-0.0529212,-0.0142665,-0.028621,-0.0074231,-0.0124065,-0.0539658,-0.0312085,0.0168258,0.00225337,-0.0509083,-0.003561,-0.0766077,-0.00978789,0.0155447,0.0980949,-0.0414963,-0.0323027,0.0739295,0.0164858,-0.00295016,0.0555887,-0.0808105,-0.0438684,-0.0557826,-0.0284287,0.00415713,-0.0327853,-0.0216144,-0.0103168,-0.0247866,-0.0082455,-0.0182104,-0.0255198,-0.0165452,0.0150753,0.0366621,0.0191926,0.0473879,-0.031964,-0.0112997,0.000314611,-0.0495364,0.0284534,-0.00444022,0.00946622,0.0055618,0.0230908,0.0223465,0.0467725,-0.0240493,0.0676093,-0.0652475,-0.0441615,-0.0459082,-0.0333321,0.0106516,0.0883121,0.00124261,0.000943186,-0.0482448,-0.0633299,-0.037143,-0.0182442,0.0324563,0.0241554,0.101033,-0.0246188,-0.0589826,0.0125188,0.0615996,-0.0200304,0.0174905,-0.0437691,-0.0219159,-0.0762158,0.0580549,-0.0322815,0.0402432,0.051427,-0.0832695,-0.0429501,0.053483,0.00364993,-0.0552094,0.00458067,0.023435,-0.0417785,-0.00536661,-0.0288829,0.029174,-0.019525,0.00686366,-0.00652401,-0.00153805,-0.00122854,0.0581166,-0.00488301,-0.0664123,-0.0487607,0.0250516,-0.01737,0.0375024,-0.0203741,0.00751389,0.0407749,-0.122926,0.0400757,0.111838,0.107773,-0.00767625,-0.0280226,-0.0369712,0.0123321,0.0122316,0.00883511,0.0403405,0.0617825,0.0480907,0.0390843,0.021203,-0.0529539,0.0212774,-0.0187193,-0.0183323,-0.0260533,-0.0916322,-0.029371,-0.0366972,0.0429635,-0.0104733,-0.0434077,-0.0350619,0.0117432,0.0519773,0.0510691,0.0601599,0.0508209,0.0899005,0.182119,0.0128248,-0.0494494,-0.0326079,0.0236142,0.0103316,-0.0177243,0.000856147,0.0243529,-0.0160971,-0.0103487,0.0503873,-0.0308088,-0.0220668,0.0503896,0.0226704,-0.0152975,-0.016775,0.0708163,0.0058441,0.076066,-0.0409924,0.00516209,0.0271523,-0.0085126,0.01276,0.0665054,-0.0127389,0.00705765,0.0570385,0.140039,0.0236213,0.0705636,0.00378403,0.00773257,-0.022566,-0.0294304,-0.0317739,-0.0209472,-0.025439,0.000805319,-0.0146833,0.0472081,-0.0044635,-0.0446966,-0.0153167,0.0153905,0.0170901,0.0524897,0.0569765,-0.0027067,0.0435373,-0.0123109,-0.00921149,0.0406604,-0.0115257,-0.0916893,0.0034724,0.0272027,0.0447635,0.161466,0.0452715,-0.00519843,-0.0039021,0.0199348,0.000804982,-0.0411773,0.0797372,-0.0266515,0.0283636,-0.0583763,-0.0195693,-0.0705847,-0.0104046,0.0472504,-0.0736481,0.0678188,-0.0145369,0.0126445,-0.00650392,-0.0123846,-0.0322076,0.0646487,0.0342386,-0.0296184,-0.0110388,-0.034739,-0.039093,-0.0297231,0.134412,0.121049,0.11336,-0.0339371,-0.00687775,0.0690645,0.00502552,-0.0257471,0.0861145,0.0215796,-0.00852243,0.00522845,-0.0360936,-0.0171792,0.0049937,0.00797453,0.00585105,-0.0447485,0.0515373,-0.011762,-0.0829276,-0.0740698,-0.0324941,0.00924901,-0.0788402,-0.0097782,0.0506387,-0.00683797,-0.0463689,-0.026434,0.121371,0.0737876,0.0692742,-0.00644287,-0.0416932,-0.0214819,-0.0211843,-0.00274173,0.0200994,0.0322573,0.07491,-0.014162,-0.00981108,-0.0505297,-0.0103925,0.014003,0.0118075,0.0694066,0.0447644,0.0696522,0.00378222,-0.00119349,-0.0671136,0.0404089,0.071604,0.00884455,0.0318063,0.00489931,-0.0453093,0.0370358,0.0460011,0.0366463,0.0429578,0.0468489,0.000374563,0.0266293,-0.0325117,-0.016744,0.0239334,-0.0112784,-0.00816707,0.022443,-0.0228097,0.111706,0.0491878,0.0541273,0.048947,-0.0181425,-0.0183136,0.0341849,0.00527522,-0.000879442,0.0148936,0.044477,-0.0973059,-0.0826567,0.0269304,0.0711666,0.0368201,-0.0293789,0.057119,0.0227101,0.0178561,-0.0158114,-0.0947674,-0.0211802,0.0165553,-0.0235492,-0.0351057,0.0364375,0.0156506,0.0792153,0.0823262,0.0137094,-0.0607006,-0.00585269,0.00213422,-0.0144029,0.0945763,-0.0348974,0.0571317,-0.0135184,-0.0369851,0.0325387,0.0280696,-0.0186091,-0.0139916,0.0651908,-0.00437072,-0.011818,0.0397538,0.00440737,0.0406921,0.0656579,-0.00554536,0.0433867,-0.0139093,0.0683875,0.039677,0.0138501,-0.0031542,-0.0465849,-0.0728462,-0.0550394,-0.032671,0.0212623,-0.00732936,0.0252421,-0.0479792,0.0542063,0.0118976,0.0326388,0.00516992,-0.0129268,-0.0217391,-0.0264253,0.0317453,-0.0476621,0.0229191,0.0250234,0.0468017,0.112855,0.0164198,0.0425713,0.00838752,0.0161435,-0.0411554,-0.000968096,-0.0450701,-0.0199672,-0.0105314,0.0409394,0.00941757,0.0151482,0.0251241,0.00937425,0.0587918,-0.00475391,0.0619239,0.00238558,0.0487504,-0.0463343,-0.0650876,0.0447297,-0.00621099,-0.0347825,-0.0340857,0.0340684,0.0283034,0.0285219,-0.0133293,0.0795631,0.0169223,0.0349533,0.0156803,0.0747147,0.0223401,0.0492777,-0.0262072,0.00108198,-0.114548,-0.00891169,0.00656899,0.0231557,0.0189449,0.0472152,0.0582134,-0.0241874,0.0290372,-0.0193306,-0.0487743,0.0215738,-0.00926755,0.0444211,0.0480043,-0.0201631,-0.0302412,0.0221808,-0.0203332,0.0595439,0.053793,0.0329044,0.0680981,-0.0204707,0.0964357,-0.0846369,-0.0154339,-0.00948618,0.0169205,0.0124884,-0.00126426,0.0308665,0.0999238,-0.0147355,-0.017669,-0.00660858,-0.0342848,-0.103752,-0.0142016,-0.0353921,0.00924086,-0.00635866,0.00651084,0.00759787,-0.0395258,0.000630345,-0.0470954,-0.0246026,0.0267721,0.0290319,0.0315856],
			"b":0.211524
		},
		"neuron 10": {
			"w": [-0.0448162,-0.0390953,0.0529911,-0.0238785,-0.0816058,0.0486579,0.0400665,0.102866,0.00715305,-0.0178515,0.00187945,-0.0128819,0.038177,0.0654642,0.0316088,0.00397246,-0.0119521,0.0158205,0.0183562,0.0123237,-0.0317544,-0.00115611,0.0736849,0.0101815,0.0541026,0.0265878,0.0112962,-0.00356506,-0.0309273,0.00637442,0.0112205,0.0928281,0.0332108,-0.0434291,0.0167335,0.0147598,0.0309649,-0.0322688,-0.0447784,0.0655951,-0.0241365,0.00952001,0.00780891,-0.0329403,-0.00631053,0.0453278,0.0185742,-0.08649,-0.119355,0.000654345,0.0286414,-0.0186874,-0.0284465,0.0655975,0.0563833,0.0668454,0.0488939,-0.00118819,0.000139243,-0.0246603,0.00819638,-0.0148472,0.0840091,0.0221468,0.0789388,0.00732606,-0.0159057,0.00465705,-0.0492348,-0.0239246,0.00586213,-0.057094,-0.0174226,-0.0427113,0.036206,-0.0536475,-0.0506668,-0.0538515,0.0270817,0.00967967,0.00840192,-0.00531958,-0.0326287,-0.0795236,-0.0709004,0.071979,-0.0404427,0.0341427,0.0371531,0.0733302,0.0350192,0.0303137,-0.0159732,-0.020551,-0.0672621,-0.0685493,0.0855423,-0.0430487,-0.0290387,-0.0244115,-0.0424011,-0.0353004,-0.0137116,-0.0402153,-0.0331412,0.0414848,0.00447731,-0.00737115,-0.00871656,0.0178516,-0.079553,0.00786002,0.0210859,0.021006,0.0316456,0.0200679,-0.020697,0.022266,-0.0116414,0.038454,0.0256303,0.0625165,0.0460186,0.0193899,0.0430983,-0.0240542,-0.0021254,0.0922801,0.00791193,-0.028954,-0.0674666,-0.0309353,0.0226381,-0.00113246,0.120969,-0.00414759,0.0459481,-0.0123578,0.0238711,-0.0401032,0.047514,-0.0163105,0.0135618,0.0138264,0.0802081,0.0451894,0.0789642,0.00102984,-0.0222463,0.0707952,0.0141683,0.00460087,0.00285484,-0.00988487,0.00254056,-0.0418302,0.0264824,0.00926221,0.031527,0.041564,0.0788421,0.0308385,-0.0119201,-0.0155365,0.0157091,-0.0318317,0.00388281,-0.0191627,0.0199286,0.00135799,0.00221702,0.0591114,0.00728332,0.0113915,0.0372396,0.0827029,-0.0126487,-0.0220982,0.0516241,0.117087,0.0755542,-0.0105004,0.0359653,0.0815498,-0.0111696,-0.0210081,0.045645,-0.00784352,0.0023794,-0.0380817,0.00944271,-0.00028066,0.0157031,-0.0141131,0.02118,0.0171203,-0.0376557,0.0858702,0.00990309,0.000528038,0.0232599,0.0274854,-0.0216221,-0.0386852,0.0252421,0.0102289,0.0119512,0.0971188,0.00909308,0.0622342,0.0977589,-0.0432476,0.0767537,-0.00656331,0.0269227,0.0317693,0.0114479,0.0221799,-0.0124199,0.0800243,0.00125433,-0.00934267,-0.01824,0.0199427,-0.0798365,0.0149014,0.0307233,0.0327283,0.0483588,-0.0499778,-0.0403724,0.120642,0.0648167,-0.0387798,-0.0429496,0.00504869,-0.0367661,0.00163999,0.012412,0.0921899,0.184885,0.00704709,-0.0181348,0.00116405,-0.041971,0.00575214,-0.0493833,0.0547656,0.00767948,0.0700562,0.0531003,-0.0345754,-0.0340227,-0.083776,-0.00910314,0.0126836,-0.0534379,-0.00356413,0.0297867,-0.0400942,0.0530357,-0.0639277,-0.0200156,0.0191854,-0.0320821,0.00775135,-0.0040834,-0.0213158,-0.0661364,0.0656131,0.243232,-0.021577,0.0208656,-0.00831982,-0.0737254,-0.0275468,0.0507518,0.0597709,0.0118979,-0.124041,-0.0593949,-0.00776516,-0.0050673,0.0177552,0.00955695,-0.0130931,0.00588435,-0.00104008,0.0117571,0.0571935,-0.00878848,0.0493606,0.0429613,0.0225761,0.0297598,-0.0292046,-0.0118933,0.034176,-0.0346836,0.0623137,0.197439,-0.0586265,-0.0473447,0.0173097,-0.0274339,0.0828301,-0.0751081,-0.00294139,-0.0133956,0.0607919,0.0102425,-0.000660208,-0.0267198,0.00472168,0.066478,-0.00331634,-0.0100442,-0.00602434,-0.00746239,-0.025426,-0.0600316,-0.0259708,0.00326764,0.0358327,0.0618917,-0.0269155,-0.0190446,-0.0190909,0.0285256,0.0951537,0.136376,0.0192403,0.0223753,-0.013908,-0.0190548,-0.0157899,-0.0153962,-0.0451844,-0.0208487,-0.0182159,0.0109443,-0.0329365,-0.0439413,-0.029902,-0.0120387,0.0196833,-0.0714652,0.0272756,-0.0699532,0.0664396,-0.0178397,0.0251568,0.0436418,-0.0489974,-0.0012879,-0.0255122,0.018913,-0.0236575,-0.0640002,0.114455,0.0806777,-0.0174825,0.0146916,-0.0972428,0.0281299,0.0675048,-0.0934246,0.0141281,0.047582,0.0304268,-0.0083173,-0.00867222,-0.0291401,-0.0370804,-0.0645071,-0.0369135,0.0796834,-0.00125248,-0.0328814,0.0129374,0.00726266,-0.00677726,0.00258826,-0.0318518,-0.0995625,0.0337275,-0.0873419,0.0283408,-0.00511717,0.117471,0.0357343,0.0582252,-0.0462472,-0.0415759,-0.00925881,0.0732495,0.0334555,0.0206717,0.0583904,-0.001339,0.0272601,0.0275215,0.0262357,0.0115322,-0.0181083,-0.0321214,0.00580793,-0.013743,0.011576,0.0428257,-0.0231602,-0.00970017,-0.00549342,0.0131844,-0.0557746,0.0317749,0.00971602,0.0373023,0.0248079,0.0914597,0.119832,-0.0261775,0.0229434,-0.027454,0.0357302,0.0117982,0.0499549,0.0313893,0.0318702,0.00851562,-0.0515767,-0.0739707,0.00539383,0.0360867,-0.0990692,-0.0568779,0.0125926,0.0277348,-0.019888,0.00818367,0.0343777,0.058688,-0.0091276,-0.0140067,-0.00723793,-0.000911366,-0.0285023,0.0148445,-0.0216125,0.0955315,-0.00971203,0.00460341,-0.0108685,-0.0308114,-0.0271976,-0.0858991,-0.0186201,-0.0239799,0.0123767,-0.0491715,0.060799,-0.0278624,-0.0659615,-0.0238482,-0.0368546,-0.0251218,-0.034202,-0.0488786,0.0377464,0.0307058,0.00884284,-0.0281273,0.0267347,0.0425725,0.022909,-0.0121633,-0.0175314,-0.0212706,-0.00886731,0.195936,0.0973885,0.0313013,0.00566524,0.0351579,-0.0196257,-0.0524529,-0.0414687,0.0371577,-0.0057722,-0.00895763,0.0146591,0.012469,-0.00731398,-0.00456607,-0.0636901,0.0428061,-0.0194273,0.0182129,-0.020925,0.00460943,0.00727869,0.00642384,0.00561461,0.0551669,0.00688766,-0.0227642,0.0297394,0.00570929,-0.0163513,0.0871075,0.0241436,-0.0131462,-0.0492517,0.00579411,-0.0360452,0.0806833,-0.0441345,0.0452954,0.0174245,0.0321722,-0.00331602,-0.0841244,-0.0126908,0.0203279,-0.0492789,0.00538328,0.0451486,-0.0317542,0.0560371,0.0408499,-0.0561283,0.0558167,-0.011294,-0.0636136,-0.0573756,-0.0660713,-0.0350012,-0.0251867,-0.0131876,0.00264575,0.0430397,-0.124475,0.012003,-0.00436376,-0.0214637,0.0343242,-0.0264713,-0.117892,0.0413762,0.0369478,0.0866269,-0.022925,0.00881183,0.00204122,0.0465479,0.00211741,-0.0342945,-0.0643022,-0.00966102,-0.0101982,0.0358346,0.0472098,0.00938955,-0.033214,0.0790183,-0.0211373,-0.0247435,-0.00318841,0.0185965,0.0518569,0.0365696,0.0159184,0.0275972,-0.0225866,0.00438799,0.000335336,-0.0599769,0.0447868,-0.0158169,0.059764,-0.0580917,0.0258985,0.0240711,0.0791915,-0.00392155,0.0601076,-0.0326006,-0.0685686,0.0159259,0.00665236,-0.00513269,-0.0290417,-0.0289075,-0.0237277,-0.0478682,0.0132248,0.0379431,-0.0638339,0.0201295,0.00509631],
			"b":0.234188
		},
		"neuron 11": {
			"w": [0.0186565,-0.0213153,0.00411187,-0.0076578,-0.0169842,0.0242166,0.0671156,-0.0320744,-0.0342747,0.0230736,0.00872821,-0.0216394,-0.0534945,0.0383381,0.0248964,0.000641192,0.0365807,-0.0599776,0.0245419,-0.00739456,-0.0169221,0.030302,-0.0042387,-0.0312389,0.0647243,-0.0343255,0.0585949,0.0771922,-0.016653,-0.0129102,0.0303581,-0.00161751,0.0296971,0.0692876,-0.0659663,-0.0991492,0.0439917,0.0613905,0.0192863,0.0183212,0.0387806,-0.00608917,0.0177269,-0.024689,-0.0249189,-0.00509377,-0.0751047,0.0127797,0.0158744,0.00860211,0.0118116,0.0409475,0.0123011,0.0292695,0.0566343,-0.0275208,0.04267,0.00782785,-0.0388289,0.0296607,0.0872841,0.0357475,-0.0455427,-0.0182646,-0.00991057,-0.0759991,-0.0575842,0.00543178,-0.0258962,-0.0282442,0.0235737,0.0280521,-0.0549887,-0.00964322,-0.0524261,0.0139987,-0.0474759,-0.0305063,-0.0100323,-0.0109442,-0.0159097,0.0440103,-0.0379482,-0.0372885,-0.0581233,-0.0641635,-0.0187994,-0.0374837,0.0201217,0.054242,0.118549,-0.0100369,0.0637315,-0.0175346,-0.048986,0.0496799,0.0874,0.0584418,0.0441218,-0.0741356,-0.0344692,0.0247457,0.0584077,0.0264113,0.0476314,0.0474999,0.015974,0.0114786,0.0408722,-0.0290589,0.0230318,-0.0685888,-0.00272889,0.0744567,0.0301581,-0.0413276,-0.0411569,-0.0642303,0.00498341,0.0345134,0.0284464,-0.00522995,-0.01016,-0.0378495,0.0276237,-0.00996509,0.0244978,-0.0219598,-0.0211741,0.082924,-0.0725924,0.00169699,-0.045997,-0.0662617,0.0314778,0.025854,-0.00722662,0.024975,-0.0427352,-0.0273732,-0.037061,0.0297646,-0.0208176,0.0482759,-0.0286842,0.0213688,0.02282,-0.0198313,-0.0779419,0.0247761,0.0394964,-0.0193864,-0.00412009,-0.0740716,-0.0763196,-0.0541279,-0.00505421,0.0049698,-0.0134939,0.0168253,0.0412427,0.0405988,-0.053639,0.0205316,0.06728,-0.00572416,0.0385316,0.0205088,-0.0495102,-0.0617789,0.0406101,0.00511321,-0.0809694,-0.0408073,-0.00220462,0.0479445,-0.0375373,-0.0393899,-0.0256497,0.0955823,0.00665068,0.014848,0.00290869,0.0183317,0.0341682,-0.0313345,0.0858849,-0.0540098,-0.00795003,0.0553847,0.000769077,-0.0750147,-0.0132042,-0.000268939,0.0410799,0.0618247,0.0335089,0.0874679,0.00551123,-0.1135,-0.0121024,-0.00996054,0.0660207,0.0438471,0.0311178,-0.03204,-0.00701022,0.0283546,-0.0164659,0.0837416,0.0138858,-0.0219868,0.0417892,0.0628522,-0.0667831,-0.0573274,0.00621122,0.050381,0.00433245,-0.0132256,-0.0180487,-0.00372289,0.0114995,-0.023182,-0.0272384,-0.0518056,0.0846522,0.0357264,-0.00318777,0.102868,0.00344164,-0.0152664,0.000302762,0.0353203,-0.035438,0.0478678,0.000203486,-0.00023106,0.0161957,0.1174,0.256603,0.0122967,0.00770344,0.0145339,-0.0560678,-0.0534232,0.0120515,0.0165367,0.0514684,-0.0159964,0.0114282,0.0535613,0.0226921,0.0415433,0.0215559,0.0781129,-0.0624353,-0.00565651,0.0259417,-0.0250005,-0.00837146,0.0253642,-0.0348848,-0.0489239,0.0167479,0.0082402,-0.0121488,0.0725663,-0.0336383,0.0966952,0.151392,0.00119166,-0.0223158,0.0526819,-0.0287605,0.0140396,0.0517671,-0.0773532,-0.00720446,-0.00770656,-0.0205822,0.0154171,-0.00869468,0.0456929,-0.0209595,0.0499107,-0.0150211,0.0457354,-0.0312992,0.00457743,0.059476,0.00758016,0.00954722,-0.0264221,0.0675375,-0.0542553,0.0256307,-0.0364462,-0.00442208,0.0819787,0.153512,0.0558614,-0.0180015,-0.000285052,-0.00239473,-0.0216355,-0.0209361,0.0764339,-0.0885763,0.0564754,0.00466692,0.0483408,-0.0831402,0.0375628,0.00797932,0.0229697,-0.0370426,-0.00629857,0.00362693,0.0225457,0.00195753,0.0258832,0.00535882,-0.0403005,-0.00658253,0.00267701,-0.00368672,-0.0331519,-0.0401806,0.146464,0.0803709,0.0201641,0.0169975,0.0266116,-0.00492787,0.0759749,-0.0379221,-0.00290508,-0.018437,0.0199241,0.0828837,-0.0288338,-0.0248138,0.0914643,-0.00851407,0.0274913,-0.0212686,-0.011585,-0.0657517,0.07998,0.0491677,0.0201723,0.0238173,0.0411742,-0.0335835,0.012197,-0.0371154,0.0107313,-0.0391346,0.0627682,0.123133,0.0225534,0.0441947,0.0251882,0.0426063,0.0715448,0.0260128,0.00909439,0.0132783,0.0294059,0.0158107,-0.0386373,-0.0597017,0.0199421,-0.00879101,-0.00501848,0.0586238,-0.0423314,-0.0041585,-0.0068979,0.00640666,-0.000943311,0.00493546,-0.0639036,0.0604127,-0.0216926,-0.0291126,0.0162552,-0.0467117,0.152948,0.0440459,0.101958,-0.0411883,0.00612646,0.078584,-0.00550187,0.00742369,0.0693804,0.0136923,-0.0194483,-0.0273918,-0.0563386,-0.0197811,-0.0432653,0.00656261,-0.0187305,0.0439188,-0.00483993,0.0697474,0.00912725,-0.0304746,-0.0217056,-0.0328865,-0.01557,-0.0308021,0.0157358,0.0172221,-0.0585185,-0.0211457,0.0603236,-0.0258098,-0.0204479,-0.0108857,0.0260372,0.0180664,0.0317035,-0.0142438,-0.0328896,-0.00164333,0.0265257,-0.0631535,-0.06327,-0.0809329,-0.095911,0.0155514,-0.0942243,0.0528822,0.0668133,-0.0441825,-0.0798207,0.0194726,-0.0354251,0.0185481,0.00731265,0.0678285,-0.0137001,-0.0680628,0.0448566,-0.0309397,0.0421758,0.0306033,-0.0810437,0.0464308,0.0589527,-0.0103697,0.0292803,0.0579071,-0.0730704,0.0401357,-0.0213039,-0.0200217,0.0225836,-0.0224689,-0.011277,0.0247497,0.0607162,0.00882497,-0.0114882,0.02552,-0.0330475,0.0330773,-0.0358635,-0.0774123,0.0185106,-0.00181909,0.0460844,0.0492479,0.0052717,-0.0313884,0.0985727,0.0650487,0.0786559,-0.0141926,-0.0981369,-0.00233549,0.114345,0.0517484,-0.0650476,0.0231392,0.0274141,-0.0121747,0.0610428,0.012271,0.0558296,-0.0510017,0.00143237,-0.0222478,-0.0466044,-0.041509,-0.0237034,-0.0546804,-0.0549498,0.067617,0.0266402,-0.0169815,-0.0300755,0.0195793,-0.0157474,-0.0383245,0.0624777,0.0152525,0.0595982,-0.00189692,-0.0920116,0.0543046,0.0867383,0.0243966,0.020378,0.0775565,0.0229078,-0.032191,0.0121052,0.0347393,-0.0836676,0.0135319,-0.0557806,-0.0307645,0.01249,-0.0556338,-0.00103672,-0.0427242,-0.0245784,-0.0217132,-0.0585694,-0.0220823,0.0751907,-0.00257559,0.028,-0.00958631,0.00402805,0.0481331,-0.0254251,0.0207923,0.0377845,-0.0262864,-0.0468171,-0.0385516,-0.049188,0.0348413,0.0790506,0.0253595,-0.0422821,-0.0804551,0.0271586,0.0259936,-0.0286007,0.0246594,0.0204172,-0.00153096,-0.0342686,0.0197447,0.0312816,0.0120136,-0.0573549,0.0682018,0.011343,0.0551996,-0.0129914,-0.0049669,-0.0230972,0.0209797,-0.0273238,-0.0197098,-0.0188639,0.0290683,-0.0109778,-0.0434785,-0.00753458,-0.00844114,0.0584303,-0.0596972,0.0183303,0.0261484,-0.057218,0.0777235,-0.00271344,-0.0216217,0.0054783,0.0806594,0.0308803,-0.0175418,0.039497,-0.037379,0.000952327,-0.0501624,0.0674205,-0.0647021,-0.0111395,0.0566183,0.0225085],
			"b":0.208517
		},
		"neuron 12": {
			"w": [0.059135,-0.0142634,-0.0321935,0.0232284,0.0289146,-0.0175913,0.00122222,-0.0608966,-0.034285,-0.0880004,-0.0572567,0.0659181,-0.0134851,0.0135857,0.0334971,0.0313323,-0.022658,-0.0122045,0.0267029,0.0501644,0.00909652,-0.0266716,-0.0199386,-0.041462,-0.048647,0.00646577,-0.0193799,0.0222169,-0.0373569,0.0130444,0.0341875,0.010713,-0.00277924,-0.0296686,0.00786888,-0.0078469,0.0746034,0.0475288,0.0273884,-0.0424374,-0.00947216,0.07803,-0.0454534,-0.107304,-0.013137,-0.0179038,0.00591288,0.0169448,-0.0870794,-0.0650442,0.0134577,-0.0723922,0.00515748,-0.0555519,-0.0210282,0.0299519,-0.00197881,-0.0287115,0.0440738,0.0356326,0.0481849,-0.0308962,0.00516008,-0.0013292,0.0444656,0.0210081,-0.00255675,-0.0169157,0.00382241,0.0385486,0.0516573,-0.0346544,0.00680759,0.0132854,-0.0296438,0.0185927,-0.0202503,-0.0305389,0.0484898,-0.004463,-0.0149552,-0.0469284,-0.0277697,-0.0212063,-0.014294,0.011358,-0.0237363,-0.034749,0.0245627,0.00832735,-0.00385384,-0.0392601,-0.00587662,0.101535,-0.0317938,0.0551227,-0.02821,0.0639111,0.0411425,0.0233772,0.0983646,0.00176487,-0.0401584,0.00626397,-0.0224775,0.0147168,-0.00604975,-0.0350484,0.0569472,-0.0275839,0.0118575,0.0625422,0.0412439,0.00145792,0.0240235,0.0452091,-0.0509023,0.0533138,-0.0438344,0.0272934,0.0270913,0.0221182,0.0339164,-0.0573072,-0.0299428,-0.0174215,0.0194558,0.0484333,0.0522203,-0.0379395,-0.0242589,-0.0290029,-0.0457058,-0.0505815,0.0688503,-0.0914034,-0.0507231,0.0316485,-0.040993,-0.0241756,-0.0160822,0.0148312,-0.00470439,0.0441942,-0.00102633,-0.000221998,0.0187269,-0.0512638,0.061319,0.0294282,-0.0253511,0.0039101,-0.0744442,0.00706662,-0.0538456,0.0333778,-0.016612,-0.00388266,0.0300559,0.0168791,0.0174135,-0.00424826,0.04545,0.000204579,-0.00917381,-0.0225033,0.0133495,0.0724359,0.0151747,0.088917,-0.0465249,0.0211018,-0.0656104,-0.0129457,-0.0556871,0.0401554,0.00235655,0.0337961,-0.0742324,0.0677125,-0.0192308,-0.0312717,0.00301792,0.0315478,-0.0506188,0.0769491,0.0473124,-0.0120851,-0.00370373,-0.0308167,0.00303418,0.0371005,-0.0241305,-0.0612458,0.00460867,-0.00305247,0.0358382,0.0126052,-0.0618795,-0.00613061,-0.0624307,-0.0425423,-0.0656953,0.0127501,-0.0125245,-0.0157027,-0.0798811,0.0024253,0.0298502,0.0865658,0.0447871,0.0346773,0.0271323,-0.0782572,0.0425283,0.0156489,-0.00374055,0.0266675,0.096988,-0.0258897,0.0946012,-0.0341628,0.0237388,0.0181147,-0.0543185,-0.0680899,0.0719905,-0.00545322,-0.0443942,0.030253,0.0184811,0.00958849,0.113364,-0.0252541,0.0153497,-0.0765188,-0.0253674,-0.0227203,0.0388456,0.0157729,0.137865,0.00682418,0.0521578,-0.0021996,0.00286455,0.0116564,-0.00978438,0.0011371,-0.0175048,0.0199992,-0.0162982,-0.0180799,0.0933192,-0.0395131,-0.0135133,-0.0368785,0.029845,0.000549539,0.0450068,0.0459221,-0.0218192,-0.0277233,0.0378546,0.0308268,-0.0405345,-0.0266473,-0.0431318,-0.0473399,-0.0522128,0.0641968,0.0698543,-0.0410544,-0.0592859,-0.0147251,0.000388908,-0.0518002,0.0960414,0.0263173,0.0188926,0.0470589,0.0251991,0.00842457,0.0171367,0.0777033,-0.0527756,0.0286421,-0.0890341,0.0352291,0.0890091,0.0202407,-0.0680822,-0.00483832,-0.0601221,-0.0119243,-0.00534285,-0.0314255,0.068936,-0.0244616,0.0137166,0.075121,0.0621319,-0.0446166,0.0561346,-0.00862513,-0.0377773,0.0416693,0.121921,0.0360395,0.0381717,-0.0258875,0.0106187,-0.0532268,0.0387703,-0.0822567,-0.000672484,0.021085,-0.00982868,-0.0534447,0.0788333,-0.0584843,-0.0535923,-0.02481,-0.00999701,0.0358168,0.00352715,0.0511989,-0.0525586,-0.00453453,0.0418687,0.0520327,0.0936661,-0.0177054,0.036919,0.0697751,-0.000799036,0.0468834,0.0210137,-0.0450812,0.04687,0.0299137,-0.061362,0.0274091,-0.0125193,-0.0442524,0.0352041,0.0283801,-0.0247341,-0.0257789,-0.0259094,-0.061782,-0.0132881,-0.03159,0.0611429,0.0232316,0.021356,0.0424347,0.00827,-0.029631,-0.0227936,0.0486066,0.0703841,0.0349631,-0.0198292,-0.0285835,-0.0165761,0.0244145,-0.0613126,0.00914801,-0.0591517,0.0984594,0.0673679,0.0849664,0.0134428,0.00852784,-0.00783742,-0.0269865,0.0722441,0.0152111,0.0154586,0.0571307,-0.0749194,0.023431,-0.039339,0.0170568,-0.0356128,0.00681101,-0.000277589,0.00719288,-0.069561,0.197312,0.0433773,0.0452258,-0.018592,0.000491153,-0.0644299,0.0361111,-0.0352573,0.00240456,-0.0120509,-0.067731,-0.0340606,-0.0157775,-0.0360686,0.0848943,-0.0536971,-0.0515756,-0.0314994,-0.00793791,0.00837513,0.0063389,-0.0249663,-0.0465356,0.00482106,-0.029097,0.00883531,0.0163547,0.0408012,-0.0361539,-0.0045639,0.10721,0.0608877,-0.0857261,0.037627,-0.00177159,0.103964,-0.015228,-0.00535552,0.0269187,-0.0323774,0.00987408,0.0358457,-0.0152043,-0.0387432,-0.0145755,0.0406383,0.0106287,0.0904841,0.0375668,0.0526332,-0.0206058,-0.0499971,0.00010539,0.0363463,0.0134279,-0.0285136,-0.0295018,-0.0560722,-0.0475784,-0.0816522,0.0313374,0.0333575,-0.0263896,-0.0804867,-0.0571487,0.0278995,-0.101374,-0.0125653,-0.0181071,-0.0260266,-0.00246268,0.0726774,-0.00125195,0.0266747,0.0342862,0.00362642,-0.0367134,0.0202558,0.00939869,0.0165868,0.0253725,0.00819101,0.00132633,0.0693959,-0.0267993,-0.0460929,0.0416291,0.0677427,-0.0583127,-0.0520839,0.0151907,-0.0302639,-0.0223497,-0.0780718,0.009427,-0.0202447,0.0288053,-0.0586935,-0.000569254,-0.0444457,-0.0502867,-0.0243814,-0.055866,0.0177392,-0.0261424,-0.0177321,-0.0418349,-0.0375842,-0.048853,-0.0616202,-0.00448324,0.0205048,-0.0165307,0.0108048,0.00362619,-0.0297753,0.0227043,0.00289871,0.0511147,-0.00392365,0.0371464,-0.000749769,0.0158229,-0.0135845,0.0241898,0.017104,0.0310271,0.017592,0.0075153,-0.0386857,0.0387045,0.0115421,-0.0363916,-0.0361866,0.0182887,0.0826902,-0.00517524,0.0335401,-0.0139348,-0.00282236,0.0284865,0.0266767,0.00666817,0.00291074,-0.0254167,-0.0295267,-0.00728824,0.00814033,0.0143068,-0.0572686,0.0165539,0.0139855,-0.0288903,-0.0458077,0.0429231,0.0413374,0.0273419,-0.0288031,-0.0593178,0.0380608,0.0514582,0.0262338,-0.0161169,0.0351171,-0.0216693,0.0192838,-0.00198418,0.0238698,0.105466,0.0123644,-0.00153435,-0.0282714,-0.0625421,-0.0458131,-0.0713608,0.0601217,-0.0897423,0.0149112,0.0201488,0.00322561,-0.0389638,0.0305847,0.0583201,-0.00430136,-0.104249,0.0105633,-0.00768342,0.0301341,0.0322031,0.0213324,-0.0240048,0.0481233,0.029495,-0.0587189,-0.00274551,0.0211394,-0.00331918,0.0226773,-0.0440007,0.01873,-0.0594162,-0.00995071,-0.0385203,0.00438831,-0.0769826,-0.0798567,-0.00517588,-0.00306345,-0.0295488,-0.0658765,-0.0490818],
			"b":0.234285
		},
		"neuron 13": {
			"w": [-0.0361465,0.00575673,0.0166716,0.0542323,0.0313931,-0.0540048,-0.0448794,-0.0125174,-0.0813565,-0.0655205,-0.0113528,0.0180639,0.0215808,0.0277046,-0.0073972,-0.0123912,-0.00750974,0.0264157,-0.0479175,0.0176818,-0.0329113,-0.0154307,0.00470371,-0.00746724,-0.0421486,-0.0179659,0.0531762,-0.0504046,-0.0483815,-0.0164535,-0.0405588,0.0137558,0.0688709,0.0445049,0.0160673,-0.11593,-0.0501404,0.0688097,-0.0636373,-0.0381363,-0.0134499,0.00574121,0.0120562,-0.00496549,0.0653303,0.00437433,0.0126352,-0.00354237,0.053978,0.0100182,-0.0396964,-0.0369975,0.011859,-0.0308791,0.021446,-0.0333243,-0.0479941,-0.028562,-0.0470247,0.0155155,0.103808,-0.0196678,-0.0127525,0.010065,-0.0322945,-0.0314887,0.0687235,-0.00251472,-0.0824857,0.000219986,-0.0750657,-0.0492564,0.0110819,0.0436846,0.0286024,0.0143138,0.00462432,0.038667,0.0410092,0.00339064,0.0517753,-0.0457356,0.0322729,-0.0505871,-0.00912665,0.0843323,0.0501217,-0.0130083,-0.0207972,-0.0742676,0.0778932,-0.0317088,-0.00797132,-0.00100677,-0.0190235,0.0410322,0.00873469,0.0911252,-0.033188,-0.0356713,-0.00235392,0.0454202,-0.0225225,0.0474682,0.0598933,0.0576968,-0.0116561,0.00147736,0.0392733,-0.0421115,-0.0147254,0.021321,0.061513,-0.0199249,0.0495478,-0.00594003,0.0283018,-0.116995,-0.011222,0.0680325,0.108263,-0.00900354,-0.0363121,-0.0469735,-0.00558875,0.0387298,0.00240813,0.0293734,0.0393906,0.043331,0.0147553,0.0200421,0.0881214,0.0272619,-0.0629407,0.0274351,0.00389181,0.0224886,-0.0766163,0.0394815,-0.100128,-0.0302938,-0.0285068,0.0548056,0.00602209,0.00443307,-0.0436144,0.00557792,0.0165591,0.0605427,0.0635828,-0.0205436,0.0499979,0.0128662,0.017104,-0.0640216,0.0116814,-0.0134621,0.020132,0.0177407,0.00047997,0.0768895,-0.0825563,0.0377706,0.0637574,-0.0951974,0.0104985,-0.0337323,-0.0219349,0.00758814,0.0675834,0.0423801,0.00799371,0.0226925,0.00226327,-0.0244967,0.00624614,-0.0121761,0.00651332,0.0906142,0.0962142,-0.0784704,-0.0232312,-0.0825911,-0.000451672,0.031512,0.0408266,0.00901179,0.0112696,0.0637997,-0.00129958,-0.043053,-0.00570778,-0.013706,0.00387592,-0.0369302,-0.027708,0.00371453,0.0297587,-0.0660434,0.0102765,-0.114727,0.0174821,-0.0546125,-0.0205956,0.0879328,0.0280067,-0.0410271,0.0795201,0.0413036,0.0150951,-0.132008,0.00532856,0.0589837,0.00842019,0.00519858,0.0523048,-0.0342867,-0.0407985,0.019912,0.0308312,0.0241284,0.00380381,0.0335107,-0.0237844,0.0465757,-0.031646,0.0757765,0.0339988,-0.0348315,0.0145541,-0.00286707,0.0598504,0.0745587,-0.037229,-0.0921256,0.0391359,0.0281049,0.0364305,-0.000607258,0.0986473,0.0264213,0.0210594,0.0720978,-0.0362972,-0.0168597,-0.0256796,0.0260139,0.00194416,-0.0325426,-0.100662,-0.0287877,-0.0304552,-0.0402349,0.029527,-0.0430823,0.0384085,0.100608,-0.0476897,0.0884326,0.0298435,0.0638689,0.0233854,0.0274251,0.107184,-0.0435111,0.0781561,0.0424363,0.0526693,0.0291803,0.0528255,0.00248604,0.0173401,0.0601948,-0.0525227,-0.0385647,0.0366364,-0.0311258,-0.035425,-0.0628766,-0.0157845,-0.00503876,-0.0197035,-0.0278905,-0.0229455,0.00389755,0.00920855,0.0169304,-0.0637765,0.00801049,0.000474157,0.0098523,0.0231664,-0.0163489,-0.0198553,-0.0166006,0.0468531,-0.00282407,-0.0458398,0.108036,0.182289,0.038755,0.0424787,0.017187,-0.025312,0.00167477,0.0841775,0.0238468,-0.0377142,0.0253883,-0.0203639,-0.000601297,0.040478,-0.0258885,0.070243,0.00938074,-0.00339616,-0.0443857,-0.120625,0.0379796,0.02677,0.0717095,-0.0378982,-0.0360254,-0.0294666,0.0409478,0.0280595,-0.00408734,0.0301383,0.130135,0.138677,0.0780987,-0.0307574,-0.0238188,-0.0278864,-0.0346933,0.0283706,-0.050497,0.00561564,-0.0345732,0.0402585,-0.0515716,0.0829968,0.0296078,0.0691919,0.0698703,-0.0352983,0.0048513,0.0112915,-0.110376,-0.0169203,-0.0169659,-0.00514856,-0.0433384,-0.0244967,0.0144339,0.0110167,-0.0177832,-0.000161459,0.0941788,0.0876468,0.0401571,0.0623039,-0.0332396,0.0246915,0.0626332,0.028421,-0.0586655,-0.00237551,0.0586703,-0.0253814,-0.0156626,0.00669483,0.0840734,-0.00430484,0.00441713,-0.0151801,0.020508,-0.0274281,0.0706187,0.0204546,0.00891684,-0.00115526,0.00737184,-0.0631984,-0.00143886,-0.0340735,-0.00827365,0.0279444,0.177672,0.0748045,0.0142196,0.0870509,0.0854552,-0.0524166,-0.00874032,-0.0607352,-0.00599703,0.00044022,-0.0662527,-0.00519012,0.0142266,-0.0375981,0.102855,0.027038,0.0591322,0.0161043,-0.00693167,-0.0428869,-0.00632629,-0.0371467,-0.0466832,0.0583262,0.000798483,-0.0127982,-0.0174603,-0.00432033,-0.00050239,-0.00652485,0.118755,0.0865837,0.0167378,0.0844261,-0.0313627,-0.0812196,0.0043834,-0.0453078,0.0301308,-0.00903474,0.00863964,0.0333811,0.0651981,-0.0110905,-0.0623858,-0.014679,0.0149321,0.00394728,-0.0281444,-0.0693011,0.00837322,0.0567341,0.0113795,-0.00264167,-0.0128918,-0.0807292,0.0680892,0.000689183,0.0132907,0.0032461,0.0940136,0.0439969,0.0336051,-0.0266626,-0.0188897,0.0503125,0.08199,0.0562653,-0.0223371,-0.0234741,-0.00863559,-0.00763784,0.0215991,0.0160365,0.00529453,-0.00127531,-0.0600805,0.00973233,-0.00187751,0.0196901,-0.0044167,-0.0335662,-0.0306543,-0.00244524,-0.0210322,0.127699,0.00287621,0.0790458,-0.0123387,0.00635977,0.0771273,0.0211005,-0.00751464,-0.0418977,-0.00208517,0.0193235,-0.0233016,0.0164157,0.00242917,0.00946108,0.00781636,0.0284226,0.0477177,-0.0710245,-0.0943074,0.0121857,-0.0165522,-0.000608615,-0.00664422,-0.0508685,-0.0913029,-0.0580752,0.107914,-0.00816652,0.0510949,0.0116178,-0.0135271,0.0648671,-0.0108993,-0.0222232,0.093909,0.0267306,-0.0550761,0.0621634,-0.0217432,-0.0243796,-0.000203404,0.103973,0.0106219,0.0130091,0.0108348,0.0195349,0.0308916,0.0106383,-0.0211201,-0.0418752,-0.00452697,0.00844774,0.0438619,-0.0182805,0.0319469,-0.0209035,0.0271677,-0.0266096,-0.0533557,0.0191715,-0.018211,0.0160771,-0.0537757,0.0225951,0.0822311,0.0760619,0.0239346,-0.0298909,-0.0171693,-0.0369394,-0.0508667,0.00792388,0.0377773,0.0253789,-0.0360779,0.0171488,0.0307054,0.0605506,-0.0363098,0.00141456,-0.00927946,0.0851477,0.0839826,0.0923853,-0.0219437,0.0675188,0.0124783,0.0522004,0.0267755,0.0369177,-0.0214958,-0.00703919,0.0186797,-0.00722027,0.0288898,-0.0403196,0.0296944,0.0125835,-0.0227852,0.00141889,0.00601472,0.00950421,-0.0256564,0.0227631,0.0637158,-0.00353191,-0.0376359,-0.00449607,0.0309725,-0.0126316,0.0079953,-0.0225884,-0.0830619,0.050904,0.0933127,0.00887447,-0.0169835,0.0194364,0.0531751,-0.0446481,0.0403839,-0.0122406,0.00795035,0.0281075,0.0123007],
			"b":0.26249
		},
		"neuron 14": {
			"w": [-0.00547847,0.0413856,0.0115223,-0.0562171,-0.0202021,-0.0189835,0.0062742,-0.0433797,0.0559638,0.0201514,0.0128854,-0.0175792,0.0151609,0.0287329,0.0217416,-0.0218274,-0.0707648,-0.00277094,0.0464709,-0.0765634,-0.0325702,0.0233573,0.00406752,0.021669,-0.066667,0.0415945,0.0221958,-0.0193175,-0.0384836,0.0785709,0.0686069,-0.0683815,0.000299756,-0.0101476,-0.011889,0.0518346,0.0930742,0.0390113,0.000836941,0.00276011,-0.0526729,0.0430026,0.0748,-0.0735177,-0.00411893,-0.00548911,0.0291476,0.00271504,0.0493898,-0.0667968,-0.0174639,-0.0391957,0.0561137,-0.0567734,0.0175045,-0.0444958,0.0057777,-0.0790476,0.00938542,0.0387333,0.10406,-0.0507469,0.0448871,0.0235992,-0.0382652,-0.0208266,-0.0466823,-0.053497,0.0159544,0.0160129,-0.0295901,-0.0308952,-0.0628185,-0.0094664,0.0229903,0.060462,-0.0151026,-0.0876869,-0.00759767,-0.0337664,0.00671169,-0.0526247,-0.0181482,-0.0253491,0.0447195,0.0341398,0.0662494,0.00744157,0.0117354,0.00582432,-0.0186255,-0.0515162,-0.0415602,0.000228828,-0.0389671,0.0357008,-0.0553528,-0.0783152,-0.0128086,0.0810847,0.0274825,0.00278229,-0.0389376,-0.0646489,0.0700257,-0.0272077,0.0272551,-0.0110503,0.04121,-0.101082,0.0420794,-0.0206535,-0.081302,-0.0170668,-0.0369594,-0.0243518,-0.0123801,-0.0108642,0.0465307,0.0995593,0.0275468,-0.0275328,0.0668209,0.056353,-0.0987624,0.0343214,0.0411995,0.0407775,-0.014629,-0.0381794,-0.0665907,-0.00405475,-0.00487355,0.0248164,-0.0448233,-0.0686293,0.021409,-0.0441582,-0.00785016,0.0364039,0.0306979,0.0235508,0.0628034,0.00379427,0.0492894,0.0708375,0.00735217,-0.0440534,-0.0336461,0.087889,0.00245601,-0.0737395,-0.0214276,-0.0863506,-0.00019918,0.0417183,-0.0237825,-0.00623767,0.0332002,0.0309032,-0.0381818,-0.0279937,0.0159503,-0.0010888,0.0348666,0.00608126,-0.0264752,-0.0218883,0.0300149,0.0334819,-0.0525343,-0.0089548,-0.0471696,-0.00526547,0.0062563,-0.00519607,0.0439972,-0.0474553,-0.0120587,0.0359809,0.0701373,0.0189644,-0.0397417,-0.0482002,-0.115747,-0.0234406,0.0218141,-0.0182952,-0.021643,-0.00438861,-0.0488371,0.00895306,-0.0328754,0.0149101,-0.0233914,0.0125371,-0.0554799,0.00411509,-0.0355213,0.055918,0.0181093,-0.0249096,-0.0135561,-0.0600392,-0.0885423,0.0350291,-0.0524319,0.0423345,0.0575602,0.120496,0.0460857,0.0713744,-0.0308401,0.0239217,0.015964,0.0189839,0.0400217,0.0296897,0.0322588,-0.0364864,0.0442477,0.0237394,-0.0357769,0.0838696,-0.0748098,-0.0610509,0.0136255,0.0619784,-0.0594564,0.00300619,-0.0090827,0.0119518,0.00553235,0.0390013,-0.0826921,-0.078638,-0.0421396,-0.0668937,-0.0378102,0.119977,0.141937,0.0437356,0.0848517,-0.00246076,0.0223443,0.0251458,-0.0259446,0.0695584,-0.0343252,-0.0620541,0.0857779,-0.00442386,0.0399626,0.0645818,0.020504,-0.0213655,-0.0103872,0.044584,-0.0751225,0.0625246,-0.0249903,-0.0416296,0.0387884,0.0584538,0.0385113,0.0600177,-0.017909,0.0302999,-0.0207525,-0.0549451,0.0605069,0.0294977,0.00845787,0.0309229,0.0175817,0.0347388,-0.00419221,0.046659,0.00529294,-0.0321865,0.00182003,-0.00601847,0.0484641,0.00477064,-0.0205078,-0.0296199,-0.0374051,0.0819729,-0.0347567,-0.000704174,-0.0331955,-0.074982,-0.0134393,0.067061,-0.0534231,0.036999,0.0153879,-0.0446262,-0.0442995,0.109821,0.0632867,0.00126943,0.0131238,-0.0436062,0.0422149,0.0274586,-0.0422065,-0.00797275,-0.0049816,0.0433649,0.0748291,0.053002,-0.0550364,0.028583,-0.0533658,0.0763014,0.0151259,-0.0430577,-0.00710156,0.000388369,0.0320897,0.0745799,-0.0737622,0.0400974,0.0297019,0.0376754,0.02472,0.0190913,0.0176841,0.0471342,-0.0174134,0.0495958,0.0114068,0.0552731,0.0223303,0.0255304,-0.059692,0.0388051,-0.0910994,0.0220029,0.00722963,-0.0100664,0.0602896,0.023505,0.0526439,-0.00210029,0.0239554,0.0338921,0.0396583,-0.0169881,-0.0270607,-0.0206528,0.0307498,0.0197389,0.0391762,0.0673007,-0.0167242,0.0576209,-0.0583756,0.123197,0.150276,-0.00796618,0.044822,0.0109729,0.0579366,0.0126351,-0.0101629,-0.0519415,0.0494952,-0.0708911,-0.00507276,0.0250922,-0.0336381,0.0338207,-0.028135,0.00556769,0.00292185,-0.0375268,-0.00764965,-0.0283759,0.0317802,0.00521278,-0.0193535,0.0140476,0.0300221,0.0099724,-0.00542043,0.0510303,0.0210409,0.163651,0.0197567,0.0825359,-0.0679894,0.0405105,0.00679178,0.0361473,0.012186,-0.0163563,0.00512635,0.0143739,0.0176618,-0.00874708,0.0263156,0.0146727,-0.0496769,-0.0295616,-0.0478708,-0.0234011,-0.0452345,0.0191065,0.0547283,0.0934386,0.0445468,-0.0185173,0.000223797,0.0520537,-0.0130805,-0.0328131,-0.0185996,0.107139,0.108781,-0.0272952,0.0469643,0.0293816,0.0141208,0.00253872,-0.0505219,0.026739,-0.00399166,0.0340989,-0.0338115,-0.0234555,0.0947471,-0.0216862,0.0334927,0.0371233,0.0866704,-0.00581451,0.0345664,0.0210019,-0.0125484,0.0141117,-0.0167067,0.0530464,0.0408578,0.0476085,0.0564691,0.0179189,0.0299137,0.0581975,0.00104005,-0.0217271,0.0154807,-0.0360904,0.0785395,-0.0805793,0.0458786,0.0293744,0.0234414,0.0483737,0.00421185,-0.0481329,-0.00547837,-0.0348529,0.0112933,0.0882623,0.0288776,0.0727438,0.0283679,0.00705843,0.0483793,-0.035477,-0.0225977,0.0121129,-0.00276452,-0.00327338,-0.00353767,0.0538179,0.0027696,0.0445591,0.0645512,0.00702262,-0.018455,-0.0212485,0.0274713,0.0215605,0.0158573,0.060222,0.0760738,-0.00366282,-0.0788998,0.0537455,0.0283628,0.101296,0.0504517,-0.0214784,0.0760337,0.00868631,0.0545039,-0.03014,0.00810239,-0.0680638,0.0741148,0.00839671,0.00473585,0.00822166,0.000455182,0.067568,-0.0238292,0.0446435,0.0616995,0.00604812,-0.042973,-0.0248518,0.0445,-0.0115688,-0.060285,0.0306143,-0.0304782,0.0546164,0.017497,-0.0301321,-0.0254973,0.0993697,0.0641421,-0.00237254,-0.0488094,0.0248432,-0.000174776,-0.00485154,-0.0321533,0.00897141,0.0426367,-0.00121314,-0.0734261,0.0751968,0.0241483,0.0056658,0.0421344,0.0834468,0.0202233,0.0370238,-0.0441383,-0.0368999,0.0207496,0.0223839,0.0281172,0.00734825,0.0234182,-0.00872861,0.006565,0.013201,-0.0533774,0.0102003,-0.0492739,0.031048,-0.0212061,0.0400504,0.0404118,0.0394168,0.0378703,0.028358,0.0309218,0.0125013,0.0373837,-0.00834335,0.0156508,-0.00206318,-0.0219537,-0.0453909,-0.0101519,-0.00320347,0.019431,-0.0466408,0.0470355,-0.00602348,-0.0169595,-0.0572195,0.0213211,-0.0261386,0.0354253,0.0163676,-0.0514657,-0.0727059,0.0247773,-0.0149875,-0.0206111,-0.0519382,0.00497577,-0.0198002,-0.0181424,0.0668448,0.00130007,0.0525417,0.0323576,-0.0250313,-0.0404992,-0.0286042,-0.0317795,0.0443367],
			"b":0.184865
		},
		"neuron 15": {
