{
"Network": {
	"Layer 0": {
		"neuron 0": {
			"w": [-0.012311,0.923326,0.0882317,0.462198,0.117258,0.0900884,0.0174807,-0.0815216,-0.100801,-0.11434,-0.146145,-0.0397046,0.012806,-0.0588965,-0.0199193,-0.0267745,-0.14504,-0.0909702,-0.151193,-0.0481022,-0.0210029,-0.0195369,-0.144534,-0.142185,-0.0997225,-0.207178,-0.343583,-0.390985,-0.386276,-0.685422,0.693598,0.942002,0.131869,0.100557,-0.0611636,0.0639499,-0.0469801,-0.117962,0.0295876,-0.0306785,-0.0651737,-0.0591237,-0.110803,0.033756,-0.0665107,-0.069174,-0.0183194,-0.0313372,-0.0923735,-0.0845122,0.0150205,-0.0536695,-0.0351956,-0.154475,-0.186217,-0.202236,-0.221918,-0.344047,-0.519286,-0.588132,-0.400173,1.51519,-0.480643,0.170979,-0.14226,0.0866232,-0.0553613,-0.060872,-0.0791377,-0.0426903,-0.0430235,-0.0683079,0.00854761,-0.00526231,-0.0879131,-0.0470432,-0.00995485,-0.0295484,-0.00265352,-0.141504,-0.0913969,-0.0156008,-0.0483905,-0.112699,-0.166907,-0.230539,-0.140555,-0.257763,-0.353267,-0.758832,-0.726719,-0.0390882,-0.0315148,0.201124,-0.0899202,0.0433868,-0.0527315,0.0241259,-0.0327939,0.00186625,0.0246833,0.0597633,-0.00278019,0.0430891,-0.0923003,-0.070515,-0.12277,-0.0741207,-0.00635013,-0.0123466,0.00597533,-0.164007,-0.00201933,0.0479593,0.0019196,-0.0221572,-0.179857,-0.357756,-0.367842,-1.06335,-0.139837,0.782958,-0.412194,0.119211,0.0373329,0.0586005,-0.0908868,-0.214946,-0.0567802,0.0445142,-0.0780716,0.0022713,-0.05812,-0.016795,0.00679428,-0.0669158,-0.0275732,-0.013665,-0.1214,0.045199,-0.0875443,0.0130611,-0.0142458,-0.122117,-0.109595,-0.0382126,-0.0577485,-0.316889,-0.437054,-0.978889,-0.0956357,1.1728,0.190431,0.0892384,-0.0707888,0.0434227,-0.0822645,0.0664603,-0.038138,-0.274632,-0.159946,-0.209618,-0.136495,-0.0917267,-0.0865135,-0.0361165,0.0651064,-0.0842798,-0.0898338,-0.10947,-0.0907556,-0.0669093,-0.0946059,0.00252874,-0.0256702,0.096373,-0.0101013,-0.175681,-0.472126,-1.46986,-0.0622758,1.50257,0.220623,0.114873,0.0625372,0.0257009,0.051953,0.0498293,0.0462753,0.0737638,-0.0457121,-0.0857352,-0.1948,-0.167708,-0.226966,-0.161552,-0.157553,-0.0620292,-0.0445489,0.010796,-0.000551523,-0.0899663,-0.0986961,0.0144138,-0.0336897,0.145353,0.0601538,-0.504088,-0.373018,-0.752678,-0.21262,0.508341,0.761042,0.0536777,0.0628872,-0.0615514,-0.0196021,-0.0234221,0.1657,0.0409481,-0.0397011,-0.0758743,-0.0670608,-0.0216479,-0.0953317,0.0114735,-0.0834708,-0.182573,-0.0462771,-0.230758,-0.103429,0.0702204,-0.125834,0.0111203,-0.164703,0.0406832,-0.763036,-0.0135255,-0.765179,-1.05244,-0.102846,0.751742,0.219937,0.0224768,0.0288396,0.11494,0.0694286,0.120217,-0.00304977,-0.034972,-0.0794543,-0.0743551,-0.0668874,-0.011179,-0.0545824,-0.0714697,-0.118217,-0.102681,-0.084379,-0.171305,-0.111712,-0.171462,-0.178994,0.257307,0.0994619,0.643577,0.762358,0.423016,1.28636,-0.958021,-0.616568,0.321635,0.0199084,0.0499233,0.647971,0.474101,0.186967,0.0404688,0.137225,0.0351292,-0.017255,-0.0410217,-0.0342558,-0.0239688,-0.105674,-0.0129245,0.0548525,-0.0148942,-0.192409,-0.11614,-0.0155589,-0.0664595,-0.033851,-0.113405,-0.118052,0.117965,-0.211693,-0.344374,0.42015,-0.47764,-0.22644,0.584103,-0.118306,0.0607649,0.160079,0.286833,0.355897,0.0661354,0.0742108,0.104128,0.00872423,-0.07801,-0.145094,-0.283236,-0.278657,-0.0308274,0.189603,0.11874,0.187874,0.109599,-0.0728585,0.0981598,0.00886112,0.0639723,-0.0895547,0.898063,-0.360841,-0.461604,6.36425,1.11717,-0.419457,0.966122,0.355333,0.114564,0.0250426,-0.0252486,0.245628,0.112875,-0.0816277,-0.0544924,-0.057906,-0.0787537,-0.0177185,-0.13305,-0.0540947,0.0211992,-0.0149031,-0.00366283,-0.0819813,-0.127695,-0.145872,-0.226698,-0.32459,-0.0539743,-0.802539,0.423592,0.0384377,2.54403,2.52589,0.226699,-0.0360358,0.569107,0.893716,0.114341,0.00137701,0.0328582,0.0184051,0.022294,0.157644,-0.0271764,0.000887115,-0.048666,-0.121489,-0.0576922,-0.0766064,-0.150823,-0.199659,-0.122765,-0.181467,-0.159188,-0.0937067,-0.088966,-0.177855,-0.127471,-0.266282,-0.0549838,-0.323009,0.653852,2.02919,-0.893031,-0.432753,1.47486,0.0887142,0.0798457,0.147563,0.0284704,0.111873,0.149971,0.00116829,0.102331,-0.0891437,-0.0492582,-0.14262,-0.113958,-0.0666688,-0.0620174,-0.130973,-0.0421155,-0.09124,-0.10165,0.0909233,-0.0310955,-0.0566712,-0.0315989,-0.152762,-0.163901,0.0616014,0.0633256,0.809442,0.403678,0.565276,0.718363,0.153731,0.142503,-0.0310646,0.0130111,0.000961675,-0.0154599,-0.0601125,-0.107422,-0.0827711,-0.0557681,-0.116024,0.0340205,-0.0850106,-0.0438198,-0.0159165,-0.00733236,-0.0108723,-0.0824594,-0.088138,-7.99136e-05,-0.0968483,-0.136725,-0.163257,-0.0528636,-0.0847502,-0.0568633,0.177095,0.53747,-0.213284,0.418464,-0.180553,0.0294921,-0.0923865,-0.0285848,-0.0650785,-0.0317884,-0.0477274,-0.0616258,-0.0652565,-0.0289131,-0.0751169,-0.00184805,-0.0752318,-0.0127002,0.0223165,-0.0845431,-0.00987804,-0.0576489,-0.0996206,-0.118406,-0.12307,-0.111911,-0.0265054,-0.00310416,-0.0815314,-0.189741,-0.36081,0.25957,-0.817559,-0.369865,-0.215259,-0.158824,0.00795466,-0.0364836,0.0310297,0.0418869,-0.0477378,-0.0485866,-0.0266178,-0.0482109,0.00531833,0.0369109,-0.0480382,-0.11576,-0.0273475,-0.0226413,-0.0678329,0.00342119,-0.131581,-0.116058,0.00316646,0.110056,-0.111658,-0.112316,-0.280591,-0.442404,-0.337159,-3.48098,-0.313218,0.326084,0.0258924,0.0239465,-0.0551343,0.00951809,-0.0122717,-0.0626136,-0.0153493,-0.0450312,0.0900934,0.0126432,0.0548169,0.0416785,-0.0658169,-0.0472007,0.0246124,0.0064566,0.0758917,-0.113163,-0.131254,-0.0566049,-0.0470777,0.00375452,-0.131369,-0.131899,-0.153635,-0.220604,-0.369738,-0.263387,-0.286143,0.275294,-0.151584,0.0588502,-0.082526,-0.0236484,-0.0765721,-0.0716902,-0.0402396,0.0433833,0.0585059,0.0527462,-0.0871397,-0.00908011,0.00381416,-0.0574106,-0.0976428,-0.0217184,-0.0629708,-0.107902,-0.0209129,0.0209423,-0.0748835,-0.0663279,-0.107603,-0.123721,-0.239827,-0.535584,-0.522813,-1.48311,-0.360142,0.413294,0.0513641,0.218396,-0.00618413,-0.0824896,0.0418055,-0.0238783,-0.0751557,-0.0649233,-0.0726186,-0.0281369,-0.0230535,0.0106138,0.0244887,0.0183483,-0.152029,-0.144215,-0.140761,-0.140015,-0.00118134,-0.0419231,-0.0102869,-0.0494795,-0.150785,-0.214378,-0.427547,-0.358152,-0.481661,-0.632651],
			"b":-3.34203
		},
		"neuron 1": {
			"w": [-0.295121,0.664611,-0.0174515,0.155153,-0.149327,0.00715009,-0.103706,0.0433037,-0.0527818,0.0628273,-0.0270163,0.048324,0.0225628,0.0230016,-0.018537,-0.00280286,-0.0526159,-0.0410035,-0.128774,0.0136113,-0.0595309,-0.0380311,-0.108719,-0.0737522,-0.181121,-0.208728,-0.306158,-0.34367,-0.323889,-0.619623,-0.0860215,0.339363,0.105633,0.0484355,0.119721,0.0819816,-0.00500032,0.0936764,0.0197371,0.033618,0.0534976,0.0477338,-0.00991441,0.0192006,0.00437511,-0.0406578,-0.0698048,-0.00506368,-0.0709868,-0.11277,-0.187756,-0.028356,-0.0426909,-0.145813,-0.183605,-0.212796,-0.392788,-0.577157,-0.576612,-0.494596,-0.738117,0.713303,-0.18659,-0.0559512,0.0204638,-0.0050355,0.0903753,-0.00708639,0.0347774,0.0600341,0.0163285,0.00624855,-0.0921278,0.0126661,-0.0665426,-0.05474,-0.0865946,-0.0870714,0.0288093,-0.0239778,-0.0156972,-0.0742373,-0.0753381,-0.144968,-0.148225,-0.219194,-0.173248,-0.489049,-0.424712,-0.494416,-0.576529,0.251558,-0.0580951,0.153121,0.063924,0.063554,0.143962,0.0971175,0.0550933,-0.0457406,0.000927791,0.0111804,0.0327456,0.021074,-0.0771217,-0.0235202,-0.0979422,-0.157524,-0.0547808,-0.084963,-0.00747059,-0.109444,-0.0680545,-0.193148,-0.0901364,-0.166737,-0.321572,-0.53453,-0.385531,-0.315947,-0.555586,0.300188,0.0151992,0.0395802,-0.0115618,0.0313358,-0.0926133,-0.0504147,0.110133,-0.0074838,-0.0914812,0.108802,0.0294317,-0.060107,-0.082684,-0.0290761,-0.128815,-0.0583612,-0.0569367,-0.0656785,-0.0847663,-0.0288859,-0.117226,-0.0161212,-0.32783,-0.225653,-0.301304,-0.723236,-0.735922,-0.506383,-0.0574754,0.685156,0.132065,0.194118,-0.0827605,0.0612634,0.0396705,0.0189798,-0.0270546,-0.10464,-0.000524318,-0.0318503,-0.0609687,-0.0493502,-0.00738465,-0.0374192,-0.0893258,-0.0210867,-0.0929165,-0.0294262,-0.081568,-0.16084,-0.150166,-0.0528699,-0.214995,-0.330403,-0.392515,-0.407637,-0.390689,-1.24712,-0.0425071,0.752831,0.0463277,0.0188548,0.0989714,0.101856,-0.00277276,-0.0520503,-0.011027,0.201146,0.0107121,-0.075716,-0.0594199,-0.0317505,-0.0407348,-0.0599081,-0.181412,-0.0723576,-0.105268,-0.101796,-0.140545,-0.162581,-0.20674,-0.140635,-0.157348,-0.304438,-0.449302,-0.847864,-0.34076,-1.34762,-0.0125817,0.239021,0.201312,-0.00454747,0.167262,0.0572573,0.00580889,-0.0387662,0.118683,0.0402377,-0.0019962,0.00371219,0.0111219,-0.123438,-0.0123255,-0.103331,-0.106261,-0.141394,-0.106286,-0.163997,-0.102679,-0.115561,-0.116411,-0.0757939,-0.332982,-0.321896,-0.195826,-0.337834,-0.438204,-1.67377,-0.133872,0.192282,0.0349119,0.0774873,-0.0705854,-0.0072296,0.170544,0.17466,0.0158983,-0.168171,-0.16356,-0.0425317,-0.0912367,-0.0748384,-0.134628,-0.0834909,-0.0909702,-0.254892,-0.212259,-0.156579,-0.0318242,-0.167358,-0.194027,-0.0802423,-0.214413,0.11221,0.234627,0.367938,0.0897305,-1.70717,-0.3922,0.231042,-0.0765498,-0.1599,0.381437,0.25592,0.0774674,-0.0746182,-0.010072,-0.0913957,-0.0258445,-0.227339,-0.244934,-0.133573,-0.285965,-0.216703,-0.168158,-0.280657,-0.185454,-0.175305,-0.205592,-0.0971894,0.0595854,-0.0492505,-0.160767,-0.219723,-0.243051,-0.506095,-0.0640018,-1.67461,-0.203296,0.266308,0.0594582,-0.088775,0.240441,0.397112,0.189176,-0.0155415,-0.0581409,-0.0620152,-0.0336169,-0.201582,-0.103751,-0.0424096,-0.246062,-0.304161,-0.187829,-0.0332696,0.0298435,-0.108491,-0.040546,-0.18791,0.0271939,0.0977371,0.147799,1.16595,1.31922,3.79982,2.61527,-0.863962,0.0503052,0.460818,0.0326375,0.0985244,0.106891,-0.0847522,0.224752,0.31272,-0.103445,-0.178877,-0.108475,-0.120309,-0.0357387,-0.17053,-0.106067,-0.0573449,-0.0969545,-0.121894,-0.0970238,-0.0823263,0.0307745,-0.0367434,0.198548,0.603103,0.138798,0.941972,1.00891,1.78372,1.27818,-0.965552,0.0492621,0.0896299,0.338559,0.0417845,0.0218255,-0.136848,-0.0184568,-0.00366624,0.120633,-0.0805381,-0.0220721,-0.0995022,-0.0221034,-0.0705734,-0.0588805,-0.0936726,-0.157296,-0.0258404,-0.105396,-0.0534337,-0.0185218,-0.10804,0.0996483,0.102147,0.0871226,0.47264,0.401003,1.1294,1.34553,-0.395397,0.0430916,0.654774,-0.0845876,0.0548016,0.0938383,-0.0335918,-0.0978399,-0.0201747,0.0130305,0.0834447,-0.00932116,-0.0720915,-0.128763,-0.100829,-0.207188,-0.0896475,-0.0748029,-0.088348,-0.0800993,0.00475735,-0.0787751,0.0311601,-0.0139224,-0.0352056,0.0660523,0.275744,0.255551,1.20289,1.08173,0.264773,-0.0390064,0.0302666,-0.274518,0.139856,0.0255291,-0.0693771,-0.064673,-0.0103792,-0.135425,-0.232529,-0.182373,-0.246523,-0.10745,-0.151252,-0.0773696,-0.0632747,-0.0784368,-0.033716,-0.0582368,-0.160209,-0.0810443,-0.113391,0.00621542,-0.0373634,0.111911,0.0549471,0.390901,0.609431,0.689422,0.974599,-0.325713,-0.268396,0.0724918,-0.0896387,-0.0197441,-0.0718203,-0.123289,-0.0798974,-0.149039,-0.0569449,-0.0924482,-0.0674787,-0.160093,-0.00147241,-0.00847362,0.00329032,-0.0284915,-0.115072,-0.0533162,-0.0762161,-0.0745202,-0.0653839,0.0636717,0.126956,0.0335754,0.115204,0.24675,0.476086,0.741981,0.0465327,-0.701364,-0.148044,-0.193399,-0.0366073,-0.0808919,0.0384821,-0.0777798,-0.0535007,-0.0495015,-0.0410004,-0.0659031,-0.0731031,-0.0598936,-0.130936,-0.074341,-0.0802623,-0.135027,-0.0156252,-0.115401,0.0261603,-0.0309078,0.0856493,0.0638774,-0.0648589,-0.0737301,0.140074,-0.00935267,-0.0769756,0.680152,1.13241,-0.0762427,-0.144032,-0.104528,-0.0614778,-0.00112122,-0.0644791,0.0431947,-0.0735624,-0.0304425,-0.00163441,0.0142934,-0.0348741,-0.000142636,-0.0543882,-0.078181,-0.0552728,-0.0180178,0.0225115,0.0259664,-0.054122,-0.000433532,0.0756329,0.092052,0.0114402,0.00992462,0.178967,-0.0963985,-0.445426,-0.102511,0.166225,0.246041,0.312965,0.00581186,0.066334,-0.073452,-0.0702429,-0.0861147,-0.0279888,-0.0872665,-0.0875649,-0.0508722,-0.0643633,-0.0661042,-0.0777866,-0.0129056,-0.00782802,0.0505471,0.0204674,-0.0188816,-0.0277392,0.00344173,-0.00427709,0.0395517,-0.00122421,0.0168642,0.266073,-0.103488,-0.451555,-0.464909,0.179679,-0.065157,-0.146995,-0.0544757,0.293529,0.0394347,0.0482545,0.0596939,-0.0300335,-0.0522963,-0.0594806,-0.0851704,0.0125879,-0.0345366,-0.0160206,-0.0274327,0.0317422,-0.0928337,0.00370198,-0.108295,0.00732571,0.0844935,-0.00524409,0.0438536,0.00831546,0.0163048,0.0139034,-0.320295,-0.964853,-0.997065,-1.02054],
			"b":-2.37708
		},
		"neuron 2": {
			"w": [-0.326865,0.303978,0.111171,-0.00664913,0.143956,0.123429,0.0817439,0.230321,0.188355,0.136454,0.0990703,0.0394182,0.146886,0.090407,0.0711034,0.0305786,0.100784,-0.00595162,0.0924884,0.0175667,-0.0199311,-0.0150169,-0.00681486,-0.071263,-0.0560735,-0.0257385,-0.0885986,0.214345,0.0744212,-0.791508,-0.556914,0.566349,0.120912,0.10456,0.106949,0.100412,0.0710629,0.263218,0.0798213,0.038134,0.0501189,0.0548427,0.062814,0.0592183,-0.0141133,0.108978,-0.0535734,-0.00880717,0.0736519,0.085469,-0.0732964,-0.108973,-0.0537306,0.0388816,-0.157631,-0.0280919,-0.0860546,-0.185375,-0.491196,-0.37115,-0.440031,0.314003,-0.0558082,0.27458,0.0352442,0.0428055,0.075688,0.128496,0.0952414,0.0488514,-0.0155423,0.14914,0.0544624,0.00072307,0.00233203,0.0987976,-0.0093222,0.0765766,-0.017108,0.0906999,-0.00301624,-0.010648,-0.0119051,0.0598017,0.0174222,0.0567601,0.152308,0.103145,-0.220644,-0.669192,-0.605458,0.240028,0.0933217,0.0502233,0.105452,0.199951,0.147446,0.129745,0.140905,0.101642,0.0571885,0.101371,-0.00738292,-0.000858527,-0.028944,0.0218278,0.0223311,0.123815,0.0658787,-0.0758769,-0.0634635,-0.0398372,0.0176912,-0.0271566,-0.0192658,0.378326,-0.12647,-0.411741,-0.295798,-1.36858,-0.540713,0.597402,-0.158773,0.19411,0.131573,-0.0301323,0.124989,0.0459666,-0.0304411,0.037439,0.121379,-0.0460533,0.0304376,0.0470192,0.0628468,0.0433724,0.0729388,-0.147726,-0.0437673,-0.0355978,-0.0458089,0.00808854,-0.14238,-0.11205,0.0758427,0.0156115,-0.0338757,-0.352568,-0.717328,0.381494,-0.0338749,0.347576,0.0277294,0.081659,0.0343079,0.112249,0.181842,0.0537616,-0.138388,-0.0984716,0.0719327,0.0648753,-0.00097985,0.0910898,0.0635301,0.0132803,0.102288,0.0555986,-0.095406,0.0891064,-0.0126839,-0.0179778,0.0555238,-0.0029465,-0.0596323,0.139988,-0.14095,-0.57327,-0.796963,0.888799,-0.309128,0.395869,0.116767,0.21943,0.0412849,-0.0657501,0.0723748,0.0928998,0.1308,0.0966152,0.0841144,0.0610342,-0.0729499,-0.0282795,-0.0787914,-0.0503841,-0.203711,0.0365132,0.0179091,-0.0235247,0.0726181,-0.0717805,-0.0285752,-0.0971367,0.0257031,-0.0324931,-0.315001,-0.289864,-0.435787,-0.20728,-0.189314,0.49654,0.294367,0.262114,0.00992451,0.00907341,0.0970899,-0.0296895,0.0487391,-0.0509139,0.0664371,0.000351835,-0.0454928,-0.036343,0.0407196,-0.0184836,-0.0471642,-0.198453,-0.172144,-0.153688,-0.0772991,0.0313852,-0.19018,-0.164943,-0.413275,-0.426016,-0.0980788,0.261962,0.349752,0.919938,-0.243084,0.377022,0.0953953,0.0911773,0.180143,0.01295,0.0747075,0.0743411,0.166902,0.0270464,-0.0522384,-0.0739933,-0.0536917,-0.0636332,-0.0917801,-0.0639092,-0.0644682,-0.135152,-0.0644223,-0.178547,-0.0234698,-0.261205,-0.0685645,-0.342356,-0.30779,-0.305069,0.273244,1.57895,0.942603,0.458862,-0.13777,0.162083,-0.158072,-0.110301,-0.0496368,0.33065,-0.0526142,-0.0127083,0.00957913,0.051441,-0.0388354,-0.124138,-0.0292314,-0.0735588,-0.0895482,-0.0855201,-0.110139,-0.0641715,-0.10067,-0.147325,-0.0578759,-0.0265369,-0.0871374,0.135701,-0.196391,0.051763,0.163364,0.369188,0.404969,-0.81167,-0.0942462,0.570722,0.177451,0.00571475,0.397967,0.400475,0.295219,0.0452448,0.000483516,0.0503829,0.0837116,-0.125013,0.0294306,0.0537521,-0.20706,-0.243643,-0.0842119,-0.0817053,0.057131,-0.131414,-0.110683,-0.0790635,-0.241637,0.0449355,-0.815062,-1.5783,-1.41709,-1.22678,2.51977,-0.713944,-0.0744617,0.190385,0.0857497,0.0479788,-0.0403195,0.00269382,0.118263,0.0562152,0.0502316,-0.0797974,-0.00764389,-0.0861746,0.0777898,-0.028895,0.00730325,0.120011,0.00581324,0.0360383,0.0244359,0.011325,-0.017962,0.136292,0.236631,0.120272,0.172123,0.283422,-0.233096,-1.10488,-0.556425,-1.05046,0.195933,0.294621,0.371226,0.16343,-0.0951038,0.0441644,0.0718028,0.00354096,0.0395547,-0.000634521,-0.0132756,0.00870896,0.0438679,0.0326239,-0.0124907,-0.00523977,-0.091168,0.0897816,-0.0135955,0.0482826,0.00229114,0.0302427,0.103118,0.156848,0.168622,-0.122025,0.0266776,-0.494672,-1.56297,-1.27887,0.0362723,0.639228,0.0918993,0.185844,-0.0278677,0.0552417,0.124679,0.106487,-0.00776839,0.109948,0.0214638,-0.112043,-0.090144,-0.0900608,-0.0608638,-0.0288132,-0.0463632,-0.0954496,-0.00737156,0.0551437,-0.0755095,0.0281683,-0.0811165,0.0452146,0.203939,0.0931602,0.209128,-0.789898,-0.848478,0.375206,-0.222738,0.284808,0.238347,0.0184856,-0.152329,0.0562367,0.0610971,-0.0258685,-0.0466103,-0.118521,-0.158506,-0.129088,-0.11804,-0.0860815,0.0385039,-0.0310164,-0.00226516,0.0409555,0.0486337,-0.13163,-0.0471092,0.00784327,0.144901,0.0254716,-0.0203983,0.00542689,-0.132588,-0.378697,-0.51406,1.00398,-0.0352315,0.197711,0.178442,-0.0516077,-0.101898,-0.0276311,-0.0821811,-0.10243,-0.101043,-0.0825771,-0.0539604,-0.106404,-0.0579345,-0.00542441,-0.0903742,0.0593053,-0.0774748,-0.0389453,-0.042125,0.0109988,-0.0261845,0.0621498,-0.0402609,-0.0153575,0.045079,0.0751782,-0.0429031,0.0411543,0.0835061,-0.132411,-0.526267,0.149226,-0.25216,0.198559,-0.0681847,0.0505402,0.0395633,0.107164,0.0139567,0.0204135,0.000776353,-0.054973,-0.0550705,-0.175027,-0.000975133,-0.0329866,-0.0966421,-0.017712,-0.0479286,0.0035495,-0.112341,0.060444,0.0391771,-0.146036,0.00417831,0.0956437,0.215298,0.975727,0.104725,2.17549,-0.352244,0.351425,-0.0141533,0.272341,-0.0161505,0.0816134,0.0104628,0.00209391,0.0818691,-0.0149683,0.00891666,0.043514,-0.0473999,-0.0442298,0.000666233,-0.146387,0.0286276,-0.0033839,0.115005,-0.0918198,0.029089,-0.200973,-0.0193462,0.116346,0.0799465,-0.0595418,0.249202,0.271617,0.822475,0.141827,-0.142379,0.0274468,0.0891136,0.0554696,-0.0145167,0.0171881,0.0244095,-0.0450046,0.0191448,0.0122135,0.0340459,-0.0468694,-0.097483,-0.0642793,-0.0397482,0.040455,-0.0650202,-0.136843,0.0181187,-0.0716078,-0.0515723,-0.147648,0.0457714,-0.0672407,-0.0228508,-0.00783872,0.252269,1.3023,1.3005,-0.268125,0.103055,0.759229,0.344881,0.246257,0.0691282,0.08342,0.0298966,0.0305517,0.0362039,-0.0547924,0.0789586,-0.0499471,-0.0460548,0.00280028,-0.112684,-0.042151,-0.0448423,-0.078838,0.0164328,-0.11854,-0.0329118,-0.0151534,-0.0143133,-0.028968,0.153041,0.120007,0.657323,1.0655,0.360251,-1.31874],
			"b":-2.54502
		},
		"neuron 3": {
			"w": [-0.0610463,1.67269,-0.0644395,0.626862,0.0723867,0.179266,0.0512042,0.00761587,-0.0769584,-0.0723655,-0.21348,-0.0370277,0.0241897,-0.0358811,0.0742157,0.05394,0.0247001,-0.124516,0.00747089,-0.0923594,-0.176287,-0.182562,-0.273316,-0.195829,-0.25215,-0.245789,-0.52155,-0.896529,-0.980381,-0.643732,0.254425,2.48741,-0.0515888,0.366153,0.101166,-0.076101,-0.0114107,0.00248463,0.0359397,0.0301687,0.0349164,0.054837,-0.179234,-0.116207,-0.0420104,0.105843,-0.0423905,-0.0123716,-0.0951841,-0.233766,-0.115858,-0.164218,-0.141368,-0.251211,-0.38152,-0.316999,-0.418661,-0.965414,-1.28754,-0.915933,-0.800748,0.868183,-0.257099,0.247411,-0.0663633,0.149128,0.0478363,-0.0435601,0.029461,0.161931,-0.0134338,0.0485439,-0.0915465,0.191141,0.178867,-0.0799642,0.054274,0.0770023,0.00931289,-0.0129241,-0.0447218,-0.179527,-0.196781,-0.198705,-0.363809,-0.368133,-0.457883,-0.661291,-0.964037,-1.33686,-0.546408,-0.367453,-0.111355,0.15763,0.0369313,0.181723,0.213827,0.0699856,0.148828,0.118009,0.0911214,0.166858,0.156151,0.474631,-0.0954689,-0.0113591,0.00349222,0.0421107,-0.0496284,-0.0899732,-0.0542703,-0.0533443,-0.151283,-0.307755,-0.289492,-0.156606,-0.449146,-0.856393,-0.777946,-1.83391,-0.0714734,-0.0616921,0.121332,0.277929,0.182325,0.158576,0.0499142,-0.200561,0.087751,0.177315,-0.0852733,0.662475,0.136858,0.0140089,0.017083,0.0839805,0.0853764,0.0381967,-0.0231481,-0.0261307,-0.175709,-0.0938515,-0.272624,-0.134866,-0.296015,-0.298933,-0.532663,-0.904511,-1.38977,-1.11922,0.485429,1.57869,0.111128,0.403077,0.179114,0.22596,-0.101945,0.188258,-0.0996708,-0.158805,0.163758,0.00267857,-0.040228,0.0377659,0.136255,0.0280785,0.11677,-0.0402944,-0.0322336,-0.0785165,0.061874,-0.104403,-0.129051,-0.0608997,-0.345982,-0.19893,-0.615745,-1.0249,-1.30897,-0.300381,0.237031,1.61137,0.368001,0.449798,0.217745,0.111666,0.345599,0.196705,0.188785,0.416891,0.226758,0.00288479,0.063004,-0.0809362,0.0786662,-0.00333768,-0.042634,0.00380673,-0.0236605,-0.088908,-0.132462,-0.147785,-0.127092,-0.354776,-0.32621,-0.321562,-0.878198,-1.61998,-1.38792,-1.05898,-0.013302,1.46919,0.557145,0.273645,0.148224,0.162098,-0.0245663,-0.0279179,0.634834,0.0303895,0.0244649,0.14667,-0.0334369,0.0102592,0.0810914,-0.0770936,0.0297816,0.095396,-0.160169,-0.117966,-0.0328853,-0.279451,-0.218146,-0.309286,-0.199784,-0.598297,0.111027,-2.0663,-2.75206,0.0547726,0.0208504,1.36652,0.389447,0.307544,0.24295,-0.127384,0.403264,0.431554,0.151921,0.0393889,0.0818891,-0.0639597,0.128515,-0.0331297,-0.147774,-0.0511718,-0.137659,-0.190561,-0.0339909,-0.209844,-0.216154,-0.148018,-0.113107,-0.538158,-0.422514,-0.777496,-0.767987,-1.29719,-2.6609,-0.22926,0.361532,0.448141,-0.314024,0.0420435,0.179327,0.253009,0.179324,0.0270753,0.177071,0.0601075,0.191128,-0.0834537,-0.0780814,0.0810386,-0.223122,-0.166314,-0.189303,-0.196559,-0.18548,-0.104328,-0.249623,-0.0354137,-0.397198,-0.0826421,-0.0807438,-0.0700349,-0.0224306,-0.442725,-0.896485,-0.0872629,0.687684,0.269488,0.119822,-0.0512104,0.252346,0.270802,0.115703,0.117714,0.127885,0.11011,0.0615513,0.0762589,0.116946,-0.107875,0.0617862,0.105518,0.23575,-0.0301982,0.179862,-0.00456379,-0.131883,0.0883253,0.0274965,-0.17245,-0.366984,-0.587047,-0.733039,-2.68914,2.16439,1.00906,0.399997,1.83627,0.342079,0.380561,-0.0440251,-0.0328279,0.215943,0.274476,-0.082101,-0.0861744,0.0916009,0.024207,0.0682303,-0.00806095,0.0365944,-0.0194451,0.0460078,0.101872,-0.103973,0.166425,0.0605133,0.244266,0.0345219,0.190267,0.684475,-0.125013,0.301578,0.0307764,0.973163,0.300221,0.0788469,1.40804,0.605786,0.114626,0.11758,-0.110404,-0.0191668,-0.137639,0.204744,-0.0303713,-0.0613176,-0.0670798,-0.0456642,0.0463749,0.0153287,0.0144689,-0.0576394,-0.120071,0.0811452,0.0123409,0.10912,0.200139,0.0566721,0.150064,0.139166,0.374557,-0.184717,1.39574,0.337468,-0.650899,0.0932457,1.68769,0.118145,0.0990458,0.298706,0.0632556,0.0115675,0.0785493,0.0281297,0.293752,0.04988,0.0312767,-0.165789,-0.0818386,-0.186847,-0.0806603,-0.019911,0.0784518,-0.0329285,0.147238,0.0381971,0.00411817,0.0969323,0.370126,0.31212,0.610217,1.10074,0.935636,0.365063,0.246011,0.137749,1.32829,0.116652,0.0780257,0.101916,0.07793,-0.0277736,-0.0147348,-0.178439,-0.2674,-0.0882493,-0.295968,-0.12762,-0.163101,-0.126589,-0.0455411,-0.0429406,-0.0449671,-0.0102711,-0.03736,0.14459,0.190002,0.211257,0.0338256,0.748744,0.735396,1.06772,0.412835,0.393051,0.24105,0.583733,-0.515675,0.103635,-0.145359,-0.264503,0.0894385,-0.248736,-0.0128665,0.00924292,0.0288568,-0.0887835,0.0229638,-0.0402352,-0.0888256,-0.0367237,-0.00527184,-0.0430739,-0.11834,-0.0546537,0.0179175,0.0901782,0.175689,0.0713811,0.284624,0.478054,0.543185,0.533861,0.74639,0.412478,-0.135484,-0.233389,-0.166429,-0.185773,-0.185751,0.043139,-0.109531,-0.161223,-0.118219,-0.132231,-0.127481,-0.148799,-0.147063,-0.0497979,-0.087579,-0.0915695,-0.0585144,-0.00741331,0.0567741,0.00421264,0.031767,0.0562628,0.18686,0.0846938,0.0392696,0.446594,0.704614,0.51698,0.919889,0.0964323,0.858134,0.0667677,-0.449739,-0.0676927,-0.169022,-0.279433,-0.231017,-0.202391,-0.18929,-0.188038,-0.0467057,-0.142386,-0.10539,-0.113236,-0.0535771,-0.0016453,-0.0229729,0.0261224,0.0142503,0.0102999,0.0279613,-0.00175164,0.109981,0.13935,0.00881815,0.25192,0.157985,0.573149,-0.254753,-0.325161,0.0621527,0.105671,0.747145,0.0824567,0.128245,-0.0556576,-0.163503,-0.130494,-0.142741,-0.0895444,-0.212614,-0.178225,-0.178479,-0.220335,-0.111008,-0.0938923,-0.0517761,-0.0506873,-0.0765694,-0.0275373,0.0188529,0.074682,0.130164,0.0963922,0.157692,0.168661,0.282147,0.123846,0.518075,0.137492,0.0669814,-0.0111876,1.39163,-0.523662,0.150226,0.0849228,0.0789165,-0.128715,-0.279348,-0.132376,-0.229954,-0.169585,-0.149146,-0.143805,-0.164333,-0.108234,-0.113436,-0.192777,-0.0370508,-0.105769,0.0357297,0.0910378,-0.00692999,0.15161,-0.0289884,0.21547,0.0596751,0.101372,-0.245596,-1.17133,0.275834],
			"b":-1.44333
		},
		"neuron 4": {
			"w": [-0.774824,-0.0521177,-0.164488,0.0335571,-0.0106243,0.0358417,-0.024523,-0.120879,-0.148989,-0.104135,-0.134695,-0.125217,-0.107583,-0.15141,-0.156867,-0.130382,-0.177985,-0.12818,-0.112466,-0.15491,-0.0161916,0.0255114,0.0267148,0.198597,0.0148561,-0.0865089,-0.0106162,-0.0578777,-0.221758,-1.07394,-1.07057,-0.275825,-0.0833102,-0.113106,-0.0970566,-0.110942,-0.0852431,-0.100124,0.0119594,-0.175514,-0.0935277,-0.0868882,-0.325046,-0.047988,0.000910256,0.0602733,-0.131461,0.00701948,-0.116582,-0.1741,-0.0879797,0.0446114,-0.00734977,-0.0611654,0.0548039,0.11079,0.0927116,-0.0347874,-0.519632,-1.28487,-1.23233,0.423072,0.0356107,-0.227954,-0.0741955,-0.17719,0.0669166,-0.0806226,-0.0401205,-0.0182255,-0.0818938,-0.111596,0.0467887,-0.0746869,-0.146656,-0.1788,-0.134751,-0.104664,-0.117075,-0.0381211,-0.0320679,-0.0480995,0.0160717,0.0534729,0.000797362,-0.00295503,-0.202591,-0.435094,0.114116,-1.37244,-0.693314,0.941711,0.351834,0.13103,0.0558526,-0.234448,-0.161827,0.068048,-0.0511758,-0.0158853,0.028326,0.106761,-0.00689142,-0.218365,-0.0782278,-0.103402,-0.196314,-0.00359462,-0.100654,-0.0472126,-0.0103701,-0.149966,0.0156233,0.037266,0.00188938,0.013425,0.0240941,-0.236903,-0.31748,-1.47471,-0.561686,0.0645611,0.200447,-0.128381,-0.281976,0.0713529,-0.0987802,-0.186484,-0.132636,-0.041322,0.0194309,-0.0293093,-0.0113915,0.0613536,0.0124876,0.0492268,-0.0803055,-0.155225,-0.164515,-0.00671099,0.00603236,-0.0285219,-0.0199899,-0.381482,-0.231138,0.0938833,0.181345,-0.436289,-0.346656,-1.33304,-1.13891,0.0481211,-0.106267,-0.107026,-0.0813757,0.0668459,0.0212991,-0.00513729,-0.123202,-0.435869,-0.176942,-0.570299,-0.264858,-0.00621178,-0.106467,-0.081719,-0.142959,-0.0434256,-0.0347262,-0.203364,-0.237573,-0.0511263,-0.187871,-0.295643,-0.471763,-0.133005,0.0907065,0.555354,0.335917,0.48873,-1.08139,0.041117,-0.0431042,-0.0987854,0.0751569,-0.140538,-0.164334,-0.0883412,-0.00182811,0.0636319,-0.0759084,-0.149388,-0.206612,-0.211273,-0.305583,-0.0802659,0.0414901,-0.13481,-0.0547996,0.056664,-0.0861229,-0.0720848,-0.198813,0.000632676,-0.557828,-0.342296,0.419129,0.362778,0.492972,-1.95831,0.610537,-0.239532,-0.0622106,-0.0903225,-0.0246987,0.143599,-0.0333001,-0.0755807,0.316721,-0.0387691,-0.101281,-0.0993835,-0.0935992,-0.0846842,0.0209069,-0.0159734,0.0173797,0.0528204,0.103301,-0.136308,0.0301603,0.212758,0.0764951,-0.0402232,-0.234121,0.32385,-0.0906253,0.518074,1.14586,-0.978953,1.39159,-0.226535,-0.12125,-0.0409427,-0.165322,0.128894,0.00254386,0.136225,0.000187651,-0.00310958,0.237426,0.0433187,0.00212592,0.0625541,-0.122412,0.0043593,0.0498084,0.338925,-0.0198448,-0.0124163,0.11865,0.0834575,0.0227723,0.128801,0.496003,0.908884,1.03717,0.595817,0.502403,-0.454651,1.36908,-0.89729,0.294058,-0.0887748,0.0576908,-0.0419009,0.271821,0.000555174,0.297515,0.123854,-0.00574772,0.0277659,0.084878,0.147552,0.221633,0.178754,0.188679,0.135976,0.189528,0.0103193,0.285565,0.251714,0.285028,0.0779956,0.109522,0.0917099,0.85695,-0.0490417,0.72617,0.99835,1.05662,0.669621,0.188611,0.169192,0.47032,0.324305,0.449998,0.11162,0.347118,0.197412,-0.153089,0.252565,0.553207,0.639252,0.410751,-0.485789,-0.516414,-0.216884,-0.495741,-0.205242,-0.141736,-0.288858,-0.246266,-0.222017,0.152019,0.546039,0.821034,1.8868,1.53586,-1.81394,1.25379,0.133144,0.172711,0.196941,0.244971,0.0196482,0.253194,0.198949,0.250654,0.118238,0.00978413,-0.0260648,-0.00101577,-0.0556012,0.0181064,-0.106297,-0.039532,0.0407289,-0.00206161,-0.0374021,0.103623,0.0919477,-0.0538511,0.113599,0.030309,-0.403017,-0.8814,-0.573441,-0.336284,-0.0663717,0.101206,-0.121445,-0.133047,0.079639,0.113693,0.00345876,0.298543,0.123736,0.424739,-0.00578571,0.0638458,-0.00824251,-0.031358,-0.0328123,-0.00978363,0.0531206,0.0203978,0.239054,0.0770158,0.175493,0.0021275,0.196007,0.191886,0.0329803,-0.159887,0.0310903,-0.0142762,-0.405513,0.23961,1.25466,-0.306364,-0.119856,-0.0539993,0.0381497,0.235581,-0.0718782,0.0770607,0.133057,0.0426435,0.218952,-0.000964472,-0.0839066,-0.0606995,-0.0541455,-0.125785,-0.0815118,-0.0267042,0.0242737,0.10327,-0.0193718,0.0899972,0.0894901,-0.0962155,-0.0193723,0.354304,0.282097,-0.0867337,0.203362,0.577181,0.256782,0.319883,-0.129575,-0.18253,0.103206,-0.0184027,0.0944165,0.0229945,0.0167033,-0.105382,-0.345841,0.0746163,-0.228917,-0.124065,0.0925791,-0.250286,-0.114577,-0.0400555,0.00765327,0.0973715,0.0615302,-0.0591084,-0.0311773,0.103397,0.233923,0.195703,-0.180575,-0.0390405,0.270822,0.17442,-0.10278,-1.58877,-0.358458,0.0113355,0.0218458,0.183105,-0.13772,-0.135851,-0.144505,-0.291207,0.048794,-0.14465,0.200112,-0.0486428,0.0661782,0.0211718,-0.0314596,0.100306,0.167159,0.101627,0.0371851,-0.0709387,-0.0350446,0.0583927,0.0641074,-0.172235,-0.241988,0.178481,-0.131339,-0.0857765,-0.243543,-0.381529,-0.680184,-0.383067,-0.0989816,-0.20523,-0.0421677,-0.0798192,-0.0794516,-0.13398,0.00172539,-0.0473445,-0.0318569,0.111403,0.124942,-0.0662039,-0.0611789,0.0178811,-0.00434106,0.103984,0.0420168,-0.0550246,-0.0943304,0.0424528,-0.0198107,-0.0302914,-0.141753,-0.193096,-0.141082,0.20157,1.56355,0.106346,-0.218408,0.259992,-0.059935,-0.00550936,-0.0493833,0.0227012,-0.130979,-0.147386,0.0683252,0.106078,-0.066669,-0.103572,-0.0365274,-0.203968,-0.0103011,-0.139776,-0.185957,-0.0831213,-0.00995398,-0.00368977,0.0505413,-0.0510672,-0.137595,-0.0643452,-0.137028,-0.213063,0.131898,0.119146,0.433647,-0.893038,-0.248419,-0.23589,0.0645158,-0.112635,-0.283554,0.0329699,0.0101616,-0.0743361,-0.0600388,-0.100104,-0.10579,-0.194653,-0.0804825,-0.137191,-0.0854449,0.0136106,-0.0118411,-0.12308,-0.185899,-0.100042,0.0184505,-0.100872,-0.155366,-0.116217,-0.182171,-0.305028,-0.0991327,0.133168,1.20389,-1.28175,-0.193316,-0.139965,0.108893,-0.210194,0.0756515,0.130487,0.0789318,-0.195598,-0.0333079,-0.136991,-0.0837589,0.00215112,0.0384321,-0.11071,-0.110301,-0.118722,-0.0788227,-0.170325,-0.218319,-0.199397,-0.123005,-0.177136,-0.0447246,-0.282458,-0.283955,-0.319172,-0.0904428,0.54521,0.882738],
			"b":-0.857509
		},
		"neuron 5": {
			"w": [0.105097,0.707503,-0.0910777,0.185172,-0.260655,-0.115859,-0.144415,-0.0979446,-0.154276,-0.0971793,-0.0722807,-0.192539,-0.0326954,-0.00945765,-0.128896,-0.0819462,0.0504191,-0.219184,-0.0810738,-0.171018,-0.190378,-0.0839615,-0.121384,-0.125438,-0.0702884,-0.101632,0.181966,0.59197,1.1088,0.175429,-0.193428,0.982897,-0.102356,-0.0596431,-0.0228732,-0.0290311,0.0130266,-0.092146,-0.139988,-0.171892,-0.0859777,-0.0907437,-0.26262,-0.0586804,-0.210755,-0.0830707,-0.0864604,-0.174631,0.00264421,-0.0657835,-0.167837,-0.0559569,0.0337811,-0.0428955,0.0102283,-0.11004,-0.00125056,0.890758,1.65262,0.540638,-0.211046,0.432658,-0.488686,0.0296407,-0.26193,-0.150696,-0.011162,-0.153714,-0.0723603,0.0425915,-0.0612172,-0.0644676,-0.0952481,-0.051639,-0.00606438,-0.127307,-0.0378589,-0.0942687,-0.0667941,0.0185257,0.0354572,-0.17638,-0.122463,0.00610695,-0.0103623,0.190596,0.183261,0.138069,0.0194991,0.924597,-0.441331,-0.456247,-0.0997317,-0.00450989,-0.0227458,0.0434819,0.03509,0.0328722,-0.00268318,0.0317547,0.0243052,0.0067543,-0.079703,0.208843,-0.0915474,-0.0533071,0.014757,-0.0714663,-0.136476,-0.135487,-0.0785309,-0.0426619,-0.0148631,-0.298283,-0.197376,-0.0148786,-0.0716193,0.673496,0.548157,0.178549,0.0293554,0.151473,0.00422827,0.250967,-0.213314,-0.0461516,-0.0710875,-0.106484,0.0503749,0.0420445,-0.0913106,0.142278,0.0418206,-0.0619097,-0.134856,0.0393995,-0.0417534,-0.0759002,-0.0100194,-0.0145059,-0.129293,-0.11938,-0.0913584,-0.00195263,-0.0672764,-0.0101626,-0.0948368,-0.403365,-0.0798718,0.172302,0.0529529,1.19719,0.310115,0.542765,0.179489,0.223438,-0.00510084,0.0537793,-0.104281,-0.101672,0.0288217,-0.0171717,-0.110984,-0.0280598,0.0119443,0.00397878,-0.0369166,0.119842,-0.0656953,0.122257,0.0819026,-0.0985187,-0.083364,-0.0512875,-0.0444085,-0.187774,-0.0488927,-0.0425077,0.0409617,-1.00818,0.0808111,0.622419,0.280052,0.307399,0.303296,0.0273106,0.191043,0.219923,0.100716,0.371673,0.136507,0.0149458,0.127017,0.0552051,0.0460999,0.0503536,0.069349,-0.030596,-0.0378548,-0.0348935,-0.0911929,-0.0602963,0.100365,-0.152518,-0.325336,-0.375769,-0.343859,-0.941086,-1.68192,-1.12394,-0.0289948,0.957141,-0.0241268,0.24023,0.205406,0.297398,0.00927999,0.123316,0.547655,-0.0484484,-0.15692,0.0317761,0.0505266,0.104441,0.0535136,-0.0731677,0.0687704,0.0858761,-0.0304906,0.0461099,0.0511575,0.165015,-0.148017,-0.102014,-0.00469072,-0.277402,-0.461517,-1.5811,-2.37525,-1.72151,0.311114,1.23678,0.395916,0.419573,0.33638,0.0138565,0.337079,0.310369,0.113443,0.114643,0.0435807,0.0941664,0.0605409,0.1593,0.0948093,0.0371653,0.0559236,0.00486641,-0.0374857,0.0377157,0.0738817,-0.0838316,0.358265,-0.297067,0.183158,-0.802979,-1.37862,-1.27081,-2.02694,-1.74759,0.177219,0.426099,0.355546,0.100585,0.431391,0.273325,0.513475,0.086018,0.2371,0.260024,0.216394,0.241846,0.0984103,0.0232081,0.0556735,0.0878948,-0.0612127,-0.0803898,-0.0256412,0.034654,0.0582223,0.0523338,-0.105018,-0.0329566,-0.226429,-0.58594,-0.499216,-1.15887,-1.57174,-1.18722,-0.020117,0.399213,0.263596,0.359323,0.290497,0.296837,0.446289,0.209466,0.383638,0.345581,0.408146,0.168554,0.266248,0.357659,0.0853857,0.0399787,-0.267108,0.103479,-0.0760627,0.0143237,-0.336305,-0.0408328,-0.153853,-0.31587,-0.272083,-0.703364,-0.856686,-1.39685,-4.08782,-0.927063,0.0400014,1.44341,0.330252,0.308282,0.230865,0.109219,0.431902,0.328338,0.0259959,0.0348774,0.0795562,0.051585,0.147344,-0.0555507,0.0221863,-0.0123753,0.058457,-0.0293279,-0.0343869,0.088822,0.123627,0.167021,0.351956,-0.290856,-0.0212535,-0.350591,-0.508241,-0.411467,-0.544659,0.100935,-0.0784848,0.905644,0.164001,0.260979,0.310697,0.259118,0.102909,0.234084,0.448739,-0.0118529,-0.0347048,0.101235,0.123858,-0.0392488,0.0561774,0.0801252,0.0567302,0.149585,0.0251391,0.0907465,0.103515,0.00627998,0.10234,0.0400364,0.180794,0.0411027,-0.067697,0.309655,0.392189,-0.506173,0.249527,0.670357,0.311209,0.295953,0.230428,-0.0762038,0.175155,0.04619,0.0308837,0.302721,0.123165,0.0337683,-0.0171362,0.038438,0.159474,0.0458996,0.0401465,0.0148771,-0.0551487,-0.00303126,-0.100309,0.0807198,0.117919,-0.0190744,-0.125396,-0.00144833,0.0199631,0.576015,0.633859,0.435143,0.2041,1.07876,0.0659788,0.578709,0.324926,0.247313,0.131873,-0.0880822,0.0192648,-0.118384,0.000267886,0.00999497,-0.0512803,-0.100174,0.0244179,0.00168788,-0.0449306,0.0434448,0.0475363,0.0747029,0.0362372,-0.0679903,0.0603882,0.202544,0.143651,0.223239,0.550989,0.707492,0.628971,0.440417,-0.294516,0.507863,0.126607,0.15583,0.151572,0.127443,-0.101103,0.0141792,-0.0302897,-0.0529067,-0.151376,0.163893,0.0931083,0.0227892,-0.0290959,-0.0526567,-0.028998,0.135477,0.0167719,-0.00200419,-0.107234,-0.0855372,0.055285,0.159467,-0.0377331,0.216168,0.176164,0.738857,1.29394,1.6774,-0.510678,-0.144708,0.103489,0.198454,-0.027284,-0.0345013,0.031305,-0.0118871,-0.113263,-0.150432,-0.0313017,-0.088526,0.102966,0.161671,-0.156038,-0.0593211,-0.0282964,-0.0719875,-0.107805,-0.0644866,-0.0267693,0.0967996,-0.0921013,0.0730478,-0.0432063,0.163959,0.38254,0.993624,0.626819,-0.489008,-0.329253,0.144225,-0.0112297,0.0355316,-0.112146,0.0541745,0.0464747,-0.0996148,0.0250934,-0.0652702,-0.0291369,-0.0741254,-0.156669,-0.0680951,0.010977,-0.00309719,-0.0906798,-0.0901099,0.0107264,0.0101502,0.00954256,-0.00574453,0.134842,-0.0214413,0.220322,0.285696,0.381318,0.563263,0.264049,-0.0615901,-0.326938,0.836979,-0.0792301,0.104049,0.131038,-0.0411639,-0.14455,-0.0216493,-0.0178606,-0.0596831,-0.101254,-0.0412214,0.00583686,-0.0162671,-0.0823919,-0.039427,-0.0549638,0.055896,0.0365816,-0.126985,0.0078386,-0.00260497,0.0300474,0.0420541,0.135834,0.470469,0.257404,0.796496,0.756444,-0.686187,-0.187674,1.27657,-0.066448,0.312449,0.0743473,-0.028146,0.184143,0.171183,-0.0437252,-0.0329584,-0.0129512,-0.0292811,-0.071499,-0.0428038,-0.159523,-0.131392,0.00536394,-0.124021,-0.0854965,-0.0890823,-0.0645963,-0.00605894,0.0979301,0.130663,0.321931,0.221626,0.3868,0.291436,-0.508235,0.273111],
			"b":-1.02017
		},
		"neuron 6": {
			"w": [0.144874,-0.233455,0.0187966,-0.110814,0.0577306,-0.0594229,-0.111798,-0.0741059,-0.200836,-0.0692688,-0.154302,-0.10331,0.0283726,0.0163137,-0.0126007,-0.00927778,-0.0977477,0.0494764,-0.129393,0.0694946,0.035365,0.0150833,0.0413648,-0.00714521,-0.0346682,0.169047,-0.219002,-0.760928,-0.829317,-0.913139,-0.103211,0.22335,0.293586,0.178013,0.0514662,-0.0213224,-0.0214081,-0.140615,-0.0560105,0.0473697,0.0134421,-0.0969007,-0.0997201,-0.056392,0.0590966,0.00198735,0.0542262,0.0471381,0.0217001,-0.0513476,-0.028788,0.0771371,0.0607033,0.00393957,-0.024391,0.136411,-0.143202,-1.01832,-0.702111,-0.0347702,0.134385,0.268326,-0.208535,-0.102856,-0.145925,-0.117909,-0.0111101,0.0449169,0.00895462,-0.00890136,0.0918511,0.011808,0.0282058,0.00217225,-0.0621289,-0.0158229,-0.109045,0.00213961,0.0313675,0.071894,0.00364128,0.118251,-0.0639927,0.0539142,0.0953742,0.419603,0.124516,-0.483057,-0.954636,0.441396,-0.476658,-0.197434,-0.113257,-0.245145,-0.0349991,-0.0950452,0.0644657,-0.00562771,-0.0477269,-0.0441494,-0.0442346,-0.146368,-0.0345345,-0.0812784,0.00251364,-0.121885,-0.112486,-0.0749805,-0.0058234,0.0397954,0.0391741,-0.142762,0.171021,0.0893089,0.163315,0.125842,0.0633007,0.161846,-0.28214,0.38102,-0.255172,-0.035299,-0.0275624,-0.140555,-0.20113,-0.242763,-0.241695,-0.148468,-0.227798,-0.117012,-0.09739,-0.0891726,-0.123426,-0.135562,-0.121295,-0.030669,-0.140285,-0.270414,-0.0586858,-0.0138368,-0.0564249,-0.00388236,-0.0510233,0.0145028,0.113005,0.0610328,0.202229,0.697159,0.859805,1.32666,0.280193,0.374244,0.126601,-0.074599,-0.031956,0.0391972,0.0985393,-0.105722,-0.113677,-0.209188,-0.161834,-0.236808,-0.0429884,-0.127328,-0.157874,-0.129535,-0.0620379,-0.0575155,-0.122974,-0.141528,-0.00325987,-0.0370198,0.157361,-0.0592765,0.277993,0.097674,0.17498,1.50495,1.26832,0.902182,0.00482908,0.466009,0.0466078,0.137975,0.0649611,-0.109463,0.0984688,-0.0625451,-0.0653623,-0.0277397,-0.0308034,-0.131902,-0.152546,-0.19441,-0.257054,-0.113508,-0.23949,-0.0350981,-0.0986676,-0.0900085,-0.00103821,-0.0196273,-0.0139852,0.163979,0.121715,0.242132,0.503319,2.05821,1.10312,-0.161063,0.0477581,0.0547476,0.380223,-0.169823,-0.0115064,0.111168,-0.118567,-0.060899,-0.0219633,-0.0763364,-0.142072,-0.16251,0.0241552,-0.0491314,-0.161561,-0.0963341,-0.208279,-0.138904,-0.176267,-0.258181,0.0438952,0.102015,-0.155633,0.216417,0.235591,0.437641,0.303836,1.76611,1.43837,0.0178765,-0.236536,0.577661,0.0780412,0.0380482,0.0268692,0.030044,-0.05362,-0.00573945,-0.175125,-0.108497,-0.186995,-0.112894,-0.190332,-0.0766544,-0.229077,-0.0908117,-0.126628,-0.106822,-0.106828,-0.105336,-0.101027,-0.251145,-0.0613545,0.601329,0.218783,0.777105,1.26177,0.911595,0.979944,-0.810566,-0.371643,0.395767,-0.540475,-0.229076,-0.298934,-0.143861,-0.235953,-0.114851,-0.115143,-0.259774,-0.130376,-0.297008,-0.259839,-0.17649,-0.190648,-0.229072,-0.167921,-0.180871,-0.0366268,-0.0964897,0.039631,-0.0277398,0.168647,-0.221465,0.0844297,0.358288,0.311864,0.142577,0.219034,-1.78392,-0.11168,0.00874044,-0.355961,-0.487928,-0.232299,-0.113583,-0.4084,-0.338288,-0.142846,-0.428912,-0.223665,-0.209649,-0.146646,-0.190447,-0.144616,-0.303608,-0.414156,-0.154953,-0.189295,-0.315731,-0.00875181,-0.0920736,0.0664044,0.391595,0.453658,0.955977,0.689876,2.60347,2.25916,-2.96496,0.4612,0.338235,0.146906,0.00823933,0.0982006,0.0563175,0.129767,0.10134,-0.0885816,-0.0321416,-0.0306147,-0.141305,-0.105647,-0.130716,-0.107552,-0.0960749,-0.169213,-0.222587,-0.22893,-0.287659,-0.219237,-0.283256,-0.165829,0.155458,-0.847711,0.384469,-1.0019,-0.105924,-0.23564,-1.70303,-0.0552775,0.121841,0.253596,0.0404521,0.0980179,0.120263,-0.0618898,-0.0951316,-0.0172753,0.204453,-0.0681066,-0.0224135,0.0224087,-0.0293336,0.026449,-0.102674,-0.117646,-0.0644914,-0.0927895,-0.224343,-0.210318,-0.0801034,-0.225083,-0.298945,-0.337301,-0.28487,-0.0950072,-0.312948,-0.724181,-2.00922,-0.683559,0.534496,0.109777,-0.0441018,-0.0105374,-0.0668573,-0.0788441,-0.0205905,0.0276945,0.00949616,0.0704791,-0.0358989,-0.0198109,0.0509896,0.0343186,0.0190701,-0.0723467,-0.041432,-0.0866085,-0.143279,-0.139925,-0.033005,-0.0821252,-0.180106,-0.376632,-0.152587,-0.334678,-0.298809,-0.193268,-1.11217,-0.666983,0.333289,0.0106727,0.00459082,-0.0501524,-0.147877,0.00362082,-0.0499486,-0.105775,-0.185346,-0.213623,-0.187851,-0.138613,0.0172765,0.0580315,0.042702,-0.137024,-0.0735366,-0.0662102,-0.109928,-0.195011,-0.225478,-0.195075,-0.0729542,-0.161731,-0.19763,-0.203578,-0.343628,-0.556642,-1.25674,0.456851,0.782215,0.130125,-0.135615,0.131073,-0.0382194,-0.102848,-0.109032,-0.0271496,0.0354455,0.0616463,0.00637252,-0.0195768,0.083776,-0.0587602,-0.109714,-0.00505733,0.0117694,0.0575196,-0.115435,-0.198807,-0.152374,-0.129504,0.0121021,-0.135251,-0.129304,-0.137854,-0.294437,-0.158383,-1.26419,0.369901,0.873745,-0.0611468,0.139577,-0.147512,0.0547257,-0.0289515,0.0485554,0.0319888,0.00209567,0.0253733,-0.0163453,0.0357385,0.0484904,0.00628729,0.0406659,-0.000735106,0.00432608,0.00985297,-0.0548401,-0.0567464,-0.133745,-0.0685405,-0.133122,0.0233589,-0.203234,-0.306463,-0.420371,-0.156172,-0.374847,-0.949556,0.105636,0.0918947,0.16147,0.0566004,0.181104,0.0284777,0.0277593,0.0268202,-0.000717011,-0.00357609,0.0139124,-0.0924487,-0.0192608,-0.0207794,0.109226,0.035425,-0.0435547,0.0437198,0.00815679,-0.0853225,0.0338708,0.0599018,-0.183964,-0.157748,-0.22157,0.0928168,-0.140401,-0.462913,-0.280322,-0.75865,0.244387,0.298315,-0.0855414,0.229175,0.0603781,-0.00254255,-0.114322,0.0265612,-0.185409,-0.000437776,-0.0961766,-0.106832,-0.00771398,-0.0417952,-0.168437,-0.0502103,-0.0142659,-0.00738191,0.0327391,-0.0578729,-0.031085,0.00343078,-0.168347,-0.256876,-0.169681,-0.214365,-0.583244,-0.50428,0.613276,-0.48175,0.275888,0.14284,-0.143706,0.0288075,0.0533525,0.0109818,0.0194694,-0.0895276,-0.0630922,-0.00827103,0.0194566,0.0074763,0.0968727,0.0133624,-0.0360029,-0.0682368,0.0365271,-0.0845121,-0.0233839,-0.0119226,-0.0890295,-0.101894,-0.0266522,-0.107948,-0.151129,-0.214856,-0.160452,-0.441761,-0.0427521],
			"b":-2.71451
		},
		"neuron 7": {
			"w": [0.352931,0.944551,0.129645,0.120205,-0.0497237,0.0387233,0.118022,0.0532439,0.060542,0.00689237,-0.0323317,-0.0303764,0.0208422,-0.0608812,0.0192769,0.0463421,0.0147216,0.0412689,0.0354692,0.0310979,-0.0547387,-0.00595402,-0.061354,-0.147176,-0.132111,-0.0932518,-0.269765,-0.504267,-0.589878,-0.893286,0.543299,1.05194,0.302364,0.0778994,0.177873,0.181945,0.10035,0.147454,0.0151076,-0.0324446,-0.0219741,0.0141328,0.00806778,-0.0534491,-0.0768851,-0.00450453,-0.0214502,0.00297754,0.0130187,0.00312545,-0.0087623,-0.0103808,-0.0168751,-0.0209539,-0.0472078,-0.104649,-0.168468,-0.502624,-0.659006,-0.739441,-0.704948,1.27583,-0.053447,0.148507,0.101606,0.158461,0.0767949,0.0338442,0.019877,0.0549752,0.0672183,0.0226422,0.0386049,-0.130372,-0.0624617,-0.0211143,0.0653952,0.0236074,0.064016,0.0162815,-0.0296555,-0.0164108,0.0398564,-0.00948341,-0.205404,-0.109842,-0.262886,-0.305617,-0.378572,-0.956144,-0.482144,1.22078,0.40741,0.263723,0.161718,0.0473411,0.0635153,0.113452,0.00947998,0.0425667,0.0569437,0.0382743,0.049383,-0.101614,-0.00463556,0.00257274,-0.00265278,-0.0385472,-0.0104834,-0.0151529,0.0286849,0.0262922,-0.00181908,-0.0681816,-0.071692,-0.134824,-0.200786,-0.257279,-0.255667,-0.959154,-0.366202,0.965898,0.232563,0.203975,0.0517704,0.0335226,-0.0502877,0.0879206,0.0237496,-0.019822,0.0371718,-0.0343518,-0.00104899,0.0922416,-0.0292062,-0.0263031,-0.0155706,0.0555458,0.0428858,0.0297299,-0.0180889,0.00737298,-0.0362953,-0.0845517,-0.110396,-0.262301,-0.290494,-0.312214,-0.509535,0.403371,-0.0320525,0.840342,0.241062,-0.0388174,-0.0302301,0.103799,-0.0400598,-0.015806,0.0034186,0.0111429,-0.044755,-0.0483069,-0.0116342,-0.0193445,-0.0392379,-0.00359769,-0.046497,0.0405383,0.0131993,-0.0641534,0.00861143,-0.107301,-0.0132308,-0.0737687,-0.0513617,-0.113245,-0.240041,-0.422515,-0.358647,0.782764,-0.0415569,1.49736,0.0819209,0.129739,0.0369678,0.187894,-0.0233926,-0.0401092,0.014642,-0.0192463,0.0529591,0.0134062,-0.0158343,-0.00284054,-0.0642562,-0.0127749,-0.0414625,-0.054364,-0.0684413,-0.000964969,-0.0631012,0.0302464,-0.0728938,-0.117366,-0.066309,-0.064157,-0.068488,-0.285351,-0.130998,-0.550406,0.381461,0.83459,0.73222,-0.0239903,0.119742,0.0117195,0.0189792,-0.0725124,-0.0930591,0.000522228,0.0594811,-0.00951193,-0.000327307,0.0507803,0.0460114,-0.0242421,-0.181644,-0.079485,-0.0988284,-0.172692,-0.128103,-0.172295,-0.120442,-0.00762627,-0.19774,0.00387106,0.298642,0.232456,0.226327,0.225146,0.361578,0.97766,0.180278,0.0768966,0.129908,0.0728594,-0.11281,-0.138821,0.024797,-0.0165049,-0.107766,-0.0694048,-0.0499252,-0.132605,-0.0974113,-0.0949211,-0.10153,-0.0358909,0.0137782,-0.0347387,-0.211778,-0.0835869,-0.391346,0.353051,-0.140444,0.392772,0.274349,0.365112,0.398722,-0.191163,-0.0648297,-0.0176236,-0.517925,-0.0579256,-0.318358,-0.356581,-0.300776,-0.191628,-0.186044,-0.232234,-0.102507,-0.158085,-0.134289,-0.0491304,-0.0981689,-0.131483,-0.158056,-0.203596,-0.0700088,-0.12244,-0.0801592,-0.134106,-0.0216507,-0.222775,-0.0644595,0.202994,0.0311958,0.513051,0.363813,-0.408908,-0.265185,-0.506157,-0.250973,-0.285868,-0.361295,-0.423017,-0.433531,-0.323629,-0.418975,-0.433718,-0.369361,-0.254092,-0.34821,-0.294827,-0.219165,-0.0798854,-0.128635,-0.195634,-0.0263477,-0.00261479,0.0382244,-0.0257221,0.330915,0.101889,0.154312,1.79818,1.15478,1.3506,-2.21496,-0.121503,0.457101,0.66696,0.0321425,-0.0598437,-0.12215,-0.0646898,-0.0222427,0.0921142,-0.0173249,0.00642375,0.0251207,-0.0178817,-0.137808,-0.113397,-0.165724,-0.0597009,-0.104812,-0.114958,-0.110364,-0.0986273,-0.162739,-0.176099,-0.383238,0.410361,-0.993249,0.682134,0.634334,0.766471,1.39264,-0.0831925,0.277861,0.799941,0.728603,-0.0498064,-0.122554,-0.0944332,-0.149001,-0.097109,0.0326549,0.0172567,0.0898004,-0.0718787,-0.0403525,0.0102386,0.0401732,-0.0687108,-0.140856,-0.151313,-0.020768,-0.164761,0.0317377,0.0520872,-0.128696,-0.0231111,-0.218466,-0.245548,0.121915,0.715314,0.447477,-0.329657,0.139302,1.65484,0.15926,0.123918,-0.0377251,0.0229,0.00991532,-0.00206069,-0.00510044,0.131418,0.0039968,0.0453806,-0.246259,-0.141111,-0.102112,-0.0646485,-0.162314,0.00838201,-0.0195554,0.00081334,-0.0132445,-0.0456741,-0.122859,-0.0226477,0.11168,-0.0246332,-0.119872,0.164212,-0.0642801,-0.00212445,-0.255967,1.08041,0.204055,0.190924,0.0254307,-0.0451969,0.0568946,0.00606609,-0.0150202,-0.260038,0.0247685,-0.179225,0.0157083,-0.0459797,-0.0481371,-0.020281,0.0546577,-0.00725806,-0.0204904,-0.0310143,0.0114743,0.0265849,0.128948,-0.04018,-0.0617897,0.0424974,0.0893644,0.0532895,-0.195781,-0.0394386,-0.220219,0.442214,-0.139538,0.132867,0.043624,0.127786,0.0262238,-0.0824369,0.0155776,0.0336217,0.0689574,0.130813,0.028274,-0.010101,0.0177142,-0.0218565,-0.0314412,-0.0602465,-0.0212928,0.10151,0.106508,0.168054,0.00484142,0.0249569,-0.0294653,0.00211019,0.0233735,-0.304817,-0.667832,0.0816751,-0.810037,0.515308,0.18691,0.084656,-0.0491837,0.10187,0.0348345,0.0269549,0.104028,-0.0100747,0.0103306,0.0271109,-0.00508102,-0.0342518,-0.0662428,0.0481427,-0.00561735,-0.0278121,0.0510045,0.116097,0.0349932,-0.0462449,0.039018,-0.00574215,0.0316036,0.0882808,-0.143572,-0.449539,-0.525212,-1.77755,0.0975697,0.981373,-0.015055,0.208171,-0.12791,-0.0303724,-0.0149089,-0.00404025,-0.00195704,0.0175757,-0.0639717,0.00840231,-0.06106,0.0195453,-0.0947136,-0.00156184,0.0815638,-0.00927675,0.0836448,-0.0376519,0.00681886,0.028501,0.0273398,-0.0632464,-0.00563621,-0.27418,-0.23945,-0.511446,-0.578382,-0.997932,0.646516,1.25593,0.0396816,0.112465,0.113822,0.00508399,-0.0254999,-0.0643094,0.0151759,-0.0827748,-0.0756001,0.0372603,-0.0736285,-0.00378979,0.00837253,-0.0446992,0.103829,0.0574944,0.00964671,-0.0882372,0.0308032,-0.0602887,0.0120553,-0.0561665,-0.0182377,-0.092045,-0.290696,-0.71699,-0.927543,-1.37256,0.334961,1.14327,0.0169863,0.185423,-0.00501942,0.0104075,-0.0247088,-0.0804448,-0.152548,-0.0909542,0.0458596,0.067101,0.0297254,0.062672,-0.046495,-0.0558783,-0.146668,-0.0228204,-0.0935919,0.0397105,-0.0229188,-0.000621583,-0.0641799,-0.140834,-0.229077,-0.21011,-0.37998,-0.68692,-0.763324,-0.757135],
			"b":-2.23438
		},
		"neuron 8": {
			"w": [-0.437242,-0.015727,0.203389,0.123098,-0.075688,-0.00569002,-0.0190696,-0.0235806,-0.0415668,-0.0408965,0.0175482,-0.00694218,-0.0535186,0.00920565,-0.115743,-0.0623829,-0.0264137,-0.0226636,0.0469391,-0.0146363,0.0925425,0.0391587,-0.0114884,-0.0473608,0.0537737,0.118244,-0.0760074,-0.93635,-0.325338,-0.872571,0.0759363,0.361378,0.15317,-0.0755283,-0.131183,-0.0366788,-0.0403461,-0.0153161,0.0269048,-0.0781847,-0.00148922,0.0954989,-0.0371454,-0.0712597,-0.000815039,-0.061139,0.0788659,-0.0179196,-0.0163308,-0.015877,-0.018627,0.0613771,0.0952356,0.138185,0.0511044,0.0962274,0.219892,-0.181994,-0.369926,-0.447222,-0.359929,0.0205138,-0.0232405,-0.172505,-0.135013,-0.0518262,0.0818749,-0.0163827,-0.0581048,-0.0549724,-0.0101438,-0.0312623,0.0375552,-0.0105501,-0.033701,0.0387356,0.0498176,0.0414159,0.0897442,-0.0276126,0.0294393,0.0423485,0.0857554,0.0620077,-0.0975293,-0.190533,0.0964198,-0.329569,-0.244941,-0.941154,-0.564305,-0.254695,-0.108278,0.205007,0.0571845,0.0224485,-0.0765884,0.0176249,-0.0550108,0.0375597,-0.0679127,0.0294131,0.178229,-0.0959373,0.00943563,0.00267539,-0.00998933,-0.00996548,-0.00194945,-0.00605304,-0.0663804,-0.0229055,-0.0718805,0.131566,0.0606934,0.132742,-0.102711,0.0219296,0.343069,0.36958,-0.459661,0.158787,-0.428717,-0.154212,-0.303208,-0.0337234,-0.134953,-0.0786091,0.0517558,-0.0969858,-0.0369465,-0.143608,-0.0959383,-0.00669552,-0.00720572,-0.0378566,-0.0331152,-0.0461205,-0.0596761,-0.0205028,-0.0567974,-0.0132218,-0.0335962,0.0340222,0.118953,0.0273315,0.1646,0.187458,0.372451,0.546179,-0.282669,0.513606,0.0794348,-0.0858034,0.0679391,0.0552295,0.094618,-0.0274786,0.00993987,-0.00774595,-0.0980985,-0.153833,-0.151378,-0.0614771,-0.0477106,0.0095269,-0.116247,0.0704466,0.00869466,-0.0143922,-0.0757145,-0.0594689,-0.0872799,-0.0891793,0.0606079,-0.00822754,-0.0219432,0.640976,0.251557,-0.235322,-0.0207671,0.860826,-0.0479688,0.00897816,0.114596,-0.0514387,-0.102274,-0.0732508,-0.0622592,-0.0898496,-0.00266966,0.0114186,-0.0396299,0.0210414,-0.019869,-0.010845,-0.0390491,0.0301252,0.119143,0.0230049,0.0647842,-0.000922362,0.0409939,0.0231173,-0.113396,0.0245726,0.454976,0.647716,0.328664,-0.359679,-0.179843,0.380001,0.529522,0.0552884,0.046106,-0.0207562,-0.0748425,-0.0889702,-0.126528,-0.0609496,-0.0285804,0.00343566,-0.0934653,-0.0536427,0.00408287,-0.00839638,0.0116533,-0.153935,-0.0787791,-0.0148844,-0.0950422,-0.132253,-0.0346717,-0.0358118,-0.173855,0.0164312,0.0801019,0.759992,0.664632,0.610459,0.186707,0.646819,0.111348,0.187916,0.101316,0.168528,0.0219322,0.0660361,0.0325876,0.03887,-0.0249105,-0.0741152,-0.0100625,-0.0191565,-0.186503,-0.070245,-0.0398115,-0.09991,-0.0505314,-0.183128,-0.0715869,-0.0333728,-0.109782,0.0991591,0.259779,0.323712,0.519678,1.22141,1.64161,-0.291962,-0.545949,-0.0926499,0.114894,-0.186795,0.355115,0.28777,0.123979,-0.0571192,-0.126274,0.0484144,-0.0483826,-0.0918798,-0.0988833,-0.0146945,-0.00769636,-0.0653691,-0.0304526,-0.0505737,-0.130014,-0.072186,-0.0192358,0.00571608,0.0896991,-0.159154,-0.108824,0.259187,0.0949705,-0.208958,-0.13527,-2.07523,-0.448153,-0.133506,-0.145655,-0.234226,-0.0175922,0.186013,0.0633853,-0.00771728,0.0145635,-0.0544637,-0.0410036,-0.0675462,-0.0694612,-0.0605139,-0.0904141,-0.0165545,-0.106687,0.0937238,-0.0108719,-0.0503005,0.10994,-0.207627,-0.158772,-0.32261,-0.370552,0.0124473,1.35868,1.10149,-1.80412,-1.88419,-0.290427,0.460794,0.135435,0.103818,-0.0655428,-0.0988208,0.198374,0.0312885,-0.0132232,-0.0684239,0.0243945,0.023091,0.00454819,-0.027951,0.0172061,-0.100816,-0.171696,-0.0635788,-0.110321,0.0132328,-0.148918,-0.0821672,0.332402,0.26618,0.138592,0.276906,-0.154854,-0.571287,-0.749648,-0.932613,-0.0219953,0.195931,0.450607,0.156014,0.16389,0.159846,0.0580894,0.03293,0.072036,0.0878944,0.0167886,0.00807912,0.0230221,0.0346687,-0.0162798,0.0201386,0.0263005,-0.131796,-0.122046,-0.175213,-0.0644567,0.0417833,0.0283685,0.0508093,0.200328,-0.0833553,0.177094,-0.42548,-0.788929,-0.170602,0.510358,1.04926,0.109009,0.132073,0.0575039,-0.00280659,0.0549774,-0.0421168,-0.086946,0.0516467,0.00745323,-0.0306226,-0.0170598,-0.0828349,-0.0453512,-0.00903301,-0.0756942,-0.0492859,0.0351987,-0.0939033,-0.121079,-0.07157,0.0642263,-0.120482,-0.178043,-0.115475,-0.152523,-0.534868,-0.363401,0.132148,0.136653,0.235687,0.147023,0.274402,0.045444,0.0221521,0.0878937,-0.0925636,0.107469,-0.0211482,-0.00838812,0.0186771,0.0246277,-0.148311,-0.069592,0.00247564,-0.00191763,-0.0440057,-0.0122541,0.00593292,-0.0213468,0.0251264,-0.00469247,0.0319383,-0.232847,-0.112834,-0.0965089,-0.148965,-0.165595,-0.0423054,-0.772851,0.0681987,0.113742,-0.0484551,-0.0811456,0.0969443,0.0443175,0.0755023,0.0225538,-0.0754728,-0.204769,0.0834398,0.032563,0.0302158,0.106655,0.00463407,0.0249117,-0.0394306,-0.0933987,-0.0102014,-0.0330423,-0.0286984,-0.0567196,-0.045459,-0.171757,-0.105947,-0.0853861,-0.190533,-0.136538,-0.280313,-1.00325,-0.97191,-0.0311804,-0.0282019,-0.146223,-0.0646754,0.0648558,-0.0618975,-0.0325391,-0.0954884,-0.0446836,-0.0446405,0.023556,0.0541179,-0.0405987,-0.00528983,-0.0862824,0.0130192,-0.1864,-0.0132305,-0.0736788,-0.106801,-0.164875,-0.123919,-0.108944,-0.149995,-0.0812598,0.116837,0.139794,1.12477,-0.28149,0.57523,-0.208367,0.0227106,0.0143425,-0.0657578,-0.0279691,0.0142124,-0.0915384,-0.00893799,0.00456333,-0.0182921,-0.0664869,-0.094493,-0.012918,-0.0714944,-0.112741,-0.0776481,-0.0563985,0.0356192,0.0471162,0.018971,-0.0527804,-0.0697851,0.0545979,-0.150407,0.220329,0.630344,1.18478,-0.210452,0.297641,0.192252,0.138786,-0.0871188,0.00774177,-0.0507321,0.056472,-0.0268509,-0.0257754,0.00125734,-0.0836992,-0.0930427,-0.00650884,-0.0792177,-0.0544627,0.0626483,0.0299329,-0.0441187,0.00575484,-0.0113497,-0.0184228,-0.0728911,-0.0363905,0.012787,-0.114946,-0.128759,0.158051,0.885537,0.799436,-0.308444,0.235339,0.550192,0.211583,-0.0489092,-0.106535,0.0149698,-0.082336,0.103139,-0.0060375,-0.141181,-0.0951011,-0.0311118,-0.112801,0.00917662,-0.0822919,-0.0317357,0.0862072,-0.0719996,0.0919517,-0.00272561,-0.0357974,-0.046729,-0.101027,0.0747629,-0.0347203,-0.0462744,0.174612,0.162307,0.121348,-0.509335],
			"b":-1.6584
		},
		"neuron 9": {
			"w": [-0.512593,0.275986,0.0244052,0.00316526,0.0110676,-0.00851498,-0.0179013,0.107539,-0.0339928,0.0532184,0.0244859,-0.0401871,0.0137601,-0.0193691,-0.0244789,-0.0198342,-0.0224962,-0.0674523,0.000389027,0.0306339,-0.116506,-0.0335434,-0.00735018,-4.50051e-05,0.0676886,0.00414229,-0.0580931,-0.288333,-0.20568,-0.54935,-0.120684,-0.0924014,-0.0225975,0.0336311,0.0130804,0.0443643,-0.0256511,-0.0290815,-0.018216,-0.0262372,-0.036418,-0.0214949,-0.111784,-0.0285316,-0.00833585,-0.0333907,0.0215362,0.0309557,-0.0211161,0.0280027,0.0565467,0.0412512,-0.0305013,0.00774041,0.0257857,0.0635202,0.175142,-0.19921,-0.483989,-0.117489,-0.0245121,0.599365,-0.0251115,0.0725951,-0.0726886,-0.0140691,0.0855012,0.00483295,-0.0621384,-0.021441,-0.0780408,-0.0147918,-0.0188305,-0.0322184,0.00578672,-0.0615871,0.0788332,-0.0175801,0.00800007,0.0141765,0.0831288,0.0388471,0.0536752,-0.00233874,-0.0265798,-0.0444047,0.0116131,-0.268352,-0.448661,-0.422031,-0.120954,0.0212766,0.173326,0.0304667,-0.126108,0.0455826,-0.00759378,0.014947,0.0573638,-0.0162394,0.0291484,0.0772402,-0.0254236,-0.0681085,0.054958,-0.107835,-0.0661858,-0.0515437,-0.0850397,0.0546909,0.0943723,0.00353366,0.0108539,0.077692,0.0657666,0.066199,-0.100097,-0.456303,-0.412915,-1.75763,-0.640938,-0.112536,-0.158155,0.0295583,-0.0320105,0.0850385,0.135203,-0.0109272,0.0307021,-0.047541,-0.0241522,-0.0402997,0.0466803,-0.0174255,0.0943255,0.032702,0.0381645,-0.0396164,0.0186563,-0.0495064,-0.0178354,0.0256098,-0.0297058,0.0329463,0.107861,0.0710817,0.0918151,-0.096506,-0.213461,0.451656,-0.488135,0.575239,0.194481,0.188998,0.0246872,0.0212928,-0.0230784,0.0498135,0.0419638,0.053689,0.00481385,-0.0295522,-0.072479,-0.0291496,-0.0432188,-0.0261492,-0.0751315,0.0148466,-0.0337329,-0.0139194,-0.0890661,-0.00266733,-0.166917,-0.0592696,-0.0667298,-0.00482179,0.149755,0.360474,0.248178,0.699168,-0.349219,0.790308,0.0688507,-0.0418704,0.0921016,0.0289653,-0.0393919,-0.0779701,-0.0180179,0.0402184,0.0345584,-0.00707773,-0.0675074,0.0244129,0.0955605,-0.0250176,-0.0208325,-0.0411759,-0.0462488,-0.0818734,-0.0278844,-0.0563495,-0.045622,-0.0583306,0.0092203,0.017693,-0.0649135,-0.129668,-0.0826947,-0.727409,-0.225719,0.201953,0.420286,0.150243,0.118821,0.114417,0.047015,-0.0297302,-0.0350814,-0.0637579,-0.0636177,0.0104587,0.0591787,0.0295646,-0.0615334,-0.0363091,-0.0202848,0.000670983,-0.0240294,0.0454084,-0.0442785,-0.0864851,0.00376603,0.0671809,-0.0488897,-0.158384,-0.139681,-0.172547,0.0927855,-0.314356,-1.01542,0.362378,0.078909,0.194836,0.169547,0.121904,0.0148347,-0.0350567,0.0412266,0.0162707,-0.02706,0.0797178,-0.0297468,0.127782,-0.0105693,0.0215678,-0.0831931,-0.0027932,0.0215444,-0.00608448,0.0494769,-0.0381752,-0.0654703,-0.0474103,-0.042404,-0.00678306,0.115883,0.825621,0.548692,0.0583787,0.0187292,-0.0720326,0.0780958,0.00674208,0.629513,0.530012,0.0515248,0.0223254,0.160209,-0.0385693,-0.0433229,-0.083631,-0.0507163,0.0373981,-0.0131252,-0.0673493,0.0642648,0.0157642,0.0933576,0.0370973,0.0996298,0.0134019,0.0404112,0.0793919,0.106464,0.0812065,0.0280725,0.187799,0.192355,0.877622,0.212221,0.210754,0.221764,0.0364758,-0.0862875,0.363816,0.329597,0.110118,-0.052338,0.0168377,-0.0822742,0.00773814,-0.0125229,0.0467862,0.261133,-0.140308,-0.0559018,0.0492658,0.0162718,0.0485632,0.156367,-0.214744,-0.342611,0.217991,-0.355033,0.0403322,-0.835072,-1.40202,4.12365,0.407768,0.0162238,0.577708,0.263702,-0.0424978,-0.102122,-0.0173165,0.126246,0.193344,0.0478331,-0.0473054,-0.0786408,-0.167919,-0.0564812,-0.0673347,-0.0740345,-0.109571,-0.134655,-0.0612847,-0.0468574,0.0677015,-0.0636874,-0.078704,0.010873,0.156544,0.661834,0.877749,0.592214,0.963979,1.05881,-1.2422,-0.402183,0.203325,0.314644,-0.0444478,-0.111846,-0.0918223,0.0548085,-0.0176861,-0.0684294,-0.0969717,-0.144691,-0.10393,-0.135147,-0.115217,-0.0400041,-0.0514802,-0.0879846,-0.189451,-0.0916938,-0.071543,-0.0632286,0.066206,0.0568521,0.155429,0.0591868,-0.0840274,-0.235597,0.134618,-0.0223435,-0.753612,0.438738,0.51081,-0.0305909,0.0084598,-0.0504942,-0.0292089,0.134477,0.146393,-0.0201876,-0.00753115,0.000246203,-0.0639544,-0.144074,-0.103002,-0.132576,-0.124081,-0.135314,-0.0316495,0.0338659,-0.0277589,-0.00149415,0.0275472,-0.00399526,0.0394641,0.0616931,-0.000975598,0.142798,-0.09574,-0.225204,-0.40558,-0.381038,0.041633,-0.0857555,0.121494,0.114183,0.0910994,0.0017033,-0.0700398,-0.14561,-0.106879,-0.0403702,-0.141507,-0.169976,-0.114585,-0.0388361,-0.031545,0.00926813,-0.011593,0.0214068,-0.134766,-0.0765684,0.0872885,0.0626727,0.134225,0.053863,0.0161209,-0.0547959,0.0180731,0.219507,-0.405585,-0.376728,-0.206844,0.136225,0.000128777,-0.296523,-0.214452,-0.209469,-0.122285,-0.153379,-0.0136298,-0.101772,-0.0423255,-0.129256,0.0106255,0.0378766,0.0786538,0.0807192,-0.0473196,0.00878587,-0.0366161,0.0322156,-0.0693269,-0.0281248,-0.0568825,0.0643706,0.131111,0.0213238,-0.0781812,-0.386624,-0.921487,-0.0618918,-0.308769,-0.352783,-0.0122085,-0.0998317,0.052132,0.0644354,0.0111073,0.00103203,-0.0113665,-0.0135977,0.020702,-0.0622726,-0.0721398,-0.0231909,-0.00581694,-0.0731963,0.012074,-0.00227145,-0.0286413,0.0066412,-0.121791,0.0897419,0.0555647,0.081514,-0.149868,-0.0940426,-0.0266844,-0.260748,-0.945643,-0.356714,0.23792,-0.27807,0.113123,-0.247625,-0.0936901,-0.00437256,-0.0439485,-0.0362574,-0.0566278,-0.00269964,-0.0536931,-0.0616226,0.0163817,-0.0688768,-0.132231,-0.0523239,0.0118337,-0.0538283,-0.0358864,-0.0217324,0.0121297,0.0296733,-0.020375,0.0607983,0.0638693,-0.0700967,-0.217062,-0.293136,-0.507669,-0.468333,-0.0202791,-0.00957513,0.00241683,-0.144304,-0.101621,-0.000814868,-0.0795381,-0.0878311,-0.0687811,-0.0518372,-0.125847,-0.0644454,-0.0851982,0.0190727,-0.094205,-0.00302965,-0.136715,-0.0178677,-0.0637194,-0.019336,-0.046817,0.0152075,-0.052721,-0.0449218,-0.0781069,-0.126994,-0.196779,-0.0387036,-0.214159,-0.280678,0.323921,0.0564306,0.231239,-0.0248403,-0.051459,-0.061713,-0.0956623,-0.180538,-0.102613,-0.0105075,-0.119326,0.00834007,0.0421678,0.0127086,-0.133268,0.0338575,-0.0134961,-0.0105416,-0.00675446,-0.0359074,-0.0189293,-0.0164188,-0.125861,-0.083693,-0.162221,-0.178574,-0.18285,-0.104438,-0.12485],
			"b":-2.21727
		},
		"neuron 10": {
			"w": [-0.000825453,-0.0219169,-0.247797,0.27807,-0.090103,-0.0138056,-0.113901,-0.0845124,-0.180032,-0.226714,-0.150314,-0.168918,-0.21077,-0.20155,-0.174782,-0.158156,-0.182328,-0.127382,-0.152781,-0.0223387,-0.0147588,0.00757567,0.222297,0.071264,0.364876,0.134855,0.413153,0.131247,0.120761,-1.11486,0.15473,0.916677,-0.0338017,0.055619,-0.119339,-0.0733633,-0.059738,-0.158542,-0.090091,-0.154067,-0.191149,-0.176277,-0.16599,-0.163116,-0.160653,-0.144214,-0.122827,-0.126661,-0.111159,-0.0886495,0.00925587,0.071566,0.0468098,0.12212,0.187487,0.331746,0.182505,0.99608,0.572804,0.416549,0.0002015,0.139281,-0.155947,-0.0782406,-0.0909781,-0.17749,-0.192324,-0.168712,-0.133736,-0.131232,-0.0793453,-0.047242,-0.0830888,-0.102395,-0.11726,-0.108335,-0.0757106,-0.150713,-0.113064,0.0683366,0.0226507,0.108003,0.0719873,0.0748692,0.346893,0.442931,0.568146,0.546108,0.3628,0.31667,0.142662,-0.315967,-0.0359884,-0.0699745,-0.10581,-0.192719,-0.108735,-0.15512,-0.17097,-0.071559,-0.1188,-0.159945,-0.0791375,0.00231121,-0.135544,-0.149602,-0.113239,-0.152274,-0.0767897,-0.0466517,-0.107309,-0.0500605,0.107744,0.0584673,0.322467,0.276352,0.603818,1.37077,0.745442,-0.567913,0.611395,-0.303619,-0.0279395,-0.0994589,-0.106683,-0.0715939,-0.127284,-0.0530007,-0.0843158,-0.0925947,-0.185531,-0.100297,-0.101919,-0.0933411,-0.106498,-0.0955818,-0.0610838,-0.103976,-0.0614066,-0.0535735,-0.0237875,-0.0243013,-0.00941942,0.0520806,0.364462,0.25133,0.554569,1.20363,1.0151,0.369431,0.101627,1.15279,0.150989,0.128079,0.041557,-0.0125978,-0.0198254,-0.0583933,-0.0566126,-0.0742228,0.00450517,-0.108191,-0.00979208,-0.0556642,-0.0838383,-0.105271,-0.0420069,-0.0760878,-0.0821639,-0.070293,0.00480896,-0.0398961,0.0842946,4.64601e-07,0.25262,0.345168,0.762872,0.50465,0.39818,0.827491,-0.0140171,1.2622,0.279203,0.213952,0.152315,0.129817,0.128581,-0.0816521,0.0203053,0.230937,-0.0354641,0.0503623,-0.0982681,-0.0339216,-0.0165157,-0.0662025,-0.0803952,-0.0446339,-0.0501859,-0.0596646,-0.0467086,0.0267694,-0.163643,0.13921,-0.184372,0.266759,0.64811,1.01861,0.644591,-0.652896,0.0844345,1.23445,0.616329,0.27132,0.270494,-0.0393146,0.0825123,-0.00178502,0.029125,-0.0652701,-0.0717158,-0.0211683,-0.0936622,0.0327453,-0.0613993,-0.0745508,-0.0237686,-0.0372172,-0.0983129,-0.201893,-0.0462954,0.0399533,0.0318819,0.165398,-0.0867119,0.17073,-0.140355,0.757009,1.09811,0.323716,0.0936273,1.46621,0.593301,0.38918,0.223327,0.244556,0.0703026,0.0059294,-0.0615375,-0.105292,-0.0802882,-0.0885768,-0.111933,-0.0943154,-0.0585345,-0.055206,-0.0696516,-0.0368553,-0.0740619,0.00814414,-0.108284,-0.0991047,-0.316599,0.349125,-0.13626,-0.0133019,0.215761,-0.0167096,0.600105,0.272653,0.232696,0.718079,-0.834942,0.00331312,0.0487858,-0.431597,-0.136162,-0.115823,-0.0801416,-0.0831884,0.0751789,-0.085802,-0.0773633,-0.0387347,-0.0531756,-0.040839,-0.115522,-0.0898699,-0.011659,-0.0262673,0.103153,-0.0987383,0.159369,-0.0377257,-0.00975031,-0.150593,-0.0120982,-0.598177,-1.21277,-0.369359,0.95856,-0.0542481,-0.170784,-0.118655,-0.279844,-0.0922512,-0.11608,-0.140129,-0.0605027,-0.0617827,-0.125751,0.0618267,-0.128043,-0.186249,-0.0814433,-0.195187,-0.0661361,-0.343993,-0.143919,-0.301623,-0.283735,-0.12032,-0.0354727,-0.289481,-0.19751,-0.740747,-0.702634,-2.67334,2.10314,-0.109632,0.454954,1.53709,0.257176,0.140176,0.215178,0.24752,0.267521,0.335594,0.0545805,0.130181,0.0115514,-0.0363725,0.0468789,-0.135018,-0.167015,-0.0669654,-0.17624,-0.196867,-0.149219,-0.209426,-0.110182,-0.205484,-0.227347,-0.241029,-0.144625,-0.123823,-1.04399,-0.99757,-1.74102,-0.690292,0.0161484,1.38762,0.345223,0.173555,0.108309,0.204227,0.0252193,0.0792623,0.554442,0.00103662,0.0812026,0.119133,0.0972507,-0.000197505,0.0719399,0.0288077,-0.113788,0.0214411,-0.176288,-0.0871292,-0.113171,-0.121968,-0.265094,-0.297148,-0.404927,-0.488726,-0.285979,-1.58569,-2.06711,-0.899359,-0.0951711,1.43386,0.334241,0.441817,0.197771,0.0828087,0.0924609,0.015764,0.12151,0.439695,0.343316,0.00621782,-0.0360002,0.148642,-0.0145008,-0.0159833,-0.0202101,-0.0805944,-0.0490349,-0.0508941,-0.158283,-0.0578036,-0.166226,-0.312768,-0.203136,-0.0720893,-0.818179,-1.57696,-1.71519,-0.496021,-0.0185883,1.59893,0.089116,0.569511,0.251994,0.0657842,0.120327,0.131698,0.0835757,-0.142149,0.138466,0.0797514,0.0200291,0.0272332,0.057761,-0.0380522,-0.0579934,-0.0235233,-0.0464223,-0.0787989,-0.0745748,-0.0263547,-0.125139,-0.0366393,-0.249545,-0.233564,-0.738965,-1.07753,-1.17371,-1.23513,0.256442,1.27618,-0.224418,0.41505,0.108286,0.119427,0.0548169,-0.0306578,0.12093,0.16639,0.0578136,0.445446,0.0853133,-0.142956,-0.0539773,-0.0258174,0.0278641,-0.0568301,-0.0334429,-0.015973,-0.127486,-0.0519878,-0.0788813,0.0428066,-0.318314,-0.0610745,-0.416026,-1.02009,-1.19584,-2.41266,0.243856,0.0164488,0.119915,0.34749,-0.0372325,0.232601,0.128427,0.122332,0.134837,0.0446177,0.133535,0.0302555,0.0479191,0.172669,-0.0549501,-0.0953905,-0.0459705,-0.0287999,-0.0760487,-0.16196,0.00463351,-0.03537,-0.0668232,-0.195026,-0.164106,-0.189599,-0.36322,-1.04422,-0.919501,-1.70094,-0.0416508,0.360438,-0.119266,0.321859,-0.0685593,0.253141,0.0976443,0.0988553,0.09273,0.0510398,0.0360786,0.047658,-0.0410623,0.0834331,0.0504881,-0.0295921,-0.00246907,-0.0222973,-0.0488136,-0.0456826,-0.0667577,-0.0725413,-0.110728,-0.12971,-0.270542,-0.29141,-0.310674,-0.728868,-1.06981,-0.779911,-0.175089,2.08243,-0.460157,0.115408,-0.0741475,0.110398,-0.0851834,0.0355928,0.0186137,0.0109596,-0.00845862,0.0609413,-0.0663247,0.0774902,-0.00860524,0.039442,-0.121531,-0.150566,0.0477007,-0.0506365,-0.119992,-0.254842,-0.147165,-0.239782,-0.276112,-0.140426,-0.336249,-0.991071,-1.26835,-0.433442,-0.107597,2.05374,0.105285,0.536535,0.0495293,0.139054,-0.0264004,0.0840065,-0.0404413,0.0532025,-0.00216129,0.0349421,0.0102268,-0.039564,-0.0338158,-0.0277314,0.0513805,-0.0372476,-0.0523362,-0.144654,-0.151557,-0.231681,-0.236714,-0.290994,-0.289823,-0.135946,-0.529007,-0.934996,-1.26648,-0.642203],
			"b":-1.16439
		},
		"neuron 11": {
			"w": [0.0942278,0.605062,-0.0022777,0.164312,0.0356935,-0.00218242,-0.0106858,-0.03458,-0.102315,-0.0557502,-0.213628,-0.0164812,-0.107627,0.0257512,-0.0602332,0.0102506,-0.0810169,-0.00795832,-0.0389387,0.0666729,0.0879073,0.066285,0.0020011,0.0596956,-0.0703659,-0.052947,-0.369417,-0.833738,-0.727287,-0.985207,0.248466,0.874435,0.0816991,-0.100576,-0.0786264,-0.0659331,-0.0661564,-0.00965934,-0.0634498,-0.0423013,-0.0832864,-0.0804541,-0.120583,-0.0639566,-0.0018304,-0.0393633,0.0937509,-0.00395282,-0.00707068,-0.018407,0.0734793,0.0530164,0.0325664,0.023277,0.0242298,0.0636785,-0.193517,-0.716814,-0.985828,-0.869918,-0.135762,0.0930901,-0.135767,-0.115409,-0.184385,0.00290209,-0.0438788,-0.0402804,-0.104695,-0.00130342,-0.118472,-0.00631943,-0.0210263,-0.0729037,-0.0856916,-0.0309157,-0.0657686,0.0583191,0.0769057,0.0853123,-0.017253,0.0941768,0.130246,0.0919125,0.0488073,-0.0586878,-0.151379,-0.356046,-0.542765,-1.18096,-0.270995,-0.412104,-0.178243,-0.0997433,-0.034268,-0.110272,-0.0773773,-0.0854663,-0.0657046,0.0683782,-0.0181114,0.0329356,-0.0881378,0.00629335,-0.103331,-0.136801,-0.038562,-0.0564065,0.0126134,0.00906194,-0.00649382,-0.0884783,0.0599011,0.222873,0.0964014,0.0736361,-0.204713,-0.620442,-0.555116,-1.5689,0.150677,-0.0998117,-0.0721872,-0.148498,-0.227761,0.0278326,-0.101313,-0.0835621,-0.0111653,0.0583141,-0.112446,-0.0422343,-0.0673834,-0.0367836,-0.0860999,-0.0912352,-0.0694453,-0.158733,-0.0973566,-0.0531502,-0.00974512,-0.080871,0.0283579,0.0375827,0.221922,0.151224,0.122587,-0.182331,-0.806369,-0.0357861,0.0355814,0.688762,0.0683282,0.118443,0.0296074,-0.0180834,-0.0668815,-0.0738287,-0.00994973,-0.139797,-0.105186,-0.197386,-0.158851,-0.136028,-0.082608,-0.0802045,-0.0904113,-0.137069,-0.00327626,-0.0782979,-0.0971792,0.0302357,-0.0829951,0.00888786,0.0885113,0.0223527,0.0574326,-0.346054,-0.269062,-0.538035,0.216502,1.43459,0.10665,0.0494861,0.115302,-0.0317062,-0.0934939,-0.0589139,-0.0295246,0.0243439,0.00458652,0.0101732,-0.195932,-0.0904131,-0.0720599,-0.0874182,-0.13732,-0.1019,-0.104724,-0.0158324,-0.0180329,-0.00380574,-0.096658,0.105431,-0.273444,0.0638592,0.0686223,0.262702,0.7784,-0.823252,0.0483772,0.773295,0.773388,0.0201968,0.0170182,0.0155326,0.119786,0.00236697,0.0624751,-0.0522854,0.00768707,-0.0581242,-0.0557796,-0.107039,-0.0237769,-0.110951,-0.0621597,-0.140912,-0.0361048,-0.0348341,-0.0461414,-0.0613534,-0.0113594,-0.0204563,-0.232915,0.0113996,-0.286604,0.853196,1.32118,0.216186,-0.225115,0.83203,0.189432,0.0530615,0.0143261,0.0906881,0.0750699,0.0948294,-0.0105289,-0.0640876,0.0607797,0.037107,-0.0127548,-0.114265,-0.0497567,-0.11325,-0.0137234,-0.048464,0.0229522,-0.0417304,-0.0320071,0.0932076,-0.056952,-0.119009,0.000103673,0.214128,0.519611,1.93248,2.72888,0.494473,-0.642253,0.530331,0.27467,0.231697,0.396273,0.563885,0.245959,0.062848,0.181823,0.17367,0.0115582,0.013309,-0.0385861,0.0505465,-0.0118517,0.00517907,0.0596604,-0.0431816,-0.0620514,0.0122856,0.00415348,0.0142651,0.0432687,0.0381957,-0.129667,0.134422,0.158754,-0.140336,0.430695,1.30617,-0.453806,0.780661,0.114207,0.296391,0.296652,0.207655,0.316916,0.224841,0.211247,0.116686,0.0025343,-0.0935193,-0.14034,-0.0602432,-0.0208011,-0.2302,-0.290621,-0.133662,-0.183545,-0.0896659,0.173619,-0.196057,-0.191172,0.0491772,0.21857,1.17137,-0.327426,3.88093,3.61779,0.483008,-0.416912,0.680656,0.189416,0.206763,0.0563396,0.00663483,0.0942321,0.188196,-0.0518554,-0.0296597,0.000345817,-0.0247484,-0.00518072,0.0269682,-0.00267195,0.0394691,-0.0233993,0.0778526,0.0657417,-0.0456847,-0.0675742,-0.0924047,0.122276,-0.123292,-1.07868,-0.623035,-0.871242,-0.761663,-0.197565,0.136555,0.0195041,0.799761,0.761163,0.0810246,0.151641,-0.0987689,0.0825247,0.0361718,0.166677,-0.0970973,-0.0460964,0.0265252,-0.0706357,0.0056242,-0.0545962,-0.0205086,-0.0913327,-0.0193394,-0.0262067,0.00295697,-0.0102605,0.0308273,-0.143971,-0.0516572,0.111981,0.347373,0.0511844,-0.457821,-0.936636,-0.867905,0.522005,1.46196,0.165346,0.0522451,0.0193691,0.20345,0.0272659,0.0650272,0.0853007,0.0350313,-0.00630416,0.003435,-0.0863218,-0.0426538,-0.0878782,-0.122839,-0.168269,-0.00480772,0.079081,-0.0077994,-0.0307851,-0.0438968,0.00609728,0.0222859,-0.0640362,0.1112,-0.0451537,-0.76702,-0.792674,-0.223127,0.0584644,0.856538,0.320414,0.10962,-0.0372978,0.0235304,-0.0371611,0.0527691,-0.035635,-0.171543,-0.0744948,-0.132261,0.00890455,0.0102318,-0.0667371,-0.00204378,0.0359576,-0.042778,-0.0338782,0.0194355,-0.0606169,-0.00471878,0.000214368,0.141521,0.0656909,-0.109888,-0.130546,-0.447207,-0.545969,-0.587367,-0.621933,0.0839324,-0.178053,0.0461172,-0.159847,-0.0503648,-0.14248,-0.09118,-0.076573,0.0325392,-0.0618396,0.0643918,-0.0201118,-0.0518507,0.0343231,0.0458115,0.00683292,-0.0684806,-0.0178238,-0.00156582,-0.0509,0.0811095,0.0625484,-0.0572581,-0.0875474,-0.0629626,-0.188875,-0.568257,-0.691097,-2.13454,-0.640848,-0.428617,-0.357792,-0.137957,-0.0674306,0.0453257,-0.0124103,-0.0464043,-0.0138473,0.0179627,-0.0534511,-0.0361564,-0.0205626,0.10901,-0.049811,-0.0369075,0.0404474,-0.00122989,0.0287004,-0.00407415,-0.0649785,-0.00777285,0.00589932,-0.118954,-0.015525,-0.13857,-0.327896,-0.529666,-0.429427,-1.34659,-0.312623,0.549805,-0.112088,-0.0648919,-0.152573,-0.0302143,-0.0470862,-0.0576836,0.0612108,-0.0891487,0.0340265,0.0293614,-0.00625444,0.06078,-0.0165541,-0.0828449,-0.0370073,-0.0261504,0.0621495,-0.052155,0.0322234,-0.0367581,-0.107482,-0.0184147,-0.21379,-0.306119,-0.202135,-0.261933,-0.343807,-0.773062,0.200911,1.03052,-0.265961,0.0556266,-0.0373125,-0.0489838,-0.145494,-0.0222546,-0.033171,0.0510875,-0.0181045,-0.066632,-0.13958,-0.00720629,-0.049995,0.0473161,-0.0404196,0.0427076,-0.0310423,-0.0600714,-0.00366005,-0.0337857,-0.0802182,-0.0802186,-0.141188,-0.346814,-0.221351,-0.456607,-0.527255,-0.489341,-0.0649308,0.848294,0.0346768,0.0471615,-0.00547595,-0.039153,-0.0704394,-0.0289284,-0.0877151,-0.0897131,-0.0903587,-0.0131417,-0.0524328,-0.0151525,-0.00683731,-0.0888407,-0.0372886,0.00381843,-0.0846968,-0.0108818,-0.0915338,-0.0114931,-0.147462,-0.169073,-0.251111,-0.192837,-0.363583,-0.40558,-0.462999,-0.463893],
			"b":-2.53155
		},
		"neuron 12": {
			"w": [-0.396062,1.32375,0.105308,0.204595,-0.117501,0.113651,0.0687969,0.0934804,0.00253912,-0.00775846,0.0537014,-0.0205593,-0.0701827,-0.0284526,-0.123434,-0.0612834,-0.0738269,-0.112037,-0.147073,-0.122868,-0.126882,-0.118017,-0.155019,-0.0575902,0.0217151,-0.062149,0.18445,0.111694,0.0400101,-0.963629,-0.336722,1.59611,0.328316,0.0793707,0.0548373,-0.000355933,0.0202582,0.0221823,-0.0540359,-0.0486365,-0.149058,0.0230421,-0.00902408,-0.0581444,-0.104128,-0.00883244,-0.0605984,-0.129194,-0.0217872,-0.112525,-0.20043,-0.171295,-0.111204,-0.108474,-0.0316577,-0.178495,-0.0769619,0.322951,0.1676,-0.263946,-0.882831,1.43646,-0.666582,0.0324835,-0.0533821,0.0540139,0.127162,-0.0393489,-0.0263524,-0.0502713,-0.0505875,-0.0261667,-0.0523788,-0.140331,0.00618751,-0.0658963,-0.135584,-0.119368,-0.15982,-0.077727,-0.0813877,-0.240565,-0.1384,-0.251808,-0.166552,-0.0690388,0.0849456,0.175807,0.0797167,0.144249,-0.315009,0.94604,0.00132917,0.300169,0.0284109,0.0389972,-0.0516057,0.013376,-0.0596667,0.0820282,0.0312022,-0.0270506,-0.0513076,-0.105019,-0.0880957,-0.0469257,-0.0707131,-0.0213807,-0.171933,-0.172643,-0.119203,-0.0765596,-0.123488,-0.166421,-0.219602,-0.046361,0.0101267,0.393433,0.597116,-0.681894,-0.0147492,1.27909,-0.210614,0.184704,-0.106375,0.0211079,0.0103061,-0.140036,-0.0217458,0.0444376,0.0233016,0.0517786,-0.0096235,-0.0596267,-0.0346113,-0.0608033,0.000991714,-0.0812251,-0.0175298,-0.161933,-0.109153,-0.227662,-0.192584,-0.117853,-0.181998,-0.0770954,-0.0226362,0.216831,0.663186,-0.199662,0.235748,1.33288,0.195672,0.258507,0.152722,0.118723,0.0539578,0.0878308,0.0993028,-0.0658513,-0.038695,0.0375675,-0.00234586,0.013312,-0.0767188,-0.0995382,0.00840464,-0.0355499,0.0240736,-0.0679649,-0.150399,-0.107185,-0.218836,-0.120035,-0.10614,-0.212154,-0.0688693,0.556943,0.143745,-0.45146,-0.116589,1.51619,0.215287,0.142691,0.150723,-0.00537201,0.0467839,0.0522569,0.0367239,0.0547316,0.0872296,-0.00689706,-0.0272896,-0.0478149,-0.0460831,-0.0689933,-0.038172,-0.115095,-0.0419643,0.0336296,-0.0170015,-0.0542065,-0.134852,-0.132242,-0.0168245,-0.204613,-0.028088,-0.407829,-0.486299,-0.1136,0.294194,1.33167,0.4057,0.196186,0.292143,0.179675,-0.0427637,-0.00840231,-0.0986954,0.00756202,-0.0245616,-0.0198709,-0.0746921,-0.118732,-0.0286342,-0.122298,-0.0286857,-0.129273,-0.151085,-0.159479,-0.16298,-0.168492,-0.147549,-0.212478,-0.316239,-0.28275,-0.471825,-0.587386,-0.6554,-0.0755202,0.525674,1.25367,0.260676,0.309745,0.109624,0.252008,-0.117076,-0.114682,-0.128186,-0.0676333,-0.0579054,-0.0843966,-0.0900957,-0.171783,-0.225947,-0.112268,-0.132189,-0.0929253,-0.0628473,-0.144735,0.0540801,-0.29788,-0.0101191,-0.323211,-0.199948,-0.517884,-0.75341,-1.00542,-2.35704,-0.255447,0.632533,-0.687536,-0.0469325,-0.217283,-0.613894,-0.621985,-0.392829,-0.129651,-0.391511,-0.297069,-0.205704,-0.182167,-0.133687,-0.0975009,-0.141276,-0.195751,-0.0955074,-0.128082,-0.0860978,-0.188385,-0.0459209,-0.172273,-0.0946221,-0.233463,-0.026394,-0.273784,-0.294404,-0.608279,-1.38068,-1.33816,0.486706,-0.650365,-0.397029,-0.457266,-0.466716,-0.787625,-0.513317,-0.398273,-0.253396,-0.415273,-0.219152,-0.239195,-0.092084,-0.0368334,-0.0937259,0.0512571,-0.124365,0.114511,0.00241955,-0.258064,0.287979,-0.0560316,-0.145296,-0.0993627,-0.271999,-0.639889,-0.694329,-2.62712,-3.06697,-2.14747,0.73581,1.47534,0.114311,0.220065,0.206222,-0.0561563,-0.11576,-0.153971,-0.0302395,-0.0273483,-0.162743,-0.105409,-0.116934,-0.14052,-0.0963072,-0.0799656,-0.0997061,-0.0575365,-0.0173123,0.0112142,0.08711,0.0118649,0.229871,-0.225301,0.45721,-0.343916,-0.392824,-0.93527,-1.89156,-1.24972,0.319055,1.14868,0.531667,0.348467,0.1063,0.218335,0.127815,0.0834518,0.0516997,-0.0847,-0.0131575,-0.0500102,-0.0697606,-0.0607554,-0.0941597,-0.120025,-0.0733173,-0.0424546,-0.0436141,-0.0902676,-0.118955,-0.0521269,0.203931,0.0184281,0.308482,0.0963888,0.052705,-0.638487,-1.05957,-1.31827,0.0333226,1.40361,0.12583,0.182977,0.133158,0.0536595,0.0725995,0.0294338,0.00747629,-0.0741359,-0.205813,0.0370648,-0.142819,-0.0259975,-0.103222,-0.122521,-0.114784,-0.0220437,0.0206982,-0.0898151,-0.0424735,0.00443429,0.0621446,-0.015741,0.16205,0.36612,-0.160096,0.189249,-0.599495,-0.0305821,-0.0031331,1.28437,0.139189,0.24651,0.0496055,0.181522,0.23978,0.108878,0.0492449,-0.117387,0.0390755,-0.119599,-0.108054,-0.0824487,-0.11303,-0.00426621,-0.00966974,-0.0442749,0.0108617,-0.0513979,-0.0931468,-0.0644423,-0.0230115,0.167426,-0.109374,-0.113053,-0.119121,0.0877779,0.487584,-0.583288,0.0607493,1.02222,-0.161437,0.210817,0.0934661,0.0139909,0.0571362,0.0904398,-0.0856686,-0.0013048,-0.0563176,-0.0425662,-0.105642,0.0192994,-0.0726399,-0.162558,-0.0799584,-0.0240436,-0.0325059,-0.055703,-0.103348,-0.077054,0.00464616,0.0944089,-0.0375267,0.137598,-0.0517064,0.536196,0.94619,-0.899559,-0.760611,0.142675,-0.124578,0.206719,-0.0933444,-0.0338571,-0.0931978,-0.0924656,-0.101716,-0.0303807,-0.0405613,-0.107258,-0.162042,-0.0868195,-0.0946491,-0.0632555,-0.0930642,-0.152617,-0.117266,-0.0706661,-0.191042,-0.107746,-0.152899,-0.0233521,-0.104531,-0.00868788,0.140171,1.00691,0.99777,0.522268,-0.227346,1.33814,-0.000644546,0.198734,-0.116625,-0.076884,-0.0757813,-0.223128,-0.123455,-0.17216,-0.231523,-0.138063,-0.110197,-0.213026,-0.116768,-0.103541,-0.17414,-0.160629,-0.123913,-0.0625585,-0.0924296,-0.151872,-0.100137,-0.113572,0.254181,0.218124,0.433129,0.96603,1.20683,0.409464,0.504954,0.993851,0.178783,-0.123796,0.030545,-0.0847236,-0.110932,-0.179971,-0.127981,-0.21861,-0.169782,-0.0513807,-0.117755,-0.102613,-0.204997,-0.156748,-0.141004,-0.115415,-0.14652,-0.0730924,-0.150363,-0.073206,-0.0655487,-0.101522,-0.0676782,-0.0935152,-0.00628242,1.52428,1.83302,0.154703,0.521757,1.25075,0.0453727,0.433886,0.0248553,0.0588001,-0.0343937,-0.0486228,-0.0580739,-0.17445,0.0282347,-0.172565,-0.163863,-0.14199,-0.174923,-0.181201,-0.0416881,-0.135992,-0.0975343,-0.1574,-0.290149,-0.103848,-0.15096,-0.0416007,0.0214722,-0.216039,0.71882,1.57059,1.6814,0.353776],
			"b":-1.90461
		},
		"neuron 13": {
			"w": [-0.5449,-0.343311,-0.142469,0.0175951,-0.170073,-0.208044,-0.0347613,0.019614,-0.0878675,-0.0825223,-0.0627214,0.0731479,0.183749,0.0434126,0.0730062,0.0351042,-0.158885,-0.108428,-0.0336813,0.0142646,-0.0729214,0.0435647,0.234073,0.0123395,-0.00573558,0.0160853,-0.0563919,0.0363372,0.27448,0.256475,-0.106721,0.0676405,-0.0276618,0.226003,0.203496,-0.00147194,0.0248426,-0.0602635,-0.052373,0.033823,0.00657637,-0.0861662,-0.0320706,0.0317055,0.0643833,-0.0603699,0.063691,-0.0953684,0.0300039,0.0013862,0.0266925,0.0104343,0.146322,0.145659,-0.0371129,0.0076774,0.0888812,0.0725931,-0.0689915,0.0886983,-0.00992963,0.0298444,-0.388771,0.0626523,0.13017,0.063593,-0.0334794,-0.0580364,-0.0444,0.0152903,-0.0995983,0.03163,-0.0631383,-0.0611223,-0.206738,0.0902429,0.0630295,-0.0204343,-0.196031,-0.207192,-0.169111,0.0654514,0.0455239,-0.0388819,0.0534986,0.158353,0.078195,0.218623,-0.199245,-0.227677,-0.660529,-0.656627,-0.114236,-0.16313,0.146628,-0.00599644,0.0425577,-0.135646,0.09113,0.0916452,0.0360276,0.0290339,-0.120726,-0.0822223,-0.214664,-0.0293966,0.0290512,-0.0958303,-0.111859,-0.156482,-0.176133,0.018142,0.163455,0.116625,-0.0647369,-0.20122,-0.0131223,0.181112,-0.0345369,-0.000201853,-0.768539,-0.737808,0.101279,-0.0567528,0.127015,-0.210421,-0.118387,-0.148188,-0.120865,0.0166329,0.11821,0.00835924,0.0236403,0.0460207,-0.0263307,0.0512346,0.00890021,0.0878274,0.00458051,-0.0597397,0.131305,-0.0652681,-0.0112206,-0.36905,0.0347167,-0.074014,-0.110487,-0.0236316,-0.266011,-0.520762,-0.201985,-0.101914,0.0755876,-0.142711,-0.155726,0.0151533,-0.046354,-0.0710557,-0.294292,-0.115927,0.0533718,0.0908865,0.0715045,0.147501,-0.0119562,-0.057421,0.109882,0.0708241,0.107526,-0.0877723,-0.0934942,0.0400963,-0.0787464,-0.208771,0.0326507,-0.0289191,-0.181043,-0.385584,-0.57331,0.193434,-1.02884,0.0733996,0.096955,0.260001,-0.0308007,0.0324082,0.112022,-0.128678,-0.123529,-0.040643,-0.0212286,0.0618996,0.0125211,-0.18264,0.0476456,-0.126183,-0.016587,-0.0165617,-0.125665,-0.28535,-0.0894309,-0.0172512,-0.104476,-0.0411869,-0.488185,-0.420787,-0.0902602,-0.476884,-0.404945,-1.25316,0.92688,0.00398881,0.061083,-0.0606073,-0.133679,-0.247976,0.0110034,0.0152909,0.114677,0.0330414,-0.0765981,0.0394481,-0.158444,0.113555,0.0887849,-0.0654524,0.165162,0.152409,-0.105411,-0.165245,-0.0941247,-0.00708945,-0.119932,0.0369564,0.105562,0.106196,-0.506022,-0.7341,-2.14814,-0.00860703,1.01837,0.0288891,0.160724,-0.073998,0.000118417,-0.137887,0.302352,0.207543,0.0937101,-0.00439985,-0.0181959,-0.102431,0.0861637,0.0170875,-0.103829,-0.0761575,0.120061,-0.0544522,0.180899,0.16904,-0.131754,-0.0804372,-0.122254,-0.0712717,-0.590902,0.0335207,0.242328,-0.781362,-0.872111,-0.932161,1.54991,1.24682,0.53627,0.234767,0.393006,0.917973,0.702437,0.122757,0.144969,0.222017,0.129906,0.0331154,-0.0663348,-0.0879302,-0.268837,0.0154312,-0.0452068,-0.00655037,-0.0855854,0.0336856,-0.150399,-0.0795492,-0.400132,-0.319806,-0.306648,-0.195464,-0.0465535,-0.135955,-0.877738,-1.43315,2.36754,0.838355,0.560949,0.224903,1.26414,0.983171,0.155812,0.232845,0.2884,0.215763,-0.0451601,-0.0861119,0.00266969,-0.176258,-0.396743,-0.254665,-0.500159,-0.11553,-0.167914,-0.187111,0.191257,-0.652622,-0.567846,-0.557811,0.0810935,0.108186,1.01325,1.74891,1.95522,0.0265213,1.86638,0.275359,-0.114702,-0.116205,-0.0856421,-0.0396354,0.182931,0.254522,-0.244777,0.0334523,0.158747,-0.0334389,-0.0664112,-0.102631,-0.0997404,0.0333503,0.00613671,-0.0806419,-0.0891717,-0.360759,-0.0625493,0.000784175,0.135531,0.414952,0.592522,0.633562,1.06354,0.716545,0.695062,0.250784,0.728955,0.204172,-0.0160392,-0.0765558,-0.201212,-0.018299,-0.202414,-0.0676965,-0.27932,0.116046,-0.0468721,-0.232083,-0.000227463,-0.0117146,-0.162702,-0.00151748,0.0016566,-0.160933,-0.0227537,-0.0480787,-0.0792436,-0.0189047,-0.0723325,-0.14631,0.37751,0.374061,0.559691,0.694323,-0.0552844,0.869138,-0.437796,0.0904379,0.0949179,-0.00145188,-0.0373348,-0.0441361,-0.257287,-0.114063,-0.0487394,-0.0273171,0.0404777,-0.0531006,-0.182113,-0.164888,-0.3168,-0.116925,-0.22273,-0.0172853,-0.221361,0.119234,0.0546769,0.114701,-0.0204438,-0.127495,0.121637,0.038869,0.279007,0.659003,-0.117016,-0.452664,-0.794673,0.245016,0.00777835,-0.140531,-0.00552413,-0.0511214,-0.043869,-0.0586687,-0.102207,-0.312598,-0.107004,-0.399702,-0.163609,-0.129006,0.0902707,0.067132,0.0526731,-0.01576,-0.154427,0.00524283,0.111792,-0.0958593,-0.0112324,-0.188647,-0.220474,0.104255,0.233902,0.0116082,-0.530043,0.991227,-1.39852,-0.000686165,0.311185,0.0605503,0.290644,0.00109774,-0.00530805,-0.213104,-0.00679752,0.088805,0.163385,0.125328,-0.0636163,0.106317,0.00535975,0.0386042,-0.0370939,-0.0364125,0.00666112,0.00897412,-0.0317708,0.0399431,-0.157028,-0.0436455,-0.012003,0.138749,0.000845846,0.639505,0.563155,0.820478,-1.24273,1.17902,-0.0249874,0.287442,0.0543084,0.0711124,0.183905,0.0313845,0.0264402,0.00360441,0.0158743,-0.136352,-0.00530598,-0.19507,-0.121414,-0.0992197,-0.17431,-0.0737831,-0.0762717,-0.145886,0.00410153,0.0983683,0.00529032,-0.336922,-0.0764574,0.0394904,0.20548,0.85835,0.0963768,-0.476672,-0.411679,0.0273542,0.543334,-0.0251093,-0.0713723,-0.0785381,-0.0161496,-0.0488984,0.031478,0.00344841,-0.10228,0.00649465,-0.0847597,-0.00382612,-0.175034,-0.0975651,-0.00410964,-0.0462577,-0.0354469,-0.149479,-0.0433539,-0.00971989,0.0179076,-0.0719236,-0.225565,-0.16557,0.17335,0.0920502,-0.453083,-0.295826,-0.701433,0.220072,0.360894,0.700811,0.339542,0.0274663,-0.0710264,-0.00575243,0.0141268,-0.0864673,-0.199401,-0.123448,-0.357748,-0.135766,-0.0225086,-0.117299,-0.0618691,-0.0130159,0.0140442,-0.00557642,-0.072856,-0.123942,0.0419043,-0.134515,-0.193628,0.0247756,0.297235,0.227123,-0.461045,-0.0736484,-1.28918,0.239118,-0.0884253,0.0394461,0.168434,0.22064,-0.0813737,-0.0611185,-0.0484075,0.0663593,-0.154483,-0.206991,-0.0111369,-0.0480207,-0.146574,0.0396116,0.00527741,0.0929596,-0.135394,-0.0801028,-0.0847424,-0.0847748,-0.070032,-0.0189432,-0.022097,0.0178526,-0.111696,-0.112922,-0.365572,-0.233123],
			"b":-0.327648
		},
		"neuron 14": {
			"w": [-0.307079,-0.314968,-0.122482,-0.092581,-0.17104,-0.0514758,-0.0647994,-0.0766983,-0.204257,-0.111978,-0.163779,-0.149497,-0.103892,-0.0164861,0.0426723,-0.0324414,-0.172833,-0.120532,-0.0145293,0.0344064,0.0191929,-0.0327535,0.0419295,0.0406484,0.187507,0.178567,0.300432,0.164508,0.0158099,0.207887,-0.26514,-0.382594,-0.389355,0.0337497,0.0103706,-0.135938,-0.0171554,-0.0542118,-0.046416,0.00656188,-0.016837,-0.0637301,-0.0494097,-0.0948652,-0.0334198,0.00891099,0.0843166,-0.0430731,0.000341182,-0.140425,-0.0369994,0.150424,0.0936937,-0.0280078,0.148903,0.0603171,-0.024123,0.289997,0.420644,-0.44653,0.0141088,-0.848907,-0.178567,-0.314544,-0.0912751,0.0404393,-0.0640305,0.00950285,-0.195021,-0.109534,-0.13249,-0.147578,-0.0568742,-0.109801,-0.100517,-0.056519,-0.0391742,-0.022857,0.0667019,0.0463746,-0.0816736,-0.0212591,0.0573057,-0.0230436,0.313902,0.403964,-0.0743162,0.227897,0.17455,-1.49842,-0.322601,-0.199559,-0.231788,-0.108251,-0.0329432,-0.288842,-0.00464639,-0.0817992,0.00435273,0.00130347,0.0137107,0.125187,-0.201784,-0.0216739,-0.0296765,-0.027939,-0.0531452,-0.0121522,0.0827026,0.124744,-0.100125,0.108334,0.0231842,0.144259,0.0339008,0.0588374,0.20601,0.478797,0.225835,0.337619,-1.04419,-0.946223,0.612429,-0.334555,-0.200358,-0.114062,-0.0049363,0.0848016,-0.0936627,0.021442,-0.00432068,0.138593,-0.184308,-0.0444304,-0.150424,-0.0372961,0.0232092,-0.0804089,-0.0650685,0.0615194,0.0230707,-0.0118583,0.030129,0.0695743,0.19078,0.174172,0.0549902,0.547586,0.52446,-1.1997,-0.0902936,-0.432867,0.12918,-0.171792,-0.0319966,-0.0861676,-0.0219365,-0.0286504,-0.0177631,0.0831713,-0.022881,0.0292664,-0.0188442,-0.0371423,0.0266104,0.0487992,-0.0701909,-0.0667563,0.0111112,-0.0569004,0.046427,-0.0460741,0.138995,0.144631,0.151153,0.186698,0.485758,0.26448,0.158809,-2.09435,-0.735594,-0.728999,-0.124058,-0.086215,-0.0994483,-0.0431067,-0.024874,-0.0990203,0.0585119,0.0998663,-0.0218967,-0.090537,0.000260607,0.0580531,-0.0385325,-0.0972612,-0.0083382,-0.0326787,-0.0137343,0.0733749,-0.0354004,-0.0143997,-0.00471429,0.0334979,-0.133047,-0.0151778,0.464898,0.204783,0.127677,-1.89047,-1.60298,-0.379352,-0.370686,-0.167853,0.144516,0.077293,-0.0408145,-0.00969788,0.151353,0.0405037,0.149255,-0.0297707,-0.00458146,0.0414362,0.104303,-0.0283516,0.0688395,-0.0209226,-0.0950646,-0.0924099,0.0549221,-0.106535,-0.0320029,0.13193,-0.115751,0.273438,0.361347,-0.0474182,-0.205805,-0.866369,-0.520102,-0.556667,0.0602773,-0.0237811,-0.0103537,-0.132239,0.0296067,0.0177975,0.0492713,0.0488945,0.0296537,-0.11052,-0.0565701,0.0737818,-0.0964245,0.0075305,0.0131476,-0.0232681,0.00631894,-0.00473905,-0.107946,0.0960665,-0.233511,0.0542208,-0.222407,-0.145772,0.0775886,-0.129793,0.808272,-1.26526,1.07615,-0.225836,-0.21766,-0.0967568,-0.257703,0.160405,-0.100673,0.0345138,0.166661,0.132577,0.0289365,0.0115441,0.0608393,0.141972,-0.017377,-0.0397522,0.0259774,-0.0270362,-0.100624,0.119668,0.0401018,-0.0253023,-0.219471,-0.0691751,-0.00743313,0.00853321,0.109253,0.35648,0.00594882,-0.691159,1.39696,0.295988,-0.0737996,0.0222433,0.271188,0.221652,0.182317,0.0708981,0.282264,0.0324099,-0.086084,-0.0400288,0.120109,-0.139433,-0.0612645,0.281028,-0.0640692,0.215907,0.167744,-0.0563318,0.161877,-0.0454341,0.0684679,-0.107765,-0.164881,0.448316,1.34459,-0.757006,-1.52864,0.260849,0.65509,-0.420864,0.0718756,-0.0705541,0.113038,0.205303,0.215309,0.206784,-0.0981813,0.126196,0.168608,0.105252,-0.0401626,0.0800952,0.156044,0.0680453,0.116281,0.126508,0.109511,-0.00739516,0.147027,0.157715,0.294437,-0.0584222,-0.281699,-0.234133,-0.314131,-0.793447,-0.971672,1.35559,0.333758,-0.0058326,-0.379231,-0.16358,0.0715348,-0.0118149,-0.0289326,-0.012919,0.0404124,0.00793261,0.0586156,-0.0207795,0.103717,0.0642592,-0.0225652,0.0570556,0.203233,0.148943,0.0859254,0.162435,0.0372489,0.0690121,0.127468,-0.0534939,-0.121307,-0.289112,-0.0711326,-0.698168,-0.466618,1.98152,0.0880074,-0.600689,-0.00650569,-5.33281e-05,-0.0485129,-0.0056539,-0.1361,0.00557776,-0.0152292,0.254544,0.169933,-0.0581136,-0.262081,-0.100439,0.0817388,0.170679,0.145888,0.116193,0.00269534,0.0605843,0.00772984,0.0202369,-0.0222683,-0.189693,-0.0123131,-0.180125,-0.28316,-0.397604,-0.187329,1.5255,-1.10435,-0.140672,-0.0346132,-0.192496,0.0415707,0.043865,-0.0407152,-0.0585394,-0.0569506,-0.0472615,0.112624,-0.335867,-0.0381392,-0.00742691,-0.0808652,-0.0318086,0.0564864,-0.0690534,-0.0724403,-0.00884292,-0.0403034,-0.0266372,0.0263883,0.0214641,-0.0432751,0.0839599,0.0811161,-0.355381,-0.685708,0.945124,-2.29826,0.343375,-0.483882,-0.0522775,0.0384707,0.0264894,-0.21822,-0.140841,-0.131593,0.0584806,0.0182021,0.274024,0.104135,0.130974,0.0495209,-0.010999,-0.00876879,-0.15401,-0.0687197,0.0248596,-0.120309,3.23195e-05,0.0377879,0.18455,-0.211535,-0.150842,-0.158452,-0.885574,-0.475435,-0.0797627,-1.43229,0.334693,0.128269,0.0373559,0.11586,0.0468126,0.147732,0.130372,0.00291354,0.0590891,-0.129756,-0.0498021,0.00746715,-0.0733169,-0.0920842,0.108016,0.055419,0.0124599,-0.0355674,-0.0515155,-0.00115788,0.119325,0.0226963,0.028297,-0.140943,0.157132,0.0110513,-0.793407,-0.22037,-1.32063,-0.867225,-0.412433,-0.0104398,-0.109411,-0.0335236,-0.171383,0.0100016,-0.034939,0.161277,-0.0810813,-0.0612806,0.0718218,-0.0815357,-0.0136196,-0.0106299,0.0267059,-0.0219068,-0.126583,4.07098e-05,0.212685,0.0633842,0.104538,-0.0860916,0.0335096,-0.256764,-0.232352,-0.152292,-0.270244,-0.233438,-0.719477,-1.26394,-0.308637,-0.25752,0.285237,0.329474,0.0431015,0.0178511,-0.124047,0.0195364,0.115592,0.0062996,0.0468422,-0.217007,0.000143181,-0.0138195,-0.066909,0.0851738,0.132498,-0.272497,-0.0102976,0.00338309,-0.0304446,-0.129549,-0.126777,-0.0337102,-0.00207241,-0.210458,-0.439224,-0.25736,-0.450415,-1.2054,-0.409792,-0.265623,-0.0388196,0.0746998,0.0951584,0.0243407,0.00121983,-0.00870034,0.0418355,0.00532363,-0.0273873,0.0237206,0.025263,-0.0438138,-0.0479999,-0.175444,0.0319745,-0.226577,-0.0148045,0.0705612,-0.155058,-0.193395,-0.10122,-0.209139,-0.121954,-0.235062,-0.21759,-0.0368329,-0.0245775],
			"b":-0.274245
		},
		"neuron 15": {
			"w": [0.17291,0.798184,0.203317,0.419793,-0.102457,0.0705912,-0.127566,-0.335205,-0.180239,-0.109662,-0.155928,-0.134354,-0.135604,-0.194719,-0.0857351,-0.163707,-0.0809196,-0.173373,0.00903247,-0.124268,-0.184161,-0.068047,-0.259423,-0.142317,-0.114067,-0.143438,0.172165,1.00669,0.106737,-1.00923,-0.118218,0.855158,-0.170205,-0.267426,-0.0941111,-0.0542341,-0.132244,-0.236487,-0.187161,-0.191109,-0.158579,-0.122466,-0.145376,-0.033173,-0.143346,-0.0493839,-0.0436501,0.0194399,-0.0959933,-0.111607,-0.149128,-0.142146,-0.0385669,-0.16412,0.0207925,-0.0597541,-0.128281,0.77565,0.468929,-0.204538,0.161923,0.418265,-0.386499,-0.109965,-0.347213,-0.186288,-0.0625528,-0.191535,-0.146738,-0.111498,-0.163459,-0.108893,-0.00178679,-0.0947511,-0.126184,-0.112535,-0.189794,-0.0922652,-0.035775,-0.0974994,-0.0616873,0.106067,0.103262,-0.00396422,0.198065,0.22862,0.148361,0.145905,0.712081,-0.200994,-0.462675,-0.916209,-0.249237,-0.22463,-0.255448,-0.111591,-0.0111008,0.0891305,-0.0186578,-0.156607,0.00634257,0.0195162,-0.0722016,0.029873,-0.226241,-0.137223,-0.10618,-0.096694,-0.0844942,-0.0518184,-0.136246,-0.0486415,0.0520009,0.0427294,0.154912,0.0154449,0.217075,0.586427,0.0339642,0.101644,0.348259,0.0645448,-0.177666,0.0026554,-0.278908,0.0904308,-0.178018,-0.154652,-0.0985454,0.0347095,-0.126593,0.271933,-0.013007,-0.130398,-0.10704,-0.100109,-0.128753,-0.11967,-0.159802,-0.10829,-0.110871,-0.0215941,0.0835466,0.168171,0.0041254,0.216782,0.289508,0.20667,0.638048,0.379116,-0.26501,0.769932,0.129493,0.369861,0.227598,-0.0152977,0.0540227,0.0604294,0.0358499,-0.155202,-0.105432,-0.0619414,-0.0991567,-0.0956273,-0.0605807,-0.0184104,-0.141493,-0.13365,-0.0946913,-0.111516,-0.0802994,-0.0412713,0.0389559,0.0365847,0.138436,0.0822063,0.312622,-0.0796299,-0.317897,0.765145,0.0511615,1.05611,0.128058,0.0348987,0.0289748,0.191513,0.0684817,-0.0770314,-0.0669226,0.215219,0.0238631,-0.0258023,-0.17603,0.0111981,-0.25828,-0.0259072,-0.0338574,-0.0493842,-0.0448337,-0.0172484,-0.165523,-0.0467074,0.034345,-0.0276134,-0.16106,-0.00367833,0.149785,-0.265492,-0.011869,-0.276776,0.166366,0.8025,0.568257,0.268966,0.0947692,0.180163,0.0754532,-0.104975,0.476258,0.0548309,0.0858715,0.0778924,0.0824966,-0.0485062,-0.0281256,0.0337873,0.0605977,-0.100558,0.00976853,0.00736304,-0.0753189,-0.00706322,-0.0913839,-0.0102727,0.112186,-0.0709684,0.22488,-0.51661,-0.659498,0.0763941,-0.457847,0.968742,0.335018,0.264341,0.0668015,0.131321,0.303181,0.278225,0.053308,-0.00964939,0.202451,0.0495957,0.0670712,0.0485904,0.0275015,0.0971627,-0.0372413,-0.0210143,-0.0571716,-0.0647841,0.0201082,-0.0547855,0.083224,-0.0985895,-0.00127194,-0.119307,-0.209318,-0.410071,-0.694727,-0.819379,-0.609769,0.939825,0.213873,0.0693073,0.95502,0.782605,0.432902,0.308561,0.268493,0.320046,0.252573,0.212995,0.0941574,0.0635403,0.00900345,-0.0192429,-0.0541352,-0.0682599,-0.0976418,-0.0765949,-0.05591,0.0194369,0.0734043,0.0446488,-0.169379,-0.353162,-0.221203,-0.00499411,-0.52702,-1.33443,0.435539,0.838954,0.443664,0.207044,0.359038,0.717741,0.386642,0.209587,0.350663,0.248824,0.229801,0.0846754,0.130055,0.0373244,-0.196752,-0.0548461,-0.131873,0.0580852,0.00631975,-0.0983675,-0.00798354,-0.394116,-0.283162,-0.0484786,-0.177083,-0.202146,-0.298043,-0.92316,-2.58312,-0.725197,-0.611612,0.853421,0.290128,0.25144,0.166334,0.0559304,0.169854,0.261155,0.0270603,0.107069,-0.0876214,-0.00559996,-0.0149079,0.0272025,-0.0407698,-0.00295256,-0.0573265,-0.0140168,0.0264085,-0.0278058,0.0481711,-0.0324979,0.0599343,-0.270202,0.0446196,-0.468962,-0.76786,-0.612283,-1.37722,-0.632938,-0.327763,0.905214,0.532062,0.0742635,-0.00421386,0.126542,0.014595,0.0426943,0.11424,-0.0764995,0.0101107,0.0450478,-0.0400076,-0.169516,-0.077357,0.00257533,-0.0837036,0.0372988,-0.00312024,0.0299765,0.0173849,0.00958197,0.0414874,0.0685332,-0.128501,-0.181836,-0.0413491,-0.223757,-0.0812253,-0.388818,0.322676,0.991167,0.11003,0.176745,0.172928,0.0439646,0.086416,0.0041938,0.0177089,-0.0939546,-0.112335,-0.0800714,-0.0717312,-0.0489968,-0.0844156,-0.197359,-0.0550864,0.0228515,0.0271431,0.00552861,0.0414197,0.0173028,-0.0890556,-0.068004,-0.0554159,-0.00172317,-0.0517278,0.52711,0.16687,-0.32953,-0.412376,0.638415,0.13503,0.214977,0.1657,0.146528,0.0501664,-0.0214004,-0.201886,-0.157046,-0.17139,-0.0811137,0.00758831,-0.0380761,-0.121862,-0.0803554,-0.108873,0.0447048,-0.0302658,0.0492395,-0.00472663,-0.0999252,-0.0211764,0.0531945,-0.0669705,0.0688088,0.133632,0.431285,0.614751,-0.473356,0.0619997,0.390587,-0.263041,0.0926675,-0.175969,-0.0381853,-0.129519,-0.203871,-0.181282,0.0121278,-0.0283141,-0.0129367,-0.0868287,-0.0289038,-0.0611964,-0.0154256,-0.00724427,-0.109649,0.0884194,-0.0676486,0.028271,-0.0353587,-0.000801821,-0.016243,-0.0554289,0.0802889,0.0925957,0.465079,0.37693,-0.201876,0.236967,0.00477466,-0.167476,-0.190398,-0.0547332,-0.0773296,-0.0300613,0.0144702,0.0189066,0.0381569,-0.0365395,-0.0746636,0.0492414,0.0285618,-0.0275568,-0.124503,-0.048819,-0.125653,-0.0265998,-0.0100343,-0.02333,-0.0335913,0.0571471,0.106469,0.0169097,0.0647367,0.13404,0.22377,-0.00783906,0.231592,-0.478031,0.558603,-0.494765,-0.0510344,-0.0268403,0.00483612,0.0255661,-0.138086,-0.0691608,-0.108566,-0.0852503,-0.136911,-0.041848,-0.0632545,-0.151003,-0.103518,-0.065575,-0.0595403,-0.0546518,-0.0671221,-0.0413183,0.0203763,-0.0213022,0.0591183,0.195994,0.28365,0.103558,0.316936,0.053562,-0.275297,-0.486395,0.915201,-0.185327,-0.0641982,-0.106554,-0.0538766,-0.0973955,-0.0777878,-0.0944182,-0.0440553,-0.12301,-0.140992,-0.130465,-0.0903282,-0.105677,0.0514497,-0.0694096,-0.176505,-0.156371,-0.0368968,-0.107757,0.0253981,0.0471911,-0.155008,0.0318278,0.0762895,-0.0145163,0.10977,0.403693,-0.256039,0.0174001,1.01611,0.0104972,0.11309,-0.108547,-0.0612111,-0.0164852,-0.00723936,-0.0948115,-0.136553,-0.188655,-0.119306,-0.186527,-0.125178,-0.0598927,-0.116928,-0.14779,-0.137756,-0.109761,-0.122622,-0.0414501,-0.0424588,-0.121997,-0.0421053,-0.146752,-0.0013975,-0.137328,-0.257679,-0.0226081,0.207923],
			"b":-1.05224
		},
		"neuron 16": {
